<?xml version="1.0"?>
<opencv_storage>
<opencv_ml_svm>
  <format>3</format>
  <svmType>C_SVC</svmType>
  <kernel>
    <type>LINEAR</type></kernel>
  <C>1.</C>
  <term_criteria><iterations>100</iterations></term_criteria>
  <var_count>1000</var_count>
  <class_count>2</class_count>
  <class_labels type_id="opencv-matrix">
    <rows>2</rows>
    <cols>1</cols>
    <dt>i</dt>
    <data>
      -1 1</data></class_labels>
  <sv_total>1</sv_total>
  <support_vectors>
    <_>
      -4.68642125e-03 -1.19297700e-02 -2.04219036e-02 8.88000522e-03
      5.60016232e-03 1.14161568e-02 4.22359295e-02 1.97844468e-02
      3.50251258e-03 6.30223611e-03 3.37318517e-02 1.89912468e-02
      1.08671915e-02 -1.37477228e-02 7.35864881e-03 4.78557274e-02
      2.85936221e-02 -4.26375121e-02 -2.18437631e-02 -8.23339075e-03
      5.98338619e-03 3.12470086e-03 6.20303862e-02 7.69412564e-03
      -1.55336200e-03 -1.51570383e-02 2.75649391e-02 -1.13244290e-02
      9.82211716e-03 -1.27618080e-02 1.46862119e-02 -1.01912301e-05
      -2.95180418e-02 -3.28010879e-02 7.60681415e-03 3.54541675e-03
      5.25463419e-03 1.18766306e-03 5.71622476e-02 3.38300643e-03
      -2.46635675e-02 -5.21408953e-03 4.62251483e-03 1.45067379e-03
      -6.40627323e-03 8.98895226e-03 -1.35347852e-03 7.74903828e-03
      -3.58957262e-03 6.45502564e-03 -9.09611490e-03 -5.24226483e-03
      5.16187167e-03 -1.84368584e-02 -4.27118912e-02 1.12121068e-02
      -3.77928838e-02 -4.07190388e-03 -3.87313627e-02 -5.77228107e-02
      5.12484973e-03 1.24517391e-02 -3.37818009e-03 -2.63589970e-03
      -5.94978919e-03 1.50676686e-02 -8.70718900e-03 -7.68721476e-03
      1.41989952e-02 -2.65383720e-03 -5.07408148e-03 -3.45168598e-02
      2.95859333e-02 3.13328430e-02 4.53137793e-02 -8.04151874e-03
      -1.42294662e-02 -1.58426147e-02 2.16567959e-03 -9.45617072e-03
      -9.85113438e-04 3.71496044e-02 -2.32994746e-04 2.60401331e-02
      1.04796598e-02 -2.00000009e-03 6.16679387e-03 -2.43140385e-03
      2.42656376e-03 2.85337912e-03 -1.63711514e-02 -1.48799811e-02
      -3.23218293e-03 -3.54063362e-02 2.59209573e-02 -4.49152431e-03
      -3.77807592e-04 5.14479354e-03 1.27833962e-04 -6.55858815e-02
      -7.03489059e-04 3.61741930e-02 7.48850172e-03 -7.65337748e-03
      3.27297207e-03 6.13021757e-03 1.22277867e-02 -4.05278616e-02
      -5.87451458e-03 -1.75255851e-03 5.00049517e-02 9.20414284e-04
      4.90776598e-02 9.07337107e-03 -2.09286343e-02 2.45527457e-03
      -2.16770656e-02 -7.38974614e-03 2.35633459e-03 -3.03731058e-02
      7.31574977e-03 2.57227197e-02 6.23257505e-03 2.91160401e-03
      1.92058110e-03 -3.93868536e-02 -2.03312229e-04 -5.70548140e-03
      1.51782194e-02 -2.12308927e-03 -6.37425855e-03 4.85014822e-03
      2.88281217e-02 -2.46758033e-02 -1.65361352e-02 1.98117159e-02
      4.44480823e-03 3.05779674e-03 2.91588786e-03 -3.38221267e-02
      7.68925175e-02 5.26066031e-03 1.42243668e-03 -2.49472447e-02
      1.12639954e-02 -2.78984173e-03 -7.40034413e-03 -2.85599940e-02
      1.55311823e-03 -8.08996428e-03 2.66284542e-03 -5.47838164e-03
      -5.43662021e-03 7.32689798e-02 1.05700940e-02 2.28173030e-03
      -4.24218969e-03 -1.98902320e-02 3.88692156e-03 4.86486126e-03
      -8.96168000e-04 9.96132498e-04 -6.49520475e-03 -7.58695276e-03
      7.40611926e-03 -3.87476012e-03 1.26046604e-02 1.12478936e-03
      1.93282273e-02 1.39742997e-03 -5.14276605e-03 1.16790663e-02
      1.93112530e-03 1.13874730e-02 5.27123176e-03 -4.94150631e-03
      -9.73924343e-03 1.14081251e-02 -1.43813144e-04 1.83353014e-02
      -1.03999702e-02 -2.93974997e-03 7.13759614e-03 -2.15955097e-02
      4.04768111e-03 -4.07528458e-03 3.77349667e-02 -3.06386184e-02
      -3.62412515e-03 7.51096383e-03 -6.34333072e-03 -1.90574641e-03
      -7.11497990e-03 -5.31177875e-03 -1.09441699e-02 1.02820958e-03
      1.90443248e-02 -5.43246511e-03 1.56160099e-02 -2.56618159e-03
      -7.13353092e-03 -8.03146884e-03 3.98440240e-03 -2.14634575e-02
      9.27815121e-03 1.07365323e-03 2.59053009e-03 8.35285895e-03
      -7.03689177e-03 5.54022985e-03 1.88452043e-02 -8.44208151e-03
      4.50261533e-02 -3.01983561e-02 8.90315697e-03 -9.72882845e-03
      -2.72476058e-02 8.20941012e-03 2.36048009e-02 -1.01841465e-02
      3.09450086e-03 3.14524164e-03 -9.70420078e-04 1.93399359e-02
      -1.40316430e-02 9.51128663e-04 4.08085398e-02 1.96805410e-02
      5.03480295e-03 -2.62504220e-02 1.81222130e-02 -8.20577051e-03
      -1.55175186e-03 7.45615980e-04 -1.08635398e-02 2.28692945e-02
      -3.12723336e-03 1.14908163e-02 8.43473710e-03 3.75924027e-03
      -8.27533845e-03 6.19913125e-03 5.64487185e-03 4.10024496e-03
      3.05671850e-03 5.12369070e-03 -5.47302663e-02 1.30228000e-02
      -7.17887469e-03 -1.93457690e-03 6.48624613e-04 4.58716089e-03
      -5.79570374e-03 8.42468161e-03 -2.11117435e-02 6.42508641e-03
      -2.24719103e-03 -1.34071093e-02 2.05700099e-02 1.55747496e-02
      -2.27167550e-02 5.86564140e-03 -4.21140669e-03 1.02870713e-03
      -7.87671749e-03 -7.31756445e-03 1.17609268e-02 4.16719168e-03
      -2.03048624e-02 6.64874818e-03 2.21729372e-02 -6.90882504e-02
      -1.77576821e-02 1.98684298e-02 1.31050702e-02 7.74410181e-03
      -1.40502565e-02 -4.10601217e-03 3.42678316e-02 2.50464436e-02
      -4.08307323e-03 -3.88843240e-04 2.92159384e-03 -1.61518753e-02
      -1.06249657e-03 7.67331198e-03 4.19851718e-03 -2.43488885e-02
      2.52390392e-02 -2.51902770e-02 2.70321015e-02 -2.09838804e-02
      8.04180838e-03 -1.73922963e-02 -4.43587126e-03 -6.18249457e-03
      9.32565052e-03 2.30518309e-03 2.48008152e-03 -1.72457378e-03
      1.74780022e-02 1.03453603e-02 -1.47873815e-02 -3.70375998e-02
      8.10096506e-03 1.13170559e-03 2.15982716e-03 -2.21857429e-02
      1.54880422e-06 -7.05624651e-03 3.85271315e-03 -1.54747823e-02
      -2.73275860e-02 -5.70531841e-03 -1.78362448e-02 -1.43853538e-02
      -3.12187505e-04 -9.66571830e-03 2.89896205e-02 4.83405450e-03
      2.21154094e-03 -3.62674333e-02 -2.23014201e-03 1.29220784e-02
      -6.46464247e-03 -3.58163305e-02 -1.51225016e-04 -4.40540463e-02
      -7.64920097e-03 -4.04680567e-03 8.28033499e-03 -1.03283795e-02
      3.63832451e-02 5.33648115e-03 1.41693139e-03 9.29276086e-03
      9.23042360e-04 -7.05458410e-03 -4.02037101e-03 -9.77545511e-03
      -3.58520239e-03 1.50170028e-02 1.35467360e-02 -9.57955327e-03
      1.92584808e-03 -5.38525498e-03 1.80514008e-02 -1.71613030e-03
      1.27235765e-03 -3.23062227e-03 3.15660685e-02 3.99862975e-02
      -5.91817265e-03 -5.32747246e-04 -2.70570326e-03 -7.51716690e-03
      1.99548323e-02 -1.00945141e-02 -1.69017166e-03 -5.21377800e-03
      3.22212838e-03 5.59044862e-03 5.75584546e-03 1.04959616e-02
      2.50057895e-02 2.69659441e-02 4.53609377e-02 3.94607373e-02
      5.08627330e-04 1.31896546e-03 2.06831656e-03 1.18476562e-02
      5.73910214e-03 -5.19056944e-03 6.94454415e-04 -1.88199803e-03
      -7.26231793e-03 4.12509441e-02 -9.55328345e-03 -2.70369668e-02
      1.45696877e-02 -3.12902057e-03 -1.67214312e-03 1.14268502e-02
      1.75190922e-02 -2.57597701e-03 -6.38204394e-04 -4.74117044e-03
      7.80431041e-03 -2.43317243e-02 1.35618793e-02 2.05273740e-04
      2.78401952e-02 -6.65147975e-03 1.82773527e-02 1.41314440e-03
      7.23479921e-03 1.18328426e-02 2.38247756e-02 1.00728543e-02
      2.68421089e-03 -1.90297347e-02 3.01618949e-02 -7.21996976e-03
      3.99464509e-04 1.12054013e-02 -3.47731896e-02 6.07236463e-04
      1.80756673e-02 -1.81520209e-02 -1.27429264e-02 3.97744142e-02
      5.86698987e-02 3.22146993e-03 2.07505422e-04 -1.46183884e-02
      -1.83687638e-02 -4.87820385e-03 1.35934306e-03 -3.71811306e-03
      6.46707742e-03 -1.76657387e-03 4.85985540e-03 -3.41757014e-03
      -7.13718496e-03 -2.49270201e-02 -1.86324939e-02 3.65304714e-03
      -1.04382858e-02 -1.32130110e-03 3.09605780e-03 2.18942855e-03
      2.68886015e-02 3.18245916e-03 -1.72912497e-02 4.87180613e-03
      1.72354504e-02 -2.85041542e-03 1.59693435e-02 3.62673332e-03
      -9.76584945e-03 -8.18710832e-05 8.01334996e-03 -1.64982062e-02
      3.66558228e-03 3.64374146e-02 -1.04291467e-02 -2.51013469e-02
      7.71801220e-04 -8.10963381e-03 7.17756338e-03 -1.20611377e-02
      -4.80117742e-03 -2.73972610e-03 7.04102824e-03 2.76962928e-02
      2.18257289e-02 -1.22997444e-02 -2.49648970e-02 1.13764210e-02
      4.97609098e-03 -9.63456184e-03 -6.13853894e-03 -1.44937905e-02
      4.30339715e-03 -3.14968312e-03 1.33113964e-02 7.40883797e-02
      -2.44659390e-02 -1.44161023e-02 1.09006446e-02 1.03766541e-03
      -1.59652010e-02 -2.92607839e-03 9.02301446e-03 -9.12487134e-03
      1.56953633e-02 -3.50172166e-03 9.10392217e-03 -3.05269787e-05
      2.48885509e-02 -3.83973261e-03 2.41078809e-02 -7.06721889e-03
      -1.65471081e-02 -1.23617752e-02 -4.03047688e-02 2.62445398e-02
      -5.95782604e-03 4.00977954e-02 -8.21365323e-03 6.13295194e-03
      1.50288744e-02 -3.44879963e-02 -5.51182926e-02 2.60043005e-03
      -5.10350056e-02 -1.29391309e-02 7.76709318e-02 9.11144260e-03
      3.12631368e-03 -4.47338540e-03 -2.79684924e-02 -4.65245359e-03
      2.55393540e-03 2.41235476e-02 -2.11333996e-03 9.80497804e-03
      -1.27093308e-03 1.03966007e-02 2.96618100e-02 -6.11255318e-03
      4.75860201e-03 -2.96165086e-02 3.58233601e-03 -4.78428975e-02
      -1.53279128e-02 -1.38006862e-02 -2.68634036e-02 -3.47326673e-03
      3.91895184e-03 2.21549231e-03 -1.90201141e-02 5.53644309e-03
      -5.46090351e-03 -1.21633662e-03 5.27329855e-02 4.82393103e-03
      6.77151233e-02 -2.98399385e-03 -3.66453119e-02 2.76023913e-02
      -6.26542605e-03 -1.71206929e-02 -1.29754376e-02 7.14698201e-03
      -2.20421050e-02 -8.51123966e-03 7.91700371e-03 3.50758396e-02
      -5.80514520e-02 -1.01282792e-02 1.81313814e-03 2.19457056e-02
      -1.10102762e-02 -6.26533199e-03 -5.06309718e-02 -3.52506340e-03
      1.05965370e-02 3.59168462e-02 1.05055990e-02 4.35842155e-03
      4.88376291e-03 3.71561036e-03 1.96368061e-02 -5.52597397e-04
      -3.14403772e-02 2.47666053e-02 1.47538502e-02 2.18390999e-03
      3.37404106e-03 -1.68540645e-02 -9.95966513e-03 4.38776007e-03
      1.07809668e-02 7.51881814e-03 -1.17679068e-03 -5.73051814e-03
      7.29389908e-03 3.55188944e-03 -5.60226385e-03 3.77417132e-02
      3.77480476e-03 4.72365320e-03 -2.76096584e-03 -1.59030431e-03
      7.62458378e-03 3.10855266e-03 -3.44917923e-03 -4.78468882e-03
      -4.31929454e-02 0. -1.33943267e-03 7.38554588e-03 -1.15539124e-02
      -6.97623864e-02 9.93116386e-03 1.92565434e-02 -4.25358973e-02
      3.77900433e-03 8.61676689e-03 -2.45744362e-04 8.28020554e-03
      1.78865883e-02 6.65434636e-03 -3.12062353e-02 1.01717534e-02
      -2.77014729e-03 6.92027761e-03 -8.83436669e-03 -1.98663701e-03
      8.99224076e-04 -2.43434701e-02 -5.99816721e-03 -1.57788978e-03
      -3.14859184e-03 -7.87083246e-03 8.57152231e-03 -1.49456384e-02
      -5.67409629e-03 1.46679692e-02 3.23988423e-02 -4.09608474e-03
      -1.76523079e-03 6.09840173e-03 8.77243932e-03 -5.91685297e-03
      5.50254108e-03 -8.16399325e-03 -1.21998787e-03 1.01486826e-02
      -5.08116512e-03 -2.52668448e-02 -2.70460155e-02 4.93565749e-04
      6.20960072e-03 -5.40322857e-03 9.66444984e-03 -7.72654021e-04
      1.04905879e-02 -8.23963806e-03 -7.13385595e-03 -2.79321540e-02
      1.39580574e-02 1.50652986e-03 5.74659614e-04 -3.77097651e-02
      -1.76073387e-02 1.32843181e-02 3.01394518e-03 -8.17679707e-03
      3.41388141e-03 1.96022578e-02 1.38914371e-02 1.41836433e-02
      -4.31154482e-03 1.85840726e-02 -8.14649320e-06 9.78920236e-03
      -4.18404496e-04 1.10662188e-02 2.88679590e-03 -9.06079728e-03
      -1.02291880e-02 6.10995432e-03 1.15882501e-03 3.83969932e-03
      5.34884864e-03 -6.46749837e-03 4.50522173e-03 -2.09974311e-02
      -1.31339661e-03 -8.59382562e-03 -6.81374921e-03 3.06699928e-02
      1.93769708e-02 2.16150060e-02 1.91685485e-05 -3.59661249e-03
      -3.34967230e-03 -1.76775474e-02 -3.26113869e-03 1.21758776e-02
      -2.05338816e-03 -6.59695966e-03 -4.04194550e-04 -3.78845911e-03
      -1.27517534e-02 -2.52747885e-03 5.61097683e-03 -1.59893446e-02
      -3.93946208e-02 -9.17745847e-03 -8.37612618e-03 -8.02014396e-03
      -1.82227995e-02 7.37325056e-03 1.27233798e-03 -1.38185662e-03
      -3.61901969e-02 2.16147909e-03 -4.20284504e-03 1.94989610e-02
      -5.96741699e-02 4.23060992e-04 3.49539816e-02 -7.77552137e-03
      -8.74659605e-03 2.35143281e-03 1.66223291e-02 4.04908806e-02
      -2.01179925e-03 -3.92750278e-03 -1.16984732e-02 2.75294320e-03
      3.32290726e-03 2.24579126e-03 -1.63556375e-02 -2.48369935e-04
      -3.90089932e-03 -1.89141883e-03 1.08168758e-02 -7.29456032e-03
      -6.11666916e-03 -7.91641418e-03 -1.21107148e-02 -7.03775673e-04
      -3.19944462e-03 3.81799191e-02 8.91784951e-03 -1.23081291e-02
      2.41870042e-02 -1.15733151e-03 -5.55212330e-03 1.51745342e-02
      1.45006832e-02 2.54939543e-03 -1.11811757e-02 -3.41068804e-02
      1.39507875e-02 7.15710828e-03 -1.64646748e-02 -5.06556081e-03
      1.54903140e-02 -2.60310480e-04 -7.94564839e-03 -1.78089214e-03
      -5.32535464e-03 3.75991152e-03 7.20869284e-03 8.64783116e-03
      2.03084480e-02 -2.18507601e-03 1.03496968e-05 3.71621288e-02
      -3.30033014e-03 7.19398819e-03 4.28034132e-03 1.42167090e-04
      -2.97556655e-03 1.74967910e-03 -5.69407782e-03 -5.79509996e-02
      -2.75255577e-03 2.83408281e-03 -4.73292135e-02 7.37505616e-04
      2.54732091e-02 3.04350555e-02 -3.66588659e-03 -2.39162166e-02
      1.76730391e-03 -9.51618776e-02 4.98787034e-04 1.32027059e-03
      -1.37677754e-03 -4.33178572e-03 -9.57102980e-03 -1.79867435e-03
      -2.28248052e-02 3.60278389e-03 0. -1.36499172e-02 -8.01794417e-03
      4.81873658e-03 -1.67183690e-02 -3.41296918e-03 -6.47754828e-03
      -8.46792851e-03 -1.07058957e-02 -1.26900291e-02 4.88851359e-03
      1.58266351e-02 -1.82006450e-03 2.70386785e-03 1.16904837e-03
      -7.68228546e-02 4.08314764e-02 5.94152883e-03 -7.32101919e-03
      -4.38381219e-03 -2.38663494e-03 2.36044545e-02 1.64501667e-02
      -4.71002702e-03 -1.59066338e-02 3.61325894e-03 6.53441390e-03
      1.37396413e-03 -3.07757617e-03 -1.50618795e-03 2.76028905e-02
      -6.24121400e-03 1.61920395e-02 -6.30484056e-03 -9.51428190e-02
      2.23644096e-02 4.34881920e-04 -5.37983782e-04 -6.22587837e-03
      8.47741496e-03 0. 7.99302198e-03 -2.48268666e-03 1.16505390e-02
      -1.02613715e-03 2.14132760e-03 -1.97680984e-02 -6.32796856e-03
      -9.76118259e-03 -1.78651232e-02 6.30525500e-03 1.19164474e-02
      1.39275065e-03 5.71077690e-03 -2.80311108e-02 -5.35416743e-03
      -1.28139155e-02 -4.46386402e-03 -1.25121800e-02 1.01434579e-02
      -4.29583667e-03 2.00034287e-02 -3.14155291e-03 -8.77374690e-03
      2.27147527e-03 1.40029797e-02 1.15011889e-03 4.84655518e-03
      -9.35337413e-03 -7.03488709e-03 4.38079461e-02 1.05129480e-02
      -8.80708266e-03 -2.37529702e-03 -1.86753329e-02 -4.04533446e-02
      -2.76922453e-02 1.36644626e-02 -3.29874153e-03 2.22401344e-03
      4.85539844e-04 3.68065457e-03 -2.83866487e-02 8.47368129e-03
      -6.37983158e-03 2.38464493e-02 9.90379229e-03 -1.61120202e-03
      2.76757358e-03 -1.18899206e-02 4.51642275e-03 -1.55992443e-02
      -3.41412914e-03 -3.67989903e-03 -1.63987540e-02 -1.73739821e-03
      -8.58969870e-04 1.14576041e-03 -3.74031975e-03 -5.47881937e-03
      -6.65515894e-03 1.29351877e-02 -3.92485335e-02 7.06734275e-03
      -9.94275883e-03 -1.98611943e-03 6.69783156e-04 -1.41961360e-02
      9.95850284e-03 2.29671523e-02 -1.16148209e-02 -7.46275159e-03
      -3.90168093e-03 2.39731837e-03 1.85584859e-03 -8.22131429e-03
      1.67687796e-02 -1.97636755e-03 -1.23231234e-02 -2.50217952e-02
      -5.68975974e-03 -2.51588486e-02 -5.04562026e-03 -1.26270507e-03
      -7.44323479e-03 3.46067944e-03 -1.65278546e-03 -9.11725499e-03
      1.85375996e-02 -9.42294579e-03 -2.15222090e-02 -2.94481870e-03
      -2.25692918e-03 9.42510366e-03 3.84469656e-03 4.35398892e-03
      1.62985157e-02 -4.50073630e-02 -4.32491675e-02 7.13653769e-03
      1.42872818e-02 1.08373947e-02 -1.38456831e-02 1.72178224e-02
      5.30975824e-03 -3.01942835e-03 6.20885112e-04 -2.45589633e-02
      1.83908432e-03 3.62371211e-03 -2.87858564e-02 -1.75737764e-03
      8.32232740e-03 6.71450282e-04 1.26924599e-02 -6.20540511e-03
      -2.51256279e-03 2.01193374e-02 -7.12938234e-03 -1.37722143e-03
      -2.64643203e-03 2.17196019e-03 -9.59798414e-03 2.54093460e-03
      2.43086182e-02 6.38651545e-04 5.00644445e-02 -2.35446095e-02
      -2.01874319e-02 6.12491975e-03 -5.94255608e-03 1.86208058e-02
      4.43195505e-03 7.44600501e-03 2.43306533e-03 2.66224910e-02
      1.90691613e-02 2.18077544e-02 -3.01044527e-03 8.60491209e-03
      -1.06848637e-03 -1.52395654e-03 -6.93470053e-03 7.39450241e-03
      -4.53218818e-03 1.83158182e-03 9.34396591e-03 7.79616786e-03
      2.60269884e-02 1.22719388e-02 1.23088602e-02 2.61920746e-02
      2.98455986e-03 -7.51261413e-03 1.28841668e-03 4.21481673e-03
      5.47744427e-03 5.99166565e-03 0. 2.06138305e-02 -2.83973687e-03
      5.09318821e-02 6.99819401e-02 -4.43592705e-02 -1.01043200e-02
      1.05653480e-02 6.92563830e-03 -5.85018890e-03 -1.02928723e-03
      -1.49859032e-02 5.06777642e-03 -4.62262984e-03 -1.85237192e-02
      -2.00000009e-03 -3.41160782e-02 1.39175830e-02 2.19224487e-02
      1.74016040e-02 1.35486722e-02 1.87909435e-02 -6.67855784e-04
      -2.47023418e-03 1.09462906e-02 -1.43631166e-02 1.78207774e-02
      2.74566561e-03 -1.12304068e-03 -3.25512961e-02 -2.26151291e-03</_></support_vectors>
  <uncompressed_sv_total>128</uncompressed_sv_total>
  <uncompressed_support_vectors>
    <_>
      0. 0. 4.49438207e-03 0. 0. 0. 1.79775283e-02 2.24719103e-03 0. 0.
      2.24719103e-03 0. 0. 0. 0. 2.24719103e-03 8.98876414e-03 0. 0. 0.
      4.49438207e-03 0. 4.49438207e-03 0. 0. 0. 0. 0. 0. 0. 0. 0.
      6.74157310e-03 2.24719103e-03 0. 0. 0. 2.24719103e-03
      4.49438207e-03 1.12359552e-02 0. 0. 0. 0. 0. 0. 0. 0. 0. 0. 0. 0.
      6.74157310e-03 0. 0. 0. 0. 0. 0. 2.24719103e-03 0. 0. 0. 0. 0. 0.
      0. 2.24719103e-03 0. 0. 0. 2.24719103e-03 0. 0. 0. 0.
      2.24719103e-03 0. 0. 0. 0. 0. 0. 2.24719103e-03 0. 0. 0. 0. 0. 0.
      2.24719103e-03 0. 0. 0. 4.49438207e-03 0. 0. 0. 0. 0. 0.
      2.24719103e-03 0. 0. 0. 0. 2.24719103e-03 2.24719103e-03 0. 0.
      4.94382009e-02 4.49438207e-03 0. 0. 4.49438207e-03 0.
      2.24719103e-03 0. 0. 6.74157310e-03 0. 8.98876414e-03 0. 0. 0. 0.
      0. 0. 0. 0. 0. 0. 0. 4.49438207e-03 2.24719103e-03 0. 0. 0. 0.
      2.24719103e-03 0. 4.49438207e-03 0. 2.24719103e-03 2.24719103e-03
      0. 2.24719103e-03 0. 0. 0. 0. 2.24719103e-03 2.24719103e-03
      4.49438207e-03 0. 0. 4.49438207e-03 2.24719103e-03 2.24719103e-03
      0. 0. 0. 2.24719103e-03 2.24719103e-03 2.24719103e-03 0.
      2.24719103e-03 0. 2.24719103e-03 0. 0. 4.49438207e-03 0.
      2.24719103e-03 0. 0. 2.24719103e-03 0. 0. 2.24719103e-03
      2.24719103e-03 4.49438207e-03 0. 0. 0. 0. 2.24719103e-03 0. 0. 0.
      0. 2.24719103e-03 0. 0. 0. 0. 6.74157310e-03 0. 0. 0.
      6.74157310e-03 0. 0. 0. 0. 0. 0. 0. 0. 0. 0. 0. 0. 0. 0. 0.
      8.98876414e-03 0. 0. 0. 0. 0. 0. 1.12359552e-02 0. 2.24719103e-03
      2.24719103e-03 2.24719103e-03 0. 0. 0. 0. 0. 4.49438207e-03 0. 0.
      0. 2.24719103e-03 0. 2.24719103e-02 2.24719103e-03 0.
      2.24719103e-03 0. 2.24719103e-03 0. 0. 0. 0. 2.24719103e-03 0. 0.
      0. 0. 0. 2.24719103e-03 2.24719103e-03 2.24719103e-03
      4.49438207e-03 0. 2.24719103e-03 2.24719103e-03 0. 0. 0. 0. 0. 0.
      0. 0. 4.49438207e-03 0. 0. 0. 0. 4.49438207e-03 6.74157310e-03 0.
      0. 0. 2.24719103e-03 0. 0. 4.49438207e-03 2.24719103e-03 0. 0. 0.
      4.49438207e-03 0. 0. 2.24719103e-03 0. 0. 0. 0. 0. 0. 0. 0. 0. 0.
      2.24719103e-03 2.24719103e-03 0. 0. 0. 0. 0. 0. 0. 0. 0. 0. 0. 0.
      0. 4.49438207e-03 0. 0. 0. 0. 0. 0. 0. 0. 0. 0. 0. 0.
      6.74157310e-03 0. 2.02247202e-02 0. 0. 0. 0. 0. 0. 4.49438207e-03
      0. 0. 6.74157310e-03 0. 0. 2.24719103e-03 0. 0. 0. 0.
      6.74157310e-03 0. 0. 0. 0. 0. 0. 0. 0. 0. 0. 0. 0. 2.24719103e-03
      0. 2.24719103e-03 8.98876414e-03 0. 0. 0. 0. 0. 0. 2.24719103e-03
      2.24719103e-03 0. 0. 2.24719103e-03 0. 0. 0. 0. 0. 4.49438207e-03
      0. 0. 2.24719103e-03 0. 0. 0. 6.74157310e-03 0. 4.49438207e-03 0.
      0. 0. 0. 0. 0. 0. 0. 2.24719103e-03 6.74157310e-03 0. 0. 0.
      4.49438207e-03 0. 0. 0. 0. 0. 0. 0. 0. 0. 0. 0. 0. 0.
      1.12359552e-02 0. 0. 0. 0. 0. 4.49438207e-03 0. 0. 0. 0. 0.
      2.24719103e-03 0. 2.24719103e-03 0. 4.49438207e-03 0. 0.
      2.24719103e-03 0. 0. 0. 0. 0. 2.24719103e-03 0. 0. 0. 0. 0. 0. 0.
      0. 0. 0. 0. 2.24719103e-03 0. 0. 0. 0. 0. 0. 2.24719103e-03 0. 0.
      2.24719103e-03 0. 2.24719103e-03 0. 0. 0. 0. 2.24719103e-03 0. 0.
      0. 0. 0. 6.74157310e-03 4.49438207e-03 0. 0. 8.98876414e-03 0. 0.
      0. 0. 6.74157310e-03 0. 0. 0. 2.24719103e-03 0. 0. 0.
      2.24719103e-03 2.24719103e-03 6.74157310e-03 0. 0. 0. 0.
      2.24719103e-03 0. 0. 0. 0. 0. 0. 0. 0. 0. 0. 0. 4.49438207e-03 0.
      0. 0. 0. 0. 0. 0. 0. 6.74157310e-03 2.24719103e-03 0.
      2.24719103e-03 0. 0. 0. 0. 0. 6.74157310e-03 2.24719103e-03
      2.24719103e-03 2.24719103e-03 0. 0. 8.98876414e-03 0. 0. 0.
      2.24719103e-03 0. 0. 0. 0. 0. 0. 0. 0. 0. 0. 0. 2.24719103e-03 0.
      0. 0. 0. 0. 6.74157310e-03 0. 0. 0. 0. 0. 0. 0. 0. 2.24719103e-03
      2.24719103e-03 0. 6.74157310e-03 0. 0. 0. 0. 0. 1.12359552e-02 0.
      0. 0. 0. 2.02247202e-02 0. 0. 0. 0. 0. 0. 0. 0. 0. 0. 0. 0. 0.
      2.24719103e-03 0. 0. 0. 0. 0. 2.24719103e-03 0. 2.24719103e-03
      2.24719103e-03 0. 0. 0. 4.49438207e-03 0. 0. 0. 0. 0.
      2.24719103e-03 2.24719103e-03 0. 0. 0. 0. 0. 0. 0. 0.
      4.49438207e-03 0. 0. 0. 4.49438207e-03 0. 0. 0. 0. 0. 0. 0.
      4.49438207e-03 0. 0. 0. 0. 2.24719103e-03 2.24719103e-03 0. 0. 0.
      0. 0. 0. 0. 0. 0. 0. 0. 0. 0. 0. 0. 0. 0. 0. 2.24719103e-03 0. 0.
      2.24719103e-03 0. 0. 0. 0. 0. 0. 0. 2.24719103e-03 0.
      6.74157310e-03 0. 0. 6.74157310e-03 0. 0. 2.24719103e-03
      2.24719103e-03 4.49438207e-03 0. 0. 0. 6.74157310e-03 0. 0.
      2.24719103e-03 0. 0. 0. 0. 0. 0. 0. 0. 0. 0. 0. 0. 0. 0. 0. 0. 0.
      0. 0. 0. 0. 0. 0. 0. 0. 0. 0. 0. 0. 0. 0. 0. 0. 0. 6.74157310e-03
      0. 0. 0. 0. 0. 0. 0. 0. 0. 0. 0. 4.49438207e-03 2.24719103e-03 0.
      0. 0. 0. 0. 0. 2.24719103e-03 0. 8.98876414e-03 0. 2.47191004e-02
      0. 0. 4.49438207e-03 0. 0. 0. 0. 0. 0. 2.24719103e-03 0. 0. 0.
      2.24719103e-03 0. 0. 0. 0. 0. 0. 0. 0. 0. 0. 2.24719103e-03 0. 0.
      0. 0. 0. 0. 0. 2.24719103e-03 4.49438207e-03 2.24719103e-03
      2.24719103e-03 0. 0. 0. 0. 0. 0. 0. 0. 0. 0. 0. 0. 0.
      4.49438207e-03 0. 0. 0. 0. 0. 2.24719103e-03 0. 1.12359552e-02 0.
      0. 0. 4.49438207e-03 0. 0. 0. 0. 0. 4.49438207e-03 0. 0. 0. 0.
      6.74157310e-03 0. 0. 0. 2.24719103e-03 0. 2.24719103e-03
      2.24719103e-03 0. 2.24719103e-03 0. 8.98876414e-03 0.
      2.24719103e-03 2.24719103e-03 0. 0. 0. 2.24719103e-03 0. 0. 0.
      6.74157310e-03 0. 0. 0. 0. 0. 2.69662924e-02 0. 0. 0. 0. 0. 0. 0.
      0. 0. 0. 2.24719103e-03 4.49438207e-03 0. 0. 0. 0. 0. 0. 0.
      4.49438207e-03 2.24719103e-03 0. 0. 0. 0. 2.24719103e-03
      4.49438207e-03 0. 0. 0. 0. 0. 0. 0. 0. 0. 0. 0. 2.24719103e-03 0.
      0. 0. 0. 0. 2.24719103e-03 0. 0. 2.24719103e-03 0. 0.
      4.49438207e-03 0. 0. 0. 2.24719103e-03 6.74157310e-03
      2.24719103e-03 2.24719103e-03 2.24719103e-03 0. 2.24719103e-03 0.
      0. 0. 0. 0. 4.49438207e-03 2.24719103e-03 0. 0. 0. 0. 0. 0. 0. 0.
      0. 2.24719103e-03 0. 0. 0. 0. 0. 0. 0. 2.24719103e-03 0. 0.
      2.24719103e-03 0. 0. 0. 0. 0. 0. 0. 2.24719103e-03 0. 0. 0.
      2.24719103e-03 4.49438207e-03 2.24719103e-03 0. 0. 0. 0.
      4.49438207e-03 0. 0. 0. 0. 2.24719103e-03 0. 0. 0. 0. 0. 0.
      1.34831462e-02 0. 0. 0. 0. 0. 0. 2.24719103e-03 0. 0. 0. 0. 0. 0.
      0. 0. 0. 0. 2.24719103e-03 0. 0. 0. 0. 0. 0. 0. 0.</_>
    <_>
      2.23713648e-03 2.23713648e-03 0. 0. 0. 0. 4.47427295e-03 0. 0. 0.
      4.47427295e-03 0. 0. 4.47427295e-03 0. 4.47427295e-03
      2.23713648e-03 4.47427295e-03 0. 0. 0. 0. 2.23713648e-03 0. 0. 0.
      0. 2.23713648e-03 0. 2.23713648e-03 0. 0. 0. 0. 0. 0. 0. 0.
      4.47427295e-03 1.11856824e-02 4.47427295e-03 0. 0. 0. 0. 0. 0. 0.
      0. 0. 0. 0. 2.23713648e-03 0. 0. 2.23713648e-03 0. 0. 0.
      1.56599544e-02 0. 0. 0. 0. 2.23713648e-03 0. 0. 0. 0. 0. 0.
      2.23713648e-03 2.23713648e-03 0. 0. 0. 2.23713648e-03 0. 0. 0. 0.
      0. 2.23713648e-03 4.47427295e-03 0. 0. 6.71140943e-03 0. 0. 0.
      2.90827751e-02 6.71140943e-03 0. 0. 0. 0. 0. 0. 0. 0.
      2.23713648e-03 0. 0. 2.23713648e-03 0. 0. 0. 2.23713648e-03 0. 0.
      3.13199088e-02 0. 2.23713648e-03 0. 1.56599544e-02 0.
      8.94854590e-03 0. 0. 0. 0. 1.11856824e-02 0. 0. 2.23713648e-03
      2.23713648e-03 0. 2.23713648e-03 0. 2.23713648e-03 0. 0. 0. 0. 0.
      2.23713648e-03 0. 0. 0. 2.23713648e-03 0. 6.71140943e-03 0. 0. 0.
      0. 0. 0. 0. 0. 0. 0. 2.23713648e-03 6.71140943e-03 0. 0.
      2.23713648e-03 0. 0. 0. 0. 0. 4.47427295e-03 0. 0. 0.
      4.47427295e-03 0. 0. 0. 0. 2.23713648e-03 0. 0. 0. 0.
      2.23713648e-03 0. 0. 4.47427295e-03 0. 0. 0. 0. 0. 0. 0. 0. 0. 0.
      0. 0. 0. 0. 0. 0. 0. 0. 0. 0. 0. 0. 0. 2.23713648e-03 0. 0. 0. 0.
      0. 2.23713648e-03 0. 0. 2.23713648e-03 0. 0. 0. 2.23713648e-03 0.
      4.47427295e-03 0. 0. 0. 0. 6.71140943e-03 0. 8.94854590e-03
      4.47427295e-03 0. 0. 0. 0. 0. 0. 8.94854590e-03 0. 0. 0. 0.
      2.23713648e-03 4.47427295e-03 0. 0. 0. 0. 0. 0. 0. 0. 0. 0. 0. 0.
      0. 0. 0. 2.23713648e-03 0. 0. 4.47427295e-03 0. 0. 0. 0. 0.
      2.23713648e-03 0. 0. 0. 2.23713648e-03 0. 0. 0. 0. 8.94854590e-03
      0. 0. 6.71140943e-03 0. 0. 0. 0. 0. 0. 2.23713648e-03
      2.23713648e-03 0. 0. 0. 4.47427295e-03 0. 0. 0. 0. 0. 0.
      2.23713648e-03 0. 0. 2.23713648e-03 2.23713648e-03 0. 0. 0.
      2.23713648e-03 0. 0. 0. 4.47427295e-03 0. 0. 0. 2.23713648e-03 0.
      0. 2.23713648e-03 0. 0. 2.23713648e-03 4.47427295e-03 0. 0. 0. 0.
      0. 0. 0. 2.23713648e-03 4.47427295e-03 0. 0. 0. 0. 1.78970918e-02
      0. 0. 0. 0. 0. 0. 8.94854590e-03 0. 0. 0. 0. 0. 0. 2.23713648e-03
      2.23713648e-03 2.23713648e-03 4.47427295e-03 2.23713648e-03 0. 0.
      0. 0. 0. 0. 2.23713648e-03 0. 0. 8.94854590e-03 0. 0. 0. 0. 0.
      4.47427295e-03 6.71140943e-03 0. 0. 0. 0. 0. 0. 0. 0. 0. 0. 0. 0.
      0. 0. 0. 2.23713648e-03 0. 0. 0. 0. 0. 0. 1.56599544e-02 0. 0. 0.
      0. 0. 0. 0. 0. 0. 0. 2.23713648e-03 8.94854590e-03 0. 0. 0.
      8.94854590e-03 0. 0. 0. 0. 2.23713648e-03 4.47427295e-03 0. 0. 0.
      6.71140943e-03 0. 0. 0. 4.47427295e-03 0. 0. 0. 0. 2.23713648e-03
      0. 0. 0. 0. 0. 0. 0. 0. 0. 0. 2.23713648e-03 0. 0. 0. 0. 0. 0. 0.
      2.23713648e-03 6.71140943e-03 0. 0. 0. 0. 0. 0. 0. 0.
      2.23713648e-03 0. 0. 0. 0. 0. 0. 0. 2.23713648e-03 0. 0. 0. 0. 0.
      0. 0. 0. 0. 0. 0. 2.23713648e-03 4.47427295e-03 0. 0. 0. 0.
      8.94854590e-03 2.23713648e-03 0. 0. 0. 0. 4.47427295e-03 0. 0.
      2.23713648e-03 2.23713648e-03 0. 0. 8.94854590e-03 0. 0.
      2.23713648e-03 0. 1.34228189e-02 0. 0. 0. 0. 2.23713648e-03 0. 0.
      0. 0. 0. 0. 0. 0. 0. 0. 0. 2.23713648e-03 6.71140943e-03 0.
      2.23713648e-03 0. 0. 0. 0. 0. 0. 6.71140943e-03 6.71140943e-03 0.
      0. 0. 2.23713648e-03 0. 0. 0. 2.23713648e-03 0. 0. 6.71140943e-03
      0. 4.47427295e-03 2.23713648e-03 0. 0. 0. 0. 0. 0. 0. 0. 0. 0.
      2.23713648e-03 0. 0. 0. 0. 2.23713648e-03 0. 0. 0. 0. 0. 0. 0. 0.
      0. 0. 0. 0. 0. 0. 0. 0. 4.47427295e-03 0. 0. 0. 4.47427295e-03 0.
      0. 1.11856824e-02 0. 0. 0. 0. 1.56599544e-02 0. 0. 0. 0. 0. 0. 0.
      2.23713648e-03 8.94854590e-03 0. 0. 0. 0. 0. 0. 0. 0. 0. 0.
      2.23713648e-03 0. 0. 2.23713648e-03 0. 0. 0. 2.23713648e-03 0. 0.
      0. 2.23713648e-03 0. 0. 0. 0. 2.23713648e-03 0. 2.23713648e-03 0.
      0. 0. 0. 4.47427295e-03 0. 0. 0. 0. 0. 0. 0. 2.23713648e-03 0. 0.
      0. 2.23713648e-03 0. 0. 0. 0. 2.23713648e-03 4.47427295e-03
      2.23713648e-03 0. 0. 0. 0. 0. 0. 0. 0. 0. 0. 0. 0. 0. 0. 0. 0.
      2.23713648e-03 0. 0. 0. 0. 0. 0. 2.23713648e-03 0. 0. 0. 0.
      1.34228189e-02 0. 0. 0. 0. 2.23713648e-03 0. 0. 8.94854590e-03 0.
      2.23713648e-03 0. 0. 4.47427295e-03 0. 2.23713648e-03 0. 0. 0. 0.
      0. 0. 0. 0. 2.23713648e-03 0. 0. 2.23713648e-03 0. 2.23713648e-03
      2.23713648e-03 0. 2.23713648e-03 0. 0. 0. 0. 0. 0. 0. 0. 0. 0. 0.
      0. 0. 0. 0. 0. 0. 0. 0. 4.47427295e-03 0. 0. 0. 0. 2.23713648e-03
      0. 0. 0. 0. 0. 2.23713648e-03 1.56599544e-02 0. 0. 0.
      4.47427295e-03 0. 0. 0. 0. 0. 2.68456377e-02 0. 1.56599544e-02 0.
      0. 0. 0. 0. 0. 0. 0. 0. 2.23713648e-03 0. 0. 0. 0. 0.
      2.23713648e-03 0. 0. 0. 0. 0. 0. 0. 0. 2.23713648e-03 0. 0. 0. 0.
      0. 0. 0. 0. 2.23713648e-03 4.47427295e-03 0. 0. 0. 0. 0. 0. 0. 0.
      2.23713648e-03 0. 0. 0. 0. 0. 0. 0. 0. 0. 0. 0. 6.71140943e-03 0.
      2.23713648e-03 0. 0. 0. 0. 0. 0. 0. 0. 0. 1.11856824e-02 0. 0. 0.
      0. 0. 2.23713648e-03 0. 0. 2.23713648e-03 0. 4.47427295e-03
      2.23713648e-03 0. 0. 0. 4.47427295e-03 0. 0. 2.23713648e-03 0. 0.
      0. 0. 0. 0. 0. 2.23713648e-03 0. 0. 0. 2.23713648e-03 0.
      2.90827751e-02 0. 0. 0. 0. 0. 0. 6.71140943e-03 0. 0. 0.
      2.23713648e-03 1.11856824e-02 2.23713648e-03 0. 0. 0. 0. 0. 0. 0.
      2.23713648e-03 0. 0. 2.23713648e-03 0. 0. 2.23713648e-03 0. 0. 0.
      0. 0. 0. 0. 0. 0. 4.47427295e-03 0. 4.47427295e-03 0. 0.
      2.23713648e-03 0. 0. 2.23713648e-03 0. 0. 2.23713648e-03 0. 0.
      4.47427295e-03 0. 0. 0. 0. 2.23713648e-03 2.23713648e-03 0. 0. 0.
      0. 0. 0. 0. 0. 0. 0. 4.47427295e-03 2.23713648e-03 0. 0.
      2.23713648e-03 0. 0. 0. 0. 0. 0. 0. 0. 0. 0. 0. 0. 0. 0. 0. 0. 0.
      0. 0. 2.23713648e-03 6.71140943e-03 0. 0. 0. 2.23713648e-03 0. 0.
      0. 6.71140943e-03 0. 0. 2.23713648e-03 0. 2.23713648e-03 0.
      2.23713648e-03 0. 0. 0. 0. 0. 0. 2.23713648e-03 0. 0. 0. 0.
      4.47427295e-03 0. 0. 0. 0. 0. 0. 0. 0. 0. 0. 0. 0. 0. 0. 0. 0.
      2.23713648e-03 0. 2.23713648e-03 0. 0. 0. 0. 0. 2.23713648e-03 0.</_>
    <_>
      5.47945220e-03 0. 0. 0. 0. 0. 8.21917877e-03 0. 0. 0. 0. 0. 0.
      2.73972610e-03 0. 0. 2.73972610e-03 2.73972610e-03 0. 0. 0. 0. 0.
      0. 0. 0. 0. 2.73972610e-03 0. 0. 0. 0. 0. 0. 0. 2.73972610e-03 0.
      0. 1.36986300e-02 0. 2.73972610e-03 0. 0. 0. 0. 0. 0. 0. 0.
      2.73972610e-03 0. 0. 2.73972610e-03 0. 2.73972610e-03
      2.73972610e-03 8.21917877e-03 0. 0. 8.21917877e-03 2.73972610e-03
      0. 0. 2.73972610e-03 0. 0. 0. 0. 2.73972610e-03 0. 0. 0.
      2.73972610e-03 0. 0. 0. 2.73972610e-03 0. 0. 0. 0. 0.
      2.73972610e-03 0. 0. 0. 0. 0. 0. 0. 5.47945220e-03 2.73972610e-03
      0. 0. 2.73972610e-03 0. 0. 0. 0. 0. 2.73972610e-03 5.47945220e-03
      0. 2.73972610e-03 0. 0. 0. 2.73972610e-03 0. 0. 2.46575344e-02 0.
      5.47945220e-03 0. 2.73972610e-03 0. 2.73972610e-03 0. 0. 0. 0.
      1.91780832e-02 0. 0. 0. 5.47945220e-03 2.73972610e-03 0. 0.
      5.47945220e-03 2.73972610e-03 0. 0. 0. 2.73972610e-03 0. 0. 0. 0.
      0. 0. 0. 0. 0. 1.09589044e-02 0. 0. 0. 0. 0. 0. 2.73972610e-03
      5.47945220e-03 0. 0. 0. 2.73972610e-03 0. 0. 0. 0. 0. 0. 0. 0. 0.
      0. 0. 0. 0. 0. 0. 0. 0. 0. 0. 0. 2.73972610e-03 0. 0. 0. 0. 0.
      2.73972610e-03 0. 0. 0. 0. 0. 0. 0. 0. 0. 0. 0. 2.73972610e-03
      2.73972610e-03 0. 0. 0. 0. 0. 0. 2.73972610e-03 0. 0. 0.
      2.73972610e-03 0. 2.73972610e-03 0. 0. 0. 0. 0. 0. 0. 0.
      2.73972610e-03 0. 0. 0. 2.73972610e-03 2.73972610e-03 0.
      2.73972610e-03 0. 0. 0. 0. 2.73972610e-03 0. 0. 0. 0. 0. 0.
      2.73972610e-03 0. 1.09589044e-02 0. 0. 0. 0. 0. 0. 0. 0. 0. 0. 0.
      0. 2.73972610e-03 0. 0. 2.73972610e-03 0. 0. 2.73972610e-03 0. 0.
      0. 0. 0. 0. 2.73972610e-03 0. 0. 2.73972610e-03 2.73972610e-03 0.
      0. 1.09589044e-02 5.47945220e-03 0. 2.73972610e-03 0. 0. 0. 0.
      5.47945220e-03 0. 0. 0. 5.47945220e-03 0. 0. 0. 2.73972610e-03 0.
      0. 2.73972610e-03 0. 2.73972610e-03 0. 0. 0. 0. 0. 0. 0. 0. 0. 0.
      0. 0. 0. 0. 0. 0. 0. 2.73972610e-03 2.73972610e-03 0.
      2.73972610e-03 2.73972610e-03 0. 0. 0. 0. 0. 5.47945220e-03 0. 0.
      0. 5.47945220e-03 0. 0. 0. 2.73972610e-03 1.36986300e-02 0.
      3.56164388e-02 0. 0. 0. 0. 0. 2.73972610e-03 0. 0. 0.
      5.47945220e-03 2.73972610e-03 0. 2.73972610e-03 0. 0. 0. 0. 0. 0.
      0. 0. 0. 0. 2.73972610e-03 0. 0. 0. 2.73972610e-03 0.
      2.73972610e-03 0. 0. 0. 2.73972610e-03 0. 0. 0. 0. 0. 0. 0. 0. 0.
      0. 0. 0. 0. 0. 0. 0. 5.47945220e-03 2.73972610e-03 0. 0. 0. 0. 0.
      2.73972610e-03 0. 0. 0. 0. 0. 0. 0. 2.73972610e-03 0. 0.
      2.73972610e-03 8.21917877e-03 2.73972610e-03 0. 0. 2.73972610e-03
      0. 0. 0. 0. 0. 8.21917877e-03 0. 0. 0. 5.47945220e-03 0. 0.
      2.73972610e-03 5.47945220e-03 0. 0. 0. 2.73972610e-03
      2.73972610e-03 0. 0. 0. 0. 0. 0. 0. 0. 0. 0. 0. 0. 0. 0. 0. 0. 0.
      0. 0. 0. 2.73972610e-03 0. 0. 0. 2.73972610e-03 0. 2.73972610e-03
      2.73972610e-03 2.73972610e-03 2.73972610e-03 0. 0. 0.
      2.73972610e-03 0. 5.47945220e-03 0. 0. 0. 0. 0. 8.21917877e-03
      2.73972610e-03 0. 0. 0. 0. 2.73972610e-03 0. 0. 0. 0. 0. 0.
      1.91780832e-02 0. 0. 0. 0. 0. 0. 0. 0. 0. 0. 0. 2.73972610e-03
      8.21917877e-03 0. 0. 1.09589044e-02 2.73972610e-03 0. 0. 0. 0. 0.
      0. 0. 0. 0. 0. 0. 2.73972610e-03 0. 0. 0. 2.73972610e-03 0.
      5.47945220e-03 8.21917877e-03 0. 0. 0. 0. 0. 0. 0. 0.
      2.73972610e-03 0. 0. 5.47945220e-03 0. 5.47945220e-03 0. 0. 0. 0.
      0. 5.47945220e-03 2.73972610e-03 0. 8.21917877e-03 5.47945220e-03
      0. 0. 0. 0. 2.73972610e-03 0. 0. 0. 0. 0. 5.47945220e-03 0. 0. 0.
      0. 0. 0. 0. 0. 0. 0. 0. 0. 2.73972610e-03 0. 5.47945220e-03 0. 0.
      0. 0. 5.47945220e-03 0. 0. 2.73972610e-03 0. 0. 0. 0. 0.
      8.21917877e-03 0. 0. 0. 0. 1.91780832e-02 0. 0. 0. 0. 0. 0. 0. 0.
      8.21917877e-03 0. 0. 0. 0. 0. 0. 0. 0. 0. 0. 0. 2.73972610e-03 0.
      5.47945220e-03 0. 0. 0. 0. 0. 0. 0. 2.73972610e-03 0. 0. 0. 0. 0.
      2.73972610e-03 0. 0. 0. 0. 0. 5.47945220e-03 2.73972610e-03 0. 0.
      0. 5.47945220e-03 0. 0. 0. 2.73972610e-03 0. 0. 1.91780832e-02 0.
      0. 5.47945220e-03 0. 0. 8.21917877e-03 0. 0. 0. 0. 0. 0. 0. 0. 0.
      0. 0. 0. 0. 2.73972610e-03 2.73972610e-03 0. 0. 5.47945220e-03
      2.73972610e-03 0. 0. 8.21917877e-03 0. 0. 0. 0. 0. 0. 0. 0. 0. 0.
      0. 0. 1.09589044e-02 0. 0. 0. 0. 0. 0. 0. 2.73972610e-03 0.
      2.73972610e-03 0. 0. 0. 0. 2.73972610e-03 0. 0. 2.73972610e-03 0.
      0. 0. 0. 0. 0. 0. 0. 0. 0. 0. 0. 5.47945220e-03 0. 0.
      2.73972610e-03 0. 2.73972610e-03 8.21917877e-03 0. 0. 0. 0. 0. 0.
      0. 0. 0. 2.73972610e-03 0. 0. 0. 0. 0. 0. 0. 0. 0. 2.73972610e-03
      0. 1.36986300e-02 2.73972610e-03 0. 0. 0. 0. 0. 0. 0. 0. 0. 0.
      2.73972610e-03 0. 0. 0. 0. 2.73972610e-03 0. 0. 2.73972610e-03 0.
      0. 0. 0. 2.73972610e-03 0. 0. 0. 0. 0. 0. 5.47945220e-03 0. 0. 0.
      0. 0. 0. 0. 0. 0. 0. 0. 0. 0. 2.73972610e-03 0. 0. 0. 0. 0.
      2.73972610e-03 0. 0. 0. 0. 0. 0. 0. 0. 0. 2.73972610e-03 0. 0. 0.
      0. 0. 0. 0. 8.21917877e-03 0. 0. 0. 0. 0. 0. 0. 0. 0. 0.
      2.73972610e-03 0. 0. 0. 0. 0. 0. 0. 5.47945220e-03 0. 0. 0. 0. 0.
      0. 1.09589044e-02 0. 0. 0. 0. 0. 2.73972610e-03 1.09589044e-02 0.
      0. 0. 2.73972610e-03 0. 0. 0. 0. 0. 1.64383575e-02 2.73972610e-03
      0. 2.73972610e-03 0. 0. 0. 0. 0. 2.73972610e-03 0. 0. 0. 0. 0. 0.
      0. 2.73972610e-03 0. 2.73972610e-03 2.73972610e-03 0. 0. 0.
      2.73972610e-03 0. 0. 8.21917877e-03 0. 0. 0. 0. 0. 0.
      2.73972610e-03 0. 0. 0. 0. 0. 0. 0. 0. 0. 2.73972610e-03 0. 0. 0.
      0. 0. 0. 0. 0. 0. 2.73972610e-03 0. 5.47945220e-03 0. 0. 0. 0.
      2.73972610e-03 0. 0. 0. 0. 0. 2.73972610e-03 1.09589044e-02 0. 0.
      0. 0. 0. 0. 0. 0. 0. 0. 0. 0. 0. 0. 0. 0. 2.73972610e-03 0. 0. 0.
      8.21917877e-03 0. 0. 0. 0. 0. 0. 0. 0. 0. 0. 0. 8.21917877e-03 0.
      0. 0. 0. 5.47945220e-03 0. 2.73972610e-03 0. 2.73972610e-03 0. 0.
      0. 0. 0. 0. 0. 0. 0. 5.47945220e-03 0. 0. 0. 5.47945220e-03 0. 0.
      0. 0. 0. 0. 0. 0. 0. 0. 0. 0. 2.73972610e-03 0. 0. 2.73972610e-03
      0. 0. 0. 0. 0. 0.</_>
    <_>
      0. 2.71002715e-03 0. 0. 0. 0. 2.71002715e-03 0. 0. 0. 0. 0. 0. 0.
      0. 2.71002715e-03 0. 5.42005431e-03 0. 0. 2.71002715e-03
      2.71002715e-03 0. 0. 0. 0. 0. 0. 5.42005431e-03 2.71002715e-03
      2.71002715e-03 0. 0. 2.71002715e-03 0. 0. 0. 0. 5.42005431e-03 0.
      0. 0. 0. 0. 0. 0. 0. 0. 0. 0. 0. 0. 2.71002715e-03 0.
      2.71002715e-03 0. 8.13008100e-03 0. 0. 2.71002715e-03 0.
      2.71002715e-03 0. 0. 2.71002715e-03 0. 0. 0. 0. 2.71002715e-03 0.
      5.42005431e-03 5.42005431e-03 0. 8.13008100e-03 0. 8.13008100e-03
      2.71002715e-03 0. 0. 0. 0. 0. 0. 0. 0. 0. 0. 2.71002715e-03 0.
      5.42005431e-03 0. 0. 2.71002715e-03 0. 2.71002715e-03 0. 0. 0.
      5.42005431e-03 0. 0. 0. 0. 0. 5.42005431e-03 0. 2.71002715e-03 0.
      0. 5.42005431e-03 0. 0. 0. 0. 0. 0. 0. 0. 2.71002715e-03 0. 0. 0.
      0. 0. 8.13008100e-03 0. 0. 0. 2.71002715e-03 0. 0. 0.
      2.71002715e-03 2.71002715e-03 0. 0. 0. 0. 2.71002715e-03 0. 0.
      2.71002715e-03 8.13008100e-03 0. 0. 0. 2.71002725e-02 0. 0. 0.
      2.71002715e-03 0. 0. 0. 0. 0. 2.71002715e-03 0. 0. 0. 0.
      5.42005431e-03 0. 0. 0. 0. 2.71002715e-03 0. 2.71002715e-03 0. 0.
      0. 0. 2.71002715e-03 0. 8.13008100e-03 2.71002715e-03 0.
      2.71002715e-03 0. 2.71002715e-03 0. 0. 0. 0. 2.71002715e-03 0. 0.
      0. 0. 0. 2.71002715e-03 0. 0. 0. 0. 0. 0. 0. 0. 0. 2.71002715e-03
      0. 0. 0. 0. 0. 0. 0. 2.71002715e-03 0. 2.71002715e-03 0. 0. 0. 0.
      0. 0. 2.71002715e-03 0. 0. 0. 0. 0. 0. 8.13008100e-03 0. 0.
      1.08401086e-02 0. 0. 0. 2.71002715e-03 0. 0. 0. 2.71002715e-03 0.
      8.13008100e-03 2.71002715e-03 0. 0. 0. 0. 0. 5.42005431e-03 0. 0.
      2.71002715e-03 0. 0. 0. 2.71002715e-03 0. 0. 0. 2.71002715e-03
      2.71002715e-03 0. 0. 0. 0. 0. 0. 0. 0. 0. 5.42005431e-03 0. 0.
      5.42005431e-03 0. 0. 0. 2.71002715e-03 0. 0. 0. 0. 5.42005431e-03
      0. 0. 2.71002715e-03 2.71002715e-03 0. 0. 0. 2.71002715e-03 0. 0.
      0. 0. 0. 0. 0. 0. 0. 8.13008100e-03 0. 0. 0. 5.42005431e-03 0. 0.
      0. 0. 5.42005431e-03 0. 0. 0. 0. 0. 0. 0. 2.71002715e-03 0. 0. 0.
      0. 0. 0. 0. 0. 0. 5.42005431e-03 0. 0. 0. 2.71002715e-03 0. 0.
      2.71002715e-03 0. 0. 2.71002715e-03 0. 0. 0. 2.71002715e-03 0. 0.
      5.42005431e-03 0. 0. 0. 0. 0. 0. 2.71002715e-03 2.71002715e-03
      2.71002715e-03 0. 0. 0. 0. 0. 0. 2.71002715e-03 0. 0. 0. 0.
      2.71002715e-03 0. 0. 2.71002715e-03 5.42005431e-03 0. 0. 0. 0. 0.
      0. 0. 0. 0. 0. 0. 2.71002715e-03 2.71002715e-03 0. 0. 0.
      2.71002715e-03 2.71002715e-03 0. 0. 0. 0. 0. 0. 2.71002715e-03 0.
      0. 0. 2.71002715e-03 0. 2.71002715e-03 0. 0. 2.71002715e-03 0.
      1.08401086e-02 0. 0. 0. 0. 2.71002715e-03 2.71002715e-03
      2.71002715e-03 0. 2.71002715e-03 0. 0. 0. 2.71002715e-03 0. 0. 0.
      5.42005431e-03 5.42005431e-03 0. 5.42005431e-03 0. 0. 0. 0. 0. 0.
      0. 0. 0. 0. 8.13008100e-03 0. 0. 0. 0. 0. 0. 0. 0. 0. 0.
      2.71002715e-03 0. 2.71002715e-03 0. 0. 0. 0. 0. 0. 1.62601620e-02
      2.71002715e-03 2.71002715e-03 0. 2.71002715e-03 1.35501362e-02 0.
      0. 0. 2.71002715e-03 0. 2.71002715e-03 0. 1.08401086e-02
      8.13008100e-03 0. 0. 0. 0. 0. 0. 5.42005431e-03 0. 0. 0. 0. 0. 0.
      0. 0. 0. 0. 0. 0. 0. 2.71002715e-03 0. 0. 2.71002715e-03 0.
      2.71002715e-03 0. 2.71002715e-03 0. 0. 0. 0. 0. 2.71002715e-03 0.
      0. 2.71002715e-03 0. 0. 0. 0. 0. 0. 0. 5.42005431e-03
      2.71002715e-03 1.08401086e-02 8.13008100e-03 0. 2.71002715e-03 0.
      0. 0. 0. 0. 0. 5.42005431e-03 0. 0. 0. 0. 2.71002715e-03 0. 0. 0.
      2.71002715e-03 0. 2.71002715e-03 0. 2.71002715e-03 0.
      5.42005431e-03 0. 0. 0. 0. 0. 2.71002715e-03 0. 2.71002715e-03 0.
      0. 0. 0. 0. 0. 0. 0. 0. 1.08401086e-02 0. 0. 0. 2.71002715e-03 0.
      0. 0. 0. 0. 0. 0. 0. 0. 2.71002715e-03 0. 2.71002715e-03 0.
      2.71002715e-03 0. 0. 0. 0. 0. 0. 0. 0. 5.42005431e-03 0. 0.
      8.13008100e-03 0. 2.71002715e-03 0. 0. 2.71002715e-03 0.
      2.71002715e-03 0. 0. 0. 0. 2.71002715e-03 0. 2.71002715e-03 0. 0.
      0. 0. 0. 2.71002715e-03 0. 0. 0. 0. 0. 0. 0. 0. 0. 0.
      2.71002715e-03 0. 0. 0. 0. 0. 2.71002715e-03 0. 0. 0. 0. 0. 0.
      5.42005431e-03 0. 0. 0. 0. 0. 0. 0. 0. 0. 5.42005431e-03 0. 0. 0.
      0. 0. 0. 0. 0. 0. 0. 0. 0. 0. 0. 0. 0. 0. 5.42005431e-03
      2.71002715e-03 0. 0. 2.71002715e-03 2.71002715e-03 5.42005431e-03
      2.71002715e-03 0. 2.71002715e-03 0. 0. 2.71002715e-03 0. 0. 0.
      2.71002715e-03 0. 0. 5.42005431e-03 5.42005431e-03 0. 0.
      2.71002715e-03 2.71002715e-03 8.13008100e-03 2.71002715e-03 0. 0.
      0. 0. 0. 0. 2.71002715e-03 0. 0. 0. 0. 0. 0. 0. 2.71002715e-03 0.
      0. 0. 2.71002715e-03 0. 2.71002715e-03 0. 0. 0. 2.71002715e-03 0.
      2.71002715e-03 0. 2.71002715e-03 0. 0. 0. 0. 0. 0. 0. 0.
      2.71002715e-03 0. 0. 0. 1.62601620e-02 2.71002715e-03
      2.71002715e-03 0. 0. 0. 0. 5.42005431e-03 0. 0. 0. 0.
      2.71002715e-03 0. 0. 0. 0. 0. 0. 0. 2.71002715e-03 0.
      2.71002715e-03 0. 2.71002715e-03 0. 0. 2.71002715e-03 0. 0. 0. 0.
      1.08401086e-02 0. 5.42005431e-03 0. 2.71002715e-03 2.71002715e-03
      0. 0. 2.71002715e-03 5.42005431e-03 0. 0. 0. 0. 0. 2.71002715e-03
      0. 0. 0. 0. 0. 0. 0. 0. 0. 0. 2.71002715e-03 2.71002715e-03 0.
      2.71002715e-03 0. 0. 0. 0. 2.71002715e-03 0. 0. 0. 2.71002715e-03
      2.71002715e-03 0. 0. 2.71002715e-03 0. 0. 2.71002715e-03 0.
      2.71002715e-03 0. 0. 5.42005431e-03 0. 0. 0. 0. 0. 0. 0. 0. 0.
      8.13008100e-03 0. 0. 0. 0. 0. 0. 0. 0. 0. 0. 8.13008100e-03 0. 0.
      0. 0. 0. 0. 0. 0. 0. 0. 0. 0. 0. 2.71002715e-03 2.71002715e-03
      2.71002715e-03 2.71002715e-03 0. 0. 0. 0. 8.13008100e-03 0. 0. 0.
      2.71002715e-03 0. 0. 0. 0. 0. 0. 2.71002715e-03 0. 5.42005431e-03
      0. 0. 0. 2.71002715e-03 0. 0. 5.42005431e-03 0. 0. 0. 0. 0.
      5.42005431e-03 0. 0. 0. 0. 0. 0. 0. 5.42005431e-03 0. 0.
      8.13008100e-03 0. 0. 0. 0. 0. 0. 0. 0. 0. 0. 2.71002715e-03 0. 0.
      0. 0. 0. 0. 0. 2.71002715e-03 0. 0. 2.71002715e-03 0. 0. 0. 0. 0.
      0. 0. 0. 0. 0. 0. 0. 0. 0. 0. 0. 0. 0. 0. 0. 2.71002715e-03 0. 0.
      0. 5.42005431e-03 5.42005431e-03 0. 0. 0. 2.71002715e-03
      2.71002715e-03 0. 0. 0. 0. 0. 0. 0. 0. 0. 0. 0. 2.71002715e-03
      2.71002715e-03 0. 0. 0. 0. 2.71002715e-03 5.42005431e-03 0. 0.
      2.71002715e-03 2.71002715e-03 0. 0. 0. 0. 0. 5.42005431e-03
      2.71002715e-03 0. 2.71002715e-03 0. 1.08401086e-02 2.71002715e-03
      0. 5.42005431e-03 0. 0. 0. 0. 2.71002715e-03 0. 0. 0. 0.
      2.71002715e-03 0. 0. 0. 0. 0. 0. 0. 0. 0.</_>
    <_>
      0. 2.96735903e-03 5.93471806e-03 0. 0. 0. 0. 2.96735903e-03 0. 0.
      2.96735903e-03 0. 0. 2.96735903e-03 0. 0. 0. 2.96735903e-03 0. 0.
      0. 2.96735903e-03 0. 0. 0. 0. 0. 0. 0. 0. 0. 0. 0. 0. 0. 0.
      5.93471806e-03 2.96735903e-03 5.93471806e-03 5.93471806e-03 0. 0.
      0. 0. 0. 0. 0. 0. 8.90207663e-03 0. 0. 0. 0. 0. 0. 0. 0. 0. 0.
      8.90207663e-03 0. 0. 0. 0. 2.96735903e-03 0. 0. 2.96735903e-03 0.
      0. 0. 0. 0. 2.96735903e-03 2.96735903e-03 0. 5.93471806e-03 0. 0.
      5.93471806e-03 0. 2.96735903e-03 2.96735903e-03 2.96735903e-03 0.
      0. 2.96735903e-03 0. 5.93471806e-03 0. 1.18694361e-02 0. 0. 0. 0.
      2.96735903e-03 0. 0. 0. 2.96735903e-03 2.96735903e-03 0. 0. 0. 0.
      2.96735903e-03 0. 0. 0. 0. 0. 0. 0. 0. 5.93471806e-03
      2.96735903e-03 0. 0. 0. 5.93471806e-03 0. 0. 0. 0. 0.
      8.90207663e-03 0. 0. 0. 0. 0. 0. 0. 0. 0. 0. 0. 0. 0.
      2.96735903e-03 0. 0. 0. 0. 5.93471806e-03 0. 0. 5.93471806e-03 0.
      0. 0. 2.96735903e-03 2.96735903e-03 2.96735903e-03 0. 0.
      5.93471806e-03 0. 0. 2.96735903e-03 2.96735903e-03 0.
      2.96735903e-03 0. 0. 0. 0. 0. 0. 0. 0. 2.96735903e-03 0. 0.
      2.96735903e-03 0. 2.96735903e-03 0. 0. 0. 0. 0. 0. 2.96735903e-03
      0. 5.93471806e-03 0. 0. 0. 0. 0. 0. 0. 0. 0. 0. 2.96735903e-03 0.
      2.96735903e-03 0. 0. 0. 0. 0. 2.96735903e-03 0. 2.96735903e-03 0.
      5.93471806e-03 0. 0. 0. 2.96735903e-03 2.96735903e-03
      2.96735903e-03 0. 0. 0. 0. 8.90207663e-03 0. 0. 0. 0.
      2.96735903e-03 0. 2.96735903e-03 2.96735903e-03 0. 5.93471806e-03
      5.93471806e-03 0. 0. 5.93471806e-03 0. 0. 0. 8.90207663e-03
      8.90207663e-03 8.90207663e-03 1.18694361e-02 0. 0. 0. 0. 0. 0. 0.
      0. 0. 0. 0. 8.90207663e-03 0. 0. 0. 0. 2.96735903e-03 0. 0. 0. 0.
      0. 0. 0. 2.96735903e-03 0. 0. 0. 2.96735903e-03 0. 1.18694361e-02
      0. 0. 0. 0. 0. 0. 0. 0. 0. 0. 0. 2.96735903e-03 0. 0. 0.
      2.96735903e-03 0. 2.96735903e-03 0. 0. 0. 0. 0. 2.96735903e-03 0.
      0. 2.96735903e-03 0. 5.93471806e-03 0. 0. 5.93471806e-03 0. 0. 0.
      5.93471806e-03 0. 0. 2.96735903e-03 0. 0. 0. 0. 2.96735903e-03
      2.96735903e-03 0. 0. 0. 0. 2.96735903e-03 0. 0. 0. 0. 0.
      2.96735903e-03 0. 0. 0. 0. 0. 0. 0. 0. 0. 2.96735903e-03 0. 0. 0.
      0. 0. 0. 0. 2.96735903e-03 0. 0. 2.96735903e-03 0. 2.96735903e-03
      0. 0. 0. 0. 0. 0. 0. 0. 0. 0. 0. 0. 0. 0. 0. 5.93471806e-03 0. 0.
      0. 0. 2.96735903e-03 0. 2.96735903e-03 0. 0. 0. 2.96735903e-03 0.
      0. 0. 0. 0. 0. 0. 0. 0. 0. 0. 0. 0. 0. 0. 0. 0. 0. 0. 0. 0. 0. 0.
      5.93471806e-03 0. 0. 0. 0. 0. 0. 0. 0. 0. 2.96735903e-03
      2.96735903e-03 0. 0. 0. 0. 2.96735903e-03 0. 0. 2.96735903e-03 0.
      0. 0. 0. 0. 0. 0. 5.93471806e-03 0. 0. 0. 0. 0. 0. 0. 0. 0.
      2.96735903e-03 0. 0. 0. 0. 5.93471806e-03 0. 0. 2.96735903e-03
      2.96735903e-03 0. 0. 2.96735903e-03 0. 0. 0. 0. 0. 0.
      5.93471806e-03 0. 2.96735903e-03 0. 0. 0. 5.93471806e-03 0. 0. 0.
      0. 2.96735903e-03 0. 0. 0. 8.90207663e-03 0. 0. 5.93471806e-03 0.
      0. 0. 2.96735903e-03 0. 0. 0. 0. 0. 0. 2.96735903e-03 0. 0.
      5.93471806e-03 0. 0. 0. 0. 2.96735903e-03 0. 0. 0. 0. 0. 0. 0. 0.
      0. 0. 0. 0. 0. 0. 0. 5.93471806e-03 0. 0. 0. 0. 0. 2.96735903e-03
      0. 2.96735903e-03 0. 0. 0. 2.96735903e-03 0. 2.96735903e-03
      5.93471806e-03 8.90207663e-03 0. 0. 0. 2.96735903e-03 0. 0. 0. 0.
      0. 0. 0. 0. 0. 2.96735903e-03 0. 0. 2.96735903e-03 0. 0.
      5.93471806e-03 0. 0. 0. 0. 0. 0. 0. 2.96735903e-03 0.
      2.96735903e-03 0. 0. 0. 0. 2.96735903e-03 2.96735903e-03 0. 0. 0.
      0. 0. 0. 0. 5.93471806e-03 0. 0. 0. 0. 0. 0. 2.96735903e-03 0. 0.
      0. 0. 0. 2.96735903e-03 0. 1.48367956e-02 0. 0. 0. 0.
      2.96735903e-03 0. 0. 2.96735903e-03 2.96735903e-03 2.96735903e-03
      0. 0. 0. 5.93471806e-03 2.96735903e-03 0. 2.96735903e-03 0. 0.
      2.96735903e-03 0. 0. 0. 0. 0. 2.96735903e-03 0. 0. 0. 0.
      2.96735903e-03 0. 0. 0. 0. 0. 0. 8.90207663e-03 0. 0. 0. 0. 0. 0.
      2.96735903e-03 2.96735903e-03 0. 0. 0. 0. 0. 0. 5.93471806e-03 0.
      2.96735903e-03 0. 2.96735903e-03 0. 0. 0. 0. 0. 0. 0. 0. 0.
      2.96735903e-03 0. 0. 0. 0. 0. 0. 0. 0. 2.96735903e-03 0. 0.
      2.96735903e-03 2.96735903e-03 0. 0. 0. 0. 0. 0. 0. 0.
      2.96735903e-03 0. 1.18694361e-02 0. 0. 0. 5.93471806e-03
      5.93471806e-03 0. 0. 0. 5.93471806e-03 2.96735903e-03 0. 0. 0. 0.
      0. 0. 8.90207663e-03 0. 8.90207663e-03 2.96735903e-03
      2.96735903e-03 0. 0. 0. 5.93471806e-03 0. 0. 0. 0. 0. 0. 0. 0. 0.
      0. 2.96735903e-03 0. 0. 8.90207663e-03 0. 0. 0. 0. 0. 0. 0. 0. 0.
      2.96735903e-03 0. 2.96735903e-03 1.48367956e-02 0. 0. 0. 0. 0. 0.
      5.93471806e-03 2.96735903e-03 0. 0. 0. 2.96735903e-03 0. 0. 0.
      2.96735903e-03 0. 0. 0. 0. 2.96735903e-03 5.93471806e-03 0.
      2.96735903e-03 0. 0. 2.96735903e-03 2.96735903e-03 2.96735903e-03
      0. 0. 2.96735903e-03 0. 0. 0. 0. 0. 2.96735903e-03 0. 0. 0. 0. 0.
      0. 0. 0. 0. 0. 0. 0. 0. 0. 0. 0. 0. 0. 2.96735903e-03
      2.96735903e-03 0. 0. 0. 0. 0. 0. 2.96735903e-03 0. 2.96735903e-03
      0. 0. 2.96735903e-03 0. 0. 0. 0. 0. 0. 2.96735903e-03 0. 0. 0. 0.
      0. 0. 0. 0. 0. 0. 0. 0. 2.96735903e-03 0. 2.96735903e-03 0. 0. 0.
      0. 0. 0. 0. 5.93471806e-03 0. 0. 0. 0. 0. 0. 0. 0. 0. 0. 0. 0.
      2.96735903e-03 2.96735903e-03 2.96735903e-03 0. 0. 5.93471806e-03
      2.96735903e-03 0. 0. 0. 2.96735903e-03 0. 2.96735903e-03
      2.96735903e-03 0. 2.96735903e-03 0. 0. 0. 0. 2.96735903e-03
      2.96735903e-03 0. 0. 0. 5.93471806e-03 0. 0. 0. 0. 0. 0. 0.
      2.96735903e-03 0. 0. 0. 2.96735903e-03 2.96735903e-03
      2.96735903e-03 0. 0. 0. 0. 0. 5.93471806e-03 0. 0. 2.96735903e-03
      0. 0. 0. 2.96735903e-03 0. 0. 0. 0. 0. 0. 0. 0. 2.96735903e-03
      2.96735903e-03 0. 0. 0. 0. 5.93471806e-03 0. 0. 0. 0.
      5.93471806e-03 0. 2.96735903e-03 0. 0. 0. 0. 0. 0. 0. 0. 0. 0. 0.
      0. 0. 0. 0. 0. 0. 0. 0. 0. 0. 1.48367956e-02 2.96735903e-03 0. 0.
      0. 0. 0. 0. 0. 0. 2.96735903e-03 0. 0. 0. 0. 0. 0. 2.96735903e-03
      0. 0. 2.96735903e-03 0. 0. 8.90207663e-03 2.96735903e-03
      2.96735903e-03 0. 0. 0. 0. 0. 0. 0. 0. 0. 1.18694361e-02 0.
      1.18694361e-02 0. 0. 2.96735903e-03 0. 0. 0. 0. 0. 0. 0.
      2.96735903e-03 0. 2.96735903e-03 0. 0. 0. 0. 0. 2.96735903e-03
      2.96735903e-03 0. 0. 0. 5.93471806e-03 0.</_>
    <_>
      0. 0. 3.23624606e-03 0. 0. 0. 0. 0. 0. 0. 0. 0. 0. 0. 0.
      3.23624606e-03 1.61812305e-02 0. 0. 0. 0. 0. 0. 0. 0. 0.
      3.23624606e-03 0. 3.23624606e-03 0. 0. 0. 0. 3.23624606e-03 0. 0.
      0. 0. 9.70873795e-03 1.94174759e-02 0. 0. 0. 0. 0. 0. 0. 0. 0. 0.
      0. 0. 3.23624606e-03 0. 3.23624606e-03 3.23624606e-03 0. 0.
      3.23624606e-03 6.47249212e-03 0. 0. 0. 3.23624606e-03 0. 0.
      3.23624606e-03 0. 0. 0. 0. 0. 1.29449842e-02 3.23624606e-03 0. 0.
      3.23624606e-03 0. 0. 6.47249212e-03 0. 0. 0. 3.23624606e-03 0. 0.
      0. 0. 0. 0. 1.94174759e-02 0. 0. 0. 3.23624606e-03 0. 0. 0. 0.
      3.23624606e-03 0. 3.23624606e-03 0. 0. 0. 0. 0. 9.70873795e-03 0.
      0. 9.70873795e-03 0. 9.70873795e-03 0. 9.70873795e-03 0. 0.
      3.23624606e-03 0. 3.23624606e-03 0. 6.47249212e-03 0. 0. 0.
      6.47249212e-03 0. 0. 0. 0. 0. 0. 0. 3.23624606e-03 0. 0. 0. 0. 0.
      0. 3.23624606e-03 3.23624606e-03 0. 0. 3.23624606e-03
      3.23624606e-03 0. 3.23624606e-03 0. 0. 0. 0. 1.94174759e-02
      3.23624606e-03 0. 0. 0. 0. 0. 0. 0. 0. 0. 0. 3.23624606e-03 0.
      3.23624606e-03 0. 0. 0. 3.23624606e-03 0. 0. 0. 0. 3.23624606e-03
      0. 0. 0. 0. 3.23624606e-03 3.23624606e-03 0. 3.23624606e-03 0. 0.
      0. 3.23624606e-03 0. 0. 3.23624606e-03 3.23624606e-03 0. 0. 0. 0.
      0. 0. 0. 0. 0. 0. 0. 3.23624606e-03 0. 0. 0. 0. 3.23624606e-03
      3.23624606e-03 0. 0. 0. 0. 0. 0. 0. 0. 0. 3.23624606e-03 0. 0. 0.
      0. 0. 0. 3.23624606e-03 0. 0. 3.23624606e-03 0. 0. 0. 0. 0. 0. 0.
      0. 0. 3.23624606e-03 3.23624606e-03 0. 0. 0. 0. 3.23624606e-03
      3.23624606e-03 0. 0. 0. 0. 0. 0. 3.23624606e-03 0. 0. 0. 0.
      3.23624606e-03 0. 0. 0. 0. 0. 3.23624606e-03 0. 0. 0.
      3.23624606e-03 0. 0. 0. 0. 6.47249212e-03 0. 0. 0. 0.
      3.23624606e-03 0. 3.23624606e-03 0. 0. 0. 0. 0. 0. 0. 0. 0.
      3.23624606e-03 0. 0. 0. 0. 0. 0. 0. 0. 0. 0. 0. 0. 9.70873795e-03
      0. 0. 0. 3.23624606e-03 0. 0. 3.23624606e-03 0. 0. 0. 0. 0. 0. 0.
      0. 0. 0. 0. 0. 0. 0. 2.26537231e-02 3.23624606e-03 3.23624606e-03
      0. 0. 0. 0. 9.70873795e-03 0. 0. 0. 0. 0. 0. 6.47249212e-03 0. 0.
      9.70873795e-03 0. 0. 0. 0. 0. 0. 0. 3.23624606e-03 3.23624606e-03
      0. 0. 0. 0. 0. 0. 0. 0. 0. 0. 0. 3.23624606e-03 0. 0. 0.
      3.23624606e-03 0. 0. 0. 0. 0. 0. 0. 0. 0. 0. 0. 0. 0. 0. 0.
      3.23624606e-03 0. 3.23624606e-03 3.23624606e-03 0. 0. 0.
      9.70873795e-03 0. 0. 0. 0. 0. 0. 3.23624606e-03 3.23624606e-03 0.
      0. 0. 6.47249212e-03 0. 0. 0. 0. 0. 3.23624606e-03 0. 0.
      6.47249212e-03 0. 0. 0. 0. 0. 0. 0. 0. 1.29449842e-02 0. 0. 0. 0.
      0. 0. 0. 0. 0. 0. 3.23624606e-03 0. 0. 0. 0. 0. 0. 0. 0. 0. 0. 0.
      0. 0. 3.23624606e-03 0. 0. 0. 0. 0. 3.23624606e-03 0. 0.
      1.29449842e-02 0. 0. 0. 0. 0. 0. 0. 0. 0. 0. 0. 3.23624606e-03 0.
      0. 0. 3.23624606e-03 0. 0. 0. 0. 0. 0. 0. 0. 0. 1.29449842e-02 0.
      0. 3.23624606e-03 0. 0. 0. 0. 3.23624606e-03 0. 0. 3.23624606e-03
      0. 3.23624606e-03 0. 0. 3.23624606e-03 0. 0. 0. 0. 0.
      6.47249212e-03 0. 0. 0. 0. 0. 0. 0. 0. 0. 0. 0. 0. 0.
      6.47249212e-03 3.23624606e-03 0. 0. 0. 3.23624606e-03 0. 0. 0.
      6.47249212e-03 0. 0. 9.70873795e-03 3.23624606e-03 3.23624606e-03
      3.23624606e-03 0. 0. 0. 0. 6.47249212e-03 0. 3.23624606e-03 0.
      1.29449842e-02 0. 0. 0. 0. 0. 0. 0. 0. 0. 0. 0. 0. 0. 0. 0.
      3.23624606e-03 3.23624606e-03 0. 0. 0. 0. 0. 0. 0. 0. 0.
      3.23624606e-03 0. 0. 0. 0. 0. 3.23624606e-03 3.23624606e-03 0. 0.
      6.47249212e-03 0. 0. 3.23624606e-03 0. 0. 0. 0. 2.91262139e-02
      3.23624606e-03 0. 0. 0. 0. 0. 0. 3.23624606e-03 3.23624606e-03 0.
      0. 0. 0. 0. 0. 0. 0. 3.23624606e-03 0. 3.23624606e-03 0.
      3.23624606e-03 3.23624606e-03 0. 0. 3.23624606e-03 0. 0. 0. 0.
      6.47249212e-03 3.23624606e-03 0. 0. 0. 0. 0. 0. 0. 0. 0.
      3.23624606e-03 0. 0. 0. 0. 3.23624606e-03 0. 0. 0. 0. 0.
      3.23624606e-03 0. 3.23624606e-03 0. 0. 0. 0. 0. 0. 0. 0. 0. 0. 0.
      0. 0. 0. 0. 0. 0. 0. 0. 3.23624606e-03 0. 0. 0. 9.70873795e-03
      3.23624606e-03 0. 0. 0. 0. 0. 3.23624606e-03 0. 0. 6.47249212e-03
      0. 6.47249212e-03 0. 0. 0. 3.23624606e-03 6.47249212e-03 0. 0. 0.
      0. 0. 0. 0. 0. 0. 0. 3.23624606e-03 3.23624606e-03 0. 0. 0. 0. 0.
      0. 0. 0. 0. 3.23624606e-03 0. 0. 0. 0. 0. 0. 0. 0. 6.47249212e-03
      0. 3.23624606e-03 0. 0. 0. 0. 0. 0. 0. 3.23624606e-03 0. 0. 0. 0.
      3.23624606e-03 3.23624606e-03 0. 0. 0. 0. 0. 0. 0. 0. 0. 0. 0. 0.
      0. 0. 0. 0. 0. 0. 0. 0. 0. 0. 0. 2.26537231e-02 0. 0.
      9.70873795e-03 3.23624606e-03 0. 0. 0. 9.70873795e-03 0. 0. 0. 0.
      0. 0. 0. 0. 0. 0. 0. 0. 0. 6.47249212e-03 0. 0. 0. 0. 0. 0. 0. 0.
      3.23624606e-03 0. 3.23624606e-03 0. 0. 0. 0. 0. 0. 0.
      3.23624606e-03 0. 0. 0. 0. 3.23624606e-03 0. 0. 0. 0. 0. 0.
      3.23624606e-03 0. 0. 0. 0. 0. 0. 0. 0. 0. 0. 0. 0. 0. 0.
      9.70873795e-03 0. 0. 0. 0. 6.47249212e-03 0. 0. 6.47249212e-03 0.
      0. 3.23624606e-03 3.23624606e-03 3.23624606e-03 0. 0. 0. 0. 0. 0.
      0. 0. 0. 0. 0. 0. 3.23624606e-03 3.23624606e-03 0. 0. 0. 0. 0.
      3.23624606e-03 0. 0. 3.23624606e-03 0. 0. 0. 0. 0. 0. 0. 0. 0. 0.
      0. 3.23624606e-03 0. 0. 0. 0. 0. 3.23624606e-03 0. 0. 0.
      6.47249212e-03 0. 0. 0. 3.23624606e-03 0. 0. 0. 0. 0. 0. 0. 0. 0.
      9.70873795e-03 0. 0. 0. 0. 0. 0. 0. 0. 3.23624606e-03
      3.23624606e-03 0. 0. 0. 0. 0. 0. 6.47249212e-03 0. 0. 0. 0.
      3.23624606e-03 3.23624606e-03 0. 0. 3.23624606e-03 0. 0.
      3.23624606e-03 3.23624606e-03 0. 0. 0. 0. 0. 0. 0. 0. 0. 0. 0.
      3.23624606e-03 0. 6.47249212e-03 6.47249212e-03 0. 0. 0. 0.
      3.23624606e-03 0. 0. 0. 0. 3.23624606e-03 0. 0. 0. 0. 0. 0. 0. 0.
      0. 0. 0. 0. 3.23624606e-03 0. 0. 0. 0. 0. 3.23624606e-03 0. 0. 0.
      0. 0. 0. 9.70873795e-03 3.23624606e-03 0. 0. 0. 0. 0. 0. 0. 0. 0.
      0. 0. 0. 0. 3.23624606e-03 0. 3.23624606e-03 0. 0. 0. 0. 0. 0. 0.
      3.23624606e-03 0.</_>
    <_>
      0. 0. 5.29100513e-03 0. 0. 0. 2.64550257e-03 2.64550257e-03 0. 0.
      0. 5.29100513e-03 0. 0. 0. 0. 0. 0. 0. 0. 0. 0. 0. 0. 0.
      2.64550257e-03 5.29100513e-03 0. 0. 0. 2.64550257e-03 0.
      2.64550257e-03 2.64550257e-03 0. 0. 0. 2.64550257e-03
      2.64550257e-03 2.64550257e-03 2.64550257e-03 0. 0. 0.
      5.29100513e-03 2.64550257e-03 0. 0. 0. 0. 0. 0. 2.64550257e-03 0.
      7.93650746e-03 0. 0. 0. 2.64550257e-03 1.05820103e-02 0. 0. 0. 0.
      0. 0. 7.93650746e-03 0. 0. 0. 0. 2.64550257e-03 5.29100513e-03
      2.64550257e-03 5.29100513e-03 0. 0. 0. 0. 0. 0. 0. 0. 0. 0. 0. 0.
      0. 0. 0. 2.64550257e-03 0. 0. 2.38095224e-02 0. 2.64550257e-03 0.
      0. 0. 5.29100513e-03 0. 2.64550257e-03 0. 0. 0. 5.29100513e-03 0.
      5.29100513e-03 0. 0. 1.32275131e-02 0. 0. 0. 0. 2.64550257e-03
      2.64550257e-03 0. 0. 0. 2.64550257e-03 7.93650746e-03 0.
      2.64550257e-03 5.29100513e-03 1.32275131e-02 0. 0. 0.
      2.64550257e-03 0. 0. 2.64550257e-03 0. 0. 0. 0. 0. 0. 0. 0. 0. 0.
      5.29100513e-03 0. 2.64550257e-03 0. 0. 0. 0. 0. 2.64550257e-03 0.
      1.58730149e-02 0. 0. 0. 0. 0. 0. 2.64550257e-03 0. 0. 0. 0.
      2.64550257e-03 0. 0. 0. 0. 0. 0. 0. 0. 0. 0. 0. 0. 0. 0. 0.
      2.64550257e-03 0. 0. 0. 0. 0. 2.64550257e-03 0. 0. 0.
      2.64550257e-03 0. 0. 0. 0. 2.64550257e-03 0. 0. 0. 2.64550257e-03
      2.64550257e-03 0. 0. 0. 0. 0. 0. 2.64550257e-03 0. 0. 0. 0. 0. 0.
      0. 0. 0. 0. 2.64550257e-03 2.64550257e-03 0. 0. 0. 0.
      5.29100513e-03 0. 0. 0. 5.29100513e-03 0. 0. 2.64550257e-03 0. 0.
      2.64550257e-03 5.29100513e-03 0. 5.29100513e-03 2.64550257e-03 0.
      0. 0. 0. 0. 0. 5.29100513e-03 0. 5.29100513e-03 2.64550257e-03 0.
      0. 0. 0. 0. 0. 0. 0. 2.64550257e-03 0. 0. 0. 0. 0. 0. 0. 0. 0.
      5.29100513e-03 2.64550257e-03 2.64550257e-03 2.64550257e-03 0.
      7.93650746e-03 0. 2.64550257e-03 2.64550257e-03 0. 0. 0.
      1.05820103e-02 0. 0. 5.29100513e-03 0. 0. 0. 0. 7.93650746e-03 0.
      0. 0. 0. 0. 0. 0. 0. 0. 0. 0. 0. 0. 0. 0. 0. 0. 0. 7.93650746e-03
      0. 0. 0. 0. 0. 0. 0. 2.64550257e-03 0. 0. 0. 0. 0. 7.93650746e-03
      0. 0. 2.64550257e-03 5.29100513e-03 0. 0. 2.64550257e-03 0. 0.
      2.64550257e-03 1.85185187e-02 0. 0. 0. 0. 0. 0. 0. 2.64550257e-03
      0. 2.64550257e-03 0. 0. 0. 0. 0. 2.64550257e-03 0. 0. 0.
      2.64550257e-03 5.29100513e-03 0. 2.64550257e-03 2.64550257e-03 0.
      0. 0. 0. 2.64550257e-03 0. 2.64550257e-03 0. 0. 0. 2.64550257e-03
      0. 0. 0. 0. 0. 0. 0. 2.64550257e-03 0. 0. 2.64550257e-03 0. 0. 0.
      0. 0. 0. 0. 0. 0. 2.64550257e-03 0. 0. 0. 0. 0. 0. 0.
      2.64550257e-03 0. 0. 0. 0. 2.64550257e-03 5.29100513e-03 0.
      5.29100513e-03 0. 2.64550257e-03 0. 2.64550257e-03 2.64550257e-03
      0. 0. 2.64550257e-03 0. 0. 0. 0. 0. 0. 0. 2.64550257e-03 0. 0. 0.
      0. 0. 2.64550257e-03 0. 0. 0. 0. 0. 0. 2.64550257e-03
      2.64550257e-03 2.64550257e-03 0. 0. 0. 0. 0. 0. 0. 2.64550257e-03
      0. 0. 0. 0. 2.64550257e-03 0. 0. 0. 0. 0. 1.05820103e-02 0. 0. 0.
      2.64550257e-03 2.64550257e-03 0. 0. 0. 0. 0. 0. 0. 7.93650746e-03
      0. 0. 0. 0. 0. 0. 0. 0. 0. 0. 0. 0. 5.29100513e-03 0. 0. 0. 0. 0.
      2.64550257e-03 0. 0. 0. 0. 0. 5.29100513e-03 0. 0. 0.
      2.64550257e-03 2.64550257e-03 2.64550257e-03 0. 0. 0. 0. 0. 0. 0.
      2.64550257e-03 0. 0. 0. 0. 0. 0. 2.64550257e-03 0. 0.
      2.64550257e-03 2.64550257e-03 2.64550257e-03 0. 0. 2.64550257e-03
      0. 0. 0. 2.64550257e-03 5.29100513e-03 0. 5.29100513e-03 0.
      2.64550257e-03 2.64550257e-03 2.64550257e-03 0. 2.64550257e-03 0.
      2.64550257e-03 0. 5.29100513e-03 0. 7.93650746e-03 5.29100513e-03
      0. 0. 0. 0. 2.64550257e-03 0. 0. 0. 0. 0. 0. 0. 0. 0. 0. 0. 0. 0.
      0. 2.64550257e-03 0. 0. 2.64550257e-03 0. 0. 0. 0. 0. 0.
      2.64550257e-03 0. 0. 7.93650746e-03 0. 0. 0. 2.64550257e-03 0. 0.
      0. 0. 0. 0. 7.93650746e-03 0. 0. 2.64550257e-03 0. 2.64550257e-03
      2.64550257e-03 2.64550257e-03 0. 2.64550257e-03 2.64550257e-03 0.
      0. 0. 0. 0. 0. 0. 0. 0. 2.64550257e-03 0. 0. 0. 0. 2.64550257e-03
      0. 2.64550257e-03 0. 0. 0. 1.05820103e-02 0. 2.64550257e-03 0. 0.
      0. 5.29100513e-03 0. 0. 0. 0. 0. 0. 0. 0. 0. 5.29100513e-03 0. 0.
      0. 0. 0. 1.05820103e-02 0. 0. 0. 0. 0. 0. 0. 0. 0. 0. 0.
      5.29100513e-03 0. 0. 0. 0. 0. 0. 0. 0. 0. 0. 0. 2.64550257e-03 0.
      0. 0. 2.64550257e-03 0. 0. 0. 2.64550257e-03 0. 0. 0. 0. 0.
      5.29100513e-03 0. 0. 0. 2.64550257e-03 5.29100513e-03 0. 0. 0.
      2.64550257e-03 2.64550257e-03 0. 2.64550257e-03 0. 0. 0. 0.
      5.29100513e-03 0. 2.64550257e-03 0. 0. 0. 0. 5.29100513e-03
      2.64550257e-03 0. 0. 0. 0. 0. 0. 0. 2.64550257e-03 0. 0.
      5.29100513e-03 2.64550257e-03 0. 0. 0. 0. 0. 0. 0. 0. 0. 0.
      5.29100513e-03 2.64550257e-03 0. 0. 7.93650746e-03 2.64550257e-03
      0. 0. 0. 0. 0. 0. 0. 2.64550257e-03 0. 0. 1.05820103e-02 0.
      2.64550257e-03 0. 2.64550257e-03 0. 0. 0. 0. 0. 5.29100513e-03 0.
      7.93650746e-03 2.64550257e-03 0. 1.85185187e-02 0. 0. 0. 0. 0. 0.
      2.64550257e-03 0. 0. 2.64550257e-03 0. 2.64550257e-03 0. 0. 0. 0.
      0. 0. 0. 0. 0. 0. 0. 0. 0. 0. 0. 0. 0. 0. 7.93650746e-03 0. 0. 0.
      0. 0. 0. 0. 0. 0. 0. 0. 2.64550257e-03 0. 0. 0. 2.64550257e-03 0.
      0. 0. 0. 0. 2.64550257e-03 0. 2.64550257e-03 0. 0. 0. 0. 0. 0.
      2.64550257e-03 0. 0. 2.64550257e-03 0. 0. 0. 0. 0. 2.64550257e-03
      0. 0. 0. 0. 2.64550257e-03 0. 2.64550257e-03 2.64550257e-03 0. 0.
      0. 0. 0. 0. 0. 0. 7.93650746e-03 0. 0. 5.29100513e-03 0. 0. 0.
      2.64550257e-03 0. 0. 5.29100513e-03 0. 0. 5.29100513e-03 0. 0. 0.
      0. 2.64550257e-03 2.64550257e-03 0. 2.64550257e-03 2.64550257e-03
      0. 0. 0. 0. 0. 0. 2.64550257e-03 5.29100513e-03 2.64550257e-03 0.
      0. 2.64550257e-03 0. 2.64550257e-03 0. 2.64550257e-03 0. 0. 0. 0.
      0. 0. 0. 0. 2.64550257e-03 2.64550257e-03 0. 0. 0. 0. 0. 0. 0. 0.
      0. 0. 0. 0. 2.64550257e-03 0. 0. 2.64550257e-03 1.05820103e-02
      5.29100513e-03 0. 0. 0. 7.93650746e-03 0. 0. 0. 0. 2.64550257e-03
      0. 2.64550257e-03 0. 0. 2.64550257e-03 0. 0. 0. 0. 0. 0. 0. 0. 0.
      0. 0. 0. 0. 5.29100513e-03 5.29100513e-03 0. 0. 0. 0. 0. 0. 0. 0.
      2.64550257e-03 0. 0. 0. 0. 0. 0. 2.64550257e-03 0. 0. 0. 0. 0. 0.
      0. 2.64550257e-03 0. 0. 0. 2.64550257e-03 0. 0. 0. 0. 0. 0. 0.
      2.64550257e-03 0. 0. 0. 0. 0. 0. 0. 0. 0. 0. 7.93650746e-03 0.
      5.29100513e-03 5.29100513e-03 0. 0. 0. 2.64550257e-03 0.
      2.64550257e-03 0. 0. 0. 2.64550257e-03 0.</_>
    <_>
      2.50626565e-03 0. 0. 0. 0. 0. 2.50626565e-03 0. 0. 0.
      2.50626565e-03 0. 0. 0. 0. 0. 2.50626565e-03 5.01253130e-03 0. 0.
      0. 0. 5.01253130e-03 0. 0. 2.50626565e-03 0. 0. 2.50626565e-03 0.
      0. 0. 0. 2.50626565e-03 0. 2.50626565e-03 0. 2.50626565e-03
      2.50626565e-03 1.00250626e-02 0. 0. 2.50626565e-03 0. 0. 0. 0. 0.
      0. 2.50626565e-03 2.50626565e-03 0. 2.50626565e-03 2.50626565e-03
      2.50626565e-03 0. 2.50626565e-03 2.50626565e-03 0. 7.51879718e-03
      0. 0. 0. 0. 0. 0. 0. 0. 0. 0. 0. 0. 0. 0. 0. 0. 5.01253130e-03 0.
      0. 0. 5.01253130e-03 2.50626565e-03 0. 2.50626565e-03 0. 0. 0. 0.
      0. 2.50626565e-03 1.00250626e-02 0. 0. 2.50626565e-03 0. 0. 0. 0.
      2.50626565e-03 2.50626565e-03 2.50626565e-03 5.01253130e-03 0.
      2.50626565e-03 0. 2.50626565e-03 0. 7.51879718e-03 0. 0.
      5.01253130e-03 0. 2.50626565e-03 0. 2.50626565e-03 0. 0.
      2.50626565e-03 0. 2.50626565e-03 0. 2.50626565e-03 0. 0.
      2.50626565e-03 7.51879718e-03 0. 0. 0. 0. 0. 0. 0. 5.01253130e-03
      0. 0. 0. 0. 2.50626565e-03 2.50626565e-03 0. 2.50626565e-03 0.
      2.50626565e-03 5.01253130e-03 0. 0. 5.01253130e-03 0. 0. 0. 0.
      2.50626565e-03 0. 2.50626565e-03 0. 5.01253130e-03 0. 0. 0. 0. 0.
      2.50626565e-03 0. 0. 0. 5.01253130e-03 0. 0. 0. 0. 0. 0. 0. 0. 0.
      0. 2.50626565e-03 0. 0. 2.50626565e-03 2.50626565e-03 0.
      2.50626565e-03 0. 0. 2.50626565e-03 2.50626565e-03 0. 0. 0. 0. 0.
      0. 5.01253130e-03 0. 0. 2.50626565e-03 0. 0. 0. 0. 0. 0. 0. 0. 0.
      0. 0. 2.50626565e-03 0. 2.50626565e-03 0. 0. 0. 2.50626565e-03
      2.50626565e-03 0. 2.50626565e-03 0. 0. 0. 0. 0. 0. 0.
      5.01253130e-03 5.01253130e-03 0. 0. 0. 0. 2.50626565e-03 0. 0. 0.
      0. 0. 0. 5.01253130e-03 0. 0. 0. 0. 0. 0. 0. 0. 2.50626565e-03 0.
      7.51879718e-03 0. 0. 0. 0. 0. 0. 0. 0. 2.50626565e-03
      5.01253130e-03 0. 0. 0. 0. 0. 0. 0. 0. 2.50626565e-03
      1.00250626e-02 2.50626565e-03 0. 5.01253130e-03 0. 2.50626565e-03
      0. 0. 5.01253130e-03 1.25313280e-02 2.50626565e-03 0. 0. 0. 0. 0.
      0. 0. 0. 0. 0. 2.50626565e-03 0. 0. 0. 0. 2.50626565e-03 0.
      2.50626565e-03 0. 0. 0. 0. 0. 0. 0. 0. 2.50626565e-03 0. 0. 0. 0.
      0. 0. 5.01253130e-03 0. 0. 0. 2.50626565e-03 0. 2.50626565e-03 0.
      0. 0. 0. 0. 0. 0. 0. 0. 5.01253130e-03 0. 2.50626560e-02 0. 0. 0.
      0. 0. 0. 2.50626565e-03 2.50626565e-03 0. 1.00250626e-02 0.
      2.50626565e-03 0. 0. 0. 0. 0. 5.01253130e-03 0. 0. 0.
      2.50626565e-03 0. 0. 0. 0. 0. 0. 0. 0. 0. 0. 0. 5.01253130e-03
      2.50626565e-03 0. 0. 0. 0. 2.50626565e-03 0. 0. 0. 0. 0. 0. 0. 0.
      0. 0. 7.51879718e-03 2.50626565e-03 0. 0. 0. 0. 0. 2.50626565e-03
      0. 0. 0. 0. 0. 0. 0. 0. 0. 0. 0. 2.50626565e-03 0. 0. 0.
      5.01253130e-03 0. 0. 2.50626565e-03 0. 0. 5.01253130e-03 0. 0. 0.
      2.50626565e-03 0. 2.50626565e-03 0. 1.00250626e-02 0. 0.
      2.50626565e-03 0. 0. 0. 0. 0. 0. 0. 0. 2.50626565e-03 0. 0. 0.
      2.50626565e-03 0. 0. 0. 0. 0. 0. 0. 2.50626565e-03 2.50626565e-03
      0. 0. 0. 0. 7.51879718e-03 5.01253130e-03 0. 0. 0. 0.
      5.01253130e-03 2.50626565e-03 2.50626565e-03 2.50626565e-03 0. 0.
      0. 2.50626565e-03 0. 0. 2.50626565e-03 2.50626565e-03 0. 0. 0. 0.
      0. 0. 0. 0. 0. 0. 0. 0. 2.50626565e-03 0. 0. 0. 0. 0. 0. 0. 0.
      5.01253130e-03 5.01253130e-03 0. 0. 5.01253130e-03 7.51879718e-03
      0. 2.50626565e-03 7.51879718e-03 0. 0. 0. 0. 0. 0. 0. 0. 0. 0. 0.
      0. 0. 0. 0. 2.50626565e-03 0. 2.50626565e-03 0. 0. 0. 0. 0. 0. 0.
      0. 0. 0. 0. 2.50626565e-03 2.50626565e-03 0. 0. 2.50626565e-03 0.
      2.50626565e-03 0. 0. 0. 0. 7.51879718e-03 0. 5.01253130e-03 0. 0.
      0. 0. 2.50626565e-03 2.50626565e-03 0. 0. 2.50626565e-03 0.
      2.50626565e-03 0. 0. 0. 0. 0. 0. 0. 0. 0. 0. 0. 2.50626565e-03
      2.50626565e-03 0. 0. 0. 0. 0. 0. 0. 0. 2.50626565e-03 0. 0.
      2.50626565e-03 0. 0. 0. 2.50626565e-03 0. 0. 0. 0. 1.25313280e-02
      0. 0. 0. 0. 2.50626565e-03 0. 0. 0. 7.51879718e-03 2.50626565e-03
      0. 0. 0. 0. 0. 0. 1.00250626e-02 0. 0. 2.50626565e-03
      2.50626565e-03 0. 0. 0. 0. 2.50626565e-03 2.50626565e-03 0. 0. 0.
      2.50626565e-03 0. 0. 0. 0. 0. 2.50626565e-03 2.50626565e-03 0. 0.
      2.50626565e-03 0. 5.01253130e-03 0. 2.50626565e-03 0.
      2.50626565e-03 0. 2.50626565e-03 0. 0. 0. 2.50626565e-03 0.
      7.51879718e-03 0. 0. 2.50626565e-03 0. 0. 1.25313280e-02 0. 0.
      2.50626565e-03 0. 0. 0. 0. 0. 0. 0. 0. 0. 0. 0. 0. 0. 0.
      7.51879718e-03 0. 0. 0. 0. 0. 0. 2.50626565e-03 0. 0.
      2.50626565e-03 0. 5.01253130e-03 0. 0. 0. 0. 2.50626565e-03 0.
      2.50626565e-03 2.50626565e-03 0. 0. 0. 0. 5.01253130e-03 0. 0. 0.
      0. 0. 0. 0. 0. 0. 0. 0. 0. 0. 0. 0. 0. 0. 2.50626565e-03 0. 0. 0.
      0. 2.50626565e-03 2.50626565e-03 0. 0. 0. 0. 0. 0. 0. 0. 0. 0.
      2.50626565e-03 0. 0. 0. 2.50626565e-03 0. 0. 0. 0. 0. 0.
      2.50626565e-03 0. 5.01253130e-03 2.50626565e-03 0. 1.75438598e-02
      0. 0. 0. 0. 0. 0. 0. 0. 0. 2.50626565e-03 0. 1.50375944e-02 0. 0.
      1.00250626e-02 2.50626565e-03 2.50626565e-03 0. 0. 0. 0.
      2.50626565e-03 0. 0. 0. 0. 0. 0. 0. 0. 0. 0. 0. 0. 0. 0. 0.
      2.50626565e-03 0. 0. 0. 0. 0. 0. 0. 5.01253130e-03 0. 0. 0.
      2.50626565e-03 0. 0. 5.01253130e-03 0. 0. 0. 0. 0. 0. 0. 0. 0. 0.
      0. 2.50626565e-03 0. 0. 0. 0. 2.50626565e-03 0. 0. 0. 0. 0. 0. 0.
      0. 0. 2.50626565e-03 0. 0. 2.50626565e-03 0. 5.01253130e-03 0. 0.
      0. 0. 0. 0. 2.50626565e-03 0. 0. 0. 5.01253130e-03 0. 0. 0. 0. 0.
      2.50626565e-03 2.50626565e-03 0. 2.50626565e-03 0. 2.50626565e-03
      0. 0. 0. 0. 0. 5.01253130e-03 0. 2.50626565e-03 2.50626565e-03 0.
      5.01253130e-03 0. 0. 0. 0. 5.01253130e-03 0. 0. 0. 0. 0.
      2.50626565e-03 0. 0. 0. 2.50626565e-03 0. 0. 0. 2.50626565e-03 0.
      0. 2.50626565e-03 0. 0. 0. 0. 0. 5.01253130e-03 0. 0. 0. 0. 0. 0.
      0. 0. 0. 0. 0. 0. 0. 2.50626565e-03 0. 0. 2.50626565e-03
      7.51879718e-03 0. 0. 0. 7.51879718e-03 1.25313280e-02 0. 0. 0.
      2.50626565e-03 0. 2.50626565e-03 0. 0. 0. 0. 0. 2.50626565e-03 0.
      2.50626565e-03 0. 7.51879718e-03 0. 0. 0. 0. 0. 0. 0. 0.
      5.01253130e-03 0. 0. 7.51879718e-03 5.01253130e-03 0. 0.
      2.50626565e-03 0. 0. 0. 0. 0. 2.50626565e-03 0. 0. 2.50626565e-03
      0. 0. 0. 0. 0. 0. 0. 0. 0. 2.50626565e-03 0. 5.01253130e-03 0. 0.
      7.51879718e-03 0. 0. 0. 0. 0. 0. 0. 7.51879718e-03 2.50626565e-03
      1.25313280e-02 2.50626565e-03 1.00250626e-02 2.50626565e-03 0. 0.
      0. 0. 2.50626565e-03 0. 0. 0. 2.50626565e-03 0. 0. 0. 0. 0. 0. 0.
      2.50626565e-03 2.50626565e-03 0. 1.00250626e-02 0.</_>
    <_>
      0. 0. 6.17283955e-03 0. 0. 0. 3.08641978e-03 0. 0. 0. 0. 0. 0. 0.
      0. 3.08641978e-03 3.08641978e-03 0. 0. 0. 0. 0. 0. 0. 0.
      3.08641978e-03 0. 0. 3.08641978e-03 0. 3.08641978e-03 0.
      3.08641978e-03 0. 0. 0. 3.08641978e-03 0. 3.08641978e-03
      6.17283955e-03 0. 0. 0. 0. 0. 0. 0. 0. 0. 0. 3.08641978e-03
      3.08641978e-03 0. 0. 0. 0. 0. 0. 0. 0. 0. 0. 0. 0. 0. 0.
      3.08641978e-03 0. 3.08641978e-03 0. 0. 3.08641978e-03
      6.17283955e-03 3.08641978e-03 9.25925933e-03 0. 0. 0. 0. 0. 0. 0.
      0. 0. 0. 0. 0. 0. 0. 3.08641978e-03 3.08641978e-03 3.08641978e-03
      0. 0. 9.25925933e-03 3.08641978e-03 0. 3.08641978e-03 0.
      6.17283955e-03 0. 0. 0. 0. 0. 3.08641978e-03 0. 3.08641978e-03 0.
      0. 3.08641978e-03 0. 0. 0. 0. 0. 0. 0. 0. 3.08641978e-03 0.
      3.08641978e-03 0. 0. 0. 3.08641978e-03 0. 0. 0. 0. 0. 0. 0. 0. 0.
      0. 0. 0. 0. 0. 3.08641978e-03 0. 0. 9.25925933e-03 0. 0.
      3.08641978e-03 0. 0. 0. 3.08641978e-03 3.08641978e-03 0. 0. 0. 0.
      0. 0. 0. 0. 0. 0. 0. 0. 0. 0. 0. 0. 0. 0. 0. 0. 0. 3.08641978e-03
      0. 0. 3.08641978e-03 0. 0. 3.08641978e-03 0. 0. 0. 0. 0.
      3.08641978e-03 0. 0. 0. 0. 0. 0. 0. 3.08641978e-03 0. 0. 0. 0. 0.
      0. 0. 3.08641978e-03 0. 0. 3.08641978e-03 0. 0. 0. 0. 0. 0.
      3.08641978e-03 0. 0. 0. 0. 0. 0. 0. 3.08641978e-03 0. 0. 0. 0.
      3.08641978e-03 3.08641978e-03 9.25925933e-03 0. 0. 0. 0.
      3.08641978e-03 0. 3.08641978e-03 0. 0. 0. 3.08641978e-03 0.
      6.17283955e-03 0. 0. 0. 0. 0. 3.08641978e-03 3.08641978e-03 0. 0.
      0. 0. 0. 3.08641978e-03 0. 0. 0. 0. 0. 9.25925933e-03 0. 0. 0. 0.
      0. 0. 0. 0. 0. 0. 0. 0. 3.08641978e-03 6.17283955e-03 0. 0.
      3.08641978e-03 0. 0. 3.08641978e-03 0. 0. 0. 0. 3.08641978e-03 0.
      3.08641978e-03 0. 0. 3.08641978e-03 0. 0. 0. 3.08641978e-03 0. 0.
      0. 0. 0. 0. 0. 0. 0. 0. 0. 0. 0. 0. 0. 0. 0. 0. 0. 0.
      3.08641978e-03 3.08641978e-03 0. 0. 0. 0. 0. 3.08641978e-03
      3.08641978e-03 0. 0. 0. 3.08641978e-03 0. 0. 0. 3.08641978e-03
      3.08641978e-03 0. 2.46913582e-02 0. 0. 0. 0. 0. 0. 3.08641978e-03
      0. 0. 3.08641978e-03 0. 0. 0. 3.08641978e-03 0. 0. 0. 0.
      3.08641978e-03 0. 0. 0. 0. 0. 0. 0. 0. 0. 0. 0. 3.08641978e-03 0.
      0. 0. 6.17283955e-03 0. 0. 0. 3.08641978e-03 0. 0. 0. 0. 0. 0. 0.
      0. 3.08641978e-03 0. 0. 0. 9.25925933e-03 0. 6.17283955e-03 0. 0.
      0. 6.17283955e-03 0. 0. 0. 0. 0. 0. 0. 0. 0. 0. 3.08641978e-03
      9.25925933e-03 0. 0. 0. 0. 0. 0. 6.17283955e-03 0. 0.
      6.17283955e-03 0. 0. 6.17283955e-03 0. 0. 0. 0. 6.17283955e-03 0.
      0. 0. 0. 0. 0. 3.08641978e-03 3.08641978e-03 0. 0. 0.
      3.08641978e-03 0. 9.25925933e-03 0. 6.17283955e-03 0. 0. 0. 0. 0.
      3.08641978e-03 3.08641978e-03 0. 3.08641978e-03 6.17283955e-03
      3.08641978e-03 0. 0. 0. 0. 0. 0. 0. 0. 0. 0. 3.08641978e-03 0. 0.
      0. 9.25925933e-03 3.08641978e-03 0. 0. 3.08641978e-03
      9.25925933e-03 0. 0. 0. 0. 0. 0. 0. 0. 0. 0. 0. 0. 0.
      3.08641978e-03 0. 0. 0. 0. 0. 3.08641978e-03 0. 0. 0. 0. 0. 0.
      3.08641978e-03 0. 0. 0. 3.08641978e-03 0. 0. 0. 0. 0. 0. 0. 0. 0.
      0. 0. 3.08641978e-03 0. 0. 0. 0. 3.08641978e-03 1.23456791e-02 0.
      0. 0. 0. 0. 0. 0. 0. 9.25925933e-03 6.17283955e-03 0.
      6.17283955e-03 0. 0. 0. 0. 0. 0. 0. 0. 0. 0. 0. 0. 0. 0. 0. 0. 0.
      3.08641978e-03 0. 0. 3.08641978e-03 0. 0. 0. 0. 0. 3.08641978e-03
      3.08641978e-03 0. 3.08641978e-03 0. 3.08641978e-03 0. 0. 0. 0. 0.
      0. 0. 0. 0. 0. 0. 0. 0. 0. 0. 0. 0. 0. 0. 6.17283955e-03 0. 0. 0.
      3.08641978e-03 1.23456791e-02 0. 0. 0. 0. 0. 3.08641978e-03
      3.08641978e-03 0. 6.17283955e-03 0. 0. 0. 0. 0. 3.08641978e-03 0.
      0. 0. 0. 6.17283955e-03 3.08641978e-03 3.08641978e-03 0.
      3.08641978e-03 0. 0. 3.08641978e-03 0. 0. 0. 3.08641978e-03 0. 0.
      0. 0. 0. 0. 9.25925933e-03 0. 0. 0. 0. 0. 6.17283955e-03
      3.08641978e-03 0. 0. 0. 3.08641978e-03 0. 0. 0. 6.17283955e-03 0.
      6.17283955e-03 0. 6.17283955e-03 0. 0. 0. 3.08641978e-03 0. 0. 0.
      0. 0. 0. 0. 0. 0. 0. 0. 0. 0. 3.08641978e-03 0. 0. 0.
      6.17283955e-03 1.54320989e-02 0. 0. 0. 0. 0. 0. 0. 0. 0. 0.
      1.23456791e-02 3.08641978e-03 0. 0. 3.08641978e-03 9.25925933e-03
      0. 0. 0. 3.08641978e-03 6.17283955e-03 0. 0. 3.08641978e-03 0. 0.
      0. 3.08641978e-03 0. 3.08641978e-03 0. 0. 0. 0. 0. 0. 0.
      9.25925933e-03 0. 0. 0. 0. 0. 9.25925933e-03 0. 0. 9.25925933e-03
      0. 0. 6.17283955e-03 3.08641978e-03 0. 0. 0. 0. 0. 0. 0.
      6.17283955e-03 0. 0. 0. 0. 0. 0. 0. 0. 0. 0. 0. 0. 0. 0.
      3.08641978e-03 3.08641978e-03 0. 0. 3.08641978e-03 0. 0. 0. 0. 0.
      3.08641978e-03 0. 0. 0. 0. 0. 6.17283955e-03 0. 0. 0. 0.
      6.17283955e-03 0. 0. 0. 0. 0. 0. 0. 0. 0. 0. 0. 3.08641978e-03 0.
      0. 0. 0. 0. 3.08641978e-03 0. 3.08641978e-03 3.08641978e-03 0. 0.
      0. 0. 1.54320989e-02 0. 0. 0. 0. 0. 0. 0. 0. 0. 0. 0. 0. 0. 0.
      3.08641978e-03 0. 0. 0. 6.17283955e-03 0. 0. 0. 0. 3.08641978e-03
      0. 0. 0. 0. 0. 0. 0. 0. 3.08641978e-03 0. 0. 0. 3.08641978e-03 0.
      6.17283955e-03 1.23456791e-02 0. 0. 0. 0. 3.08641978e-03
      3.08641978e-03 0. 0. 0. 0. 0. 0. 6.17283955e-03 0. 0. 0.
      3.08641978e-03 0. 0. 3.08641978e-03 1.23456791e-02 0.
      3.08641978e-03 0. 0. 0. 0. 0. 0. 3.08641978e-03 0. 0. 0. 0. 0. 0.
      0. 0. 3.08641978e-03 0. 0. 0. 0. 0. 0. 0. 9.25925933e-03 0. 0. 0.
      0. 0. 0. 3.08641978e-03 0. 0. 6.17283955e-03 0. 0. 6.17283955e-03
      0. 0. 3.08641978e-03 0. 0. 0. 0. 0. 0. 0. 0. 0. 0. 0.
      3.08641978e-03 0. 0. 3.08641978e-03 0. 0. 3.08641978e-03
      6.17283955e-03 6.17283955e-03 0. 0. 0. 1.23456791e-02 0.
      3.08641978e-03 0. 3.08641978e-03 0. 0. 0. 3.08641978e-03 0. 0. 0.
      0. 0. 0. 0. 0. 0. 0. 0. 0. 0. 0. 0. 3.08641978e-03 0.
      3.08641978e-03 0. 0. 3.08641978e-03 0. 0. 0. 0. 0. 0. 0. 0. 0. 0.
      0. 0. 0. 0. 0. 0. 3.08641978e-03 6.17283955e-03 0. 3.08641978e-03
      0. 0. 0. 0. 0. 0. 0. 9.25925933e-03 0. 6.17283955e-03 0. 0.
      3.08641978e-03 0. 0. 0. 0. 3.08641978e-03 0. 0. 0. 0.
      3.08641978e-03 0. 0. 0. 6.17283955e-03 0. 0. 0. 6.17283955e-03 0.
      0. 0. 0. 0. 0.</_>
    <_>
      0. 0. 4.52488707e-03 0. 0. 0. 2.26244354e-03 2.26244354e-03 0. 0.
      4.52488707e-03 0. 0. 2.26244354e-03 0. 0. 2.26244354e-03
      6.78733084e-03 2.26244354e-03 0. 2.26244354e-03 0. 0. 0. 0.
      2.26244354e-03 0. 4.52488707e-03 0. 0. 0. 2.26244354e-03
      4.52488707e-03 0. 0. 0. 0. 0. 1.80995483e-02 0. 2.26244354e-03 0.
      0. 0. 0. 0. 0. 0. 0. 0. 0. 0. 0. 2.26244354e-03 0. 0. 0. 0.
      2.26244354e-03 0. 0. 0. 0. 0. 0. 0. 0. 0. 0. 0. 0. 0. 0. 0.
      9.04977415e-03 0. 2.26244354e-03 0. 0. 0. 0. 2.26244354e-03 0.
      2.26244354e-03 0. 0. 0. 0. 0. 0. 1.13122175e-02 2.26244354e-03 0.
      0. 0. 0. 0. 0. 2.26244354e-03 1.58371050e-02 2.26244354e-03
      2.26244354e-03 0. 4.52488707e-03 0. 0. 0. 9.04977415e-03 0. 0.
      6.78733084e-03 0. 0. 0. 0. 2.26244354e-03 2.26244354e-03
      4.52488707e-03 0. 2.26244354e-03 4.52488707e-03 2.26244354e-03 0.
      0. 0. 1.13122175e-02 0. 0. 0. 2.26244354e-03 0. 0. 0. 0.
      2.26244354e-03 0. 0. 0. 0. 2.26244354e-03 0. 0. 0. 9.04977415e-03
      0. 0. 2.26244354e-03 2.26244354e-03 0. 0. 0. 0. 6.78733084e-03
      1.58371050e-02 4.52488707e-03 0. 4.52488707e-03 0. 0. 0.
      2.26244354e-03 0. 6.78733084e-03 2.26244354e-03 0. 0. 0. 0. 0. 0.
      0. 0. 0. 6.78733084e-03 0. 0. 2.26244354e-03 0. 0. 6.78733084e-03
      4.52488707e-03 2.26244354e-03 0. 4.52488707e-03 0. 0. 0.
      2.26244354e-03 0. 0. 0. 0. 0. 0. 0. 0. 2.26244354e-03 0.
      2.26244354e-03 0. 4.52488707e-03 2.26244354e-03 0. 0.
      2.26244354e-03 2.26244354e-03 0. 0. 0. 2.26244354e-03 0. 0.
      2.26244354e-03 0. 0. 0. 0. 0. 0. 4.52488707e-03 0. 0. 0.
      6.78733084e-03 0. 2.26244354e-03 0. 6.78733084e-03 0.
      6.78733084e-03 2.26244354e-03 0. 2.26244354e-03 0. 2.26244354e-03
      2.26244354e-03 0. 0. 0. 9.04977415e-03 2.26244354e-03 0. 0. 0. 0.
      0. 6.78733084e-03 0. 2.26244354e-03 0. 2.26244354e-03 0.
      2.26244354e-03 0. 0. 0. 0. 4.52488707e-03 0. 2.26244354e-03 0. 0.
      0. 0. 0. 0. 0. 0. 0. 0. 0. 1.35746617e-02 2.26244354e-03
      4.52488707e-03 0. 0. 0. 0. 0. 0. 6.78733084e-03 2.26244354e-03 0.
      6.78733084e-03 0. 0. 0. 0. 0. 2.26244354e-03 0. 0. 0. 0. 0. 0. 0.
      0. 0. 0. 0. 0. 0. 2.26244354e-03 0. 0. 0. 0. 0. 0. 0. 0.
      2.26244354e-03 0. 0. 0. 0. 2.26244354e-03 0. 0. 0. 4.52488707e-03
      0. 0. 0. 0. 0. 2.26244354e-03 0. 0. 2.26244354e-03 0.
      1.58371050e-02 0. 0. 0. 0. 0. 2.26244354e-03 0. 0. 0.
      4.52488707e-03 2.26244354e-03 0. 0. 0. 0. 0. 0. 6.78733084e-03
      2.26244354e-03 0. 0. 2.26244354e-03 0. 0. 2.26244354e-03 0. 0. 0.
      0. 0. 0. 0. 0. 2.26244354e-03 0. 0. 0. 0. 0. 0. 0. 0. 0. 0.
      2.26244354e-03 0. 0. 0. 0. 0. 4.52488707e-03 0. 0. 0. 0. 0. 0.
      2.26244354e-03 0. 2.26244354e-03 0. 0. 0. 0. 0. 0. 0. 0.
      6.78733084e-03 1.35746617e-02 0. 0. 0. 0. 0. 0. 0. 0. 0.
      1.80995483e-02 0. 0. 0. 0. 0. 0. 0. 2.26244354e-03 0. 0. 0. 0.
      2.26244354e-03 0. 0. 0. 0. 0. 2.26244354e-03 0. 2.26244354e-03 0.
      0. 4.52488707e-03 0. 0. 0. 0. 0. 2.26244354e-03 2.26244354e-03 0.
      0. 0. 0. 0. 0. 0. 0. 0. 0. 0. 0. 0. 0. 0. 0. 0. 0. 6.78733084e-03
      0. 0. 0. 2.26244354e-03 4.52488707e-03 0. 0. 0. 0. 0. 0. 0.
      4.52488707e-03 0. 0. 0. 0. 0. 0. 0. 0. 0. 0. 0. 0. 0.
      1.35746617e-02 2.26244354e-03 0. 2.26244354e-03 0. 0. 0. 0. 0.
      2.26244354e-03 0. 0. 0. 0. 0. 0. 0. 0. 0. 0. 0. 2.26244354e-03 0.
      0. 2.26244354e-03 0. 1.13122175e-02 6.78733084e-03 2.26244354e-03
      2.26244354e-03 0. 0. 0. 2.26244354e-03 0. 0. 9.04977415e-03 0. 0.
      0. 0. 0. 0. 0. 0. 6.78733084e-03 2.26244354e-03 0. 0.
      2.26244354e-03 0. 4.52488707e-03 0. 0. 0. 0. 0. 2.26244354e-03 0.
      0. 0. 0. 0. 0. 0. 0. 0. 0. 0. 0. 0. 0. 0. 0. 0. 0. 2.26244354e-03
      0. 0. 0. 0. 0. 0. 0. 0. 4.52488707e-03 0. 0. 6.78733084e-03 0. 0.
      6.78733084e-03 0. 0. 0. 0. 1.80995483e-02 0. 0. 0. 0. 0. 0. 0.
      2.26244354e-03 2.26244354e-03 0. 0. 0. 0. 0. 0. 0. 0. 0. 0. 0. 0.
      0. 0. 0. 0. 0. 9.04977415e-03 0. 0. 0. 0. 0. 0. 0. 0. 0. 0. 0. 0.
      2.26244354e-03 0. 0. 0. 2.26244354e-03 2.26244354e-03 0. 0. 0. 0.
      0. 0. 0. 2.26244354e-03 0. 4.52488707e-03 0. 2.26244354e-03 0.
      2.26244354e-03 0. 0. 0. 0. 0. 0. 0. 0. 0. 0. 0. 0. 0.
      2.26244354e-03 0. 0. 4.52488707e-03 2.26244354e-03 0.
      2.26244354e-03 0. 0. 0. 0. 0. 0. 2.26244354e-03 0. 0. 0. 0. 0. 0.
      0. 0. 2.26244354e-03 9.04977415e-03 0. 0. 0. 0. 9.04977415e-03 0.
      2.26244354e-03 0. 0. 0. 0. 4.52488707e-03 0. 0. 0. 0. 0.
      2.26244354e-03 0. 0. 0. 0. 0. 0. 0. 0. 0. 0. 0. 0. 2.26244354e-03
      0. 0. 4.52488707e-03 0. 0. 0. 0. 0. 2.26244354e-03 2.26244354e-03
      2.26244354e-03 0. 2.26244354e-03 0. 0. 1.58371050e-02 0. 0. 0. 0.
      0. 0. 0. 0. 0. 0. 2.26244354e-03 9.04977415e-03 0. 0. 0.
      6.78733084e-03 0. 0. 0. 2.26244354e-03 0. 1.13122175e-02 0.
      6.78733084e-03 0. 0. 4.52488707e-03 0. 0. 0. 2.26244354e-03
      6.78733084e-03 0. 4.52488707e-03 0. 2.26244354e-03 0. 0. 0. 0. 0.
      0. 0. 0. 0. 2.26244354e-03 0. 0. 0. 2.26244354e-03 0. 0. 0. 0. 0.
      0. 0. 1.35746617e-02 0. 0. 0. 0. 0. 0. 0. 0. 0. 0. 0. 0. 0. 0.
      2.26244354e-03 0. 0. 0. 2.26244354e-03 0. 0. 0. 0. 0. 0. 0. 0. 0.
      0. 0. 0. 0. 0. 6.78733084e-03 0. 0. 0. 0. 0. 2.26244354e-03
      2.26244354e-03 2.26244354e-03 2.26244354e-03 0. 2.26244354e-03 0.
      0. 0. 0. 2.26244354e-03 0. 2.26244354e-03 0. 0. 0. 0.
      2.26244354e-03 0. 0. 0. 2.26244354e-03 0. 0. 0. 0. 0.
      9.04977415e-03 2.26244354e-03 0. 0. 0. 0. 0. 4.52488707e-03 0. 0.
      0. 0. 2.26244354e-03 4.52488707e-03 0. 0. 0. 0. 0. 0. 0. 0.
      2.26244354e-03 0. 2.26244354e-03 0. 4.52488707e-03 2.26244354e-03
      0. 0. 2.26244354e-03 0. 0. 0. 0. 0. 0. 0. 2.26244354e-03
      4.52488707e-03 0. 0. 0. 2.26244354e-03 0. 0. 0. 0. 2.26244354e-03
      2.26244354e-03 0. 2.26244354e-03 0. 0. 0. 4.52488707e-03 0. 0. 0.
      0. 9.04977415e-03 0. 2.26244354e-03 0. 0. 2.26244354e-03 0.
      2.26244354e-03 4.52488707e-03 2.26244354e-03 0. 0. 0. 0. 0. 0. 0.
      0. 0. 2.26244354e-03 0. 0. 0. 2.26244354e-03 2.26244354e-03
      4.52488707e-03 2.26244354e-03 0. 0. 0. 0. 0. 0. 6.78733084e-03 0.
      0. 0. 0. 0. 0. 0. 4.52488707e-03 0. 0. 0. 0. 0. 0. 2.26244354e-03
      4.52488707e-03 0. 0. 2.26244354e-03 2.26244354e-03 0. 0. 0. 0. 0.
      4.52488707e-03 4.52488707e-03 0. 0. 0. 4.52488707e-03 0. 0.
      2.26244354e-03 0. 0. 0. 0. 2.26244354e-03 0. 0. 0. 0. 0. 0. 0. 0.
      0. 0. 0. 0. 4.52488707e-03 0.</_>
    <_>
      0. 0. 6.32911408e-03 0. 0. 0. 6.32911408e-03 0. 0. 0. 0. 0. 0.
      3.16455704e-03 0. 0. 6.32911408e-03 6.32911408e-03 0.
      3.16455704e-03 0. 0. 0. 0. 0. 0. 0. 0. 0. 0. 3.16455704e-03 0. 0.
      3.16455704e-03 0. 0. 0. 0. 3.16455704e-03 6.32911408e-03
      3.16455704e-03 0. 0. 0. 0. 9.49367136e-03 0. 0. 0. 0.
      3.16455704e-03 0. 3.16455704e-03 9.49367136e-03 3.16455704e-03 0.
      3.16455704e-03 0. 1.58227850e-02 2.21518986e-02 0. 0. 0. 0. 0. 0.
      6.32911408e-03 0. 0. 0. 0. 0. 3.16455704e-03 0. 3.16455704e-03 0.
      0. 3.16455704e-03 0. 3.16455704e-03 0. 0. 0. 0. 0. 0. 0. 0. 0. 0.
      1.26582282e-02 6.32911408e-03 0. 3.16455704e-03 6.32911408e-03
      3.16455704e-03 0. 3.16455704e-03 0. 3.16455704e-03 0. 0.
      6.32911408e-03 0. 0. 0. 0. 1.26582282e-02 0. 0. 0. 0. 0. 0.
      3.16455704e-03 0. 0. 0. 0. 3.16455704e-03 0. 0. 0. 0. 0. 0. 0.
      3.16455704e-03 3.16455704e-03 0. 0. 0. 0. 0. 0. 0. 0. 0. 0.
      9.49367136e-03 0. 0. 0. 6.32911408e-03 0. 0. 0. 3.16455704e-03 0.
      3.16455704e-03 3.16455704e-03 0. 0. 0. 0. 0. 3.16455704e-03 0. 0.
      0. 3.16455704e-03 0. 0. 3.16455704e-03 3.16455704e-03 0. 0. 0. 0.
      3.16455704e-03 3.16455704e-03 0. 0. 3.16455704e-03 0. 0. 0. 0.
      3.16455704e-03 0. 0. 0. 0. 3.16455704e-03 0. 0. 0. 1.58227850e-02
      0. 0. 0. 0. 0. 0. 0. 0. 0. 3.16455704e-03 0. 0. 3.16455704e-03
      6.32911408e-03 0. 0. 6.32911408e-03 0. 3.16455704e-03 0. 0. 0.
      3.16455704e-03 0. 0. 0. 0. 0. 3.16455704e-03 0. 0. 0. 0.
      3.16455704e-03 0. 3.16455704e-03 6.32911408e-03 6.32911408e-03 0.
      0. 0. 0. 3.16455704e-03 0. 0. 6.32911408e-03 0. 0. 3.16455704e-03
      0. 0. 9.49367136e-03 0. 0. 0. 0. 0. 0. 6.32911408e-03 0. 0. 0.
      3.16455704e-03 0. 0. 0. 3.16455704e-03 0. 0. 0. 0. 3.16455704e-03
      0. 0. 3.16455704e-03 0. 0. 0. 0. 0. 6.32911408e-03 0. 0.
      9.49367136e-03 0. 0. 0. 3.16455704e-03 0. 0. 3.16455704e-03 0. 0.
      0. 0. 0. 0. 0. 0. 0. 3.16455704e-03 0. 0. 6.32911408e-03 0. 0. 0.
      0. 0. 0. 0. 0. 0. 0. 0. 0. 0. 0. 0. 0. 0. 3.16455704e-03 0.
      1.26582282e-02 0. 0. 0. 0. 0. 0. 0. 0. 0. 3.16455704e-03 0. 0. 0.
      0. 0. 0. 0. 3.16455704e-03 0. 0. 3.16455704e-03 0. 0. 0. 0. 0. 0.
      0. 0. 0. 0. 0. 0. 0. 0. 0. 0. 3.16455704e-03 3.16455704e-03 0. 0.
      0. 0. 0. 0. 0. 0. 0. 0. 0. 0. 0. 0. 0. 1.26582282e-02
      9.49367136e-03 0. 3.16455704e-03 0. 0. 0. 0. 0. 0. 0. 0. 0. 0. 0.
      0. 0. 0. 0. 0. 3.16455704e-03 0. 0. 9.49367136e-03 6.32911408e-03
      0. 0. 0. 0. 0. 3.16455704e-03 0. 0. 0. 0. 6.32911408e-03
      6.32911408e-03 0. 0. 0. 0. 0. 0. 0. 0. 0. 0. 0. 0. 0.
      6.32911408e-03 3.16455704e-03 0. 0. 3.16455704e-03 0. 0. 0. 0.
      6.32911408e-03 0. 0. 0. 0. 0. 0. 0. 0. 0. 0. 0. 0. 0. 0. 0.
      3.16455704e-03 0. 6.32911408e-03 0. 0. 0. 6.32911408e-03 0. 0. 0.
      3.16455704e-03 0. 0. 6.32911408e-03 3.16455704e-03 0. 0. 0.
      3.16455704e-03 0. 0. 0. 6.32911408e-03 3.16455704e-03 0.
      3.16455704e-03 6.32911408e-03 0. 0. 0. 0. 0. 0. 0. 0. 0. 0. 0. 0.
      3.16455704e-03 3.16455704e-03 0. 0. 0. 0. 0. 0. 0. 0. 0. 0. 0. 0.
      6.32911408e-03 0. 0. 0. 0. 0. 0. 0. 0. 0. 0. 0. 0. 0. 0. 0.
      3.16455704e-03 0. 0. 0. 0. 0. 0. 0. 3.16455704e-03 0. 0. 0. 0. 0.
      0. 0. 3.16455704e-03 0. 0. 0. 0. 0. 0. 0. 0. 0. 6.32911408e-03 0.
      0. 0. 1.26582282e-02 3.16455704e-03 0. 0. 9.49367136e-03 0.
      6.32911408e-03 3.16455704e-03 0. 0. 0. 6.32911408e-03 0. 0. 0.
      3.16455704e-03 0. 0. 3.16455704e-03 0. 6.32911408e-03 0. 0. 0. 0.
      0. 0. 0. 0. 0. 0. 0. 0. 0. 0. 0. 0. 0. 3.16455704e-03 0. 0. 0.
      3.16455704e-03 0. 0. 1.26582282e-02 0. 0. 1.26582282e-02 0. 0. 0.
      0. 0. 0. 0. 0. 0. 0. 0. 3.16455704e-03 0. 0. 0. 0. 0.
      3.16455704e-03 3.16455704e-03 0. 0. 0. 3.16455704e-03
      3.16455704e-03 0. 0. 0. 0. 0. 0. 0. 3.16455704e-03 0. 0.
      3.16455704e-03 0. 0. 0. 0. 0. 0. 0. 0. 6.32911408e-03 0. 0. 0. 0.
      3.16455704e-03 3.16455704e-03 0. 0. 0. 0. 0. 0. 0. 0. 0. 0. 0. 0.
      0. 0. 0. 0. 0. 0. 0. 0. 0. 0. 0. 3.16455704e-03 0. 6.32911408e-03
      0. 0. 0. 0. 0. 0. 0. 0. 0. 0. 0. 0. 3.16455704e-03 9.49367136e-03
      0. 0. 0. 3.16455704e-03 0. 0. 0. 0. 0. 0. 0. 0. 0. 6.32911408e-03
      6.32911408e-03 0. 0. 0. 0. 0. 0. 0. 0. 0. 6.32911408e-03 0. 0. 0.
      0. 0. 0. 0. 0. 3.16455704e-03 0. 0. 0. 3.16455704e-03 0. 0. 0.
      3.16455704e-03 0. 0. 0. 3.16455704e-03 0. 0. 0. 6.32911408e-03 0.
      0. 0. 0. 0. 0. 3.16455704e-03 0. 0. 0. 0. 3.16455704e-03 0. 0. 0.
      0. 0. 0. 0. 0. 0. 1.58227850e-02 0. 2.21518986e-02 0. 0.
      1.26582282e-02 0. 0. 0. 0. 3.16455704e-03 0. 6.32911408e-03 0. 0.
      0. 0. 0. 0. 0. 0. 0. 0. 0. 0. 6.32911408e-03 0. 0. 0. 0. 0. 0. 0.
      0. 0. 0. 0. 0. 0. 0. 0. 0. 0. 0. 0. 6.32911408e-03 0. 0. 0. 0. 0.
      0. 0. 0. 0. 3.16455704e-03 3.16455704e-03 0. 0. 0. 9.49367136e-03
      0. 0. 0. 0. 0. 0. 0. 0. 0. 3.16455704e-03 0. 0. 0. 0. 0. 0. 0. 0.
      0. 0. 3.16455704e-03 0. 0. 0. 0. 0. 0. 0. 0. 0. 0. 0.
      3.16455704e-03 0. 0. 0. 6.32911408e-03 0. 0. 0. 3.16455704e-03 0.
      3.16455704e-03 0. 0. 6.32911408e-03 0. 0. 0. 0. 0. 0. 0.
      3.16455704e-03 3.16455704e-03 3.16455704e-03 0. 0. 0. 0. 0.
      3.16455704e-03 0. 3.16455704e-03 3.16455704e-03 0. 0. 0.
      3.16455704e-03 0. 0. 0. 0. 0. 0. 0. 3.16455704e-03 0. 0. 0.
      3.16455704e-03 0. 0. 0. 0. 0. 0. 0. 0. 0. 3.16455704e-03 0. 0.
      3.16455704e-03 0. 0. 0. 0. 0. 0. 0. 0. 0. 0. 0. 0. 0. 0. 0. 0.
      3.16455704e-03 0. 0. 0. 3.16455704e-03 0. 0. 0. 0. 0. 0. 0. 0. 0.
      0. 3.16455704e-03 9.49367136e-03 9.49367136e-03 0. 0. 0. 0. 0. 0.
      0. 0. 0. 0. 0. 0. 0. 0. 0. 3.16455704e-03 0. 0. 0. 0. 0. 0.
      3.16455704e-03 0. 0. 6.32911408e-03 6.32911408e-03 0. 0. 0. 0. 0.
      0. 3.16455704e-03 0. 0. 0. 0. 0. 0. 0. 6.32911408e-03 0. 0.
      6.32911408e-03 0. 3.16455704e-03 0. 0. 0. 0. 0. 0. 0. 0. 0. 0. 0.
      0. 3.16455704e-03 0.</_>
    <_>
      0. 4.38596494e-03 0. 0. 0. 0. 6.57894742e-03 0. 0. 0.
      2.19298247e-03 4.38596494e-03 0. 0. 0. 0. 6.57894742e-03
      1.31578948e-02 0. 2.19298247e-03 2.19298247e-03 2.19298247e-03
      2.19298247e-03 0. 0. 4.38596494e-03 0. 0. 2.19298247e-03 0. 0. 0.
      0. 0. 0. 2.19298247e-03 2.19298247e-03 0. 4.38596494e-03 0.
      4.38596494e-03 2.19298247e-03 0. 0. 0. 0. 0. 0. 2.19298247e-03 0.
      2.19298247e-03 0. 0. 0. 0. 0. 0. 0. 0. 4.38596494e-03 0. 0.
      2.19298247e-03 0. 0. 2.19298247e-03 0. 0. 0. 0. 0. 0. 0.
      2.19298247e-03 0. 0. 0. 0. 0. 0. 0. 2.19298247e-03 2.19298247e-03
      2.19298247e-03 0. 0. 0. 0. 0. 0. 1.09649124e-02 6.57894742e-03 0.
      0. 6.57894742e-03 0. 0. 0. 0. 6.57894742e-03 0. 2.19298247e-03 0.
      0. 0. 0. 0. 0. 0. 0. 6.57894742e-03 0. 0. 0. 1.53508773e-02 0. 0.
      0. 0. 2.19298247e-03 4.38596494e-03 6.57894742e-03 0. 0.
      2.19298247e-03 6.57894742e-03 0. 0. 4.38596494e-03 0. 0. 0. 0.
      2.19298247e-03 6.57894742e-03 2.19298247e-03 0. 4.38596494e-03
      2.19298247e-03 2.19298247e-03 2.19298247e-03 0. 0. 6.57894742e-03
      6.57894742e-03 2.19298247e-03 0. 0. 0. 0. 0. 0. 6.57894742e-03
      1.31578948e-02 0. 0. 2.19298247e-03 4.38596494e-03 0. 0.
      2.19298247e-03 0. 2.19298247e-03 0. 4.38596494e-03 0. 0. 0. 0. 0.
      0. 0. 0. 0. 0. 0. 0. 0. 0. 0. 6.57894742e-03 0. 0. 0. 0. 0. 0. 0.
      0. 0. 0. 2.19298247e-03 0. 0. 0. 0. 1.31578948e-02 0. 0.
      2.19298247e-03 0. 0. 0. 2.19298247e-03 6.57894742e-03 0. 0. 0. 0.
      6.57894742e-03 0. 0. 4.38596494e-03 0. 0. 0. 2.19298247e-03 0.
      2.19298247e-03 2.19298247e-03 0. 0. 0. 2.19298247e-03
      2.19298247e-03 0. 2.19298247e-03 0. 0. 4.38596494e-03
      2.19298247e-03 0. 2.19298247e-03 2.19298247e-03 2.19298247e-03 0.
      0. 2.19298247e-03 0. 1.53508773e-02 0. 0. 4.38596494e-03 0. 0. 0.
      2.19298247e-03 0. 0. 0. 0. 0. 2.19298247e-03 0. 2.19298247e-03 0.
      0. 0. 6.57894742e-03 0. 0. 0. 2.19298247e-03 0. 0. 2.19298247e-03
      0. 0. 2.19298247e-03 2.19298247e-03 0. 0. 0. 2.19298247e-03 0.
      2.19298247e-03 0. 0. 2.19298247e-03 0. 2.19298247e-03 0. 0. 0. 0.
      0. 0. 4.38596494e-03 1.09649124e-02 0. 0. 0. 0. 0. 0. 0.
      2.19298247e-03 0. 4.38596494e-03 0. 2.19298247e-03 0. 0. 0. 0. 0.
      0. 0. 0. 0. 2.19298247e-03 2.19298247e-03 0. 0. 0. 0. 0. 0. 0. 0.
      6.57894742e-03 0. 0. 0. 0. 6.57894742e-03 0. 8.77192989e-03 0. 0.
      2.19298247e-03 0. 1.75438598e-02 0. 0. 0. 0. 2.19298247e-03 0.
      6.57894742e-03 0. 0. 2.19298247e-03 0. 0. 0. 0. 0. 0. 0.
      4.38596494e-03 2.19298247e-03 2.19298247e-03 2.19298247e-03 0. 0.
      4.38596494e-03 0. 0. 0. 0. 0. 0. 0. 6.57894742e-03 2.19298247e-03
      2.19298247e-03 2.19298247e-03 0. 2.19298247e-03 0. 0. 0.
      4.38596494e-03 0. 0. 0. 8.77192989e-03 0. 0. 0. 2.19298247e-03 0.
      0. 4.38596494e-03 0. 0. 0. 0. 0. 2.19298247e-03 0. 0. 0.
      2.19298247e-03 0. 0. 0. 0. 0. 0. 2.19298247e-03 4.38596494e-03 0.
      0. 0. 2.19298247e-03 0. 0. 0. 0. 2.19298247e-03 0. 0. 0. 0. 0.
      4.38596494e-03 0. 0. 2.19298247e-03 0. 0. 0. 0. 0. 4.38596494e-03
      0. 4.38596494e-03 0. 0. 2.19298247e-03 2.19298247e-03
      2.19298247e-03 2.19298247e-03 0. 4.38596494e-03 0. 0. 0. 0. 0. 0.
      0. 4.38596494e-03 0. 0. 0. 0. 0. 0. 0. 0. 0. 0. 2.19298247e-03 0.
      6.57894742e-03 2.19298247e-03 6.57894742e-03 0. 0. 1.09649124e-02
      0. 0. 0. 0. 0. 0. 0. 0. 0. 0. 0. 0. 0. 0. 0. 0. 0. 0. 0.
      2.19298247e-03 0. 0. 0. 0. 2.19298247e-03 0. 2.19298247e-03 0. 0.
      0. 0. 2.19298247e-03 0. 8.77192989e-03 0. 0. 0. 2.19298247e-03 0.
      0. 0. 0. 0. 0. 0. 4.38596494e-03 0. 4.38596494e-03 0. 0. 0. 0. 0.
      2.19298247e-03 0. 0. 0. 0. 0. 0. 0. 0. 6.57894742e-03
      2.19298247e-03 0. 0. 0. 0. 0. 0. 0. 0. 0. 0. 0. 0. 0.
      4.38596494e-03 0. 0. 0. 0. 2.19298247e-03 2.19298247e-03 0. 0. 0.
      0. 2.19298247e-03 0. 0. 0. 0. 2.19298247e-03 0. 4.38596494e-03
      2.19298247e-03 0. 0. 2.19298247e-03 0. 0. 0. 0. 0. 0. 0. 0. 0.
      2.19298247e-03 0. 0. 2.19298247e-03 0. 2.19298247e-03 0. 0.
      1.97368413e-02 0. 0. 0. 2.19298247e-03 2.19298247e-03 0. 0. 0.
      2.19298247e-03 6.57894742e-03 0. 0. 0. 2.19298247e-03 0. 0. 0. 0.
      2.19298247e-03 0. 0. 0. 0. 0. 2.19298247e-03 2.19298247e-03
      2.19298247e-03 4.38596494e-03 0. 0. 2.19298247e-03 0. 0. 0. 0. 0.
      0. 0. 0. 2.19298247e-03 0. 0. 2.19298247e-03 0. 0. 2.19298247e-03
      0. 2.19298247e-03 4.38596494e-03 0. 4.38596494e-03 0. 0. 0. 0. 0.
      0. 0. 0. 1.09649124e-02 0. 0. 0. 0. 0. 0. 0. 0. 0. 0. 0. 0. 0.
      2.19298247e-03 0. 0. 0. 0. 0. 0. 0. 2.19298247e-03 0. 0.
      2.19298247e-03 0. 0. 0. 2.19298247e-03 0. 2.19298247e-03 0. 0. 0.
      0. 0. 0. 0. 0. 2.19298247e-03 4.38596494e-03 0. 0. 0. 0.
      4.38596494e-03 0. 0. 0. 4.38596494e-03 0. 4.38596494e-03
      2.19298247e-03 0. 0. 0. 0. 0. 0. 0. 0. 0. 2.19298247e-03 0. 0. 0.
      0. 0. 0. 0. 0. 2.19298247e-03 0. 0. 6.57894742e-03 2.19298247e-03
      0. 0. 0. 0. 0. 0. 0. 0. 0. 0. 2.19298247e-03 2.19298247e-03 0. 0.
      0. 0. 0. 0. 0. 0. 0. 0. 0. 1.53508773e-02 4.38596494e-03 0.
      2.19298247e-03 0. 0. 0. 0. 0. 0. 6.57894742e-03 0. 4.38596494e-03
      0. 0. 1.09649124e-02 2.19298247e-03 0. 2.19298247e-03 0. 0. 0.
      6.57894742e-03 0. 0. 0. 0. 0. 0. 2.19298247e-03 0. 0. 0. 0. 0. 0.
      0. 0. 0. 0. 2.19298247e-03 0. 2.19298247e-03 0. 0. 4.38596494e-03
      8.77192989e-03 0. 0. 0. 0. 0. 0. 0. 0. 0. 4.38596494e-03 0.
      2.19298247e-03 0. 0. 0. 2.19298247e-03 0. 0. 0. 0. 0. 0. 0.
      2.19298247e-03 0. 0. 0. 0. 0. 0. 0. 0. 0. 4.38596494e-03 0. 0. 0.
      0. 0. 2.19298247e-03 0. 0. 0. 0. 2.19298247e-03 0. 0.
      2.19298247e-03 0. 0. 0. 0. 2.19298247e-03 0. 0. 0. 0. 0. 0.
      2.19298247e-03 2.19298247e-03 0. 0. 0. 0. 0. 1.75438598e-02 0. 0.
      2.19298247e-03 0. 0. 0. 0. 0. 0. 0. 0. 0. 0. 0. 0. 0. 0. 0. 0. 0.
      0. 0. 0. 2.19298247e-03 0. 2.19298247e-03 2.19298247e-03
      4.38596494e-03 0. 2.19298247e-03 0. 0. 0. 0. 0. 6.57894742e-03
      2.19298247e-03 0. 4.38596494e-03 0. 0. 0. 0. 0. 0. 0. 0. 0. 0.
      2.19298247e-03 0. 0. 0. 0. 2.19298247e-03 0. 2.19298247e-03
      2.19298247e-03 0. 6.57894742e-03 0. 0. 0. 0. 0. 0. 0.
      8.77192989e-03 0. 0. 0. 0. 0. 0. 0. 0. 0. 0. 0. 0. 0.
      2.19298247e-03 0. 4.38596494e-03 8.77192989e-03 0. 0. 0.
      6.57894742e-03 0. 0. 0. 2.19298247e-03 0. 0. 0. 0. 0. 0. 0. 0. 0.
      0. 0. 0. 0. 1.31578948e-02 0. 2.19298247e-03 0. 0. 0. 0. 0. 0. 0.
      0. 0. 6.57894742e-03 4.38596494e-03 0. 2.19298247e-03 0. 0. 0. 0.
      0. 0. 0. 0. 0. 0. 0. 2.19298247e-03 0. 0. 0. 0. 0. 0. 0. 0. 0. 0.
      0. 0.</_>
    <_>
      0. 0. 2.35849060e-03 0. 0. 0. 2.35849060e-03 0. 0. 0. 0. 0. 0.
      4.71698120e-03 0. 4.71698120e-03 0. 0. 0. 4.71698120e-03
      2.35849060e-03 0. 0. 0. 0. 2.35849060e-03 0. 0. 2.35849060e-03
      2.35849060e-03 0. 0. 0. 0. 0. 0. 0. 0. 7.07547180e-03
      1.17924530e-02 4.71698120e-03 0. 2.35849060e-03 0. 0. 0. 0. 0.
      2.35849060e-03 0. 0. 0. 2.35849060e-03 0. 0. 1.17924530e-02 0. 0.
      0. 0. 0. 0. 0. 0. 2.35849060e-03 0. 0. 0. 0. 0. 0. 0. 0.
      2.35849060e-03 0. 0. 2.35849060e-03 0. 0. 0. 0. 0. 2.35849060e-03
      0. 0. 0. 0. 0. 0. 0. 9.43396240e-03 0. 0. 0. 0. 0. 0. 0.
      2.35849060e-03 1.41509436e-02 4.71698120e-03 0. 0. 4.71698120e-03
      0. 2.35849060e-03 0. 9.43396240e-03 0. 0. 1.65094342e-02 0. 0. 0.
      1.41509436e-02 2.35849060e-03 0. 0. 0. 7.07547180e-03 0. 0. 0. 0.
      0. 9.43396240e-03 0. 0. 0. 0. 0. 0. 0. 0. 2.35849060e-03 0. 0. 0.
      0. 0. 2.35849060e-03 2.35849060e-03 0. 9.43396240e-03 0. 0. 0. 0.
      0. 2.35849060e-03 0. 0. 7.07547180e-03 7.07547180e-03 0. 0.
      2.35849060e-03 2.35849060e-03 7.07547180e-03 0. 2.35849060e-03 0.
      4.71698120e-03 0. 0. 0. 0. 0. 0. 0. 0. 0. 0. 0. 0. 2.35849060e-03
      2.35849060e-03 2.35849060e-03 0. 0. 7.07547180e-03 0. 0. 0. 0. 0.
      0. 2.35849060e-03 0. 0. 0. 0. 0. 0. 0. 0. 7.07547180e-03 0.
      4.71698120e-03 0. 0. 0. 0. 2.35849060e-03 0. 0. 0. 0. 0.
      9.43396240e-03 0. 2.35849060e-03 0. 0. 0. 0. 2.35849060e-03 0. 0.
      0. 0. 0. 0. 2.35849060e-03 0. 0. 4.71698120e-03 0. 0.
      2.35849060e-03 0. 0. 0. 0. 0. 0. 0. 1.41509436e-02 0.
      1.17924530e-02 2.35849060e-03 0. 0. 0. 0. 2.35849060e-03 0. 0.
      2.35849060e-03 0. 0. 0. 0. 0. 0. 0. 0. 2.35849060e-03 0. 0. 0. 0.
      0. 0. 0. 2.35849060e-03 0. 0. 0. 0. 0. 2.35849060e-03 0. 0. 0. 0.
      0. 0. 0. 0. 9.43396240e-03 0. 0. 2.35849060e-03 0. 0. 0. 0.
      7.07547180e-03 2.35849060e-03 0. 0. 0. 0. 2.35849060e-03 0. 0. 0.
      7.07547180e-03 0. 0. 0. 0. 0. 0. 0. 0. 0. 2.35849060e-03 0. 0. 0.
      0. 0. 2.35849060e-03 7.07547180e-03 0. 0. 0. 0. 0. 0. 0. 0. 0.
      9.43396240e-03 2.35849060e-03 2.35849060e-03 0. 0. 4.71698120e-03
      0. 2.12264154e-02 0. 2.35849060e-03 0. 0. 0. 0. 7.07547180e-03 0.
      0. 2.35849060e-03 2.35849060e-03 2.35849060e-03 0. 0. 0. 0. 0.
      2.35849060e-03 2.35849060e-03 0. 0. 0. 0. 2.35849060e-03
      4.71698120e-03 0. 0. 0. 0. 0. 0. 0. 0. 2.35849060e-03
      2.35849060e-03 0. 2.35849060e-03 0. 0. 0. 4.71698120e-03 0. 0. 0.
      2.35849060e-03 0. 0. 0. 0. 0. 0. 0. 0. 0. 0. 0. 2.35849060e-03 0.
      0. 9.43396240e-03 2.35849060e-03 0. 0. 2.35849060e-03 0. 0. 0. 0.
      7.07547180e-03 4.71698120e-03 0. 0. 0. 0. 0. 0. 0. 2.35849060e-03
      0. 2.35849060e-03 0. 0. 0. 2.35849060e-03 0. 0. 0. 0.
      2.35849060e-03 0. 2.35849060e-03 0. 0. 0. 0. 0. 0. 0. 0. 0. 0.
      4.71698120e-03 1.17924530e-02 0. 0. 0. 0. 0. 0. 0. 0. 0. 0. 0. 0.
      0. 0. 2.35849060e-03 0. 0. 0. 7.07547180e-03 0. 0. 0.
      2.35849060e-03 0. 0. 0. 7.07547180e-03 2.35849060e-03 0. 0. 0.
      2.35849060e-03 0. 0. 0. 0. 0. 0. 0. 7.07547180e-03 0. 0. 0. 0.
      7.07547180e-03 0. 0. 0. 0. 0. 0. 2.35849060e-03 0. 1.65094342e-02
      0. 0. 0. 2.35849060e-03 2.35849060e-03 0. 0. 0. 0. 0. 0. 0.
      2.35849060e-03 0. 0. 2.35849060e-03 0. 0. 0. 0. 0. 0. 0.
      2.35849060e-03 2.35849060e-03 7.07547180e-03 0. 0. 2.35849060e-03
      0. 0. 0. 2.35849060e-03 0. 0. 7.07547180e-03 0. 0. 0. 0. 0. 0. 0.
      0. 2.35849060e-03 4.71698120e-03 4.71698120e-03 0. 2.35849060e-03
      2.35849060e-03 2.35849060e-03 0. 0. 0. 0. 2.35849060e-03 0. 0. 0.
      0. 0. 0. 0. 0. 0. 0. 0. 0. 0. 0. 0. 0. 7.07547180e-03 0. 0. 0. 0.
      0. 0. 0. 0. 0. 0. 0. 2.35849060e-03 0. 0. 2.35849060e-03 0. 0.
      1.88679248e-02 0. 0. 0. 0. 1.88679248e-02 0. 0. 0. 0.
      4.71698120e-03 0. 2.35849060e-03 0. 0. 0. 0. 0. 0. 0. 0. 0. 0.
      2.35849060e-03 0. 2.35849060e-03 0. 0. 0. 0. 0. 0. 0. 0. 0. 0.
      2.35849060e-03 0. 0. 0. 0. 0. 0. 1.88679248e-02 0. 2.35849060e-03
      0. 0. 7.07547180e-03 0. 0. 0. 0. 0. 0. 0. 0. 0. 0. 0.
      2.35849060e-03 0. 2.35849060e-03 0. 0. 0. 0. 0. 0. 0. 0. 0. 0. 0.
      0. 0. 0. 0. 0. 0. 0. 7.07547180e-03 2.35849060e-03 0. 0. 0. 0. 0.
      0. 0. 0. 0. 0. 0. 2.35849060e-03 0. 2.35849060e-03 0.
      2.35849060e-03 0. 0. 4.71698120e-03 0. 2.35849060e-03 0. 0.
      4.71698120e-03 0. 0. 2.35849060e-03 2.35849060e-03 0. 0. 0. 0. 0.
      0. 0. 0. 0. 0. 0. 0. 2.35849060e-03 0. 2.35849060e-03 0. 0. 0. 0.
      0. 0. 0. 2.35849060e-03 2.35849060e-03 2.35849060e-03 0. 0. 0. 0.
      0. 0. 0. 2.35849060e-03 0. 0. 2.35849060e-03 0. 7.07547180e-03 0.
      0. 2.35849060e-03 0. 0. 0. 7.07547180e-03 4.71698120e-03 0. 0.
      2.35849060e-03 7.07547180e-03 0. 2.35849060e-03 0. 2.35849060e-03
      0. 0. 0. 0. 0. 4.71698120e-03 0. 9.43396240e-03 0. 0.
      4.71698120e-03 0. 0. 0. 0. 0. 0. 2.35849060e-03 0. 0.
      2.35849060e-03 0. 0. 0. 0. 0. 0. 0. 0. 0. 0. 0. 0. 2.35849060e-03
      0. 2.35849060e-03 0. 0. 0. 0. 4.71698120e-03 4.71698120e-03 0. 0.
      0. 0. 0. 0. 0. 0. 0. 0. 0. 0. 0. 0. 9.43396240e-03 0. 0.
      2.35849060e-03 0. 0. 0. 0. 0. 0. 0. 0. 0. 0. 2.35849060e-03 0. 0.
      0. 0. 0. 0. 0. 0. 2.35849060e-03 2.35849060e-03 2.35849060e-03 0.
      0. 2.35849060e-03 0. 2.35849060e-03 0. 0. 0. 0. 0. 0.
      2.35849060e-03 0. 0. 0. 0. 0. 0. 0. 0. 2.35849060e-03 0. 0. 0. 0.
      0. 1.17924530e-02 2.35849060e-03 0. 4.71698120e-03 0. 0. 0. 0. 0.
      0. 0. 0. 2.35849060e-03 7.07547180e-03 0. 0. 0. 0. 0.
      2.35849060e-03 2.35849060e-03 2.35849060e-03 0. 0. 0. 0.
      2.35849060e-03 0. 0. 0. 0. 0. 0. 4.71698120e-03 0. 0.
      2.35849060e-03 2.35849060e-03 2.35849060e-03 2.35849060e-03 0.
      2.35849060e-03 0. 0. 0. 0. 0. 0. 2.35849060e-03 2.35849060e-03 0.
      0. 2.35849060e-03 0. 0. 2.35849060e-03 0. 2.35849060e-03 0. 0.
      2.35849060e-03 0. 2.35849060e-03 2.35849060e-03 0. 0. 0. 0.
      4.71698120e-03 0. 0. 0. 0. 0. 0. 0. 0. 0. 0. 0. 0. 2.35849060e-03
      0. 2.35849060e-03 7.07547180e-03 9.43396240e-03 0. 0. 0. 0.
      2.35849060e-03 0. 0. 2.35849060e-03 0. 0. 0. 2.35849060e-03 0. 0.
      0. 2.35849060e-03 0. 0. 0. 0. 0. 0. 0. 2.35849060e-03 0. 0. 0. 0.
      0. 0. 0. 0. 0. 9.43396240e-03 2.35849060e-03 0. 0. 0. 0.
      2.35849060e-03 0. 2.35849060e-03 0. 0. 0. 0. 0. 0. 0. 0. 0. 0. 0.
      0. 0. 0. 0. 0. 0. 7.07547180e-03 0.</_>
    <_>
      2.89017335e-03 0. 5.78034669e-03 0. 0. 0. 1.15606934e-02 0. 0. 0.
      2.89017335e-03 0. 0. 0. 0. 2.89017335e-03 0. 5.78034669e-03 0. 0.
      0. 0. 0. 0. 0. 0. 5.78034669e-03 0. 8.67052004e-03 0. 0. 0. 0. 0.
      0. 0. 0. 0. 2.02312134e-02 5.78034669e-03 0. 0. 0. 0. 0. 0. 0. 0.
      2.89017335e-03 0. 0. 0. 0. 0. 0. 0. 2.89017335e-03 0.
      8.67052004e-03 1.15606934e-02 0. 0. 0. 0. 0. 0. 0. 0.
      2.89017335e-03 0. 0. 0. 0. 0. 0. 0. 0. 0. 0. 0. 0. 0.
      2.89017335e-03 0. 0. 0. 8.67052004e-03 0. 0. 0. 0. 2.89017335e-03
      0. 2.89017335e-03 0. 0. 0. 0. 0. 0. 0. 0. 0. 2.89017335e-03 0. 0.
      0. 8.67052004e-03 0. 0. 5.78034669e-03 0. 0. 0. 2.89017335e-03 0.
      0. 0. 0. 0. 0. 2.89017335e-03 0. 0. 0. 2.89017335e-03 0. 0. 0.
      2.89017335e-03 0. 0. 0. 2.89017335e-03 0. 0. 0. 0. 0.
