<?xml version="1.0"?>
<opencv_storage>
<opencv_ml_svm>
  <format>3</format>
  <svmType>C_SVC</svmType>
  <kernel>
    <type>LINEAR</type></kernel>
  <C>1.</C>
  <term_criteria><iterations>100</iterations></term_criteria>
  <var_count>1000</var_count>
  <class_count>2</class_count>
  <class_labels type_id="opencv-matrix">
    <rows>2</rows>
    <cols>1</cols>
    <dt>i</dt>
    <data>
      -1 1</data></class_labels>
  <sv_total>1</sv_total>
  <support_vectors>
    <_>
      -5.15124621e-03 2.65084149e-04 1.21564232e-03 2.04120707e-02
      -1.35225719e-02 -9.15380567e-03 1.49035743e-02 1.25124855e-02
      -8.58763140e-03 -2.63787736e-03 1.08183436e-02 9.95716546e-03
      -7.23813660e-03 -1.51564036e-05 6.72573573e-04 1.47080584e-03
      -6.52407901e-03 -3.14621022e-03 9.05106589e-03 3.36624013e-04
      -2.97160936e-03 1.60811737e-03 1.97637845e-02 -2.30581383e-03
      8.03464092e-03 3.65785183e-03 2.10958272e-02 -1.25616137e-02
      1.84413157e-02 2.01556087e-03 3.51813994e-02 -3.93156568e-03
      2.36113928e-02 -2.89502647e-03 -5.46583906e-04 -1.40557392e-02
      -2.14384589e-02 -6.34158449e-03 3.60395014e-02 -1.74915027e-02
      7.36074569e-03 4.06336319e-03 -3.63575586e-04 -1.95112632e-04
      7.03246100e-04 2.13283580e-02 -5.91604598e-03 3.52924620e-03
      1.48145417e-02 -1.05339633e-02 1.18013436e-03 -2.57412549e-02
      6.39252970e-03 8.77859723e-03 -1.16464542e-03 6.09139204e-02
      3.57713806e-03 -1.10298237e-02 2.40904465e-02 1.56024974e-02
      -6.61384955e-04 -4.18779161e-03 6.08768314e-03 -3.88155505e-03
      -2.78817420e-03 5.87933650e-03 1.87198780e-02 1.18295383e-02
      -4.37018229e-03 6.13973429e-03 -6.79038465e-03 3.87419388e-02
      -9.94931906e-03 -9.93645843e-03 1.12451911e-02 -7.99267739e-03
      -1.41809480e-02 -3.35908821e-03 2.95539823e-04 5.93966432e-03
      1.33048743e-02 -9.57959983e-03 4.68560122e-03 -5.85898273e-02
      -1.74489357e-02 2.00000009e-03 3.89117096e-03 4.66639316e-03
      7.13001285e-03 1.51129365e-02 -7.42897540e-02 2.27022581e-02
      -2.46797455e-03 4.36884351e-02 -7.81512260e-03 1.34753687e-02
      -2.16919743e-03 2.72030849e-03 3.74348415e-03 -3.28549556e-02
      8.89272336e-03 1.45070544e-02 -2.02497048e-03 8.02336913e-03
      -6.04086742e-03 6.06284244e-03 -1.93708967e-02 3.83080803e-02
      9.17583646e-04 -6.66106213e-03 -6.28332794e-03 -1.15068546e-02
      -4.31363769e-02 -4.59362374e-04 -4.21163104e-02 1.04203001e-02
      -7.13234171e-02 -4.23977990e-03 -7.03042699e-03 8.97029322e-03
      1.95826609e-02 -3.29839922e-02 1.25312340e-03 1.09008234e-03
      3.14072729e-03 7.65917525e-02 1.57603808e-03 2.17547007e-02
      -1.62493568e-04 -9.39068571e-03 -2.85347342e-03 1.14548225e-02
      2.25600228e-02 2.46567614e-02 4.72307205e-03 4.83105046e-04
      -9.33437329e-03 -1.65352703e-03 4.97614499e-04 3.58702578e-02
      2.49123611e-02 -1.73542276e-02 2.05736863e-03 1.71659477e-02
      1.56885460e-02 -1.54244562e-03 -1.11691384e-02 -1.73321087e-02
      -1.50831335e-03 2.10210830e-02 -1.85294461e-03 2.49184500e-02
      3.15191187e-02 -5.34243844e-02 -2.47091055e-02 -5.02446294e-03
      3.06273741e-03 -1.96665376e-02 2.59699253e-03 1.04945023e-02
      3.52961011e-04 4.00000019e-03 8.34858697e-03 -6.30164444e-02
      1.65199488e-02 -6.13936805e-04 -1.65241323e-02 2.52220593e-03
      -7.96587788e-04 -1.18586738e-02 -1.12345628e-02 1.57346558e-02
      -3.16278287e-03 -3.15016322e-02 -4.87652421e-02 5.99963963e-03
      1.12482784e-02 -5.10973111e-03 -2.62368983e-03 -3.73340435e-02
      1.73912775e-02 -1.42608127e-02 -6.61993353e-03 1.93102937e-02
      -4.63359524e-03 9.11317999e-04 -2.57012211e-02 -2.34240126e-02
      2.53046118e-02 -1.39686801e-02 4.29965463e-03 1.62404384e-02
      -9.51400027e-03 3.80822062e-03 2.81037539e-02 -9.34123585e-04
      -1.88296251e-02 -1.08280722e-02 2.36835098e-03 -2.93434784e-03
      -1.90700509e-03 6.24154834e-03 -1.35624444e-03 -7.47188242e-05
      -2.93058474e-02 -4.81981086e-03 -1.18953241e-02 1.67477764e-02
      -1.86720844e-02 9.29171569e-04 -3.63323512e-03 -2.91605131e-04
      1.35728437e-02 3.23081762e-03 -3.13298963e-03 -4.05746838e-03
      -8.22850317e-03 -7.53901666e-03 -4.69727516e-02 2.05678623e-02
      3.12892557e-03 1.01919295e-02 -1.48205238e-03 2.12065745e-02
      1.55249471e-03 -2.71982700e-02 -1.10506732e-02 -2.13724095e-02
      -1.94101525e-03 -4.41237018e-02 3.48013416e-02 1.43653678e-03
      -8.80095363e-03 5.63991256e-04 9.98419430e-03 -3.92922871e-02
      1.18694571e-03 -3.48684117e-02 1.17002884e-02 -8.97610467e-03
      -8.79822113e-03 -7.11243786e-03 1.16072400e-02 -1.85042236e-03
      -4.66000747e-05 3.41714988e-03 5.36737069e-02 2.28215591e-03
      8.52183346e-03 -1.43795637e-02 6.22779131e-03 1.02866143e-02
      -5.13317436e-03 -1.98100712e-02 4.79975669e-03 -1.05349841e-02
      -2.46054522e-04 -6.18957821e-03 1.59410946e-02 9.16284788e-03
      -7.84510374e-03 -3.95836821e-03 -3.97047540e-03 -5.10352291e-03
      -5.32554055e-04 -1.24607505e-02 2.68536154e-03 -1.80354901e-02
      2.00834628e-02 -7.62763433e-03 1.70369484e-02 1.95118710e-02
      2.40615988e-03 -1.77220199e-02 -2.17704549e-02 -5.79033326e-03
      -3.85929970e-03 1.80153549e-03 -2.87483446e-03 -5.03048040e-02
      3.30139138e-02 -1.22415572e-02 -8.31061974e-03 -5.86745627e-02
      1.48630980e-02 -2.57812976e-03 -1.21474871e-03 3.16247120e-02
      -2.23805495e-02 1.08266203e-02 -1.13993036e-02 4.55552479e-04
      6.49668509e-03 4.42628050e-03 -1.49578892e-03 4.30632615e-03
      -2.10034312e-03 -3.41559155e-03 -8.17143731e-03 2.23713648e-03
      -2.25777589e-02 -1.20774179e-03 4.56611533e-03 2.40595508e-02
      3.47170467e-03 -2.10024556e-03 1.92278856e-03 1.20613938e-02
      6.02888176e-04 -5.34324348e-03 1.37345260e-03 3.13817412e-02
      -3.42647568e-03 3.22754425e-03 -1.80310495e-02 -3.33550163e-02
      7.45233920e-05 -3.93810356e-03 -2.16461215e-02 2.23286755e-04
      -8.47571250e-03 -8.21641274e-03 5.71577111e-03 1.13806296e-02
      4.43953369e-03 2.20613871e-02 3.01067065e-03 -1.94794964e-02
      3.15989554e-02 -2.11562254e-02 1.12329489e-02 -3.02080275e-03
      5.86358272e-02 -4.86874580e-03 6.37508137e-03 5.42346761e-03
      -1.47979679e-02 -1.06559508e-03 -1.21541312e-02 7.05955923e-02
      -6.47930428e-03 -2.33785901e-02 -2.00752653e-02 2.59381207e-03
      2.08317656e-02 9.15152661e-04 -3.62418080e-03 6.96660485e-03
      3.98794981e-03 -1.74411014e-03 -4.67516202e-03 -5.17089404e-02
      5.91173768e-04 1.02137923e-02 -1.11458497e-02 1.10190148e-02
      2.04464626e-02 -2.28981003e-02 3.12373647e-03 -5.63816342e-04
      9.47553292e-03 -2.62052007e-02 2.85787266e-02 -1.78426225e-02
      5.36125712e-03 -2.57099643e-02 5.51901013e-02 -3.79046425e-02
      -3.91967269e-03 8.25712550e-03 2.29414552e-03 -2.71624478e-04
      5.64912194e-03 1.90179441e-02 3.10488092e-03 1.94620865e-03
      2.58549186e-03 -3.71907391e-02 1.30621938e-03 2.92184809e-03
      -9.87976324e-03 -5.79217914e-03 -1.20377075e-02 2.46063024e-02
      8.75053275e-03 -1.11776572e-02 -1.06992759e-02 4.69994452e-03
      -2.52313539e-02 -5.73276449e-03 -6.15794435e-02 -1.00038224e-03
      5.61324246e-02 2.42523686e-03 8.65319464e-03 1.87204115e-03
      -2.69958340e-02 6.99283928e-03 -4.75918315e-03 -2.34979242e-02
      -2.16919743e-03 4.18479815e-02 2.06683464e-02 1.27767632e-02
      5.08712092e-03 5.49072050e-04 8.99444707e-03 -7.06620235e-03
      -1.25343567e-02 4.84743156e-03 1.49943484e-02 -1.81023199e-02
      -4.16235253e-02 -3.79700027e-03 -9.64358915e-05 1.37838293e-02
      -5.06911539e-02 -1.60573311e-02 -8.29786062e-03 2.96455412e-03
      2.46397220e-04 4.62944759e-03 -4.90199961e-03 6.99771289e-03
      1.10099989e-03 8.99180397e-03 7.40737235e-03 -4.20556637e-03
      2.46997681e-02 1.69758871e-03 7.24913832e-03 -1.40886651e-02
      -5.01857065e-02 -5.77693898e-03 4.45380248e-02 -1.25733241e-02
      2.05404218e-02 1.42215824e-04 1.06683997e-02 -2.05578655e-02
      4.43723565e-03 -5.30456379e-03 -1.28162941e-02 3.86119857e-02
      -2.19522486e-03 -2.78308187e-02 1.12947579e-02 3.41957845e-02
      3.66676785e-03 -9.53238178e-03 1.17557950e-03 5.04332886e-04
      -1.26803732e-02 0. 7.70211741e-02 -5.48422523e-03 1.58175342e-02
      2.73976754e-02 3.25968280e-03 5.81192598e-03 -4.90885740e-03
      2.64112698e-03 -5.11332899e-02 -1.60406320e-03 4.01789742e-03
      3.36556952e-03 -1.61458496e-02 -3.62388790e-02 6.37334958e-03
      3.40424897e-03 -1.92685612e-03 1.66761922e-04 -2.42489018e-02
      -1.64094325e-02 -4.08296008e-03 -4.08661924e-03 -8.14077538e-03
      -1.81921409e-03 1.99970696e-03 1.38852815e-03 4.26464109e-03
      -2.30439520e-03 -2.07113731e-03 3.32627981e-03 -8.77898466e-03
      4.17196425e-03 1.63218211e-02 -3.86156235e-03 6.82020606e-03
      3.26648541e-02 -1.03973523e-02 3.84065963e-04 -3.38675044e-02
      2.97218654e-02 9.31398943e-03 1.54526765e-02 -6.91686291e-04
      -7.98565242e-03 -3.53468978e-03 -3.06011440e-04 1.33354246e-04
      2.00000009e-03 -6.90267794e-03 2.43947026e-03 -3.41793848e-03
      2.20748503e-02 -7.99335539e-04 -5.74621698e-03 -2.93376367e-03
      -9.59220529e-03 -8.40124208e-03 1.09450016e-02 -3.00555793e-03
      6.61180681e-03 -2.77409540e-03 1.15080429e-02 -3.74342874e-02
      -3.65548441e-03 2.29963844e-04 -7.21924659e-03 5.78764221e-03
      1.11044776e-02 8.99845362e-03 2.96591502e-03 1.08766947e-02
      -9.08717699e-03 -2.86155045e-02 6.50353590e-03 -3.74979302e-02
      -3.36894742e-03 6.20588940e-03 -4.40758541e-02 7.20036682e-03
      1.04782302e-02 1.58711392e-02 1.75565332e-02 -1.66103672e-02
      3.08581092e-03 7.60545372e-04 7.84427766e-03 -3.43142189e-02
      9.65740439e-03 1.97717757e-03 -1.57720279e-02 8.92142206e-03
      -2.08223760e-02 1.03629595e-02 -5.04561875e-04 1.87552776e-02
      -3.51239787e-03 -8.70262180e-03 -4.89605649e-04 -1.08388404e-03
      -7.10337237e-03 2.18691770e-04 4.37237183e-03 -3.13585475e-02
      -8.86599347e-03 1.33180125e-02 -5.65094035e-03 -3.73311341e-02
      8.66814982e-03 -9.94014367e-03 1.59891769e-02 2.46388763e-02
      -2.83773872e-03 -2.02468573e-03 -1.17038035e-04 -1.32705318e-02
      5.67810610e-03 4.20502806e-03 6.25136076e-03 1.03731249e-02
      2.30354276e-02 -1.69635285e-02 1.39915757e-03 -2.09406274e-03
      -8.53155740e-03 -1.42667294e-02 2.00000009e-03 -1.12536764e-02
      -2.16919743e-03 -6.57143723e-03 -1.14951320e-02 1.38973575e-02
      7.40051642e-02 9.86328814e-03 -3.67744244e-03 6.38672803e-03
      4.99877334e-03 8.91287997e-03 -9.88019072e-03 4.96778823e-03
      -4.42099944e-02 1.45376404e-03 -9.61425994e-03 -9.90687986e-04
      -7.91673269e-03 -1.97520340e-03 3.53144370e-02 -1.29472259e-02
      -1.51626775e-02 9.32307448e-03 -1.61048572e-03 3.71263269e-03
      2.64714519e-03 -4.71881498e-03 -1.63595062e-02 -1.05345361e-02
      -4.69816430e-03 -1.51485605e-02 1.61908213e-02 -4.87763667e-04 0.
      -3.55906552e-04 1.13027811e-03 -2.05342099e-03 1.88532367e-03
      9.20831971e-03 -2.71605514e-03 -7.44119566e-03 1.01743992e-02
      -2.70592310e-02 -5.98034486e-02 -2.20417953e-03 -2.54805572e-02
      -3.69692259e-02 3.84615641e-03 -5.41609861e-02 3.11873341e-03
      -8.11317877e-05 2.36921408e-03 -1.15033295e-02 -4.26708866e-05
      9.78752971e-03 1.71611027e-03 1.79778468e-02 3.91931785e-03
      -1.49302864e-02 -2.79052812e-03 4.24663983e-02 -4.87335026e-03
      -1.41728213e-02 2.93442351e-03 2.88024191e-02 3.30258976e-03
      8.33562482e-03 -8.70789308e-03 3.50812380e-03 3.58543359e-03
      -8.17351509e-03 -7.07098935e-03 1.27844769e-03 -4.31517512e-03
      -1.46691939e-02 3.86156095e-03 2.71753711e-03 -2.23083119e-03
      2.25291774e-03 -7.04282429e-03 -4.20014653e-03 1.58970396e-03
      -1.53191788e-02 4.67124308e-04 -2.39322856e-02 1.32358000e-02
      2.36998443e-02 3.22802062e-03 1.06335133e-02 -1.10244416e-02
      -8.69009469e-04 -1.13688912e-02 6.63625915e-03 -4.41222172e-03
      -1.30982127e-03 -3.25829210e-03 -1.78348497e-02 -2.28490625e-02
      -6.20938325e-03 -8.48314352e-03 -1.43757435e-02 4.26546410e-02
      4.08405351e-04 8.80613644e-03 1.60037000e-02 1.31450305e-02
      6.82239160e-02 1.45636674e-03 4.06724028e-03 3.56649584e-03
      1.09480107e-02 4.47870651e-03 -4.33852896e-03 5.72986156e-02 0.
      7.19813481e-02 1.07947085e-02 3.82312830e-03 2.34676013e-03
      7.33695319e-03 3.57165486e-02 -6.80116797e-03 -2.04732665e-03
      1.60646308e-02 6.10554637e-03 3.26693384e-03 2.91042356e-03
      -1.01762626e-03 -2.62742047e-03 2.22982578e-02 -1.48289488e-03
      1.33346962e-02 -3.59162837e-02 2.18525389e-03 8.87084694e-04
      4.52930331e-02 5.50947199e-03 -1.84367504e-02 -1.51835084e-02
      -8.04395881e-03 4.73240204e-03 1.28782103e-02 -6.56009361e-04
      -9.69480432e-04 2.87302975e-02 -3.92202772e-02 -3.08209448e-03
      -6.80639292e-04 3.35332677e-02 -3.41164484e-03 4.14960831e-02
      -5.66368997e-02 4.64023324e-03 5.94245642e-03 -1.00494176e-03
      6.05045538e-03 -1.12867113e-02 1.99201163e-02 -1.73748434e-02
      3.99286533e-03 3.84947546e-02 -2.50841547e-02 1.06685134e-02
      -3.32653918e-03 -7.49141118e-03 -1.17476040e-03 -6.89284550e-03
      1.04964077e-02 -1.28102081e-04 2.83121510e-04 9.77560226e-03
      1.68337487e-02 -2.09942069e-02 -1.17236432e-02 -3.73101677e-03
      7.50224963e-02 -3.63640813e-03 2.24314742e-02 4.42973850e-03
      1.50208231e-02 -1.89510884e-03 8.28739256e-03 -2.81378534e-03
      -3.22639244e-04 -1.58147339e-03 -2.09313608e-03 1.28131323e-02
      -3.74904834e-03 1.41944960e-02 -4.48894734e-03 9.76010168e-04 0.
      2.37573040e-04 6.88492600e-03 -1.61355827e-02 -8.99394788e-03
      4.11416497e-03 -2.82994425e-03 -1.77076031e-02 3.39552341e-03
      2.14384459e-02 1.49008585e-04 3.35770170e-03 -8.71021766e-03
      9.01693653e-04 1.49038741e-02 -2.83048451e-02 -2.25300100e-02
      -1.24781264e-03 -3.65008926e-03 -4.18305397e-03 -2.13675224e-03
      -2.23215036e-02 -4.40415181e-03 -2.66448501e-03 -4.06369008e-03
      2.63436115e-03 -2.71434616e-03 1.70382801e-02 -3.72932595e-03
      -2.11416488e-03 -4.20027226e-03 -1.41198095e-02 -2.83620153e-02
      9.38590150e-03 -8.36936058e-04 -3.27665266e-03 -1.79708544e-02
      3.17209326e-02 -1.50639575e-03 -6.24657758e-02 0. -1.59067067e-03
      2.85964983e-04 -1.33490497e-02 4.77163529e-04 1.14264665e-04
      7.95347989e-03 6.71212375e-03 1.44068629e-03 5.63541707e-03
      1.24391997e-02 4.34154179e-04 4.13941173e-03 -1.40481927e-02
      1.89512614e-02 2.83070700e-03 -5.54759242e-03 2.29982543e-03
      -1.46853458e-03 -1.52169389e-03 2.96528544e-03 1.54458638e-02
      5.94614400e-03 -1.20617580e-02 1.12300611e-03 1.32307708e-02
      -1.94246962e-03 9.69287939e-03 8.39757174e-03 -8.61074403e-03
      5.05915377e-03 -7.93322641e-03 2.41097752e-02 1.68807677e-03
      7.92763487e-04 -4.18527867e-04 1.09096337e-02 -2.20560748e-02
      -1.36152832e-02 -8.16907675e-04 -1.74690820e-02 -5.23916213e-04
      7.37247020e-02 1.28233025e-03 3.55032855e-03 3.06285601e-02
      -3.02978940e-02 1.53354986e-03 -2.01207236e-03 1.08445669e-02
      -2.52193883e-02 2.24986840e-02 -1.61923794e-03 -7.50721572e-03
      -7.26250047e-03 -2.01091114e-02 2.08602357e-03 -8.02038761e-04
      2.38244142e-03 -4.39219316e-03 5.95802674e-03 -3.00462451e-02
      3.99867026e-03 -1.26610640e-02 -7.04312406e-04 -4.34488384e-03
      8.37477483e-03 -1.12944201e-03 3.00313774e-02 7.98921566e-03
      3.13243386e-03 2.62606121e-03 1.06357671e-02 -4.73364163e-03
      -3.33100767e-03 5.34471823e-03 -2.68352777e-03 8.02184455e-03
      4.50850390e-02 2.36675777e-02 -2.61862646e-04 2.30971538e-02
      2.52983160e-03 4.22144029e-03 7.07001332e-03 -4.37477184e-03
      -6.81508891e-03 -1.96681451e-03 -5.92231331e-03 8.14539380e-03
      7.81400967e-03 1.68202966e-02 1.02514438e-02 2.68045696e-03
      -6.47326524e-04 -1.15630578e-03 4.89344914e-03 1.77788269e-02
      3.97312045e-02 6.82870531e-03 -1.78611092e-02 -8.71410873e-03
      1.49183730e-02 4.58308170e-03 -2.75005326e-02 1.00570023e-02
      4.89423343e-04 8.66667647e-03 2.33681570e-03 -3.56194656e-03
      1.57981366e-02 1.51527878e-02 -1.21565256e-03 1.40974624e-03
      7.65214767e-03 6.73114834e-03 2.64023338e-03 3.86420311e-03
      -3.42634087e-03 -2.79832352e-03 6.86663063e-03 -3.12267977e-04
      3.32032260e-03 -1.75934117e-02 -2.01985911e-02 3.09169907e-02
      -7.06041381e-02 3.68735101e-03 -1.27279209e-02 3.63481790e-03
      -1.10210031e-02 -1.77719407e-02 1.55741256e-02 1.42316218e-03
      4.49082087e-04 2.82454360e-02 -1.16370888e-02 -3.93374125e-03
      1.23898694e-02 1.02967648e-02 2.40296562e-04 -6.25520013e-04
      4.07117046e-03 3.51558498e-04 8.02677823e-04 2.06745788e-03
      -2.24144906e-02 -3.84856015e-03 -3.53858992e-02 -5.61571773e-03
      -1.59564856e-02 -3.30339447e-02 -6.05358044e-04 6.88188011e-04
      -2.07179808e-03 -2.98376253e-04 -1.17198881e-02 -7.87622202e-03
      3.02026002e-03 -4.21724096e-03 -2.96706110e-02 -1.97584387e-02
      -2.11288463e-02 2.00639945e-02 -2.58611348e-02 -6.38539018e-03
      -1.55359302e-02 -9.97466501e-03 3.81239923e-03 7.24567752e-03
      -9.23859794e-03 -1.77413796e-03 3.72891338e-03 2.00000009e-03
      2.59711277e-02 -4.46742168e-03 4.76574115e-02 8.50990694e-03
      3.42503972e-02 2.10764408e-02 -8.55312776e-03 1.13082752e-02
      8.23462475e-03 -8.96605570e-03 -9.22829285e-03 -1.12347305e-02
      -7.54927564e-03 1.90037340e-02 7.18895206e-03</_></support_vectors>
  <uncompressed_sv_total>121</uncompressed_sv_total>
  <uncompressed_support_vectors>
    <_>
      2.24719103e-03 2.24719103e-03 0. 0. 0. 0. 4.49438207e-03 0. 0. 0.
      0. 2.24719103e-03 0. 0. 0. 0. 4.49438207e-03 0. 0. 2.24719103e-03
      0. 0. 1.12359552e-02 0. 0. 0. 2.24719103e-03 2.24719103e-03
      2.24719103e-03 0. 0. 0. 0. 0. 0. 0. 0. 2.24719103e-03
      1.34831462e-02 1.57303363e-02 2.24719103e-03 0. 0. 0. 0.
      4.49438207e-03 0. 0. 2.24719103e-03 0. 0. 0. 0. 0. 0.
      4.49438207e-03 2.24719103e-03 2.24719103e-03 0. 4.49438207e-03 0.
      4.49438207e-03 0. 0. 0. 0. 0. 0. 0. 0. 0. 2.24719103e-03
      4.49438207e-03 0. 2.24719103e-03 0. 0. 0. 0. 0. 0. 0. 0.
      4.49438207e-03 0. 0. 0. 0. 0. 0. 1.79775283e-02 0. 0. 0.
      1.34831462e-02 0. 0. 0. 0. 2.24719103e-03 2.24719103e-03 0. 0. 0.
      0. 0. 2.24719103e-03 0. 0. 0. 1.34831462e-02 0. 6.74157310e-03 0.
      1.79775283e-02 0. 2.24719103e-03 0. 0. 2.24719103e-03 0.
      6.74157310e-03 0. 0. 0. 1.79775283e-02 0. 0. 0. 2.24719103e-03 0.
      0. 0. 0. 0. 2.24719103e-03 0. 0. 2.24719103e-03 2.24719103e-03
      2.24719103e-03 0. 0. 0. 4.49438207e-03 0. 0. 0. 0. 0. 0. 0.
      2.24719103e-03 1.57303363e-02 2.24719103e-03 0. 0. 2.24719103e-03
      0. 0. 0. 0. 2.24719103e-03 0. 0. 0. 2.24719103e-03 0. 0. 0. 0. 0.
      0. 4.49438207e-03 2.24719103e-03 0. 0. 0. 0. 0. 0. 4.49438207e-03
      0. 0. 0. 0. 0. 0. 0. 0. 0. 0. 0. 0. 0. 0. 0. 0. 0. 0. 0. 0. 0.
      4.49438207e-03 0. 0. 0. 0. 0. 0. 0. 0. 0. 0. 0. 0. 0. 0.
      4.49438207e-03 4.49438207e-03 0. 0. 0. 0. 0. 0. 4.49438207e-03
      2.24719103e-03 0. 0. 2.24719103e-03 0. 0. 2.24719103e-03 0.
      2.24719103e-03 0. 0. 0. 1.79775283e-02 0. 0. 0. 0. 2.24719103e-03
      2.24719103e-03 0. 0. 2.24719103e-03 0. 2.24719103e-03 0.
      4.49438207e-03 2.24719103e-03 0. 0. 0. 0. 2.24719103e-03 0.
      2.24719103e-03 0. 0. 0. 0. 2.24719103e-03 0. 0. 0. 0. 0. 0. 0.
      2.24719103e-03 2.24719103e-03 2.24719103e-03 0. 0. 0. 0. 0. 0. 0.
      4.49438207e-03 0. 0. 0. 0. 4.49438207e-03 0. 0. 0. 2.24719103e-03
      0. 0. 0. 0. 0. 0. 0. 0. 0. 2.24719103e-03 0. 0. 0. 0. 0. 0. 0. 0.
      0. 0. 0. 0. 0. 0. 0. 0. 0. 0. 0. 0. 0. 0. 0. 0. 2.24719103e-03 0.
      0. 0. 0. 2.24719103e-02 0. 0. 0. 2.24719103e-03 2.24719103e-03
      2.24719103e-03 0. 0. 0. 4.49438207e-03 0. 0. 4.49438207e-03 0. 0.
      0. 0. 4.49438207e-03 2.24719103e-03 0. 0. 6.74157310e-03 0. 0. 0.
      0. 0. 0. 0. 2.24719103e-03 8.98876414e-03 2.24719103e-03
      2.24719103e-03 4.49438207e-03 2.24719103e-02 0. 0. 0. 0. 0. 0. 0.
      0. 0. 0. 0. 0. 0. 0. 0. 2.24719103e-03 0. 0. 0. 0. 0. 0.
      1.79775283e-02 0. 2.24719103e-03 0. 0. 0. 0. 0. 2.24719103e-03 0.
      0. 0. 4.49438207e-03 0. 0. 0. 0. 0. 0. 0. 0. 0. 2.24719103e-03 0.
      0. 0. 6.74157310e-03 6.74157310e-03 0. 0. 6.74157310e-03
      2.24719103e-03 0. 0. 0. 0. 0. 2.24719103e-03 0. 0. 0. 0.
      6.74157310e-03 0. 0. 0. 0. 0. 0. 0. 0. 0. 0. 4.49438207e-03 0.
      6.74157310e-03 0. 0. 0. 0. 2.24719103e-03 0. 2.24719103e-03 0. 0.
      0. 0. 0. 0. 4.49438207e-03 0. 0. 0. 0. 0. 0. 0. 2.24719103e-03 0.
      0. 0. 0. 0. 0. 0. 2.24719103e-03 0. 0. 0. 0. 4.49438207e-03 0. 0.
      0. 2.24719103e-03 0. 0. 0. 0. 0. 0. 0. 0. 0. 0. 0. 0.
      2.24719103e-03 1.34831462e-02 0. 0. 0. 0. 0. 0. 0. 0. 0.
      2.24719103e-03 0. 0. 0. 0. 2.24719103e-03 0. 0. 4.49438207e-03 0.
      0. 2.24719103e-03 0. 0. 0. 0. 0. 4.49438207e-03 1.12359552e-02 0.
      4.49438207e-03 0. 2.24719103e-03 2.24719103e-03 0. 0.
      6.74157310e-03 0. 0. 0. 0. 0. 1.12359552e-02 0. 0. 0. 0.
      4.49438207e-03 2.24719103e-03 0. 0. 2.24719103e-03 0.
      4.49438207e-03 0. 0. 0. 0. 4.49438207e-03 0. 4.49438207e-03 0. 0.
      4.49438207e-03 0. 0. 2.24719103e-03 0. 0. 2.24719103e-03 0. 0. 0.
      0. 0. 0. 0. 0. 0. 4.49438207e-03 0. 0. 2.24719103e-03 0. 0. 0. 0.
      1.57303363e-02 0. 0. 0. 0. 0. 0. 0. 1.12359552e-02 2.24719103e-03
      0. 0. 2.24719103e-03 0. 0. 0. 0. 0. 0. 0. 0. 0. 0. 0. 0.
      2.24719103e-03 4.49438207e-03 0. 0. 0. 0. 2.24719103e-03 0. 0. 0.
      0. 0. 2.24719103e-03 0. 0. 2.24719103e-03 0. 0. 0. 0. 0. 0. 0. 0.
      0. 0. 0. 0. 0. 0. 0. 0. 4.49438207e-03 0. 0. 2.24719103e-03 0. 0.
      0. 0. 0. 0. 0. 0. 0. 0. 0. 0. 0. 0. 2.24719103e-03 0.
      2.24719103e-03 0. 6.74157310e-03 2.24719103e-03 0. 0. 0. 0. 0.
      2.24719103e-03 0. 0. 0. 0. 4.49438207e-03 0. 0. 0. 0. 0. 0. 0. 0.
      0. 2.24719103e-03 0. 0. 0. 2.24719103e-03 0. 0. 2.24719103e-03 0.
      4.49438207e-03 4.49438207e-03 0. 0. 2.24719103e-03 0. 0. 0.
      2.24719103e-03 0. 0. 0. 0. 0. 0. 0. 0. 0. 0. 0. 2.24719103e-03 0.
      0. 2.24719103e-03 0. 0. 0. 0. 0. 0. 0. 0. 0. 8.98876414e-03 0. 0.
      8.98876414e-03 0. 0. 0. 0. 0. 0. 0. 0. 2.24719103e-03
      2.24719103e-03 0. 0. 2.24719103e-03 0. 0. 0. 2.24719103e-03 0.
      6.74157310e-03 0. 1.34831462e-02 0. 0. 0. 0. 0. 0. 0.
      6.74157310e-03 0. 0. 0. 0. 0. 0. 0. 0. 0. 0. 0. 0. 0. 0. 0. 0. 0.
      4.49438207e-03 0. 0. 0. 0. 0. 0. 0. 0. 1.34831462e-02 0. 0.
      2.24719103e-03 0. 4.49438207e-03 0. 0. 0. 0. 0. 0. 0. 0. 0.
      1.12359552e-02 0. 0. 0. 0. 0. 0. 0. 8.98876414e-03 0. 0. 0. 0. 0.
      0. 0. 0. 0. 4.49438207e-03 0. 2.24719103e-03 0. 0. 0.
      2.24719103e-03 0. 2.24719103e-03 0. 6.74157310e-03 0.
      4.49438207e-03 0. 0. 0. 4.49438207e-03 0. 0. 0. 0. 2.24719103e-03
      0. 6.74157310e-03 0. 0. 0. 4.49438207e-03 0. 2.24719103e-03 0. 0.
      0. 0. 0. 0. 0. 0. 2.24719103e-03 0. 2.24719103e-03 2.24719103e-03
      2.24719103e-03 0. 0. 2.24719103e-03 0. 0. 0. 0. 0. 0. 0. 0.
      2.24719103e-03 0. 0. 0. 0. 0. 4.49438207e-03 0. 0. 0. 0. 0. 0. 0.
      0. 2.24719103e-03 0. 0. 0. 0. 0. 0. 2.24719103e-03 0. 0. 0. 0.
      4.49438207e-03 2.24719103e-03 0. 2.24719103e-03 0. 0.
      2.24719103e-03 0. 2.24719103e-03 0. 0. 0. 0. 2.24719103e-03 0. 0.
      0. 0. 0. 0. 4.49438207e-03 0. 0. 0. 0. 0. 0. 0. 0. 0. 0. 0. 0. 0.
      0. 0. 8.98876414e-03 0. 0. 0. 0. 4.49438207e-03 0. 0. 0.
      2.24719103e-03 2.24719103e-03 2.24719103e-03 0. 0. 0. 0. 0.
      2.24719103e-03 0. 0. 0. 0. 2.24719103e-03 6.74157310e-03
      2.24719103e-03 0. 0. 0. 0. 0. 2.24719103e-03 0. 0. 0. 0.
      6.74157310e-03 8.98876414e-03 0. 4.49438207e-03 0. 4.49438207e-03
      0. 0. 0. 0. 0. 0. 0. 0. 0. 0. 0. 0. 0. 0. 0. 0. 0. 0. 0. 0.
      2.24719103e-03 2.24719103e-03</_>
    <_>
      0. 0. 0. 0. 0. 4.00000019e-03 0. 0. 2.00000009e-03 0. 0. 0. 0.
      4.00000019e-03 0. 0. 4.00000019e-03 4.00000019e-03 0.
      2.00000009e-03 0. 2.00000009e-03 2.00000009e-03 0. 0.
      4.00000019e-03 2.00000009e-03 0. 2.00000009e-03 0. 2.00000009e-03
      0. 0. 2.00000009e-03 0. 0. 0. 0. 8.00000038e-03 1.00000007e-02
      2.00000009e-03 0. 0. 2.00000009e-03 0. 0. 0. 0. 2.00000009e-03 0.
      0. 2.00000009e-03 0. 2.00000009e-03 4.00000019e-03 4.00000019e-03
      0. 0. 0. 0. 0. 0. 0. 0. 4.00000019e-03 0. 0. 4.00000019e-03 0. 0.
      0. 0. 2.00000009e-03 2.00000009e-03 0. 0. 6.00000005e-03 0. 0.
      2.00000009e-03 0. 4.00000019e-03 0. 0. 0. 0. 0. 0. 0. 0.
      2.80000009e-02 0. 0. 0. 4.00000019e-03 0. 0. 2.00000009e-03 0. 0.
      2.00000009e-03 0. 0. 0. 0. 0. 4.00000019e-03 2.00000009e-03 0. 0.
      2.00000009e-03 0. 0. 0. 8.00000038e-03 2.00000009e-03 0. 0. 0. 0.
      2.00000009e-03 0. 0. 0. 0. 8.00000038e-03 0. 2.00000009e-03
      2.00000009e-03 2.00000009e-03 0. 0. 0. 0. 6.00000005e-03 0. 0.
      2.00000009e-03 0. 4.00000019e-03 2.00000009e-03 2.00000009e-03 0.
      2.00000009e-03 6.00000005e-03 0. 0. 4.00000019e-03 0. 0. 0. 0.
      4.00000019e-03 1.00000007e-02 0. 0. 2.00000009e-03 2.00000009e-03
      0. 0. 2.00000009e-03 0. 2.00000009e-03 0. 2.00000009e-03 0. 0. 0.
      0. 0. 2.00000009e-03 2.00000009e-03 0. 6.00000005e-03 0. 0. 0. 0.
      0. 2.00000009e-03 0. 0. 0. 2.00000009e-03 0. 0. 0. 0. 0. 0. 0.
      2.00000009e-03 0. 0. 0. 2.00000009e-03 2.00000009e-03 0. 0. 0. 0.
      0. 2.00000009e-03 0. 4.00000019e-03 0. 0. 0. 2.00000009e-03
      2.00000009e-03 0. 0. 2.00000009e-03 0. 0. 0. 2.00000009e-03 0.
      2.00000009e-03 0. 0. 0. 0. 2.00000009e-03 0. 6.00000005e-03 0.
      2.00000009e-03 0. 0. 0. 0. 0. 6.00000005e-03 0. 2.00000009e-03 0.
      2.00000009e-03 4.00000019e-03 8.00000038e-03 0. 0. 0. 0. 0. 0. 0.
      0. 0. 0. 0. 0. 0. 0. 0. 2.00000009e-03 0. 0. 4.00000019e-03 0.
      2.00000009e-03 4.00000019e-03 0. 0. 0. 0. 0. 0. 0. 0. 0. 0.
      2.00000009e-03 2.00000009e-03 0. 0. 0. 0. 2.00000009e-03
      2.00000009e-03 6.00000005e-03 0. 0. 0. 0. 0. 0. 0. 1.00000007e-02
      0. 0. 2.00000009e-03 0. 0. 0. 0. 0. 0. 4.00000019e-03 0. 0. 0. 0.
      0. 0. 0. 0. 0. 0. 0. 0. 0. 0. 0. 0. 2.00000009e-03 0. 0.
      2.00000009e-03 2.00000009e-03 0. 4.00000019e-03 0. 0. 0. 0. 0. 0.
      0. 0. 2.00000009e-03 2.00000009e-03 4.00000019e-03 0. 0.
      2.00000009e-03 0. 0. 0. 0. 0. 0. 4.00000019e-03 0. 0. 0. 0. 0. 0.
      0. 8.00000038e-03 2.00000009e-03 0. 0. 0. 0. 8.00000038e-03 0. 0.
      0. 0. 0. 2.00000009e-03 0. 0. 0. 0. 4.00000019e-03 0. 0. 0. 0. 0.
      4.00000019e-03 0. 0. 0. 0. 0. 0. 2.00000009e-03 0. 0.
      2.00000009e-03 6.00000005e-03 0. 0. 0. 0. 0. 8.00000038e-03 0. 0.
      0. 2.00000009e-03 0. 4.00000019e-03 0. 0. 0. 0. 4.00000019e-03
      4.00000019e-03 0. 0. 2.00000009e-03 0. 0. 0. 0. 0. 6.00000005e-03
      1.00000007e-02 0. 0. 0. 6.00000005e-03 2.00000009e-03
      2.00000009e-03 0. 6.00000005e-03 0. 0. 2.00000009e-03 0.
      4.00000019e-03 0. 0. 0. 0. 0. 4.00000019e-03 0. 0. 4.00000019e-03
      0. 0. 0. 0. 0. 0. 0. 2.00000009e-03 2.00000009e-03 0. 0. 0. 0. 0.
      0. 0. 0. 0. 0. 2.00000009e-03 0. 2.00000009e-03 0. 2.00000009e-03
      0. 0. 0. 2.00000009e-03 2.00000009e-03 0. 2.00000009e-03 0.
      2.20000017e-02 0. 0. 0. 0. 4.00000019e-03 0. 0. 4.00000019e-03 0.
      0. 0. 0. 0. 2.00000009e-03 0. 0. 2.00000009e-03 0. 2.00000009e-03
      4.00000019e-03 0. 8.00000038e-03 0. 0. 2.00000009e-03 0. 0. 0. 0.
      0. 1.00000007e-02 0. 0. 0. 0. 0. 2.00000009e-03 0. 0. 0.
      2.00000009e-03 2.00000009e-03 0. 2.00000009e-03 0. 4.00000019e-03
      0. 2.00000009e-03 4.00000019e-03 0. 0. 0. 0. 0. 2.00000009e-03 0.
      0. 6.00000005e-03 2.00000009e-03 2.00000009e-03 0. 0. 0.
      4.00000019e-03 0. 0. 2.00000009e-03 0. 2.00000009e-03
      2.00000009e-03 0. 0. 2.00000009e-03 0. 2.00000009e-03
      4.00000019e-03 0. 2.00000009e-03 0. 2.00000009e-03 0. 0.
      2.00000009e-03 4.00000019e-03 0. 2.00000009e-03 0. 2.00000009e-03
      6.00000005e-03 0. 2.00000009e-03 0. 2.00000009e-03 2.00000009e-03
      4.00000019e-03 0. 0. 0. 0. 0. 0. 4.00000019e-03 0. 4.00000019e-03
      2.00000009e-03 2.00000009e-03 0. 0. 0. 0. 0. 0. 4.00000019e-03 0.
      0. 0. 0. 6.00000005e-03 2.00000009e-03 0. 0. 0. 4.00000019e-03 0.
      2.00000009e-03 2.00000009e-03 0. 0. 0. 0. 0. 2.00000009e-03
      2.00000009e-03 0. 0. 2.00000009e-03 0. 4.00000019e-03 0.
      2.00000009e-03 0. 0. 2.00000009e-03 2.00000009e-03 4.00000019e-03
      0. 0. 0. 0. 0. 0. 0. 0. 0. 4.00000019e-03 4.00000019e-03 0.
      2.00000009e-03 2.00000009e-03 2.00000009e-03 2.00000009e-03
      4.00000019e-03 0. 0. 0. 2.00000009e-03 0. 0. 2.00000009e-03
      2.00000009e-03 0. 0. 2.00000009e-03 0. 2.00000009e-03 0. 0.
      2.00000009e-03 0. 0. 0. 0. 0. 0. 0. 0. 0. 0. 0. 0. 0. 0. 0.
      6.00000005e-03 4.00000019e-03 0. 1.20000001e-02 0. 0. 0. 0.
      2.00000009e-03 0. 0. 2.00000009e-03 0. 2.00000009e-03 0.
      2.00000009e-03 0. 0. 0. 2.00000009e-03 2.00000009e-03 0. 0.
      2.00000009e-03 0. 4.00000019e-03 0. 0. 1.00000007e-02 0. 0. 0.
      2.00000009e-03 0. 0. 0. 0. 0. 0. 0. 0. 0. 0. 0. 0. 0. 0. 0. 0. 0.
      0. 6.00000005e-03 0. 0. 0. 0. 0. 0. 0. 0. 0. 0. 0. 0. 0. 0. 0.
      8.00000038e-03 4.00000019e-03 0. 1.00000007e-02 0. 0. 0. 0. 0.
      2.00000009e-03 4.00000019e-03 4.00000019e-03 1.00000007e-02 0. 0.
      0. 0. 0. 2.00000009e-03 0. 0. 2.00000009e-03 6.00000005e-03 0.
      8.00000038e-03 2.00000009e-03 0. 0. 2.00000009e-03 0. 0. 0.
      8.00000038e-03 0. 0. 0. 0. 0. 0. 0. 0. 0. 0. 0. 0. 0.
      2.00000009e-03 0. 0. 2.00000009e-03 2.00000009e-03 0.
      2.00000009e-03 0. 0. 0. 0. 0. 4.00000019e-03 2.00000009e-03 0. 0.
      0. 0. 0. 0. 0. 0. 0. 2.00000009e-03 2.00000009e-03 2.00000009e-03
      0. 2.00000009e-03 0. 2.00000009e-03 0. 0. 0. 2.00000009e-03 0. 0.
      4.00000019e-03 0. 0. 0. 0. 0. 0. 0. 0. 0. 0. 0. 0. 0. 0.
      2.00000009e-03 4.00000019e-03 2.00000009e-03 0. 0. 0. 0.
      2.00000009e-03 0. 0. 0. 4.00000019e-03 0. 0. 2.00000009e-03 0.
      2.00000009e-03 0. 8.00000038e-03 0. 0. 0. 2.00000009e-03 0.
      2.00000009e-03 2.00000009e-03 0. 0. 0. 0. 0. 2.00000009e-03 0. 0.
      0. 6.00000005e-03 2.00000009e-03 0. 0. 0. 0. 4.00000019e-03 0. 0.
      0. 0. 0. 0. 0. 4.00000019e-03 0. 0. 4.00000019e-03 0. 0. 0.
      2.00000009e-03 0. 0. 0. 2.00000009e-03 0. 0. 0. 0. 0. 0.
      2.00000009e-03 0. 0. 0. 2.00000009e-03 0. 2.00000009e-03 0. 0. 0.
      0. 0. 2.00000009e-03 0. 0. 0. 0. 2.00000009e-03 0. 2.00000009e-03
      0. 2.00000009e-03 0. 2.00000009e-03 0. 0. 0. 0. 0. 2.00000009e-03
      0. 0. 0. 2.00000009e-03 0. 0. 0. 2.00000009e-03 0. 0. 0. 0. 0.
      2.00000009e-03 0. 2.00000009e-03 0. 0. 0. 0. 2.00000009e-03
      2.00000009e-03 0. 0. 2.00000009e-03 6.00000005e-03 0. 0. 0. 0. 0.
      0. 0. 0. 0. 0. 0. 0. 4.00000019e-03 0. 4.00000019e-03 0. 0.
      2.00000009e-03 0. 0. 0. 0. 0. 0. 6.00000005e-03 8.00000038e-03 0.
      2.00000009e-03 2.00000009e-03 6.00000005e-03 2.00000009e-03
      2.00000009e-03 0. 0. 0. 0. 0. 0. 0. 2.00000009e-03 0. 0. 0. 0.
      2.00000009e-03 4.00000019e-03 0. 0. 0. 0. 0. 0.</_>
    <_>
      2.00000009e-03 0. 0. 0. 0. 4.00000019e-03 6.00000005e-03 0.
      8.00000038e-03 0. 0. 0. 0. 0. 0. 0. 1.60000008e-02 0.
      2.00000009e-03 0. 2.00000009e-03 0. 0. 0. 0. 0. 4.00000019e-03 0.
      0. 0. 0. 0. 0. 2.00000009e-03 0. 2.00000009e-03 0. 0.
      1.00000007e-02 1.20000001e-02 0. 0. 2.00000009e-03 0. 0. 0. 0. 0.
      2.00000009e-03 0. 0. 0. 0. 0. 4.00000019e-03 2.00000009e-03 0. 0.
      0. 4.00000019e-03 0. 0. 0. 0. 0. 0. 0. 0. 0. 0. 0. 0.
      4.00000019e-03 0. 0. 0. 2.00000009e-03 0. 0. 2.00000009e-03 0. 0.
      0. 2.00000009e-03 4.00000019e-03 0. 0. 0. 0. 0. 2.40000002e-02 0.
      0. 0. 6.00000005e-03 0. 0. 2.00000009e-03 0. 2.00000009e-03
      2.00000009e-03 4.00000019e-03 0. 0. 0. 0. 0. 0. 0. 0.
      1.40000004e-02 0. 8.00000038e-03 0. 4.00000019e-03 0.
      2.00000014e-02 0. 0. 0. 0. 1.80000011e-02 0. 0. 6.00000005e-03
      6.00000005e-03 2.00000009e-03 2.00000009e-03 0. 2.00000009e-03 0.
      0. 2.00000009e-03 0. 0. 0. 2.00000009e-03 0. 0. 2.00000009e-03 0.
      0. 0. 0. 6.00000005e-03 0. 0. 0. 0. 0. 2.00000009e-03 0.
      2.00000009e-03 8.00000038e-03 2.00000009e-03 0. 2.00000009e-03
      2.00000009e-03 0. 0. 0. 0. 6.00000005e-03 4.00000019e-03 0. 0.
      2.00000009e-03 2.00000009e-03 0. 2.00000009e-03 0. 4.00000019e-03
      0. 0. 2.00000009e-03 0. 2.00000009e-03 2.00000009e-03 0.
      8.00000038e-03 0. 0. 0. 0. 0. 0. 2.00000009e-03 0. 0. 0. 0.
      2.00000009e-03 0. 0. 0. 0. 6.00000005e-03 0. 0. 0. 0. 0. 0. 0.
      2.00000009e-03 0. 0. 0. 0. 0. 2.00000009e-03 0. 0. 0. 0. 0. 0. 0.
      1.20000001e-02 4.00000019e-03 2.00000009e-03 0. 0. 8.00000038e-03
      0. 1.00000007e-02 2.00000009e-03 0. 0. 0. 2.00000009e-03 0. 0.
      4.00000019e-03 0. 4.00000019e-03 0. 0. 2.00000009e-03
      1.40000004e-02 0. 0. 2.00000009e-03 0. 0. 0. 0. 0. 0. 0. 0. 0.
      2.00000009e-03 2.00000009e-03 0. 2.00000009e-03 0. 0.
      2.00000009e-03 2.00000009e-03 0. 2.00000009e-03 0. 0. 0. 0. 0. 0.
      0. 0. 2.00000009e-03 0. 0. 1.20000001e-02 0. 0. 2.00000009e-03 0.
      0. 0. 1.00000007e-02 0. 0. 2.00000009e-03 0. 0. 0. 0. 0. 0.
      2.00000009e-03 0. 0. 0. 0. 0. 0. 0. 2.00000009e-03 0. 0. 0. 0. 0.
      0. 0. 0. 8.00000038e-03 0. 2.00000009e-03 0. 0. 0. 0. 0.
      2.00000009e-03 0. 0. 0. 0. 4.00000019e-03 2.00000009e-03 0. 0. 0.
      0. 0. 6.00000005e-03 0. 0. 2.00000009e-03 0. 6.00000005e-03 0. 0.
      0. 2.00000009e-03 0. 0. 2.00000009e-03 0. 0. 2.00000009e-03 0. 0.
      2.00000009e-03 2.00000009e-03 0. 0. 2.00000009e-03 0. 0. 0. 0. 0.
      2.00000009e-03 2.00000009e-03 2.00000009e-03 0. 0. 0. 0. 0.
      6.00000005e-03 2.00000009e-03 2.00000009e-03 4.00000019e-03
      2.00000009e-03 0. 0. 0. 0. 0. 2.00000009e-03 0. 0. 0. 0. 0. 0. 0.
      0. 0. 0. 2.00000009e-03 0. 0. 0. 0. 0. 2.00000009e-03 0. 0.
      2.00000009e-03 0. 0. 0. 0. 0. 2.00000009e-03 0. 2.00000009e-03
      4.00000019e-03 0. 2.00000009e-03 0. 0. 2.00000009e-03
      2.00000009e-03 0. 0. 4.00000019e-03 2.00000014e-02 0. 0.
      2.00000009e-03 2.00000009e-03 0. 2.00000009e-03 0. 6.00000005e-03
      0. 0. 0. 0. 2.00000009e-03 0. 0. 2.00000009e-03 0. 0.
      6.00000005e-03 4.00000019e-03 0. 0. 0. 0. 0. 0. 2.00000009e-03 0.
      0. 0. 4.00000019e-03 2.00000009e-03 0. 0. 0. 0. 0. 0.
      2.00000009e-03 0. 0. 2.00000009e-03 0. 0. 0. 2.00000009e-03 0. 0.
      0. 6.00000005e-03 2.00000009e-03 0. 2.00000009e-03 0.
      4.00000019e-03 0. 0. 0. 0. 2.00000009e-03 0. 0. 0. 0. 0. 0. 0.
      1.40000004e-02 0. 4.00000019e-03 0. 0. 0. 0. 0. 0. 0. 0. 0.
      2.00000009e-03 2.00000009e-03 0. 0. 8.00000038e-03 0.
      1.20000001e-02 0. 0. 0. 2.00000009e-03 0. 0. 0. 0. 0. 0. 0. 0. 0.
      0. 0. 0. 0. 4.00000019e-03 0. 0. 0. 0. 0. 0. 0. 0. 2.00000009e-03
      4.00000019e-03 0. 6.00000005e-03 0. 0. 0. 0. 0. 4.00000019e-03 0.
      2.00000009e-03 0. 0. 0. 8.00000038e-03 0. 0. 0. 0. 2.00000009e-03
      0. 0. 0. 2.00000009e-03 0. 6.00000005e-03 0. 0. 0. 0. 0. 0. 0. 0.
      0. 2.00000009e-03 0. 0. 2.00000009e-03 0. 0. 0. 2.00000009e-03 0.
      0. 0. 0. 0. 8.00000038e-03 0. 0. 4.00000019e-03 0. 0.
      8.00000038e-03 0. 0. 0. 2.00000009e-03 1.80000011e-02 0.
      2.00000009e-03 0. 0. 2.00000009e-03 0. 0. 0. 6.00000005e-03 0. 0.
      0. 0. 0. 0. 0. 6.00000005e-03 0. 0. 2.00000009e-03 0.
      2.00000009e-03 0. 2.00000009e-03 0. 2.00000009e-03 2.00000009e-03
      0. 0. 0. 2.00000009e-03 0. 0. 2.00000009e-03 0. 0. 0.
      6.00000005e-03 0. 4.00000019e-03 0. 0. 0. 0. 0. 0. 0. 0. 0. 0.
      2.00000009e-03 0. 2.00000009e-03 0. 0. 0. 2.00000009e-03 0.
      2.00000009e-03 0. 0. 0. 0. 0. 0. 0. 0. 0. 0. 0. 0. 0. 0. 0. 0. 0.
      2.00000009e-03 0. 4.00000019e-03 0. 0. 0. 0. 0. 0. 0. 0. 0. 0. 0.
      4.00000019e-03 0. 0. 0. 6.00000005e-03 4.00000019e-03 0. 0.
      2.00000009e-03 0. 0. 0. 0. 0. 0. 0. 0. 2.00000009e-03 0. 0. 0. 0.
      0. 2.00000009e-03 0. 0. 0. 2.00000009e-03 0. 0. 0. 0. 0. 0. 0.
      2.00000009e-03 6.00000005e-03 0. 0. 4.00000019e-03 0. 0.
      2.00000009e-03 0. 0. 0. 0. 0. 0. 0. 4.00000019e-03 0.
      2.00000009e-03 0. 0. 2.00000009e-03 0. 0. 0. 0. 2.00000009e-03
      2.00000009e-03 0. 0. 2.00000009e-03 0. 0. 0. 0. 0. 0. 0. 0. 0.
      6.00000005e-03 0. 8.00000038e-03 0. 2.00000009e-03 0. 0.
      2.00000009e-03 0. 0. 4.00000019e-03 0. 4.00000019e-03 0. 0. 0. 0.
      0. 0. 0. 0. 0. 0. 0. 2.00000009e-03 2.00000009e-03 0. 0. 0. 0. 0.
      0. 2.00000009e-03 0. 0. 0. 0. 2.00000009e-03 2.00000009e-03 0. 0.
      0. 0. 2.00000009e-03 0. 0. 0. 0. 0. 0. 0. 0. 0. 0. 0. 0.
      2.00000009e-03 0. 0. 0. 1.00000007e-02 0. 0. 0. 0. 0. 0. 0. 0. 0.
      0. 0. 0. 0. 0. 0. 0. 0. 6.00000005e-03 0. 0. 0. 0. 2.00000009e-03
      0. 0. 4.00000019e-03 0. 2.00000009e-03 0. 0. 0. 0. 4.00000019e-03
      0. 0. 0. 0. 2.00000009e-03 0. 0. 0. 2.00000009e-03 4.00000019e-03
      2.00000009e-03 0. 0. 0. 0. 0. 4.00000019e-03 0. 0. 0. 0.
      2.00000009e-03 0. 0. 0. 0. 0. 0. 0. 0. 8.00000038e-03 0. 0. 0. 0.
      0. 4.00000019e-03 0. 0. 0. 0. 0. 0. 0. 0. 0. 2.00000009e-03 0.
      2.00000009e-03 0. 0. 0. 0. 0. 0. 0. 0. 2.00000009e-03
      2.00000009e-03 0. 2.00000009e-03 0. 0. 0. 0. 2.00000009e-03
      2.00000009e-03 2.00000009e-03 2.00000009e-03 6.00000005e-03
      4.00000019e-03 0. 0. 0. 0. 0. 0. 4.00000019e-03 0. 0. 0. 0. 0. 0.
      2.00000009e-03 0. 0. 0. 0. 0. 0. 0. 0. 6.00000005e-03
      4.00000019e-03 0. 0. 2.00000009e-03 0. 0. 0. 0. 2.00000009e-03 0.
      0. 0. 0. 0. 0. 0. 0. 0. 0. 2.00000009e-03 0. 0. 4.00000019e-03
      2.00000009e-03 6.00000005e-03 0. 0. 0. 0. 0. 0. 0. 0. 0.
      2.00000009e-03 1.40000004e-02 2.00000009e-03 2.00000009e-03 0.
      2.00000009e-03 0. 0. 0. 2.00000009e-03 0. 0. 0. 0. 2.00000009e-03
      0. 2.00000009e-03 0. 0. 0. 2.00000009e-03 2.00000009e-03 0. 0. 0.
      0. 0. 0.</_>
    <_>
      0. 4.21052612e-03 0. 0. 0. 0. 2.10526306e-03 2.10526306e-03
      2.10526306e-03 0. 0. 0. 4.21052612e-03 2.10526306e-03 0. 0.
      4.21052612e-03 2.10526306e-03 0. 2.10526306e-03 2.10526306e-03 0.
      0. 0. 0. 2.10526306e-03 2.10526306e-03 2.10526306e-03
      2.10526306e-03 0. 2.10526306e-03 0. 0. 0. 0. 0. 0. 0.
      2.10526306e-03 4.21052612e-03 0. 0. 0. 0. 0. 0. 0. 2.10526306e-03
      2.10526306e-03 0. 0. 2.10526306e-03 0. 0. 0. 4.21052612e-03 0. 0.
      0. 2.10526306e-03 6.31578919e-03 0. 0. 0. 0. 0. 2.10526306e-03 0.
      2.10526306e-03 0. 0. 0. 6.31578919e-03 1.05263153e-02
      4.21052612e-03 0. 2.10526306e-03 0. 0. 0. 0. 6.31578919e-03 0.
      1.05263153e-02 0. 0. 0. 0. 2.10526306e-03 0. 8.42105225e-03 0. 0.
      0. 6.31578919e-03 0. 0. 0. 0. 0. 0. 2.10526306e-03 0.
      2.10526306e-03 0. 2.10526306e-03 2.10526306e-03 0. 0.
      2.10526306e-03 2.10526306e-03 0. 4.21052612e-03 0. 4.21052612e-03
      0. 0. 0. 0. 2.10526306e-03 4.21052612e-03 2.10526306e-03 0. 0. 0.
      1.05263153e-02 2.10526306e-03 0. 0. 6.31578919e-03 2.10526306e-03
      0. 0. 0. 0. 4.21052612e-03 0. 0. 0. 0. 2.10526306e-03 0. 0.
      2.10526306e-03 8.42105225e-03 0. 2.10526306e-03 2.10526306e-03
      2.10526306e-03 0. 0. 0. 0. 6.31578919e-03 0. 0. 0. 4.21052612e-03
      0. 0. 6.31578919e-03 0. 0. 0. 2.10526306e-03 0. 0. 0. 0.
      2.10526306e-03 2.10526306e-03 0. 0. 0. 2.10526306e-03 0. 0. 0. 0.
      2.10526306e-03 0. 6.31578919e-03 2.10526306e-03 0. 0. 0.
      2.10526306e-03 0. 0. 0. 0. 0. 0. 0. 2.10526306e-03 0.
      2.10526306e-03 2.10526306e-03 2.10526306e-03 2.10526306e-03 0. 0.
      2.10526306e-03 0. 2.10526306e-03 0. 0. 0. 0. 0. 2.10526306e-03 0.
      0. 0. 0. 0. 2.10526306e-03 0. 2.10526306e-03 4.21052612e-03 0. 0.
      0. 0. 2.10526306e-03 4.21052612e-03 2.10526306e-03 4.21052612e-03
      0. 4.21052612e-03 0. 0. 0. 0. 4.21052612e-03 6.31578919e-03
      2.10526306e-03 0. 0. 2.10526306e-03 0. 0. 2.10526306e-03 0. 0. 0.
      0. 0. 0. 0. 0. 0. 2.10526306e-03 0. 0. 0. 0. 0. 4.21052612e-03 0.
      2.10526306e-03 0. 0. 0. 2.10526306e-03 2.10526306e-03 0. 0.
      2.10526306e-03 0. 2.10526306e-03 0. 0. 4.21052612e-03 0.
      2.10526306e-03 0. 0. 0. 2.10526306e-03 0. 0. 0. 4.21052612e-03 0.
      0. 0. 0. 0. 4.21052612e-03 0. 2.10526306e-03 0. 0. 0. 0. 0. 0.
      2.10526306e-03 0. 0. 0. 0. 0. 0. 0. 0. 0. 0. 0. 2.10526306e-03 0.
      0. 0. 0. 0. 4.21052612e-03 0. 4.21052612e-03 0. 0. 0. 0. 0.
      2.10526306e-03 0. 0. 2.10526306e-03 0. 0. 0. 0. 6.31578919e-03 0.
      0. 2.10526306e-03 0. 0. 0. 0. 0. 2.10526306e-03 1.05263153e-02 0.
      0. 0. 2.10526306e-03 0. 0. 0. 6.31578919e-03 0. 0. 0.
      2.10526306e-03 0. 0. 0. 0. 0. 0. 0. 2.10526306e-03 0. 0.
      2.10526306e-03 0. 8.42105225e-03 0. 0. 0. 0. 0. 2.10526306e-03 0.
      2.10526306e-03 0. 0. 0. 2.10526306e-03 2.10526306e-03 0. 0. 0.
      6.31578919e-03 2.10526306e-03 0. 0. 0. 0. 2.10526306e-03 0. 0. 0.
      0. 0. 0. 0. 0. 0. 0. 6.31578919e-03 0. 0. 0. 0. 0. 0. 0. 0.
      2.10526306e-03 4.21052612e-03 2.10526306e-03 0. 0. 0.
      8.42105225e-03 0. 0. 0. 4.21052612e-03 0. 0. 0. 0. 2.10526306e-03
      0. 0. 4.21052612e-03 2.10526306e-03 0. 0. 0. 2.10526306e-03
      6.31578919e-03 6.31578919e-03 0. 0. 0. 0. 0. 2.10526306e-03 0. 0.
      0. 6.31578919e-03 0. 0. 0. 2.10526306e-03 0. 0. 0. 0.
      2.10526306e-03 0. 2.10526306e-03 4.21052612e-03 0. 2.10526306e-03
      0. 0. 0. 4.21052612e-03 0. 0. 4.21052612e-03 6.31578919e-03 0.
      2.10526306e-03 0. 0. 0. 0. 0. 2.10526306e-03 0. 0. 0. 0. 0.
      2.10526306e-03 2.10526306e-03 0. 0. 0. 0. 0. 0. 6.31578919e-03 0.
      0. 0. 0. 0. 0. 0. 0. 0. 2.10526306e-03 0. 0. 2.10526306e-03 0. 0.
      0. 0. 0. 0. 0. 0. 0. 2.10526306e-03 0. 0. 2.10526306e-03
      2.10526306e-03 0. 0. 0. 0. 0. 0. 0. 0. 0. 4.21052612e-03 0. 0. 0.
      0. 6.31578919e-03 0. 0. 0. 2.10526306e-03 0. 0. 0. 0. 0. 0. 0.
      4.21052612e-03 0. 2.10526306e-03 2.10526306e-03 0. 0. 0. 0. 0. 0.
      0. 2.10526306e-03 0. 6.31578919e-03 0. 6.31578919e-03 0. 0. 0. 0.
      4.21052612e-03 0. 4.21052612e-03 0. 0. 0. 0. 0. 0. 0. 0.
      2.10526306e-03 0. 2.10526306e-03 0. 0. 0. 0. 0. 0. 0.
      2.10526306e-03 1.05263153e-02 0. 0. 0. 0. 4.21052612e-03 0. 0. 0.
      4.21052612e-03 0. 0. 2.10526306e-03 0. 2.10526306e-03
      2.10526306e-03 0. 0. 0. 0. 4.21052612e-03 0. 4.21052612e-03 0. 0.
      0. 6.31578919e-03 2.10526306e-03 0. 0. 2.10526306e-03
      6.31578919e-03 0. 0. 0. 2.10526306e-03 0. 4.21052612e-03
      8.42105225e-03 2.10526306e-03 0. 0. 2.10526306e-03 4.21052612e-03
      6.31578919e-03 0. 0. 0. 0. 0. 0. 2.10526306e-03 0. 4.21052612e-03
      0. 6.31578919e-03 0. 2.10526306e-03 0. 0. 0. 2.10526306e-03 0. 0.
      0. 0. 0. 0. 0. 0. 0. 0. 0. 0. 2.10526306e-03 2.10526306e-03 0. 0.
      2.10526306e-03 6.31578919e-03 2.10526306e-03 0. 0. 0.
      2.10526306e-03 2.10526306e-03 0. 0. 0. 0. 0. 0. 0. 0. 0. 0.
      2.10526306e-03 0. 2.10526306e-03 0. 0. 2.10526306e-03 0. 0.
      2.10526306e-03 0. 0. 0. 0. 0. 0. 0. 0. 2.10526306e-03 0. 0.
      2.10526306e-03 0. 0. 0. 0. 0. 2.10526306e-03 0. 2.10526306e-03 0.
      4.21052612e-03 0. 2.10526306e-03 0. 2.10526306e-03 0. 0.
      4.21052612e-03 0. 0. 0. 0. 0. 0. 2.10526306e-03 0. 0.
      2.10526306e-03 2.10526306e-03 0. 0. 0. 2.10526306e-03 0. 0.
      2.10526306e-03 0. 0. 2.10526306e-03 6.31578919e-03 4.21052612e-03
      0. 4.21052612e-03 0. 0. 0. 0. 0. 0. 2.10526306e-03 0.
      4.21052612e-03 4.21052612e-03 0. 4.21052612e-03 0. 0. 0. 0.
      4.21052612e-03 0. 2.10526306e-03 0. 0. 0. 2.10526306e-03 0. 0. 0.
      2.10526306e-03 0. 0. 2.10526306e-03 2.10526306e-03 0. 0. 0.
      2.10526306e-03 0. 0. 2.10526306e-03 0. 0. 0. 0. 2.10526306e-03
      2.10526306e-03 2.10526306e-03 0. 2.10526306e-03 0. 0. 0. 0. 0.
      2.10526306e-03 2.10526306e-03 0. 2.10526306e-03 0. 0. 0.
      2.10526306e-03 0. 2.10526306e-03 2.10526306e-03 2.10526306e-03 0.
      2.10526306e-03 6.31578919e-03 0. 0. 0. 2.10526306e-03 0. 0. 0. 0.
      0. 0. 0. 0. 2.10526306e-03 0. 2.10526306e-03 4.21052612e-03 0. 0.
      0. 2.10526306e-03 4.21052612e-03 0. 0. 0. 0. 0. 0. 0. 0. 0. 0. 0.
      0. 0. 0. 0. 4.21052612e-03 0. 2.10526306e-03 2.10526306e-03
      4.21052612e-03 0. 0. 0. 0. 4.21052612e-03 0. 0. 0. 4.21052612e-03
      0. 0. 0. 0. 0. 6.31578919e-03 0. 0. 0. 0. 0. 4.21052612e-03
      2.10526306e-03 2.10526306e-03 0. 0. 2.10526306e-03 0.
      2.10526306e-03 0. 0. 0. 0. 0. 0. 0. 2.10526306e-03 0.
      4.21052612e-03 0. 0. 0. 0. 0. 0. 0. 0. 0. 0. 0. 0. 0.
      2.10526306e-03 0. 0. 0. 0. 2.10526306e-03 2.10526306e-03 0.
      6.31578919e-03 2.10526306e-03 6.31578919e-03 0. 6.31578919e-03 0.
      2.10526306e-03 0. 0. 0. 2.10526306e-03 0. 0. 0. 2.10526306e-03 0.
      0. 0. 2.10526306e-03 0. 0. 2.10526306e-03 0. 0. 6.31578919e-03 0.
      2.10526306e-03 2.10526306e-03 0. 2.10526306e-03 0. 6.31578919e-03
      0. 0. 0. 4.21052612e-03 2.10526306e-03 4.21052612e-03 0. 0. 0. 0.
      0. 0. 0. 2.10526306e-03 0. 0. 1.26315784e-02 2.10526306e-03
      2.10526306e-03 6.31578919e-03 0. 0. 0. 2.10526306e-03 0. 0. 0.
      4.21052612e-03 8.42105225e-03 4.21052612e-03 2.10526306e-03 0.
      2.10526306e-03 0. 2.10526306e-03 2.10526306e-03 0. 0. 0.
      2.10526306e-03 0. 0. 0. 0. 0. 0. 2.10526306e-03 0. 2.10526306e-03
      0. 0. 0. 0. 0. 0. 0. 0.</_>
    <_>
      0. 0. 0. 0. 0. 0. 6.26959233e-03 0. 3.13479616e-03 0.
      3.13479616e-03 0. 0. 3.13479616e-03 0. 0. 6.26959233e-03 0. 0. 0.
      0. 0. 3.13479616e-03 0. 0. 6.26959233e-03 0. 0. 0. 0. 0. 0. 0.
      3.13479616e-03 0. 0. 0. 3.13479616e-03 6.26959233e-03
      9.40438826e-03 0. 0. 0. 0. 0. 0. 0. 0. 3.13479616e-03 0. 0. 0. 0.
      3.13479616e-03 0. 0. 0. 0. 0. 0. 3.13479616e-03 0. 0.
      6.26959233e-03 0. 0. 0. 0. 0. 0. 0. 0. 0. 0. 3.13479616e-03 0. 0.
      0. 0. 0. 0. 0. 3.13479616e-03 0. 0. 0. 0. 0. 0. 0. 1.88087765e-02
      0. 0. 0. 9.40438826e-03 0. 0. 0. 0. 3.13479616e-03 0. 0. 0. 0. 0.
      0. 3.13479616e-03 0. 0. 0. 1.56739801e-02 0. 0. 0. 6.26959233e-03
      0. 0. 0. 0. 0. 6.26959233e-03 1.25391847e-02 0. 0. 0.
      6.26959233e-03 0. 0. 0. 3.13479616e-03 0. 0. 3.13479616e-03 0. 0.
      3.13479616e-03 0. 0. 0. 0. 0. 6.26959233e-03 0. 0. 3.13479616e-03
      0. 0. 3.13479616e-03 0. 0. 0. 0. 0. 6.26959233e-03 0. 0. 0. 0. 0.
      0. 0. 0. 3.13479616e-03 0. 0. 0. 0. 0. 0. 0. 0. 0. 0. 0. 0. 0.
      3.13479616e-03 3.13479616e-03 0. 0. 0. 9.40438826e-03 0. 0. 0. 0.
      0. 3.13479616e-03 3.13479616e-03 3.13479616e-03 3.13479616e-03 0.
      3.13479616e-03 0. 0. 0. 9.40438826e-03 0. 6.26959233e-03 0. 0.
      3.13479616e-03 0. 0. 3.13479616e-03 0. 0. 3.13479616e-03
      3.13479616e-03 0. 0. 0. 0. 0. 3.13479616e-03 0. 0. 0.
      3.13479616e-03 0. 0. 0. 0. 6.26959233e-03 3.13479616e-03 0. 0.
      3.13479616e-03 0. 0. 3.13479616e-03 0. 0. 1.56739801e-02 0. 0. 0.
      0. 0. 1.25391847e-02 9.40438826e-03 0. 0. 0. 0. 0. 0. 0. 0. 0. 0.
      0. 3.13479616e-03 0. 0. 3.13479616e-03 0. 0. 3.13479616e-03 0. 0.
      0. 3.13479616e-03 0. 0. 0. 0. 0. 0. 0. 0. 0. 3.13479616e-03
      6.26959233e-03 0. 0. 0. 0. 0. 3.13479616e-03 6.26959233e-03
      3.13479616e-03 0. 6.26959233e-03 0. 3.13479616e-03 3.13479616e-03
      3.13479616e-03 9.40438826e-03 0. 0. 0. 0. 0. 3.13479616e-03 0. 0.
      0. 0. 0. 0. 0. 0. 0. 0. 0. 0. 0. 0. 0. 0. 0. 3.13479616e-03 0. 0.
      0. 0. 3.13479616e-03 6.26959233e-03 0. 0. 0. 0. 0. 0. 0. 0.
      6.26959233e-03 0. 3.13479616e-03 0. 0. 0. 0. 0. 0. 0. 0. 0.
      3.13479616e-03 0. 0. 3.13479616e-03 0. 0. 0. 3.13479616e-03 0. 0.
      0. 0. 0. 0. 0. 0. 0. 0. 3.13479616e-03 0. 0. 3.13479616e-03 0. 0.
      0. 0. 0. 3.13479616e-03 0. 0. 0. 0. 0. 0. 0. 0. 0. 0. 0. 0. 0. 0.
      0. 0. 0. 3.13479616e-03 0. 0. 0. 0. 0. 1.25391847e-02 0. 0. 0. 0.
      0. 0. 3.13479616e-03 3.13479616e-03 0. 0. 6.26959233e-03
      1.25391847e-02 0. 0. 0. 0. 0. 0. 0. 0. 6.26959233e-03
      1.25391847e-02 0. 0. 0. 3.13479616e-03 0. 0. 0. 3.13479616e-03 0.
      0. 0. 3.13479616e-03 0. 0. 3.13479616e-03 0. 0. 0. 0. 0. 0.
      6.26959233e-03 0. 0. 0. 0. 0. 0. 0. 0. 3.13479616e-03 0.
      3.13479616e-03 0. 0. 0. 0. 9.40438826e-03 0. 0. 0. 0.
      3.13479616e-03 0. 0. 0. 3.13479616e-03 0. 0. 9.40438826e-03
      6.26959233e-03 3.13479616e-03 0. 0. 3.13479616e-03 0. 0. 0. 0. 0.
      0. 0. 9.40438826e-03 0. 0. 0. 0. 6.26959233e-03 0. 3.13479616e-03
      0. 0. 0. 0. 0. 0. 0. 3.13479616e-03 0. 3.13479616e-03
      3.13479616e-03 0. 0. 3.13479616e-03 0. 3.13479616e-03 0. 0. 0. 0.
      0. 0. 0. 0. 0. 0. 0. 3.13479616e-03 0. 0. 0. 0. 3.13479616e-03
      1.56739801e-02 0. 3.13479616e-03 0. 0. 0. 0. 0. 3.13479616e-03 0.
      3.13479616e-03 0. 6.26959233e-03 0. 0. 0. 0. 0. 3.13479616e-03
      3.13479616e-03 0. 0. 0. 3.13479616e-03 3.13479616e-03 0. 0. 0. 0.
      0. 0. 0. 0. 6.26959233e-03 0. 0. 0. 0. 0. 3.13479616e-03 0. 0. 0.
      0. 0. 3.13479616e-03 0. 0. 0. 0. 0. 0. 3.13479616e-03 0. 0. 0. 0.
      0. 3.13479616e-03 0. 0. 0. 0. 0. 1.25391847e-02 0. 3.13479616e-03
      0. 0. 3.13479616e-03 0. 0. 0. 0. 0. 0. 6.26959233e-03 0.
      3.13479616e-03 0. 0. 0. 0. 0. 0. 0. 0. 0. 0. 0. 0. 0. 0. 0.
      3.13479616e-03 9.40438826e-03 0. 0. 0. 0. 0. 0. 0. 0. 0. 0.
      3.13479616e-03 0. 0. 3.13479616e-03 0. 0. 0. 0. 0. 0.
      3.13479616e-03 3.13479616e-03 0. 0. 6.26959233e-03 0.
      3.13479616e-03 0. 3.13479616e-03 0. 0. 0. 3.13479616e-03 0. 0. 0.
      0. 0. 0. 0. 0. 0. 0. 0. 0. 0. 0. 3.13479616e-03 0. 0. 0. 0.
      3.13479616e-03 0. 0. 0. 0. 0. 0. 0. 0. 0. 0. 0. 1.25391847e-02 0.
      3.13479616e-03 0. 0. 0. 0. 0. 0. 3.13479616e-03 0. 0. 0. 0. 0. 0.
      9.40438826e-03 0. 0. 0. 0. 0. 0. 0. 0. 0. 0. 0. 0. 0. 0. 0. 0. 0.
      0. 3.13479616e-03 3.13479616e-03 0. 0. 0. 0. 0. 3.13479616e-03 0.
      0. 0. 0. 0. 0. 0. 0. 0. 6.26959233e-03 3.13479616e-03 0. 0. 0.
      3.13479616e-03 0. 0. 0. 0. 0. 3.13479616e-03 9.40438826e-03
      3.13479616e-03 0. 0. 0. 0. 0. 0. 0. 0. 6.26959233e-03 0.
      1.56739801e-02 0. 3.13479616e-03 6.26959233e-03 0. 3.13479616e-03
      0. 0. 0. 0. 0. 0. 0. 0. 0. 0. 0. 3.13479616e-03 0. 0. 0. 0. 0. 0.
      0. 0. 3.13479616e-03 0. 0. 0. 0. 0. 0. 0. 6.26959233e-03 0. 0. 0.
      0. 0. 0. 0. 0. 0. 0. 3.13479616e-03 0. 0. 0. 3.13479616e-03
      3.13479616e-03 3.13479616e-03 0. 3.13479616e-03 0. 0. 0. 0.
      6.26959233e-03 0. 0. 0. 0. 0. 0. 0. 0. 0. 0. 0. 0. 0. 0. 0. 0. 0.
      0. 0. 0. 0. 3.13479616e-03 0. 0. 0. 6.26959233e-03 0. 0. 0. 0. 0.
      0. 3.13479616e-03 0. 0. 0. 0. 0. 0. 0. 3.13479616e-03 0.
      3.13479616e-03 0. 0. 0. 0. 0. 0. 0. 3.13479616e-03 0. 0. 0.
      9.40438826e-03 9.40438826e-03 0. 0. 0. 3.13479616e-03 0. 0. 0. 0.
      0. 0. 0. 0. 0. 1.25391847e-02 0. 0. 0. 0. 0. 0. 3.13479616e-03 0.
      3.13479616e-03 0. 0. 0. 0. 0. 0. 0. 0. 0. 0. 0. 3.13479616e-03 0.
      0. 3.13479616e-03 0. 0. 3.13479616e-03 3.13479616e-03 0. 0. 0. 0.
      0. 3.13479616e-03 0. 0. 0. 0. 0. 0. 3.13479616e-03 0.
      3.13479616e-03 0. 0. 0. 0. 0. 0. 0. 0. 0. 0. 0. 0. 0.
      3.13479616e-03 9.40438826e-03 0. 0. 0. 3.13479616e-03 0. 0. 0.
      9.40438826e-03 0. 0. 0. 3.13479616e-03 0. 0. 0. 0. 3.13479616e-03
      0. 3.13479616e-03 6.26959233e-03 3.13479616e-03 0. 0. 0. 0. 0. 0.
      0. 0. 0. 0. 0. 0. 6.26959233e-03 6.26959233e-03 0. 0. 0.
      3.13479616e-03 3.13479616e-03 0. 0. 3.13479616e-03 0. 0. 0. 0. 0.
      0. 0. 0. 0. 0. 0. 0. 0. 0. 0. 0. 3.13479616e-03 0.</_>
    <_>
      2.13219621e-03 0. 2.13219621e-03 2.13219621e-03 0. 0.
      2.13219621e-03 2.13219621e-03 0. 2.13219621e-03 2.13219621e-03 0.
      0. 2.13219621e-03 0. 6.39658887e-03 2.13219621e-03 1.06609808e-02
      0. 2.13219621e-03 0. 0. 2.13219621e-03 2.13219621e-03
      2.13219621e-03 8.52878485e-03 2.13219621e-03 0. 0. 0. 0. 0. 0.
      4.26439242e-03 0. 0. 0. 0. 4.26439242e-03 4.26439242e-03 0. 0. 0.
      0. 0. 0. 0. 0. 0. 0. 0. 4.26439242e-03 0. 2.13219621e-03
      6.39658887e-03 4.26439242e-03 2.13219621e-03 0. 0. 4.26439242e-03
      0. 0. 0. 0. 0. 0. 0. 2.13219621e-03 0. 0. 0. 0. 0. 2.13219621e-03
      4.26439242e-03 0. 2.13219621e-03 0. 0. 0. 2.13219621e-03
      2.13219621e-03 0. 2.13219621e-03 0. 0. 0. 0. 0. 0. 1.27931777e-02
      6.39658887e-03 0. 0. 0. 0. 0. 0. 0. 0. 0. 0. 0. 0. 2.13219621e-03
      0. 0. 4.26439242e-03 0. 0. 6.39658887e-03 0. 6.39658887e-03 0.
      1.70575697e-02 4.26439242e-03 6.39658887e-03 2.13219621e-03 0. 0.
      0. 2.13219621e-03 0. 0. 2.13219621e-03 8.52878485e-03 0. 0. 0. 0.
      0. 0. 0. 0. 0. 2.13219621e-03 0. 0. 0. 4.26439242e-03
      1.06609808e-02 0. 0. 4.26439242e-03 1.06609808e-02 0. 0.
      2.13219621e-03 0. 2.13219621e-03 2.13219621e-03 0. 0.
      6.39658887e-03 0. 0. 0. 0. 0. 0. 0. 0. 6.39658887e-03 0. 0. 0. 0.
      0. 0. 0. 0. 2.13219621e-03 0. 2.13219621e-03 6.39658887e-03 0. 0.
      0. 0. 0. 0. 0. 0. 0. 0. 0. 2.13219621e-03 0. 0. 0. 0. 0.
      2.13219621e-03 0. 0. 0. 2.13219621e-03 0. 0. 2.13219621e-03 0.
      2.13219621e-03 0. 0. 0. 0. 0. 0. 0. 0. 0. 0. 2.13219621e-03 0. 0.
      0. 0. 0. 0. 2.13219621e-03 4.26439242e-03 2.13219621e-03 0. 0. 0.
      2.13219621e-03 2.13219621e-03 0. 0. 0. 6.39658887e-03 0. 0.
      2.13219621e-03 0. 0. 0. 2.13219621e-03 2.13219621e-03
      2.13219621e-03 2.13219621e-03 0. 0. 2.13219621e-03 0. 0. 0. 0. 0.
      0. 2.13219621e-03 2.13219621e-03 0. 4.26439242e-03 0. 0. 0.
      2.13219621e-03 2.13219621e-03 0. 2.13219621e-03 0. 0. 0. 0. 0. 0.
      0. 0. 0. 4.26439242e-03 0. 0. 2.13219621e-03 0. 0. 0. 0.
      2.13219621e-03 2.13219621e-03 2.13219621e-03 0. 0. 0. 0. 0. 0. 0.
      2.13219621e-03 0. 2.13219621e-03 0. 0. 0. 0. 0. 0. 0.
      2.13219621e-03 0. 0. 0. 0. 0. 0. 0. 0. 0. 0. 2.13219621e-03 0. 0.
      4.26439242e-03 0. 4.26439242e-03 2.13219621e-03 0. 0. 0. 0. 0. 0.
      0. 0. 0. 2.13219621e-03 2.13219621e-03 0. 0. 4.26439242e-03 0. 0.
      4.26439242e-03 2.13219621e-03 0. 0. 0. 0. 2.13219621e-03 0. 0. 0.
      2.13219621e-03 0. 0. 0. 0. 2.13219621e-03 0. 0. 0. 0. 0.
      4.26439242e-03 0. 0. 4.26439242e-03 0. 0. 0. 0. 0. 2.13219621e-03
      2.13219621e-03 0. 2.13219621e-03 2.13219621e-03 6.39658887e-03 0.
      0. 0. 0. 0. 2.13219621e-03 0. 0. 0. 2.13219621e-03 0.
      2.13219621e-03 2.13219621e-03 0. 0. 2.13219621e-03 2.13219621e-03
      0. 0. 0. 2.13219621e-03 0. 4.26439242e-03 0. 4.26439242e-03 0.
      2.13219621e-03 0. 1.06609808e-02 0. 0. 2.13219621e-03 0.
      2.13219621e-03 4.26439242e-03 0. 0. 0. 4.26439242e-03 0.
      2.13219621e-03 2.13219621e-03 0. 0. 1.27931777e-02 0. 0. 0. 0. 0.
      0. 0. 6.39658887e-03 0. 0. 2.13219621e-03 0. 4.26439242e-03
      2.13219621e-03 0. 0. 0. 0. 1.27931777e-02 2.13219621e-03 0. 0. 0.
      2.13219621e-03 0. 0. 0. 2.13219621e-03 0. 2.13219621e-03
      6.39658887e-03 0. 4.26439242e-03 0. 0. 0. 0. 0. 0. 0. 0.
      2.13219621e-03 0. 2.13219621e-03 0. 0. 8.52878485e-03 0. 0.
      6.39658887e-03 6.39658887e-03 0. 0. 0. 1.06609808e-02 0. 0. 0. 0.
      2.13219621e-03 0. 0. 0. 0. 0. 0. 0. 8.52878485e-03 0. 0. 0. 0. 0.
      0. 2.13219621e-03 0. 0. 0. 0. 0. 0. 0. 0. 2.13219621e-03 0.
      2.13219621e-03 0. 0. 0. 0. 0. 0. 2.13219621e-03 0. 2.13219621e-03
      0. 0. 0. 0. 0. 1.06609808e-02 0. 2.13219621e-03 4.26439242e-03
      2.13219621e-03 0. 0. 0. 2.13219621e-03 0. 0. 0. 2.13219617e-02
      2.13219621e-03 0. 1.49253737e-02 0. 0. 6.39658887e-03 0.
      2.13219621e-03 4.26439242e-03 0. 6.39658887e-03 2.13219621e-03 0.
      0. 4.26439242e-03 0. 0. 0. 0. 0. 0. 0. 0. 0. 0. 0. 0. 0. 0.
      2.13219621e-03 2.13219621e-03 0. 6.39658887e-03 0. 2.13219621e-03
      2.13219621e-03 2.13219621e-03 0. 0. 0. 0. 0. 0. 0. 0.
      2.13219621e-03 0. 0. 0. 0. 0. 4.26439242e-03 0. 0. 4.26439242e-03
      0. 0. 0. 0. 1.27931777e-02 4.26439242e-03 0. 0. 0. 0. 0.
      4.26439242e-03 2.13219621e-03 2.13219621e-03 0. 0. 0. 0. 0.
      2.13219621e-03 0. 0. 2.13219621e-03 0. 0. 0. 4.26439242e-03
      2.13219621e-03 0. 0. 2.13219621e-03 0. 0. 0. 2.13219621e-03
      2.13219621e-03 2.13219621e-03 4.26439242e-03 0. 0. 0. 0.
      8.52878485e-03 0. 2.13219621e-03 0. 0. 2.13219621e-03 0.
      2.13219621e-03 0. 0. 0. 0. 0. 0. 0. 0. 0. 2.13219621e-03 0.
      6.39658887e-03 0. 2.13219621e-03 0. 0. 0. 0. 0. 0. 0. 0. 0. 0. 0.
      0. 0. 0. 0. 0. 0. 0. 0. 6.39658887e-03 0. 0. 0. 0. 0. 0.
      2.13219621e-03 0. 0. 2.13219621e-03 0. 0. 0. 0. 0. 4.26439242e-03
      4.26439242e-03 0. 0. 0. 2.13219621e-03 0. 0. 0. 0. 0.
      2.13219621e-03 0. 2.13219621e-03 0. 2.13219621e-03 2.13219621e-03
      0. 0. 2.13219621e-03 0. 0. 0. 2.13219621e-03 0. 0. 0. 0. 0. 0. 0.
      0. 0. 0. 0. 0. 0. 0. 0. 0. 0. 0. 0. 0. 0. 0. 2.13219621e-03 0.
      1.91897657e-02 0. 2.13219621e-03 4.26439242e-03 0. 0. 0. 0.
      4.26439242e-03 2.13219621e-03 4.26439242e-03 0. 2.13219621e-03 0.
      0. 0. 4.26439242e-03 0. 0. 0. 0. 0. 0. 0. 0. 0. 0. 2.13219621e-03
      0. 0. 0. 0. 2.13219621e-03 2.13219621e-03 2.13219621e-03 0.
      2.13219621e-03 0. 0. 0. 0. 2.13219621e-03 0. 0. 0. 0.
      2.13219621e-03 2.13219621e-03 0. 0. 0. 0. 2.13219621e-03 0. 0. 0.
      0. 0. 6.39658887e-03 4.26439242e-03 0. 0. 0. 0. 0. 2.13219621e-03
      0. 0. 0. 0. 0. 0. 0. 0. 0. 0. 0. 0. 0. 0. 0. 0. 4.26439242e-03 0.
      0. 0. 0. 0. 0. 0. 0. 0. 0. 0. 0. 0. 0. 0. 2.13219621e-03 0. 0. 0.
      0. 2.13219621e-03 0. 0. 0. 0. 0. 0. 0. 0. 0. 0. 0. 2.13219621e-03
      0. 0. 0. 0. 0. 0. 0. 0. 0. 0. 0. 0. 0. 2.13219621e-03
      2.13219621e-03 0. 2.13219621e-03 0. 0. 0. 0. 0. 2.13219621e-03 0.
      0. 0. 0. 0. 2.13219621e-03 2.13219621e-03 1.91897657e-02 0. 0. 0.
      0. 6.39658887e-03 0. 0. 0. 2.13219621e-03 0. 0. 4.26439242e-03
      2.13219621e-03 0. 2.13219621e-03 0. 0. 0. 0. 0. 0. 0. 0. 0.
      2.13219621e-03 0. 0. 2.13219621e-03 0. 2.13219621e-03 0. 0. 0.
      2.13219621e-03 6.39658887e-03 0. 2.13219621e-03 2.13219621e-03 0.
      0. 0. 0. 0. 0. 0. 0. 0. 0. 0. 0. 2.13219621e-03 0. 0. 0. 0. 0. 0.
      0. 0. 0. 0. 0. 1.49253737e-02 2.13219621e-03 0. 0. 0. 0. 0. 0. 0.
      0. 2.13219621e-03 0. 0. 0. 0. 0. 0. 2.13219621e-03 0. 0. 0. 0.
      2.13219621e-03 0. 2.13219621e-03 4.26439242e-03 0. 2.13219621e-03
      0. 0. 0. 0. 0. 4.26439242e-03 0. 1.49253737e-02 6.39658887e-03 0.
      0. 2.13219621e-03 2.13219621e-03 0. 0. 0. 0. 0. 0. 0. 0. 0. 0. 0.
      0. 0. 0. 0. 0. 0. 0. 0. 0. 0. 0.</_>
    <_>
      0. 6.02409616e-03 6.02409616e-03 0. 0. 0. 3.01204808e-03 0. 0. 0.
      0. 0. 0. 0. 0. 3.01204808e-03 0. 3.01204808e-03 0. 0. 0. 0. 0. 0.
      0. 3.01204808e-03 0. 0. 3.01204808e-03 0. 3.01204808e-03 0. 0.
      6.02409616e-03 3.01204808e-03 0. 0. 0. 3.01204808e-03
      3.01204808e-03 3.01204808e-03 0. 0. 0. 0. 0. 0. 0. 0. 0. 0.
      3.01204808e-03 0. 0. 0. 6.02409616e-03 0. 0. 0. 3.01204808e-03 0.
      3.01204808e-03 0. 0. 0. 0. 0. 3.01204808e-03 0. 0. 0. 0.
      6.02409616e-03 6.02409616e-03 0. 0. 0. 0. 0. 0. 0. 0.
      3.01204808e-03 6.02409616e-03 0. 0. 0. 3.01204808e-03 0. 0.
      1.80722885e-02 0. 0. 0. 0. 0. 0. 0. 0. 3.01204808e-03 0. 0.
      3.01204808e-03 0. 0. 3.01204808e-03 3.01204808e-03 6.02409616e-03
      0. 0. 3.01204808e-03 0. 0. 0. 3.01204808e-03 3.01204808e-03
      3.01204808e-03 0. 0. 3.01204808e-03 0. 3.01204808e-03 0. 0. 0.
      1.20481923e-02 0. 0. 0. 6.02409616e-03 0. 0. 0. 3.01204808e-03 0.
      0. 0. 0. 0. 0. 3.01204808e-03 0. 0. 0. 0. 3.01204808e-03 0.
      3.01204808e-03 0. 0. 0. 0. 0. 1.20481923e-02 6.02409616e-03 0. 0.
      0. 0. 3.01204808e-03 0. 0. 3.01204808e-03 0. 0. 0. 3.01204808e-03
      0. 0. 0. 0. 0. 0. 6.02409616e-03 0. 0. 0. 0. 0. 6.02409616e-03 0.
      0. 0. 0. 0. 0. 6.02409616e-03 3.01204808e-03 0. 0. 0. 0. 0. 0. 0.
      0. 3.01204808e-03 0. 0. 0. 0. 0. 0. 0. 3.01204808e-03 0. 0.
      3.01204808e-03 3.01204808e-03 6.02409616e-03 0. 0. 3.01204808e-03
      0. 0. 0. 0. 0. 0. 0. 3.01204808e-03 0. 0. 6.02409616e-03 0.
      6.02409616e-03 3.01204808e-03 0. 0. 0. 0. 0. 3.01204808e-03 0. 0.
      3.01204808e-03 0. 0. 0. 3.01204808e-03 0. 3.01204808e-03 0. 0. 0.
      0. 3.01204808e-03 0. 3.01204808e-03 0. 0. 0. 3.01204808e-03 0. 0.
      3.01204808e-03 0. 0. 3.01204808e-03 3.01204808e-03 0.
      3.01204808e-03 0. 3.01204808e-03 0. 0. 0. 0. 0. 3.01204808e-03 0.
      0. 0. 0. 3.01204808e-03 3.01204808e-03 3.01204808e-03 0. 0.
      6.02409616e-03 0. 0. 0. 3.01204808e-03 0. 0. 0. 0. 9.03614424e-03
      3.01204808e-03 0. 0. 0. 0. 0. 0. 3.01204808e-03 0. 0. 0.
      3.01204808e-03 0. 0. 0. 0. 0. 0. 3.01204808e-03 0. 0. 0. 0. 0. 0.
      0. 3.01204808e-03 0. 0. 0. 0. 0. 0. 0. 0. 0. 2.40963846e-02
      3.01204808e-03 0. 0. 0. 0. 0. 3.01204808e-03 0. 0. 0. 0. 0. 0.
      6.02409616e-03 0. 0. 0. 0. 0. 0. 3.01204808e-03 0. 0. 0.
      1.50602404e-02 0. 0. 0. 0. 0. 0. 3.01204808e-03 0. 0. 0.
      3.01204808e-03 3.01204808e-03 0. 0. 0. 1.20481923e-02 0. 0.
      3.01204808e-03 0. 0. 3.01204808e-03 0. 0. 0. 0. 0. 3.01204808e-03
      0. 6.02409616e-03 0. 0. 0. 0. 0. 0. 0. 3.01204808e-03 0.
      6.02409616e-03 0. 0. 0. 0. 0. 0. 0. 0. 0. 0. 6.02409616e-03
      3.01204808e-03 0. 0. 0. 0. 0. 3.01204808e-03 0. 0. 6.02409616e-03
      3.01204808e-03 0. 0. 0. 0. 3.01204808e-03 0. 0. 0. 0. 0.
      1.20481923e-02 0. 0. 0. 0. 0. 0. 0. 0. 0. 0. 0. 0. 0. 0. 0.
      6.02409616e-03 0. 0. 0. 0. 0. 0. 3.01204808e-03 3.01204808e-03 0.
      0. 3.01204808e-03 0. 0. 0. 0. 0. 0. 0. 0. 0. 0. 0. 3.01204808e-03
      0. 0. 0. 6.02409616e-03 1.80722885e-02 0. 3.01204808e-03 0. 0.
      3.01204808e-03 0. 0. 0. 0. 0. 0. 0. 3.01204808e-03 0. 0. 0. 0. 0.
      0. 0. 0. 6.02409616e-03 0. 0. 3.01204808e-03 0. 0. 0. 0. 0.
      3.01204808e-03 0. 0. 0. 6.02409616e-03 0. 0. 3.01204808e-03 0. 0.
      3.01204808e-03 0. 0. 0. 0. 0. 0. 0. 3.01204808e-03 6.02409616e-03
      0. 0. 0. 0. 0. 0. 0. 3.01204808e-03 6.02409616e-03 0.
      9.03614424e-03 0. 0. 0. 0. 0. 6.02409616e-03 0. 9.03614424e-03 0.
      0. 0. 6.02409616e-03 0. 0. 0. 0. 0. 0. 0. 0. 0. 0. 6.02409616e-03
      0. 0. 0. 0. 0. 3.01204808e-03 3.01204808e-03 0. 3.01204808e-03
      3.01204808e-03 6.02409616e-03 0. 0. 0. 0. 0. 0. 0. 3.01204808e-03
      0. 0. 0. 3.01204808e-03 0. 0. 0. 0. 0. 1.20481923e-02 0. 0. 0. 0.
      9.03614424e-03 0. 3.01204808e-03 0. 0. 3.01204808e-03 0. 0.
      3.01204808e-03 3.01204808e-03 0. 0. 0. 0. 0. 0. 0. 3.01204808e-03
      0. 0. 0. 0. 0. 0. 0. 0. 0. 3.01204808e-03 0. 0. 3.01204808e-03
      3.01204808e-03 0. 0. 0. 0. 0. 0. 0. 0. 0. 0. 0. 0. 3.01204808e-03
      0. 0. 0. 0. 0. 0. 0. 0. 3.01204808e-03 0. 0. 0. 0. 0. 0. 0. 0. 0.
      0. 0. 0. 0. 0. 0. 0. 0. 0. 0. 0. 0. 0. 3.01204808e-03 0.
      3.01204808e-03 0. 3.01204808e-03 0. 0. 0. 3.01204808e-03 0. 0.
      6.02409616e-03 0. 3.01204808e-03 0. 0. 0. 0. 0. 0. 3.01204808e-03
      0. 0. 3.01204808e-03 0. 0. 0. 0. 0. 0. 0. 0. 9.03614424e-03 0. 0.
      0. 0. 0. 0. 0. 3.01204808e-03 0. 3.01204808e-03 0. 0. 0.
      3.01204808e-03 0. 0. 0. 0. 0. 0. 0. 0. 0. 0. 3.01204808e-03 0. 0.
      0. 0. 0. 0. 0. 0. 0. 3.01204808e-03 3.01204808e-03 0.
      3.01204808e-03 0. 6.02409616e-03 0. 0. 0. 0. 3.01204808e-03
      3.01204808e-03 9.03614424e-03 0. 0. 0. 3.01204808e-03 0. 0. 0. 0.
      0. 6.02409616e-03 0. 6.02409616e-03 0. 0. 0. 0. 0. 0. 0.
      3.01204808e-03 0. 0. 0. 0. 3.01204808e-03 0. 0. 0. 0. 0. 0. 0. 0.
      0. 6.02409616e-03 0. 0. 0. 0. 3.01204808e-03 3.01204808e-03 0. 0.
      0. 0. 6.02409616e-03 3.01204808e-03 0. 0. 0. 0. 0. 3.01204808e-03
      0. 0. 3.01204808e-03 0. 0. 0. 0. 0. 0. 0. 0. 0. 1.20481923e-02
      3.01204808e-03 0. 0. 6.02409616e-03 0. 3.01204808e-03 0. 0. 0. 0.
      0. 0. 0. 0. 0. 0. 0. 0. 0. 3.01204808e-03 0. 3.01204808e-03 0. 0.
      6.02409616e-03 3.01204808e-03 3.01204808e-03 3.01204808e-03 0. 0.
      0. 0. 0. 0. 3.01204808e-03 0. 0. 0. 0. 0. 3.01204808e-03
      3.01204808e-03 0. 0. 0. 0. 0. 0. 0. 0. 0. 0. 0. 0. 3.01204808e-03
      3.01204808e-03 0. 0. 0. 0. 0. 0. 0. 0. 0. 0. 0. 3.01204808e-03 0.
      0. 0. 0. 9.03614424e-03 0. 3.01204808e-03 0. 0. 0. 0. 0. 0. 0. 0.
      3.01204808e-03 0. 3.01204808e-03 0. 0. 0. 3.01204808e-03 0. 0. 0.
      0. 0. 0. 0. 3.01204808e-03 0. 0. 0. 3.01204808e-03 3.01204808e-03
      3.01204808e-03 0. 0. 6.02409616e-03 0. 0. 0. 0. 0. 0.
      6.02409616e-03 0. 0. 0. 0. 0. 0. 0. 0. 0. 0. 0. 0. 0.
      3.01204808e-03 0. 0. 9.03614424e-03 9.03614424e-03 0. 0. 0.
      6.02409616e-03 3.01204808e-03 3.01204808e-03 0. 3.01204808e-03
      6.02409616e-03 0. 0. 0. 0. 0. 0. 6.02409616e-03 0. 0. 0. 0. 0. 0.
      9.03614424e-03 6.02409616e-03 0. 0. 3.01204808e-03 0. 0. 0. 0. 0.
      0. 0. 3.01204808e-03 0. 3.01204808e-03 0. 3.01204808e-03
      3.01204808e-03 0. 0. 0. 0. 0. 0. 0. 0. 0. 0. 0. 3.01204808e-03 0.
      0. 0. 0. 0. 0. 0. 0. 0.</_>
    <_>
      2.53164559e-03 0. 0. 0. 2.53164559e-03 0. 5.06329117e-03
      2.53164559e-03 0. 0. 2.53164559e-03 0. 0. 0. 0. 5.06329117e-03 0.
      5.06329117e-03 0. 0. 0. 0. 2.53164559e-03 0. 0. 5.06329117e-03 0.
      2.53164559e-03 0. 2.53164559e-03 2.53164559e-03 0. 0. 0. 0. 0. 0.
      0. 1.51898731e-02 2.53164559e-03 2.53164559e-03 0. 0. 0. 0. 0. 0.
      0. 0. 0. 0. 0. 2.53164559e-03 2.53164559e-03 5.06329117e-03
      5.06329117e-03 0. 0. 0. 2.53164559e-03 0. 0. 0. 2.53164559e-03
      2.53164559e-03 0. 0. 0. 5.06329117e-03 0. 0. 5.06329117e-03
      7.59493653e-03 7.59493653e-03 2.53164559e-03 0. 0. 0. 0.
      2.53164559e-03 2.53164559e-03 7.59493653e-03 0. 2.53164559e-03 0.
      0. 7.59493653e-03 0. 0. 0. 4.55696210e-02 0. 0. 0. 0. 0. 0. 0. 0.
      2.53164559e-03 0. 2.53164559e-03 0. 0. 0. 0. 0. 2.53164559e-03 0.
      2.53164559e-03 2.02531647e-02 0. 5.06329117e-03 0. 5.06329117e-03
      0. 0. 0. 0. 5.06329117e-03 0. 2.53164559e-03 0. 0. 0. 0. 0. 0.
      2.53164559e-03 0. 0. 0. 0. 5.06329117e-03 0. 2.53164559e-03 0. 0.
      0. 0. 5.06329117e-03 0. 0. 0. 2.53164559e-03 0. 0. 0. 0. 0. 0. 0.
      0. 1.51898731e-02 2.53164559e-03 0. 0. 0. 0. 0. 0. 0. 0. 0. 0. 0.
      0. 0. 0. 0. 0. 0. 0. 0. 2.53164559e-03 0. 0. 0. 0. 5.06329117e-03
      0. 2.53164559e-03 0. 0. 2.53164559e-03 0. 5.06329117e-03 0. 0. 0.
      0. 0. 0. 0. 0. 0. 0. 2.53164559e-03 2.53164559e-03 0. 0. 0. 0. 0.
      2.53164559e-03 0. 0. 0. 0. 0. 0. 0. 0. 0. 0. 0. 2.53164559e-03 0.
      5.06329117e-03 0. 0. 0. 0. 0. 0. 5.06329117e-03 0. 2.53164559e-03
      0. 0. 0. 0. 0. 2.53164559e-03 0. 0. 0. 0. 0. 2.53164559e-03 0. 0.
      0. 2.53164559e-03 0. 0. 0. 0. 0. 2.53164559e-03 0. 0.
      2.53164559e-03 0. 0. 0. 0. 0. 2.53164559e-03 0. 5.06329117e-03 0.
      0. 0. 0. 0. 0. 0. 0. 0. 0. 0. 0. 0. 0. 0. 0. 0. 1.01265823e-02
      2.53164559e-03 2.53164559e-03 0. 0. 5.06329117e-03 0. 0. 0.
      2.53164559e-03 0. 0. 0. 0. 0. 0. 0. 0. 0. 0. 0. 0. 2.53164559e-03
      0. 0. 0. 0. 0. 0. 0. 0. 0. 0. 0. 0. 0. 1.01265823e-02 0. 0. 0.
      2.53164559e-03 0. 2.53164559e-03 0. 0. 0. 0. 0. 2.53164559e-03
      7.59493653e-03 0. 0. 0. 0. 1.01265823e-02 2.53164559e-03 0. 0. 0.
      0. 0. 0. 0. 0. 1.01265823e-02 0. 0. 2.53164559e-03 2.53164559e-03
      0. 2.53164559e-03 0. 0. 0. 0. 2.53164559e-03 2.53164559e-03 0. 0.
      0. 0. 0. 0. 0. 0. 5.06329117e-03 0. 0. 2.53164559e-03
      5.06329117e-03 0. 0. 5.06329117e-03 0. 0. 0. 0. 0. 0.
      2.53164559e-03 0. 2.53164559e-03 0. 0. 0. 2.53164559e-03 0. 0. 0.
      0. 0. 0. 0. 0. 0. 0. 0. 0. 0. 0. 0. 0. 0. 0. 0. 0. 0. 0. 0. 0. 0.
      0. 0. 0. 5.06329117e-03 2.53164559e-03 0. 0. 2.53164559e-03 0. 0.
      0. 2.02531647e-02 0. 0. 2.53164559e-03 0. 2.53164559e-03 0. 0. 0.
      0. 0. 0. 2.53164559e-03 0. 2.53164559e-03 0. 0. 0. 0. 0. 0. 0. 0.
      0. 0. 2.53164559e-03 0. 0. 0. 0. 2.53164559e-03 0. 0. 0.
      3.03797461e-02 0. 0. 0. 0. 5.06329117e-03 0. 0. 1.01265823e-02
      5.06329117e-03 0. 0. 0. 1.51898731e-02 0. 0. 0. 0. 0. 0. 0. 0. 0.
      0. 0. 0. 5.06329117e-03 0. 5.06329117e-03 0. 0. 0. 0.
      7.59493653e-03 0. 0. 0. 0. 0. 0. 0. 0. 0. 0. 0. 0. 0. 0. 0. 0. 0.
      0. 0. 0. 0. 0. 7.59493653e-03 0. 0. 0. 0. 0. 0. 0. 0. 0. 0. 0. 0.
      0. 0. 2.53164559e-03 7.59493653e-03 0. 0. 0. 2.53164559e-03 0. 0.
      0. 0. 0. 2.53164559e-03 2.53164559e-03 0. 0. 2.53164559e-03 0.
      5.06329117e-03 0. 0. 0. 5.06329117e-03 0. 0. 0. 0. 7.59493653e-03
      0. 5.06329117e-03 0. 0. 2.53164559e-03 0. 2.53164559e-03 0.
      5.06329117e-03 0. 0. 0. 0. 0. 0. 0. 0. 0. 0. 0. 2.53164559e-03
      2.53164559e-03 0. 0. 0. 0. 0. 0. 2.53164559e-03 0. 0. 0.
      2.53164559e-03 2.27848105e-02 0. 0. 0. 0. 5.06329117e-03 0.
      2.53164559e-03 0. 5.06329117e-03 0. 0. 0. 0. 0. 0. 0. 0. 0. 0.
      2.53164559e-03 2.53164559e-03 0. 0. 2.53164559e-03 0. 0. 0. 0. 0.
      0. 0. 0. 5.06329117e-03 0. 0. 0. 0. 2.53164559e-03 0. 0.
      2.53164559e-03 0. 0. 2.53164559e-03 0. 0. 5.06329117e-03 0. 0. 0.
      0. 0. 0. 0. 5.06329117e-03 0. 0. 0. 0. 0. 5.06329117e-03 0. 0. 0.
      2.53164559e-03 0. 0. 0. 0. 0. 0. 0. 0. 0. 0. 2.53164559e-03
      5.06329117e-03 2.53164559e-03 1.77215189e-02 2.53164559e-03 0. 0.
      0. 0. 0. 0. 2.53164559e-03 0. 0. 5.06329117e-03 0. 0.
      2.53164559e-03 0. 0. 5.06329117e-03 0. 0. 0. 0. 5.06329117e-03 0.
      0. 7.59493653e-03 0. 0. 0. 0. 0. 0. 0. 0. 0. 0. 0. 0. 0. 0. 0. 0.
      0. 0. 0. 0. 0. 0. 5.06329117e-03 0. 0. 5.06329117e-03
      2.53164559e-03 0. 2.53164559e-03 0. 0. 0. 0. 0. 2.53164559e-03 0.
      0. 0. 0. 2.53164559e-03 0. 0. 0. 0. 0. 0. 0. 0. 2.53164559e-03 0.
      0. 2.53164559e-03 0. 0. 5.06329117e-03 0. 0. 0. 0. 0.
      2.53164559e-03 0. 2.53164559e-03 0. 0. 2.53164559e-03 0.
      5.06329117e-03 0. 0. 2.53164559e-03 0. 2.53164559e-03 0. 0.
      2.53164559e-03 2.53164559e-03 0. 0. 0. 0. 0. 0. 2.53164559e-03 0.
      0. 0. 0. 0. 0. 0. 0. 0. 0. 0. 0. 0. 0. 0. 0. 0. 0. 2.53164559e-03
      0. 0. 0. 0. 0. 0. 0. 0. 0. 0. 2.53164559e-03 0. 0. 0. 0. 0. 0.
      5.06329117e-03 0. 0. 0. 0. 0. 0. 2.53164559e-03 0. 0.
      7.59493653e-03 0. 0. 0. 0. 0. 0. 0. 0. 0. 0. 0. 0. 2.53164559e-03
      2.53164559e-03 0. 0. 2.53164559e-03 0. 0. 0. 0. 0. 0. 0. 0. 0. 0.
      0. 0. 0. 2.53164559e-03 0. 1.01265823e-02 0. 0. 2.53164559e-03 0.
      0. 0. 0. 0. 0. 0. 0. 0. 0. 0. 0. 0. 0. 0. 0. 0. 2.53164559e-03 0.
      0. 0. 0. 0. 0. 2.53164559e-03 0. 0. 0. 0. 0. 0. 0. 0. 0. 0. 0. 0.
      0. 0. 0. 0. 0. 0. 0. 7.59493653e-03 0. 0. 0. 0. 0. 0. 0.
      1.51898731e-02 0. 0. 0. 5.06329117e-03 2.53164559e-03
      1.26582282e-02 0. 0. 0. 0. 0. 0. 0. 0. 0. 0. 0. 0. 0. 0. 0. 0. 0.
      0. 2.53164559e-03 0. 0. 1.01265823e-02 5.06329117e-03 0. 0. 0.
      5.06329117e-03 2.53164559e-03 0. 0. 0. 2.53164559e-03 0. 0. 0. 0.
      0. 0. 5.06329117e-03 0. 0. 2.53164559e-03 0. 0. 0. 2.53164559e-03
      2.53164559e-03 0. 0. 2.53164559e-03 0. 0. 0. 0. 2.53164559e-03 0.
      0. 2.27848105e-02 0. 0. 0. 7.59493653e-03 0. 0. 0. 0. 0. 0. 0. 0.
      0. 0. 0. 0. 0. 0. 0. 0. 2.53164559e-03 0. 0. 5.06329117e-03
      2.53164559e-03 0.</_>
    <_>
      0. 0. 5.07614203e-03 0. 0. 2.53807101e-03 0. 2.53807101e-03 0. 0.
      2.53807101e-03 0. 2.53807101e-03 5.07614203e-03 0. 0. 0. 0.
      2.53807101e-03 0. 2.53807101e-03 0. 0. 0. 0. 1.26903551e-02 0. 0.
      2.53807101e-03 2.53807101e-03 5.07614203e-03 0. 0. 0. 0. 0. 0.
      5.07614203e-03 5.07614203e-03 0. 0. 0. 0. 0. 0. 0. 0. 0. 0. 0.
      2.53807101e-03 0. 0. 0. 0. 0. 0. 0. 5.07614203e-03 5.07614203e-03
      0. 0. 0. 0. 0. 0. 0. 2.53807101e-03 0. 0. 2.53807101e-03 0.
      7.61421304e-03 0. 1.01522841e-02 0. 0. 0. 0. 0. 0. 2.53807101e-03
      0. 0. 0. 0. 0. 0. 0. 0. 2.03045681e-02 0. 0. 2.53807101e-03
      5.07614203e-03 0. 0. 5.07614203e-03 0. 5.07614203e-03 0. 0.
      2.53807101e-03 0. 0. 2.53807101e-03 0. 0. 0. 0. 2.53807101e-03 0.
      0. 0. 2.53807101e-03 0. 2.53807101e-03 0. 0. 0. 2.53807101e-03 0.
      0. 0. 2.53807101e-03 1.77664980e-02 2.53807101e-03 2.53807101e-03
      2.53807101e-03 0. 0. 0. 0. 0. 0. 2.53807101e-03 0. 0. 0. 0.
      2.53807101e-03 2.53807101e-03 0. 2.53807101e-03 2.53807101e-03 0.
      0. 5.07614203e-03 0. 0. 0. 2.53807101e-03 0. 2.53807101e-03
      2.53807101e-03 0. 2.53807101e-03 0. 0. 0. 0. 0. 5.07614203e-03
      2.53807101e-03 0. 0. 0. 0. 0. 0. 0. 0. 2.53807101e-03 0. 0. 0. 0.
      0. 0. 2.53807101e-03 0. 0. 0. 0. 0. 0. 0. 2.53807101e-03 0. 0. 0.
      5.07614203e-03 0. 0. 0. 0. 5.07614203e-03 0. 2.53807101e-03 0. 0.
      0. 0. 0. 5.07614203e-03 2.53807101e-03 2.53807101e-03 0.
      7.61421304e-03 0. 0. 0. 7.61421304e-03 2.53807101e-03
      2.53807101e-03 0. 0. 0. 2.53807101e-03 7.61421304e-03 0. 0. 0. 0.
      2.53807101e-03 2.53807101e-03 0. 5.07614203e-03 0. 5.07614203e-03
      0. 0. 0. 0. 2.53807101e-03 0. 0. 2.53807101e-03 2.53807101e-03 0.
      2.53807101e-03 2.53807101e-03 0. 0. 2.53807101e-03 0.
      7.61421304e-03 0. 2.53807101e-03 0. 0. 0. 2.53807101e-03 0. 0.
      2.53807101e-03 0. 0. 5.07614203e-03 0. 0. 0. 0. 0. 0.
      2.53807101e-03 0. 0. 0. 0. 0. 7.61421304e-03 0. 2.53807101e-03 0.
      0. 0. 0. 2.53807101e-03 2.53807101e-03 0. 0. 0. 0. 0. 0. 0. 0.
      5.07614203e-03 0. 0. 0. 0. 0. 0. 0. 0. 0. 7.61421304e-03 0.
      7.61421304e-03 0. 0. 0. 0. 0. 0. 0. 0. 0. 0. 2.53807101e-03 0. 0.
      0. 0. 0. 0. 0. 0. 0. 5.07614203e-03 0. 0. 2.53807101e-03
      2.53807101e-03 0. 2.53807101e-03 0. 0. 0. 0. 0. 0. 0. 0. 0. 0. 0.
      0. 0. 0. 0. 0. 0. 0. 0. 0. 5.07614203e-03 0. 7.61421304e-03
      2.53807101e-03 0. 0. 0. 0. 7.61421304e-03 2.53807101e-03 0.
      2.53807101e-03 0. 0. 0. 0. 2.53807101e-03 0. 0. 0. 0. 0. 0. 0. 0.
      5.07614203e-03 0. 0. 0. 1.01522841e-02 2.53807101e-03
      2.53807101e-03 0. 2.53807101e-03 2.53807101e-03 0. 0. 0. 0. 0.
      2.53807101e-03 0. 0. 0. 2.53807101e-03 0. 0. 0. 0. 0. 0. 0. 0.
      2.53807101e-03 0. 0. 2.53807101e-03 0. 0. 0. 0. 0. 0. 0.
      1.77664980e-02 0. 0. 0. 2.53807101e-03 0. 0. 0. 2.53807101e-03 0.
      0. 0. 2.53807101e-03 0. 0. 2.53807101e-03 2.53807101e-03 0. 0. 0.
      0. 0. 2.53807101e-03 2.53807101e-03 0. 0. 0. 0. 0. 0. 0.
      2.53807101e-03 0. 0. 0. 0. 0. 5.07614203e-03 0. 0. 0. 0. 0. 0. 0.
      2.53807101e-03 0. 2.53807101e-03 0. 0. 2.53807101e-03
      2.53807101e-03 0. 0. 0. 0. 0. 2.53807101e-03 0. 0. 5.07614203e-03
      0. 0. 0. 2.53807101e-03 0. 0. 0. 0. 0. 0. 0. 0. 0. 0. 0.
      5.07614203e-03 5.07614203e-03 0. 0. 0. 0. 0. 0. 0. 0.
      7.61421304e-03 0. 0. 0. 5.07614203e-03 0. 0. 0. 2.53807101e-03 0.
      0. 5.07614203e-03 0. 0. 0. 1.01522841e-02 0. 0. 0. 0. 0. 0. 0. 0.
      2.53807101e-03 0. 0. 2.53807101e-03 0. 0. 2.53807101e-03 0. 0.
      2.53807101e-03 0. 0. 0. 0. 0. 0. 0. 0. 7.61421304e-03 0. 0.
      2.53807101e-03 0. 2.53807101e-03 0. 2.53807101e-03 0. 0.
      2.53807101e-03 0. 0. 0. 0. 2.53807101e-03 7.61421304e-03 0.
      5.07614203e-03 0. 5.07614203e-03 0. 0. 2.53807101e-03
      7.61421304e-03 0. 0. 0. 0. 0. 0. 0. 0. 0. 0. 0. 0. 0. 0. 0. 0. 0.
      0. 0. 0. 0. 0. 0. 0. 0. 5.07614203e-03 0. 0. 5.07614203e-03 0. 0.
      0. 2.53807101e-03 0. 2.53807101e-03 0. 0. 0. 2.53807101e-03 0.
      1.01522841e-02 0. 0. 0. 0. 0. 0. 0. 0. 0. 0. 2.53807101e-03 0. 0.
      0. 0. 0. 0. 2.53807101e-03 0. 5.07614203e-03 0. 0. 0. 0. 0. 0. 0.
      0. 0. 0. 0. 0. 5.07614203e-03 0. 0. 0. 0. 0. 0. 0. 0. 0. 0. 0. 0.
      0. 0. 0. 0. 0. 0. 0. 0. 0. 2.53807101e-03 0. 0. 0. 2.53807101e-03
      5.07614203e-03 7.61421304e-03 0. 0. 0. 0. 0. 0. 0. 0. 0.
      2.53807101e-03 0. 0. 0. 0. 0. 0. 0. 0. 0. 5.07614203e-03 0. 0. 0.
      0. 2.53807101e-03 0. 2.53807101e-03 0. 0. 2.53807101e-03 0. 0. 0.
      2.53807101e-03 2.53807101e-03 0. 0. 0. 0. 0. 0. 0. 2.53807101e-03
      0. 0. 0. 2.53807101e-03 0. 0. 0. 0. 0. 5.07614203e-03 0.
      2.53807101e-03 0. 0. 0. 7.61421304e-03 2.53807101e-03 0. 0.
      5.07614203e-03 0. 0. 0. 0. 0. 2.53807101e-03 0. 0. 0.
      2.53807101e-03 0. 2.53807101e-03 2.53807101e-03 0. 0. 0. 0. 0. 0.
      0. 2.53807101e-03 0. 0. 2.53807101e-03 0. 2.53807101e-03 0.
      5.07614203e-03 2.53807101e-03 0. 5.07614203e-03 0. 0. 0. 0. 0. 0.
      0. 0. 0. 0. 0. 0. 0. 0. 0. 0. 0. 0. 0. 0. 0. 0. 0. 0. 0.
      2.53807101e-03 0. 0. 0. 0. 0. 2.53807101e-03 2.53807101e-03 0.
      2.53807101e-03 2.53807101e-03 0. 2.53807101e-03 0. 0.
      7.61421304e-03 7.61421304e-03 2.53807101e-03 0. 5.07614203e-03 0.
      0. 0. 0. 0. 0. 0. 0. 0. 0. 0. 0. 0. 0. 2.53807101e-03
      7.61421304e-03 0. 0. 0. 0. 5.07614203e-03 0. 0. 0. 0. 0.
      2.53807101e-03 0. 2.53807101e-03 0. 0. 0. 0. 0. 0. 0. 0.
      2.53807101e-03 0. 2.53807101e-03 0. 0. 0. 2.53807101e-03 0.
      5.07614203e-03 0. 0. 5.07614203e-03 0. 7.61421304e-03
      5.07614203e-03 0. 0. 0. 0. 0. 0. 0. 0. 0. 0. 0. 0. 0. 0.
      5.07614203e-03 0. 5.07614203e-03 0. 0. 0. 0. 2.53807101e-03
      5.07614203e-03 2.53807101e-03 0. 2.53807101e-03 0. 0.
      2.53807101e-03 0. 0. 0. 0. 2.53807101e-03 0. 0. 2.53807101e-03 0.
      0. 0. 5.07614203e-03 0. 0. 0. 0. 2.53807101e-03 0. 0. 0. 0.
      2.53807101e-03 0. 2.53807101e-03 5.07614203e-03 0. 2.53807101e-03
      0. 5.07614203e-03 0. 0. 0. 0. 0. 0. 0. 0. 0. 0. 0. 0. 0. 0. 0. 0.
      0. 0. 2.53807101e-03 5.07614203e-03 0. 1.52284261e-02
      2.53807101e-03 0. 0. 0. 0. 0. 0. 2.53807101e-03 0. 5.07614203e-03
      0. 0. 0. 0. 0. 0. 0. 0. 0. 0. 0. 2.53807101e-03 0. 0.
      7.61421304e-03 0. 0. 0. 0. 0. 0. 0. 2.53807101e-03 2.53807101e-03
      3.29949223e-02 0. 0. 0. 0. 1.01522841e-02 0. 0. 0. 0. 0. 0. 0. 0.
      0. 0. 5.07614203e-03 5.07614203e-03 0. 0. 0. 0. 5.07614203e-03
      2.53807101e-03 0. 0. 0. 0.</_>
    <_>
      0. 0. 0. 0. 0. 0. 1.30718956e-02 0. 0. 3.26797389e-03 0. 0. 0. 0.
      0. 3.26797389e-03 0. 3.26797389e-03 0. 0. 0. 0. 0. 3.26797389e-03
      0. 3.26797389e-03 0. 0. 0. 0. 0. 0. 0. 0. 0. 0. 0. 3.26797389e-03
      3.26797389e-03 0. 0. 0. 0. 0. 0. 0. 0. 0. 3.26797389e-03
      6.53594779e-03 0. 0. 0. 0. 3.26797389e-03 0. 0. 0. 0. 0. 0. 0. 0.
      0. 3.26797389e-03 0. 0. 0. 6.53594779e-03 0. 0. 0. 0. 0.
      6.53594779e-03 0. 0. 0. 0. 0. 0. 3.26797389e-03 3.26797389e-03 0.
      0. 0. 0. 0. 0. 0. 9.80392192e-03 0. 0. 0. 0. 0. 0. 0. 0.
      3.26797389e-03 0. 0. 3.26797389e-03 0. 0. 0. 0. 0. 0. 0.
      1.30718956e-02 0. 3.26797389e-03 0. 3.26797389e-03 3.26797389e-03
      3.26797389e-03 0. 0. 0. 0. 0. 0. 0. 0. 6.53594779e-03 0. 0. 0. 0.
      0. 0. 0. 0. 6.53594779e-03 0. 0. 3.26797389e-03 3.26797389e-03 0.
      0. 3.26797389e-03 0. 3.26797389e-03 6.53594779e-03 0. 0. 0. 0. 0.
      0. 0. 0. 6.53594779e-03 0. 3.26797389e-03 0. 0. 0. 3.26797389e-03
      0. 0. 0. 0. 0. 0. 0. 0. 0. 0. 0. 0. 0. 0. 9.80392192e-03 0. 0. 0.
      0. 0. 0. 0. 0. 0. 0. 0. 0. 0. 0. 0. 0. 0. 0. 0. 0. 0.
      3.26797389e-03 0. 0. 3.26797389e-03 0. 0. 0. 0. 0. 0. 0. 0. 0.
      6.53594779e-03 6.53594779e-03 0. 3.26797389e-03 0. 0. 0. 0. 0.
      3.26797389e-03 0. 3.26797389e-03 0. 0. 0. 0. 0. 0. 0. 0. 0.
      6.53594779e-03 0. 0. 0. 0. 3.26797389e-03 0. 0. 0. 1.30718956e-02
      3.26797389e-03 0. 0. 0. 0. 0. 0. 0. 0. 3.26797389e-03 0. 0. 0. 0.
      0. 0. 0. 0. 3.26797389e-03 0. 0. 0. 0. 0. 0. 3.26797389e-03 0. 0.
      0. 0. 3.26797389e-03 0. 0. 0. 0. 0. 0. 0. 0. 6.53594779e-03
      3.26797389e-03 0. 0. 0. 0. 3.26797389e-03 0. 0. 3.26797389e-03 0.
      0. 0. 0. 0. 0. 0. 0. 6.53594779e-03 0. 0. 0. 0. 0. 0. 0. 0. 0. 0.
      0. 0. 6.53594779e-03 0. 0. 0. 0. 0. 0. 3.26797389e-03 0. 0. 0.
      3.26797389e-03 0. 0. 3.26797389e-03 0. 0. 0. 0. 0. 0. 0.
      6.53594779e-03 0. 0. 0. 0. 0. 0. 0. 9.80392192e-03 3.26797389e-03
      3.26797389e-03 0. 0. 0. 0. 0. 0. 3.26797389e-03 3.26797389e-03
      6.53594779e-03 0. 0. 0. 0. 3.26797389e-03 0. 0. 0. 0.
      3.26797389e-03 0. 0. 0. 0. 6.53594779e-03 0. 0. 3.26797389e-03 0.
      0. 0. 0. 0. 0. 0. 3.26797389e-03 0. 0. 3.26797389e-03 0. 0. 0.
      6.53594779e-03 0. 0. 0. 3.26797389e-03 0. 0. 0. 0. 0. 0. 0.
      3.26797389e-03 0. 0. 0. 0. 9.80392192e-03 0. 0. 0. 0. 0. 0. 0.
      3.26797389e-03 0. 3.26797389e-03 2.28758175e-02 0. 0. 0. 0. 0. 0.
      0. 0. 0. 0. 0. 0. 0. 0. 0. 0. 0. 0. 0. 3.26797389e-03
      3.26797389e-03 0. 3.26797389e-03 0. 0. 0. 3.26797389e-03 0. 0. 0.
      6.53594779e-03 0. 3.26797389e-03 0. 0. 0. 0. 3.26797389e-03 0. 0.
      0. 0. 0. 0. 0. 0. 0. 0. 0. 1.30718956e-02 3.26797389e-03
      3.26797389e-03 0. 3.26797389e-03 9.80392192e-03 0. 0. 0. 0. 0. 0.
      0. 0. 0. 0. 3.26797389e-03 0. 3.26797389e-03 3.26797389e-03
      6.53594779e-03 0. 0. 0. 3.26797389e-03 0. 0. 0. 0. 0. 0. 0. 0. 0.
      0. 0. 1.30718956e-02 0. 0. 0. 6.53594779e-03 0. 0. 0. 0. 0.
      3.26797389e-03 0. 0. 0. 0. 0. 0. 3.26797389e-03 3.26797389e-03 0.
      0. 0. 0. 0. 3.26797389e-03 0. 0. 3.26797389e-03 0. 0.
      2.28758175e-02 0. 3.26797389e-03 0. 0. 0. 3.26797389e-03 0. 0.
      3.26797389e-03 0. 0. 0. 0. 0. 0. 0. 3.26797389e-03 0. 0. 0.
      3.26797389e-03 0. 0. 0. 0. 0. 0. 9.80392192e-03 0. 3.26797389e-03
      0. 0. 0. 0. 0. 0. 0. 0. 0. 9.80392192e-03 0. 0. 0. 0. 0. 0. 0. 0.
      0. 0. 0. 0. 0. 0. 0. 0. 3.26797389e-03 0. 0. 0. 0. 0. 0. 0.
      3.26797389e-03 6.53594779e-03 0. 0. 0. 0. 0. 0. 0. 9.80392192e-03
      0. 0. 0. 0. 0. 0. 0. 0. 6.53594779e-03 0. 0. 0. 0. 3.26797389e-03
      0. 3.26797389e-03 0. 0. 0. 0. 1.30718956e-02 0. 3.26797389e-03 0.
      0. 0. 0. 3.26797389e-03 0. 0. 0. 0. 0. 3.26797389e-03 0. 0. 0.
      9.80392192e-03 0. 6.53594779e-03 0. 3.26797389e-03 0. 0. 0. 0. 0.
      0. 0. 0. 0. 0. 0. 0. 0. 0. 0. 0. 3.26797389e-03 0. 0. 0.
      3.26797389e-03 0. 0. 0. 0. 0. 0. 0. 0. 0. 0. 0. 0. 0. 0. 0. 0. 0.
      0. 0. 0. 6.53594779e-03 0. 0. 6.53594779e-03 0. 0. 3.26797389e-03
      3.26797389e-03 0. 0. 0. 0. 0. 0. 0. 0. 3.26797389e-03 0. 0. 0. 0.
      0. 0. 0. 0. 0. 3.26797389e-03 0. 0. 3.26797389e-03 0. 0. 0.
      3.26797389e-03 0. 0. 0. 0. 0. 0. 0. 0. 6.53594779e-03
      3.26797389e-03 3.26797389e-03 0. 0. 0. 0. 0. 0. 0. 0.
      3.26797389e-03 6.53594779e-03 0. 0. 0. 0. 0. 0. 0. 0. 0.
      6.53594779e-03 0. 3.26797389e-03 0. 0. 6.53594779e-03 0. 0.
      6.53594779e-03 0. 1.96078438e-02 0. 0. 0. 0. 0. 0. 3.26797389e-03
      0. 0. 0. 0. 0. 0. 0. 3.26797389e-03 0. 0. 3.26797389e-03 0.
      3.26797389e-03 0. 0. 0. 0. 0. 0. 0. 0. 0. 0. 0. 0. 3.26797389e-03
      0. 0. 0. 0. 3.26797389e-03 0. 0. 0. 0. 3.26797389e-03 0.
      9.80392192e-03 0. 0. 0. 0. 3.26797389e-03 0. 0. 0. 0. 0. 0. 0. 0.
      0. 0. 0. 0. 0. 0. 0. 0. 0. 0. 3.26797389e-03 0. 6.53594779e-03
      3.26797389e-03 3.26797389e-03 0. 0. 0. 3.26797389e-03 0. 0. 0. 0.
      3.26797389e-03 0. 0. 0. 3.26797389e-03 0. 3.26797389e-03 0. 0.
      6.53594779e-03 0. 3.26797389e-03 3.26797389e-03 0. 1.30718956e-02
      6.53594779e-03 0. 0. 3.26797389e-03 0. 0. 0. 0. 0. 6.53594779e-03
      0. 0. 0. 0. 0. 0. 0. 0. 0. 0. 0. 0. 3.26797389e-03 0. 0. 0.
      3.26797389e-03 0. 0. 0. 0. 0. 3.26797389e-03 3.26797389e-03 0. 0.
      0. 0. 0. 0. 0. 0. 0. 0. 0. 3.26797389e-03 0. 0. 0. 0.
      3.26797389e-03 6.53594779e-03 0. 6.53594779e-03 0. 0. 0. 0.
      6.53594779e-03 0. 0. 0. 0. 0. 0. 0. 0. 0. 6.53594779e-03 0. 0. 0.
      0. 0. 0. 0. 0. 0. 3.26797389e-03 0. 1.30718956e-02 0. 0. 0. 0.
      3.26797389e-03 0. 0. 0. 0. 3.26797389e-03 0. 0. 0. 0. 0. 0.
      6.53594779e-03 3.26797389e-03 0. 0. 0. 3.26797389e-03
      6.53594779e-03 0. 3.26797389e-03 0. 0. 0. 3.26797389e-03 0. 0. 0.
      0. 0. 1.63398702e-02 6.53594779e-03 0. 0. 0. 9.80392192e-03
      3.26797389e-03 0. 0. 0. 0. 0. 0. 0. 0. 6.53594779e-03 0. 0.
      3.26797389e-03 0. 0. 0. 0. 3.26797389e-03 0. 0. 0. 0.</_>
    <_>
      0. 0. 6.00000005e-03 0. 2.00000009e-03 0. 2.00000009e-03 0. 0. 0.
      0. 0. 0. 2.00000009e-03 0. 0. 2.00000009e-03 2.00000009e-03 0. 0.
      2.00000009e-03 2.00000009e-03 0. 0. 0. 4.00000019e-03 0. 0.
      2.00000009e-03 0. 4.00000019e-03 0. 0. 0. 0. 0. 0. 2.00000009e-03
      4.00000019e-03 1.40000004e-02 0. 0. 0. 2.00000009e-03 0. 0. 0. 0.
      0. 0. 0. 0. 0. 2.00000009e-03 8.00000038e-03 0. 0. 0. 0.
      2.00000009e-03 2.00000009e-03 2.00000009e-03 0. 0. 2.00000009e-03
      0. 0. 0. 0. 0. 0. 0. 2.00000009e-03 2.00000009e-03 2.00000009e-03
      0. 8.00000038e-03 2.00000009e-03 0. 0. 0. 2.00000009e-03 0. 0. 0.
      0. 0. 0. 0. 0. 1.80000011e-02 0. 0. 0. 4.00000019e-03 0. 0. 0. 0.
      6.00000005e-03 0. 8.00000038e-03 0. 2.00000009e-03 0. 0. 0.
      4.00000019e-03 0. 0. 8.00000038e-03 0. 2.00000009e-03 0.
      2.00000009e-03 0. 0. 0. 0. 0. 0. 4.00000019e-03 0. 0.
      2.00000009e-03 2.00000009e-03 0. 2.00000009e-03 0. 0. 0. 0. 0.
      2.00000009e-03 0. 2.00000009e-03 0. 0. 0. 2.00000009e-03
      4.00000019e-03 0. 2.00000009e-03 2.00000009e-03 8.00000038e-03 0.
      0. 6.00000005e-03 0. 0. 0. 2.00000009e-03 2.00000009e-03
      6.00000005e-03 4.00000019e-03 0. 2.00000009e-03 0. 0. 0. 0. 0.
      6.00000005e-03 2.00000009e-03 0. 0. 0. 0. 0. 2.00000009e-03 0. 0.
      2.00000009e-03 2.00000009e-03 4.00000019e-03 0. 2.00000009e-03 0.
      2.00000009e-03 0. 0. 2.00000009e-03 0. 0. 0. 0. 0. 6.00000005e-03
      0. 2.00000009e-03 2.00000009e-03 0. 2.00000009e-03 0. 0.
      2.00000009e-03 0. 0. 0. 0. 0. 2.00000009e-03 0. 2.00000009e-03 0.
      0. 4.00000019e-03 2.00000009e-03 4.00000019e-03 2.00000009e-03 0.
      2.00000009e-03 2.00000009e-03 0. 0. 0. 0. 2.00000009e-03 0.
      2.00000009e-03 2.00000009e-03 0. 0. 4.00000019e-03 0.
      2.00000009e-03 6.00000005e-03 0. 0. 0. 4.00000019e-03 0.
      2.00000009e-03 0. 0. 2.00000009e-03 0. 6.00000005e-03
      2.00000009e-03 4.00000019e-03 2.00000009e-03 0. 0. 0. 0. 0. 0.
      2.00000009e-03 8.00000038e-03 0. 2.00000009e-03 0. 0. 0. 0.
      2.00000009e-03 0. 0. 2.00000009e-03 4.00000019e-03 0. 0.
      2.00000009e-03 0. 4.00000019e-03 0. 0. 2.00000009e-03
      4.00000019e-03 0. 2.00000009e-03 0. 0. 2.00000009e-03
      2.00000009e-03 0. 2.00000009e-03 0. 0. 4.00000019e-03
      4.00000019e-03 0. 2.00000009e-03 6.00000005e-03 0. 0. 0. 0.
      1.40000004e-02 4.00000019e-03 4.00000019e-03 2.00000009e-03
      2.00000009e-03 0. 0. 0. 0. 0. 2.00000009e-03 0. 0. 0. 0. 0. 0. 0.
      0. 0. 2.00000009e-03 0. 0. 2.00000009e-03 0. 0. 0. 2.00000009e-03
      0. 2.00000009e-03 0. 0. 0. 2.00000009e-03 2.00000009e-03 0. 0. 0.
      4.00000019e-03 2.00000009e-03 0. 0. 2.00000009e-03 0.
      2.00000009e-03 0. 0. 0. 0. 0. 0. 0. 0. 2.00000009e-03 0. 0. 0. 0.
      2.00000009e-03 0. 0. 0. 0. 8.00000038e-03 0. 0. 0. 0.
      2.00000009e-03 2.00000009e-03 0. 0. 0. 2.00000009e-03 0.
      2.00000009e-03 0. 2.00000009e-03 4.00000019e-03 0. 0. 0. 0.
      4.00000019e-03 0. 4.00000019e-03 0. 0. 0. 6.00000005e-03 0. 0. 0.
      0. 0. 0. 6.00000005e-03 0. 2.00000009e-03 0. 0. 0. 4.00000019e-03
      0. 0. 0. 2.00000009e-03 0. 4.00000019e-03 2.00000009e-03 0. 0. 0.
      2.00000009e-03 8.00000038e-03 0. 0. 0. 4.00000019e-03
      2.00000009e-03 0. 0. 0. 0. 6.00000005e-03 0. 0. 0. 0. 0. 0. 0. 0.
      0. 0. 0. 0. 0. 0. 0. 0. 0. 0. 0. 0. 2.00000009e-03 8.00000038e-03
      0. 0. 0. 0. 2.00000009e-03 0. 0. 0. 0. 0. 0. 0. 4.00000019e-03 0.
      0. 0. 0. 0. 0. 0. 0. 0. 0. 0. 0. 0. 0. 1.80000011e-02 0. 0. 0. 0.
      8.00000038e-03 0. 0. 0. 0. 0. 0. 2.00000009e-03 0. 4.00000019e-03
      0. 0. 0. 2.00000009e-03 0. 0. 0. 2.00000009e-03 0. 0.
      4.00000019e-03 0. 4.00000019e-03 0. 0. 2.00000009e-03 0. 0. 0.
      4.00000019e-03 4.00000019e-03 2.40000002e-02 0. 0. 0.
      4.00000019e-03 0. 0. 0. 0. 0. 2.00000009e-03 0. 8.00000038e-03
      2.00000009e-03 0. 0. 2.00000009e-03 6.00000005e-03 2.00000009e-03
      0. 2.00000009e-03 2.00000009e-03 0. 2.00000009e-03 0. 0. 0. 0. 0.
      0. 0. 0. 4.00000019e-03 2.00000009e-03 0. 0. 0. 0. 0. 0. 0.
      6.00000005e-03 6.00000005e-03 0. 0. 2.00000009e-03 0. 0.
      2.00000009e-03 0. 0. 0. 0. 0. 0. 0. 0. 0. 0. 0. 2.00000009e-03 0.
      2.00000009e-03 0. 2.00000009e-03 0. 2.00000009e-03 0. 0. 0. 0. 0.
      0. 0. 0. 0. 0. 0. 0. 2.00000009e-03 0. 0. 6.00000005e-03 0. 0.
      2.00000009e-03 0. 8.00000038e-03 0. 0. 0. 0. 4.00000019e-03 0. 0.
      2.00000009e-03 2.00000009e-03 0. 0. 0. 0. 0. 0. 0. 0. 0. 0.
      2.00000009e-03 0. 2.00000009e-03 0. 0. 0. 0. 0. 0. 0. 0.
      2.00000009e-03 0. 0. 0. 0. 0. 0. 6.00000005e-03 0. 4.00000019e-03
      0. 0. 6.00000005e-03 0. 0. 0. 2.00000009e-03 2.00000009e-03 0. 0.
      0. 0. 2.00000009e-03 2.00000009e-03 6.00000005e-03 0. 0.
      2.00000009e-03 2.00000009e-03 0. 2.00000009e-03 2.00000009e-03
      2.00000009e-03 0. 0. 0. 0. 0. 0. 0. 0. 0. 0. 0. 2.00000009e-03 0.
      0. 0. 0. 2.00000009e-03 2.00000009e-03 0. 0. 0. 2.00000009e-03
      6.00000005e-03 0. 0. 0. 2.00000009e-03 2.00000009e-03
      2.00000009e-03 0. 0. 0. 0. 0. 2.00000009e-03 0. 0. 1.20000001e-02
      0. 0. 0. 2.00000009e-03 0. 6.00000005e-03 2.00000009e-03 0.
      4.00000019e-03 0. 0. 0. 0. 4.00000019e-03 0. 0. 0. 0. 0.
      2.00000009e-03 0. 0. 0. 0. 0. 0. 0. 0. 2.00000009e-03
      2.00000009e-03 0. 2.00000009e-03 2.00000009e-03 0. 2.00000009e-03
      0. 2.00000009e-03 0. 0. 0. 0. 0. 0. 2.00000009e-03 0. 0. 0. 0. 0.
      0. 2.00000009e-03 0. 2.00000009e-03 6.00000005e-03 0. 0. 0.
      2.00000009e-03 0. 0. 0. 0. 0. 8.00000038e-03 0. 4.00000019e-03 0.
      0. 4.00000019e-03 0. 2.00000009e-03 0. 0. 2.00000009e-03 0. 0. 0.
      0. 0. 0. 0. 0. 0. 0. 0. 0. 2.00000009e-03 2.00000009e-03 0. 0.
      2.00000009e-03 0. 0. 0. 0. 0. 0. 0. 0. 4.00000019e-03
      4.00000019e-03 0. 0. 0. 0. 2.00000009e-03 0. 0. 0. 2.00000009e-03
      0. 0. 0. 0. 8.00000038e-03 2.00000009e-03 0. 0. 2.00000009e-03
      2.00000009e-03 2.00000009e-03 2.00000009e-03 0. 4.00000019e-03 0.
      0. 0. 0. 0. 0. 0. 0. 0. 2.00000009e-03 0. 0. 0. 0. 0.
      2.00000009e-03 0. 0. 2.00000009e-03 0. 2.00000009e-03
      2.00000009e-03 0. 2.00000009e-03 0. 2.00000009e-03 0. 0.
      2.00000009e-03 0. 0. 0. 8.00000038e-03 0. 0. 0. 6.00000005e-03
      2.00000009e-03 0. 0. 0. 0. 4.00000019e-03 0. 0. 0. 0.
      2.00000009e-03 0. 2.00000009e-03 0. 2.00000009e-03 0. 0.
      4.00000019e-03 8.00000038e-03 0. 0. 0. 0. 0. 0. 0. 0. 0. 0.
      6.00000005e-03 0. 4.00000019e-03 0. 2.00000009e-03 0. 0. 0. 0. 0.
      0. 0. 0. 0. 0. 2.00000009e-03 0. 0. 0. 0. 0. 0. 0. 0. 0. 0. 0.
      2.00000009e-03 0. 0. 0. 0. 4.00000019e-03 2.00000009e-03 0.
      2.00000009e-03 4.00000019e-03 2.00000009e-03 2.00000009e-03 0. 0.
      0. 0. 0. 2.00000009e-03 0. 2.00000009e-03 0. 0. 0. 0. 0. 0. 0. 0.
      0. 0. 0. 2.00000009e-03 0. 6.00000005e-03 6.00000005e-03
      2.00000009e-03 0. 0. 2.00000009e-03 0. 0. 0. 0. 0. 0. 0. 0. 0. 0.
      0. 0. 0. 0. 0. 0. 2.00000009e-03 6.00000005e-03 4.00000019e-03
      2.00000009e-03 0. 0. 0. 0. 0. 0. 0. 2.00000009e-03 0.
      6.00000005e-03 4.00000019e-03 0. 2.00000009e-03 0. 0.
      2.00000009e-03 0. 2.00000009e-03 0. 0. 0. 0. 0. 4.00000019e-03 0.
      0. 2.00000009e-03 0. 0. 0. 0. 0. 2.00000009e-03 0. 0.
      2.00000009e-03 0.</_>
    <_>
      0. 0. 2.25225231e-03 0. 0. 2.25225231e-03 1.12612620e-02
      2.25225231e-03 2.25225231e-03 0. 0. 0. 2.25225231e-03 0. 0. 0. 0.
      2.25225231e-03 0. 0. 2.25225231e-03 0. 0. 0. 0. 2.25225231e-03 0.
      0. 0. 0. 0. 2.25225231e-03 0. 2.25225231e-03 0. 0. 0. 0.
      6.75675692e-03 1.35135138e-02 0. 0. 0. 0. 0. 0. 0. 0. 0.
      2.25225231e-03 0. 0. 0. 0. 6.75675692e-03 0. 2.25225231e-03
      2.25225231e-03 0. 2.25225231e-03 2.25225231e-03 0. 0. 0. 0. 0. 0.
      0. 0. 0. 2.25225231e-03 0. 0. 6.75675692e-03 2.25225231e-03 0. 0.
      0. 0. 0. 0. 2.25225231e-03 0. 0. 2.25225231e-03 0. 0. 0. 0. 0.
      1.35135138e-02 0. 0. 2.25225231e-03 2.25225231e-03 2.25225231e-03
      0. 0. 0. 0. 2.25225231e-03 2.25225231e-03 4.50450461e-03 0.
      2.25225231e-03 0. 0. 0. 0. 2.25225231e-03 1.12612620e-02 0.
      6.75675692e-03 0. 6.75675692e-03 2.25225231e-03 0. 0. 0. 0. 0.
      4.50450461e-03 2.25225231e-03 0. 2.25225231e-03 2.25225231e-03 0.
      0. 0. 0. 0. 0. 0. 0. 0. 2.25225231e-03 0. 0. 0. 4.50450461e-03 0.
      2.25225231e-03 0. 4.50450461e-03 2.25225231e-03 0. 2.25225231e-03
      2.25225231e-03 0. 0. 0. 0. 9.00900923e-03 6.75675692e-03
      2.25225231e-03 0. 6.75675692e-03 0. 0. 0. 0. 0. 4.50450461e-03 0.
      0. 0. 2.25225231e-03 2.25225231e-03 2.25225231e-03 0. 0. 0. 0.
      2.25225231e-03 4.50450461e-03 0. 0. 0. 0. 2.25225231e-03 0.
      4.50450461e-03 0. 0. 0. 0. 0. 0. 0. 0. 0. 0. 0. 0. 0. 0.
      2.25225231e-03 0. 2.25225231e-03 0. 2.25225231e-03 0. 0.
      6.75675692e-03 2.25225231e-03 0. 2.25225231e-03 4.50450461e-03
      4.50450461e-03 0. 0. 0. 2.25225231e-03 0. 0. 0. 2.25225231e-03 0.
      0. 0. 0. 0. 0. 4.50450461e-03 0. 1.12612620e-02 9.00900923e-03
      4.50450461e-03 0. 0. 0. 0. 0. 0. 0. 4.50450461e-03 2.25225231e-03
      2.25225231e-03 0. 2.47747749e-02 0. 0. 0. 0. 0. 0. 0. 0. 0. 0.
      2.25225231e-03 0. 0. 0. 2.25225231e-03 0. 0. 0. 6.75675692e-03
      2.25225231e-03 0. 0. 0. 0. 0. 0. 0. 0. 2.25225231e-03 0. 0. 0. 0.
      2.25225231e-03 0. 0. 0. 0. 0. 2.25225231e-03 1.35135138e-02 0. 0.
      0. 0. 0. 0. 0. 0. 0. 0. 2.25225231e-03 0. 0. 0. 0. 2.25225231e-03
      0. 4.50450461e-03 0. 0. 0. 0. 0. 0. 0. 0. 0. 0. 0. 2.25225231e-03
      0. 0. 0. 0. 0. 0. 0. 0. 0. 0. 0. 0. 0. 0. 0. 0. 0. 0. 0. 0. 0.
      9.00900923e-03 0. 0. 2.25225231e-03 2.25225231e-03 0. 0.
      2.25225231e-03 0. 0. 4.50450461e-03 0. 0. 2.25225231e-03 0. 0. 0.
      2.25225231e-03 4.50450461e-03 0. 0. 2.25225231e-03 0. 0. 0. 0. 0.
      0. 0. 0. 0. 0. 0. 6.75675692e-03 9.00900923e-03 2.25225231e-03 0.
      0. 0. 0. 0. 2.25225231e-03 0. 0. 0. 0. 0. 0. 0. 0. 0.
      6.75675692e-03 2.25225231e-03 0. 0. 0. 0. 0. 4.50450461e-03 0.
      4.50450461e-03 0. 2.25225231e-03 0. 2.25225231e-03 0. 0. 0. 0.
      4.50450461e-03 0. 0. 0. 2.25225231e-03 2.25225231e-03 0. 0. 0. 0.
      2.25225231e-03 2.25225231e-03 0. 0. 4.50450461e-03 0.
      2.25225231e-03 0. 0. 2.25225231e-03 0. 0. 0. 0. 0. 0. 0. 0. 0. 0.
      2.25225231e-03 0. 0. 2.25225231e-03 0. 0. 0. 0. 0. 0. 0.
      2.25225231e-03 0. 2.25225231e-03 4.50450461e-03 0. 0. 0. 0. 0. 0.
      0. 0. 0. 0. 4.50450461e-03 2.25225231e-03 0. 2.25225231e-03 0. 0.
      0. 9.00900923e-03 0. 0. 0. 6.75675692e-03 2.25225231e-03 0. 0. 0.
      2.25225231e-03 0. 0. 9.00900923e-03 0. 0. 0. 0. 0. 0. 0.
      2.25225231e-03 2.25225231e-03 0. 6.75675692e-03 0. 0.
      2.25225231e-03 0. 0. 0. 4.50450461e-03 0. 0. 6.75675692e-03 0.
      9.00900923e-03 4.50450461e-03 0. 0. 2.25225231e-03 0. 0. 0. 0. 0.
      2.25225231e-03 0. 0. 0. 0. 0. 0. 0. 4.50450461e-03 0. 0. 0. 0.
      2.25225231e-03 0. 0. 0. 0. 6.75675692e-03 0. 2.25225231e-03
      2.25225231e-03 0. 0. 0. 0. 2.25225231e-03 2.25225231e-03 0. 0. 0.
      0. 9.00900923e-03 0. 2.25225231e-03 2.25225231e-03 0. 0. 0. 0. 0.
      2.25225231e-03 0. 2.25225231e-03 0. 0. 0. 0. 0. 2.25225231e-03
      2.25225231e-03 0. 0. 4.50450461e-03 2.25225231e-03 0. 0. 0. 0. 0.
      0. 0. 0. 2.25225231e-03 0. 0. 2.25225231e-03 0. 0. 0. 0. 0.
      9.00900923e-03 0. 0. 0. 0. 1.57657657e-02 4.50450461e-03 0. 0. 0.
      2.25225231e-03 2.25225231e-03 0. 0. 2.25225231e-03 0. 0. 0. 0. 0.
      0. 0. 0. 0. 0. 0. 0. 0. 0. 0. 0. 2.25225231e-03 2.25225231e-03 0.
      0. 0. 2.25225231e-03 0. 0. 0. 0. 0. 0. 0. 0. 0. 0. 0.
      2.25225231e-03 2.25225231e-03 0. 0. 0. 0. 0. 0. 0. 0.
      2.25225231e-03 0. 4.50450461e-03 0. 0. 0. 0. 0. 2.25225231e-03 0.
      0. 0. 0. 0. 0. 0. 0. 0. 0. 0. 0. 0. 0. 2.25225231e-03 0.
      2.25225231e-03 6.75675692e-03 4.50450461e-03 0. 0. 2.25225231e-03
      2.25225231e-03 0. 0. 0. 0. 0. 0. 6.75675692e-03 0. 0.
      4.50450461e-03 0. 0. 0. 0. 0. 2.25225231e-03 2.25225231e-03 0. 0.
      0. 0. 0. 2.25225231e-03 0. 0. 0. 2.25225231e-03 0. 0. 0.
      2.25225231e-03 0. 0. 2.25225231e-03 0. 0. 0. 0. 0. 0.
      2.25225231e-03 2.25225231e-03 1.12612620e-02 2.25225231e-03 0. 0.
      0. 0. 0. 0. 2.25225231e-03 0. 0. 0. 4.50450461e-03 2.25225231e-03
      0. 0. 6.75675692e-03 0. 0. 0. 0. 0. 2.25225231e-03 0. 0.
      2.25225231e-03 0. 0. 2.25225231e-03 4.50450461e-03 0. 0.
      2.25225231e-03 0. 0. 0. 2.25225231e-03 0. 2.25225231e-03 0.
      1.12612620e-02 0. 0. 9.00900923e-03 0. 0. 0. 2.25225231e-03 0. 0.
      0. 0. 0. 0. 0. 0. 0. 0. 0. 0. 4.50450461e-03 0. 4.50450461e-03 0.
      0. 0. 0. 0. 0. 0. 0. 0. 0. 0. 0. 0. 2.25225231e-03 0. 0. 0. 0. 0.
      0. 0. 0. 0. 2.25225231e-03 2.25225231e-03 0. 2.25225231e-03
      2.25225231e-03 0. 0. 2.25225231e-03 2.25225231e-03 0. 0. 0.
      4.50450461e-03 0. 0. 0. 0. 4.50450461e-03 0. 0. 0. 0. 0. 0.
      2.25225231e-03 0. 4.50450461e-03 0. 0. 0. 0. 2.25225231e-03
      4.50450461e-03 0. 2.25225231e-03 0. 0. 0. 2.25225231e-03 0. 0.
      2.25225231e-03 0. 0. 2.25225231e-03 2.25225231e-03 0. 0.
      2.25225231e-03 6.75675692e-03 4.50450461e-03 4.50450461e-03 0. 0.
      0. 0. 2.25225231e-03 0. 0. 0. 0. 0. 2.25225231e-03 0. 0. 0.
      2.25225231e-03 2.25225231e-03 0. 0. 0. 0. 0. 0. 2.25225231e-03
      2.25225231e-03 4.50450461e-03 0. 0. 0. 0. 0. 4.50450461e-03 0.
      4.50450461e-03 0. 2.25225231e-03 0. 0. 0. 0. 2.25225231e-03 0. 0.
      0. 0. 0. 0. 0. 0. 0. 0. 0. 0. 0. 0. 2.25225231e-03 0. 0. 0. 0.
      2.25225231e-03 2.25225231e-03 0. 2.25225231e-03 9.00900923e-03
      4.50450461e-03 0. 0. 0. 0. 0. 4.50450461e-03 4.50450461e-03 0. 0.
      0. 2.25225231e-03 0. 0. 0. 0. 0. 0. 0. 0. 2.25225231e-03 0. 0.
      2.25225231e-03 0. 0. 0. 0. 4.50450461e-03 0. 0. 0. 4.50450461e-03
      2.25225231e-03 2.25225231e-03 0. 0. 0. 0. 0. 2.25225231e-03 0. 0.
      2.25225231e-03 0. 2.25225231e-03 0. 2.25225231e-03 0. 0. 0. 0.
      4.50450461e-03 0. 2.25225231e-03 0. 0. 2.25225231e-03 0.
      6.75675692e-03 0. 4.50450461e-03 0. 4.50450461e-03 0. 0. 0.
      4.50450461e-03 0. 0. 0. 0. 0. 2.25225231e-03 0. 0. 0. 0. 0. 0. 0.
      4.50450461e-03 2.25225231e-03 0. 0. 0.</_>
    <_>
      2.07039341e-03 0. 2.07039341e-03 0. 2.07039341e-03 0.
      8.28157365e-03 0. 0. 0. 0. 0. 0. 0. 0. 4.14078683e-03 0. 0. 0. 0.
      0. 6.21118024e-03 2.07039341e-03 0. 0. 4.14078683e-03 0. 0.
      2.07039341e-03 0. 2.07039341e-03 0. 0. 2.07039341e-03 0. 0.
      4.14078683e-03 0. 2.07039341e-03 4.14078683e-03 0. 0. 0. 0. 0. 0.
      0. 0. 0. 0. 0. 2.07039341e-03 0. 0. 2.07039341e-03 2.07039341e-03
      0. 0. 0. 2.07039341e-03 0. 6.21118024e-03 0. 0. 0. 0. 0.
      4.14078683e-03 0. 0. 0. 2.07039341e-03 0. 0. 2.07039341e-03 0. 0.
      0. 2.07039341e-03 0. 0. 2.07039341e-03 0. 2.07039341e-03 0. 0. 0.
      0. 0. 0. 2.69151144e-02 0. 0. 0. 0. 6.21118024e-03 0. 0. 0.
      1.03519671e-02 2.07039341e-03 2.07039341e-03 0. 0. 0.
      2.07039341e-03 0. 0. 0. 2.07039341e-03 4.14078683e-03 0. 0. 0. 0.
      0. 0. 0. 0. 4.14078683e-03 0. 4.14078683e-03 0. 0. 0.
      8.28157365e-03 0. 0. 0. 2.07039341e-03 0. 0. 0. 0. 0. 0. 0. 0. 0.
      4.14078683e-03 0. 0. 0. 4.14078683e-03 4.14078683e-03 0.
      2.07039341e-03 2.07039341e-03 0. 2.07039341e-03 0. 0. 0.
      4.14078683e-03 2.07039341e-03 0. 0. 0. 2.07039341e-03 0. 0. 0. 0.
      0. 0. 0. 2.07039341e-03 0. 0. 0. 0. 0. 0. 0. 2.07039341e-03 0. 0.
      0. 0. 2.07039341e-03 0. 2.07039341e-03 0. 0. 0. 0. 0.
      4.14078683e-03 0. 0. 0. 2.07039341e-03 2.07039341e-03
      2.07039341e-03 0. 0. 0. 0. 2.07039341e-03 0. 0. 0. 0.
      6.21118024e-03 0. 0. 0. 0. 2.07039341e-03 0. 2.07039341e-03 0. 0.
      0. 0. 0. 4.14078683e-03 0. 0. 6.21118024e-03 2.07039341e-03 0. 0.
      2.07039341e-03 0. 2.07039341e-03 4.14078683e-03 4.14078683e-03 0.
      2.07039341e-03 6.21118024e-03 0. 0. 0. 0. 0. 0. 2.07039341e-03 0.
      1.44927539e-02 2.07039341e-03 0. 2.07039341e-03 0. 0. 0. 0. 0. 0.
      0. 0. 0. 0. 0. 2.07039341e-03 0. 0. 0. 2.07039341e-03
      2.07039341e-03 0. 2.07039341e-03 0. 0. 0. 4.14078683e-03 0. 0. 0.
      0. 0. 0. 0. 2.07039341e-03 0. 2.07039341e-03 0. 0. 0.
      2.07039341e-03 0. 0. 0. 2.07039341e-03 2.07039341e-03
      4.14078683e-03 0. 0. 1.24223605e-02 2.07039341e-03 0. 0. 0. 0. 0.
      0. 0. 0. 1.03519671e-02 0. 2.07039341e-03 0. 2.07039341e-03 0. 0.
      0. 0. 0. 0. 2.07039341e-03 0. 2.07039341e-03 0. 0. 0. 0. 0. 0. 0.
      0. 0. 2.07039341e-03 0. 0. 0. 0. 0. 4.14078683e-03 0. 0.
      4.14078683e-03 0. 2.07039341e-03 0. 0. 0. 2.07039341e-03 0. 0. 0.
      0. 2.07039341e-03 4.14078683e-03 2.07039341e-03 0. 2.07039341e-03
      0. 0. 0. 0. 2.07039341e-03 4.14078683e-03 0. 0. 0. 0. 0. 0. 0. 0.
      0. 0. 2.07039341e-03 2.07039341e-03 2.07039341e-03 0.
      6.21118024e-03 2.07039341e-03 0. 0. 0. 0. 0. 0. 0. 0. 0. 0. 0.
      2.07039341e-03 0. 0. 0. 0. 0. 0. 0. 0. 8.28157365e-03 0. 0. 0.
      2.07039341e-03 0. 0. 0. 0. 0. 2.07039341e-03 0. 0. 2.07039341e-03
      0. 0. 2.07039341e-03 0. 6.21118024e-03 0. 2.07039341e-03
      2.07039341e-03 0. 2.07039341e-03 8.28157365e-03 0. 0.
      2.07039341e-03 4.14078683e-03 0. 0. 0. 0. 0. 0. 0. 0.
      2.07039341e-03 0. 0. 2.07039341e-03 2.07039341e-03 0. 0.
      4.14078683e-03 0. 6.21118024e-03 2.07039341e-03 0. 0. 0. 0. 0. 0.
      0. 2.07039341e-03 0. 0. 0. 0. 0. 2.07039341e-03 0. 0. 0. 0. 0. 0.
      0. 4.14078683e-03 0. 4.14078683e-03 0. 0. 1.03519671e-02
      4.14078683e-03 0. 2.07039341e-03 2.07039341e-03 6.21118024e-03 0.
      0. 0. 0. 4.14078683e-03 0. 0. 0. 0. 0. 0. 0. 0. 0. 0. 0. 0. 0.
      2.07039341e-03 0. 2.07039341e-03 6.21118024e-03 0. 0.
