<?xml version="1.0"?>
<opencv_storage>
<opencv_ml_svm>
  <format>3</format>
  <svmType>C_SVC</svmType>
  <kernel>
    <type>LINEAR</type></kernel>
  <C>1.</C>
  <term_criteria><iterations>100</iterations></term_criteria>
  <var_count>1000</var_count>
  <class_count>2</class_count>
  <class_labels type_id="opencv-matrix">
    <rows>2</rows>
    <cols>1</cols>
    <dt>i</dt>
    <data>
      -1 1</data></class_labels>
  <sv_total>1</sv_total>
  <support_vectors>
    <_>
      -5.05054370e-03 1.42136859e-02 -4.15509241e-03 -1.85799543e-02
      2.80889566e-03 4.90227761e-03 7.11345971e-02 -5.02984859e-02
      -2.03589555e-02 -5.76099055e-03 -2.35988083e-03 -1.23731997e-02
      -3.49993631e-03 -2.76750866e-02 -1.37300082e-02 -1.27173653e-02
      5.41409571e-03 4.23781872e-02 -2.75242776e-02 -8.44875816e-03
      -4.81837010e-03 -1.07895853e-02 -2.34717596e-02 -2.59085395e-03
      -6.00126060e-03 -2.28539929e-02 -4.67674760e-03 9.84234829e-03
      -2.45763529e-02 4.97487653e-03 -5.79252914e-02 5.11483289e-03
      -1.95890665e-02 1.94509309e-02 1.72946544e-03 8.43857136e-03
      3.33503447e-02 3.64967535e-04 -2.90523451e-02 4.28962428e-03
      -2.06991332e-03 -1.43037323e-04 -1.08653400e-02 -2.81563634e-03
      1.39287794e-02 -4.04684283e-02 -4.31486126e-03 -3.23889893e-03
      -2.90834494e-02 1.63122907e-03 1.47553496e-02 9.73276421e-03
      4.28157439e-03 -1.75596382e-02 1.86507236e-02 -1.10582165e-01
      5.47355553e-03 1.01159085e-02 -2.64821034e-02 -4.34903614e-03
      1.87500933e-04 1.54185072e-02 -1.27773767e-03 2.61146110e-03
      2.16227975e-02 -3.33741726e-03 -1.30135184e-02 -1.80834942e-02
      2.04863381e-02 1.62787864e-03 -9.00478160e-04 -9.92390327e-03
      -1.37153203e-02 2.44403929e-02 -2.12995782e-01 4.34295833e-03
      2.12945417e-02 9.71954223e-03 5.06096100e-03 1.56209134e-02
      -2.12204996e-02 -4.83922884e-02 -2.13554315e-03 2.22354084e-02
      3.66464513e-03 -2.06611562e-03 -2.95644403e-02 -1.18154380e-02
      -1.30563760e-02 5.32827515e-04 7.93424621e-02 5.30404923e-03
      -2.38279905e-03 3.29487748e-03 -2.66059265e-02 -1.93761196e-02
      2.23712748e-04 -1.25850802e-02 -7.11062271e-03 6.08218312e-02
      -1.93238873e-02 2.26779040e-02 2.10711337e-03 4.07530274e-03
      -7.71165825e-04 7.38522783e-03 -9.06189624e-03 7.95120280e-03
      4.78395785e-04 2.39264849e-03 9.25746635e-02 9.16417968e-03
      9.33868904e-03 -5.78381261e-03 4.91500944e-02 -3.56892757e-02
      3.70550714e-02 1.10356864e-02 1.48680331e-02 1.16101112e-02
      -1.12236897e-02 2.00261958e-02 -4.34811041e-03 -4.92413202e-03
      2.30306648e-02 -9.78235230e-02 -6.96862722e-03 -3.01563777e-02
      -2.97780684e-03 3.26648578e-02 6.58288365e-03 -2.50407308e-03
      4.98396531e-03 -5.64041547e-03 2.64707934e-02 1.10013327e-02
      -1.97405904e-03 -1.72045955e-03 6.92095282e-03 -3.24062891e-02
      -1.52935132e-01 9.65331774e-03 4.50506713e-03 1.91755705e-02
      -2.09032912e-02 5.98599762e-03 1.81101449e-02 3.92305180e-02
      -7.33861234e-05 -2.94355862e-03 3.55378375e-03 -2.76800599e-02
      -5.07220291e-02 3.68851684e-02 1.50086340e-02 5.53970551e-03
      -1.33913988e-02 2.20721290e-02 -8.38453323e-03 -2.44201031e-02
      6.08447753e-03 0. 3.41135338e-02 5.74935339e-02 -4.23835218e-03
      7.21220952e-03 -1.17934113e-02 1.03893708e-02 -1.15347812e-02
      1.87831756e-04 1.79895200e-02 -3.37620415e-02 2.48935027e-03
      6.40533678e-03 2.07833201e-02 -5.99438790e-04 -1.48013197e-02
      -2.24777125e-02 1.99481025e-02 4.28300770e-03 -1.43426927e-02
      1.37291206e-02 1.41364699e-02 1.73977818e-02 -7.79991795e-04
      7.25033367e-03 -1.31079014e-02 2.14955192e-02 -6.81820046e-03
      -1.87631871e-03 1.15724178e-02 1.51407197e-02 1.26533406e-02
      8.34606867e-03 5.97336562e-03 -5.64310525e-04 2.97550112e-03
      -5.02507389e-03 -3.02223619e-02 2.32680142e-03 -1.30804433e-02
      1.95817417e-03 -5.37590357e-03 1.07297413e-02 2.99987495e-02
      6.28105481e-04 1.20166633e-02 -1.56643745e-02 2.01045685e-02
      -6.73109666e-03 -6.91915257e-03 2.72788340e-03 -6.62883669e-02
      1.65238585e-02 -3.23115219e-03 -1.63049698e-02 8.89225584e-03
      -2.16714926e-02 3.95435281e-03 -8.48859847e-02 1.37690837e-02
      -5.06936992e-03 -9.09938884e-04 4.43113185e-02 -1.03752567e-02
      7.95157999e-03 3.85726877e-02 -1.64419669e-03 2.96963775e-03
      4.44910536e-03 -8.72289017e-02 5.14520099e-04 5.00847632e-03
      3.36613208e-02 1.73171815e-02 1.61439311e-02 -1.38498032e-02
      -7.86343310e-03 -2.44314317e-02 5.26270317e-03 9.23338532e-03
      4.70722762e-06 -2.21324936e-02 3.89194938e-05 3.03072203e-03
      -5.74504584e-03 -3.91902141e-02 5.39656635e-03 3.60086051e-05
      1.14640323e-02 1.21756783e-02 -9.90447681e-03 -2.39376407e-02
      2.79707578e-03 1.26680611e-02 1.29559552e-02 -2.24719103e-03
      2.42787022e-02 -1.43389255e-02 -3.32136787e-02 2.82433862e-03
      -1.55458106e-02 1.71435717e-03 4.26985649e-03 8.08981806e-03
      1.89041086e-02 -7.99661316e-03 5.17878029e-03 1.12855695e-02
      7.34693278e-03 2.79063098e-02 -1.09300604e-02 5.88724343e-03
      2.25248411e-02 4.56947647e-03 3.29707563e-02 1.46142663e-02
      2.98021082e-03 -2.16741720e-03 6.88576140e-03 -9.46053118e-03
      1.40111130e-02 6.48921123e-03 4.05021645e-02 2.12598220e-03
      -3.62633058e-04 -7.69780809e-03 1.55170932e-02 4.58756089e-02
      2.72987802e-02 -4.39706407e-02 8.71742610e-03 -5.84367383e-03
      1.33562423e-02 -4.65312507e-03 5.58850728e-03 -2.25762045e-03
      8.74285679e-03 -1.36713879e-02 -5.12562692e-04 2.09625554e-03
      -2.88276072e-03 4.04062029e-03 9.12175234e-03 -1.38827832e-04
      -1.09658204e-03 -8.83071567e-04 2.15045344e-02 4.20139125e-03
      1.21313576e-02 -1.22772017e-03 -1.68422703e-02 9.42435488e-03
      -1.66434771e-03 1.43187409e-02 2.53009498e-02 9.08042025e-03
      5.81096916e-04 -3.98013229e-03 -2.35052686e-03 1.34721855e-02
      2.74610855e-02 3.57300229e-03 -2.54262816e-02 1.47916970e-03
      4.47365008e-02 1.36352265e-02 9.16915946e-03 -8.67702886e-02
      1.02569237e-02 -6.74875453e-03 5.26129641e-03 -7.33433291e-02
      -7.26668211e-03 -4.56335908e-03 5.88823576e-03 8.51569232e-03
      1.62879527e-02 7.73355132e-03 1.35866888e-02 6.98330346e-03
      9.36893187e-03 3.45472656e-02 3.60183185e-03 -7.11570447e-03
      -7.34334858e-03 9.05405171e-03 4.01035417e-03 1.31285544e-02
      1.22234672e-02 2.01130956e-02 -5.04972674e-02 6.20421162e-03
      1.23592932e-02 1.27471052e-02 5.36303641e-03 -3.23132947e-02
      1.27218422e-02 -4.67370637e-03 9.50346515e-03 -5.55634825e-03
      4.97897575e-03 -1.36567820e-02 2.15974171e-03 4.57254425e-03
      -4.85285558e-03 -1.41904838e-02 5.58092333e-02 1.55481230e-03
      -3.72109339e-02 -1.71587081e-03 -4.27018525e-03 -8.05913284e-03
      1.07556190e-02 -2.32018554e-03 -1.47541091e-02 1.57499909e-02
      -4.41198722e-02 1.18037891e-02 9.32059530e-03 8.75623059e-03
      5.03331097e-03 1.62195377e-02 -4.05230140e-03 -4.52767313e-02
      4.11209156e-04 3.67053039e-02 1.13151995e-02 1.84922107e-02
      3.81627935e-03 9.09118541e-03 -2.69962300e-04 3.55411833e-03
      -4.80311224e-03 2.00745873e-02 -3.95936985e-03 1.57532301e-02
      -7.61539210e-03 3.00782290e-03 -1.34441601e-02 2.23712748e-04
      6.30902573e-02 -1.29636703e-02 1.71137368e-03 -1.79242867e-03
      -9.52210836e-03 2.85878051e-02 1.68986898e-03 -1.90011151e-02
      2.39062160e-02 6.29192800e-05 2.10653618e-02 6.00793026e-02
      -1.65299303e-03 2.09643599e-03 9.62047558e-03 5.98692447e-02
      -2.16241716e-03 2.44922703e-03 1.66639604e-03 -1.80170629e-02
      4.83226700e-04 1.99784385e-03 6.49790047e-03 1.62240863e-02
      1.00571541e-02 -9.22576152e-03 1.24446293e-02 -1.57509726e-02
      4.15482884e-03 -1.94347482e-02 1.58238616e-02 5.43492250e-02
      -1.49699289e-03 -4.76230111e-04 -1.61157381e-02 -9.80209280e-03
      -3.64450971e-04 -3.22547712e-04 1.41626894e-02 4.13729064e-03
      -3.23605462e-04 6.84606936e-03 -3.16210985e-02 -4.99700103e-03
      5.53456740e-03 -4.20855684e-03 -1.99533496e-02 4.70308820e-04
      1.38174407e-02 6.17474876e-03 -4.08615172e-03 2.36381311e-02 0.
      4.32084352e-02 -1.16469590e-02 -6.69732643e-03 -5.23861311e-03
      7.17632286e-03 -9.28141847e-02 7.59926252e-03 1.02394316e-02
      7.09655210e-02 -5.68104349e-02 5.34022367e-03 -8.32092133e-04
      1.47786830e-02 -4.42750230e-02 1.08584780e-02 2.63858829e-02
      -9.36086942e-03 -2.52525252e-03 4.02970985e-02 6.30766619e-03
      -4.55146714e-04 1.83378812e-02 -3.68568883e-03 1.90583663e-03
      -2.73259846e-03 1.13152037e-03 -4.71291644e-03 2.95294239e-03
      -7.50567243e-02 7.61774322e-03 3.65212763e-04 4.64181369e-03
      7.95896258e-03 6.28529582e-04 -4.24997328e-04 1.89156644e-03
      -2.10406957e-03 -9.05548409e-03 -1.80037282e-02 -9.00456123e-03
      1.63224116e-02 -4.68213670e-03 8.98876053e-04 6.93885563e-03
      -4.07445505e-02 1.39444498e-02 8.42670968e-04 5.31029096e-03
      1.63127352e-02 4.48571052e-03 6.95825042e-03 -4.40940522e-02
      5.23089897e-03 -6.30351808e-03 3.56897991e-03 -8.62147752e-03
      5.83358249e-03 9.60600562e-03 -5.22028655e-04 -5.46330120e-03
      8.59017950e-03 5.53346099e-03 2.25344915e-02 2.73175891e-02
      -1.76353473e-03 1.11708427e-02 -4.72899852e-03 -5.21426322e-03
      5.63967880e-03 6.14388613e-03 5.96040348e-03 3.85308638e-02
      2.70993300e-02 -2.23318487e-03 1.81060527e-02 2.00000009e-03
      2.02471148e-02 -1.15559604e-02 9.75117204e-04 1.25103537e-03
      8.38324707e-03 -1.63028985e-02 2.06685457e-02 7.61809945e-03
      2.01605838e-02 -6.24831766e-03 6.59979209e-02 3.91786266e-03
      -1.20261300e-03 1.24214096e-02 -3.71206668e-03 5.07160835e-03
      1.42884795e-02 1.40989863e-03 -3.74770314e-02 -2.76037976e-02
      2.46869703e-03 -2.33978648e-02 4.19936096e-03 7.49862054e-03
      -1.68166701e-02 -4.37130081e-03 5.69485612e-02 -5.79707045e-03
      -6.68930262e-02 2.24123569e-03 1.51518369e-02 5.08680427e-03
      4.14877851e-03 1.18936403e-02 -6.59498721e-02 -3.83846764e-03
      1.10496988e-03 8.16412736e-03 2.78484961e-03 -1.64203928e-03
      -1.09486338e-02 -4.46438370e-03 -4.58330801e-03 -6.58389041e-03
      2.30708998e-02 6.77080546e-03 -2.78468244e-04 6.04043249e-03
      6.13514660e-03 6.78468868e-03 1.92382466e-02 2.23712748e-04
      -2.70289462e-03 1.24455905e-02 2.00956687e-02 4.21295092e-02
      -1.81902386e-02 -5.12345135e-03 1.30082676e-02 4.52895463e-03
      -1.67113096e-02 1.10078622e-02 -2.24377606e-02 -6.78545656e-03
      -9.86592844e-03 4.05865423e-02 -1.00219864e-02 1.96033698e-02
      -3.22014652e-03 1.55174090e-02 5.82952239e-03 1.26208179e-02
      -1.41280878e-03 7.02793850e-03 -1.64477492e-03 4.16912138e-02
      8.17287527e-03 -7.54531380e-03 1.53514519e-02 5.97076956e-03
      8.72079749e-03 -6.00212775e-02 1.15503073e-02 3.18656233e-03
      -4.43976093e-03 -8.94186273e-03 -1.27129424e-02 -6.81726355e-03
      1.61312111e-02 2.55253399e-04 -1.02626719e-02 4.30933107e-03
      3.51263359e-02 7.98341408e-02 3.40178818e-03 -8.63304641e-03
      1.27502922e-02 -1.38491178e-02 2.82240845e-02 -1.11804111e-03
      -7.50416715e-04 9.93455946e-03 1.37911877e-02 -2.11364496e-02
      -1.60644227e-03 2.29885057e-03 1.22996047e-02 2.50068330e-03
      -5.63350506e-02 4.06449474e-03 -1.99901275e-02 -1.58522429e-03
      -2.27669273e-02 7.77793233e-04 -3.51360366e-02 1.07312044e-02
      8.74087491e-05 5.75933931e-03 -8.12518876e-03 -1.81858893e-04
      6.32770825e-03 4.60322294e-03 1.01903612e-02 1.38704954e-02
      1.37783568e-02 -2.07900209e-03 -5.58981486e-03 -9.92423203e-03
      -1.17521493e-04 5.73763065e-03 2.04415340e-02 1.23891272e-02
      1.84465963e-02 -6.23930828e-04 -5.40607795e-03 -6.19228482e-02
      2.17566565e-02 -4.17711912e-03 4.71505430e-03 1.96685200e-03
      1.12327151e-02 1.59336068e-02 -6.28971448e-03 0. -2.70287949e-03
      -4.14094701e-03 3.63683663e-02 1.24227330e-02 -1.23771140e-02
      -4.82133328e-05 2.36496832e-02 8.63995124e-03 2.89323577e-03
      -8.81526619e-03 8.23071343e-04 2.16904450e-02 -1.10130101e-01
      5.44867944e-05 -6.90957857e-03 4.19539437e-02 -7.19422475e-03
      -7.01516168e-03 9.58123652e-04 -7.83733577e-02 -2.17391294e-03
      -6.53228089e-02 -1.73834730e-02 8.41147546e-03 1.59294042e-03
      -1.90170319e-03 -4.16861568e-03 6.53764000e-03 -1.16227716e-02
      -1.44445887e-02 -1.85980666e-02 -4.95938119e-03 2.32263282e-03
      -5.41529036e-04 1.11401845e-02 -8.52538552e-03 1.18363360e-02
      1.63668976e-03 5.99378571e-02 -2.53661815e-02 1.10593287e-03
      -4.40256158e-03 3.11045628e-03 7.67612131e-03 5.34947915e-03
      2.96226470e-03 6.85469201e-03 -5.96532151e-02 -2.75698001e-03
      -4.76526516e-03 2.10316312e-02 1.21297492e-02 -3.31267109e-03
      6.09659683e-03 2.75369454e-02 -1.43343108e-02 2.13201679e-02
      6.47625104e-02 -2.02907584e-04 -4.58511291e-03 7.14821462e-03
      -3.25887278e-02 -2.19374429e-03 2.18326747e-02 7.31566409e-03
      1.13994135e-02 2.06279531e-02 1.75037850e-02 -1.76951997e-02
      8.74468964e-03 9.62024275e-03 8.98344442e-04 -4.46273759e-03
      -1.73431952e-02 -6.75882911e-03 9.77689959e-03 3.43742259e-02
      -7.90344784e-04 3.65243778e-02 1.43855726e-02 8.95520207e-05
      -8.66324082e-02 5.12100430e-03 -5.30532040e-02 -3.38117033e-02
      -3.56254131e-02 1.09319307e-01 1.46464474e-04 3.57387252e-02
      -4.31340653e-03 -1.01278292e-03 -5.80964657e-03 -3.41931842e-02
      1.24291861e-02 -1.18751451e-02 1.85752232e-02 4.53707203e-03 0.
      1.59855168e-02 2.98634032e-03 1.32665923e-02 4.83605638e-03
      -2.05316208e-03 2.05406286e-02 1.15220631e-02 1.04658836e-02
      -6.67225756e-03 -1.26680243e-03 4.13770135e-03 1.15887886e-02
      -2.15982716e-03 -5.41397883e-03 4.90775332e-02 1.93614680e-02
      -1.58959627e-02 5.59213711e-03 6.67344872e-03 2.13675224e-03
      -6.04268210e-03 2.63724686e-03 -3.57844401e-04 1.11335870e-02
      -2.15113140e-03 -1.22436257e-02 -9.15448368e-03 -3.44404718e-03 0.
      -1.55246314e-02 -3.85176055e-02 2.91064056e-03 -8.28890316e-03
      4.12005633e-02 -1.65039767e-02 1.27744861e-02 1.19565055e-02
      7.19998032e-03 6.72634840e-02 0. 2.03036400e-03 3.51641414e-04
      2.58000405e-03 -1.05461874e-03 -1.44445919e-03 2.51961499e-03
      -1.92636042e-03 8.86971131e-03 2.57708337e-02 -6.02738746e-02
      -9.84200370e-03 -4.45773499e-03 6.74091978e-03 -4.56263358e-03
      1.67027954e-02 4.21793899e-03 -8.35782848e-03 4.94196126e-03
      1.79352537e-02 3.43634337e-02 -1.44922435e-02 -5.50113106e-03
      3.41600715e-03 -2.33546435e-03 3.06748077e-02 7.54663604e-04
      -1.14563247e-02 -5.15137624e-04 5.50736068e-03 -8.33761916e-02
      8.79011862e-03 4.73630093e-02 0. 6.55760849e-03 1.73452180e-02
      5.50298952e-03 4.91505023e-04 2.33716927e-02 4.80771530e-03
      1.94222331e-02 -3.90335894e-03 4.03931178e-02 -2.24665646e-02
      -4.78236238e-03 -5.04774153e-02 1.53235123e-02 -1.25712864e-02
      -2.79576262e-03 -1.68776773e-02 2.11183894e-02 -2.33235303e-02
      9.10936869e-05 -1.57472095e-03 4.44229171e-02 -6.67279959e-02
      -3.97774670e-03 -2.07374599e-02 -4.76927869e-03 -3.25754960e-03
      2.49456381e-03 -1.05833784e-02 2.26385742e-02 4.82395776e-02
      2.64853030e-03 4.09643631e-03 -2.08183210e-02 1.40158040e-02
      -5.29024005e-02 2.39023613e-03 1.33726029e-02 -3.70604382e-03
      1.98880583e-03 2.48138956e-03 -6.71472284e-04 -2.16792654e-02
      -1.98805388e-02 -1.06303487e-02 -3.63284834e-02 1.53876916e-02
      -9.22830217e-03 -1.02989078e-02 6.42132713e-03 1.73974282e-03
      1.17546762e-03 2.83368607e-03 5.01013780e-03 -1.01514896e-02
      7.09829852e-03 -3.96226114e-03 2.10835785e-02 -2.72305831e-02
      2.31864732e-02 -4.07832349e-03 -6.45807851e-03 0. -2.19395179e-02
      2.50904448e-02 5.16683422e-02 -4.11767773e-02 -6.29375223e-03
      -2.81962799e-03 -4.14165445e-02 -4.12399555e-03 -7.26653589e-03
      -8.15571845e-03 4.84804856e-03 1.33198109e-02 -4.17864928e-03
      2.95766047e-04 2.81283632e-02 -3.41306068e-03 -1.39523083e-02
      4.51614521e-03 -2.53675487e-02 6.49218354e-03 -2.62176478e-03
      -8.26789532e-03 6.82642683e-03 2.35849060e-03 3.69705749e-03
      2.27607205e-04 -1.53715152e-03 -1.80894847e-03 -2.83891917e-03
      -2.69761868e-02 2.18853801e-02 -8.85081664e-02 1.55285550e-02
      -2.46231747e-03 9.00183059e-03 -1.02065522e-02 -3.70782204e-02
      -1.01883523e-02 1.48046378e-03 -6.06079325e-02 2.14155894e-02
      -5.50296297e-03 2.53609585e-04 -1.82577632e-02 -5.23270201e-03
      -1.34010066e-03 1.43538904e-03 1.35802208e-02 -2.39128396e-02
      -1.33292200e-02 1.87995599e-03 -5.95819671e-03 4.36299108e-03
      7.76504679e-03 -2.61845533e-02 -1.60637368e-02 -2.13787286e-03
      1.26159668e-03 -2.13983525e-02 -1.67056676e-02 1.25226481e-02
      2.68201088e-03 -9.34938435e-05 -2.35212427e-02 2.01270636e-02
      -8.75249431e-02 -1.30441599e-02 2.29129028e-02 2.47334503e-02
      -4.27354733e-03 -6.26484081e-02 1.97187718e-02 -6.13826653e-03
      1.03544053e-02 2.80119921e-03 -2.43027564e-02 6.38545677e-03
      -4.58532665e-03 -6.74775289e-03 1.02961920e-02 -4.47492152e-02
      -8.18555951e-02 -6.57389462e-02 -2.24706228e-03 2.27399566e-03
      -3.26379598e-03 -1.58384144e-02 1.05663491e-02 1.98512301e-02
      9.27541312e-03 1.64386984e-02 -2.67378055e-03 -3.68022505e-04</_></support_vectors>
  <uncompressed_sv_total>120</uncompressed_sv_total>
  <uncompressed_support_vectors>
    <_>
      0. 0. 2.13219621e-03 0. 0. 0. 4.26439242e-03 2.13219621e-03 0.
      4.26439242e-03 0. 0. 2.13219621e-03 0. 2.13219621e-03 0. 0.
      2.13219621e-03 0. 0. 0. 0. 0. 0. 0. 0. 0. 0. 2.13219621e-03 0.
      2.13219621e-03 0. 0. 1.27931777e-02 0. 0. 0. 2.13219621e-03 0.
      4.26439242e-03 0. 0. 0. 2.13219621e-03 0. 0. 0. 2.13219621e-03 0.
      0. 0. 0. 0. 4.26439242e-03 2.13219621e-03 4.26439242e-03 0. 0. 0.
      2.13219621e-03 2.13219621e-03 0. 0. 0. 0. 0. 2.13219621e-03
      4.26439242e-03 0. 0. 0. 0. 6.39658887e-03 0. 2.34541576e-02 0.
      2.13219621e-03 0. 0. 0. 2.13219621e-03 4.26439242e-03 0. 0. 0. 0.
      0. 0. 0. 0. 1.91897657e-02 0. 0. 0. 2.13219621e-03 0. 0.
      2.13219621e-03 0. 6.39658887e-03 0. 0. 0. 0. 0. 2.13219621e-03 0.
      0. 2.13219621e-03 0. 2.13219621e-03 0. 0. 0. 4.26439242e-03
      2.13219621e-03 0. 0. 0. 0. 0. 0. 2.13219621e-03 0. 0.
      1.49253737e-02 0. 2.13219621e-03 0. 0. 0. 2.13219621e-03 0. 0. 0.
      0. 0. 2.13219621e-03 0. 0. 1.70575697e-02 0. 0. 0. 2.13219621e-03
      0. 0. 4.26439242e-03 0. 0. 0. 6.39658887e-03 6.39658887e-03
      2.13219621e-03 0. 0. 0. 0. 0. 2.13219621e-03 2.13219621e-03 0.
      2.13219621e-03 0. 0. 0. 0. 0. 0. 0. 0. 0. 0. 0. 0. 0. 0. 0. 0. 0.
      2.13219621e-03 0. 0. 0. 2.13219621e-03 0. 0. 0. 0. 0. 0. 0. 0. 0.
      2.13219621e-03 2.13219621e-03 0. 0. 2.13219621e-03 0. 0.
      2.13219621e-03 0. 0. 2.13219621e-03 0. 0. 2.13219621e-03 0. 0.
      2.13219621e-03 0. 2.13219621e-03 0. 0. 0. 0. 2.13219621e-03
      2.13219621e-03 8.52878485e-03 0. 0. 0. 2.13219621e-03
      4.26439242e-03 6.39658887e-03 4.26439242e-03 0. 0. 8.52878485e-03
      8.52878485e-03 2.13219621e-03 0. 0. 0. 0. 2.13219621e-03 0.
      1.06609808e-02 2.13219621e-03 4.26439242e-03 0. 0. 0. 0. 0.
      4.26439242e-03 0. 0. 0. 0. 0. 6.39658887e-03 2.13219621e-03 0. 0.
      0. 0. 2.13219621e-03 0. 0. 2.13219621e-03 0. 0. 0. 4.26439242e-03
      0. 0. 4.26439242e-03 0. 4.26439242e-03 0. 0. 2.13219621e-03 0. 0.
      0. 2.13219621e-03 0. 2.13219621e-03 0. 0. 0. 0. 0. 0. 0. 0.
      2.13219621e-03 0. 2.13219621e-03 0. 0. 0. 0. 0. 0. 0.
      2.13219621e-03 0. 0. 0. 0. 0. 0. 0. 0. 0. 0. 0. 0. 0. 0. 0. 0. 0.
      0. 0. 0. 0. 0. 4.26439242e-03 0. 2.13219621e-03 0. 0. 0.
      2.13219621e-03 4.26439242e-03 0. 2.13219621e-03 0. 6.39658887e-03
      0. 0. 0. 0. 0. 2.13219621e-03 0. 0. 0. 2.13219621e-03 0. 0. 0. 0.
      0. 4.26439242e-03 0. 4.26439242e-03 4.26439242e-03 0.
      4.26439242e-03 0. 0. 4.26439242e-03 2.13219621e-03 0. 0. 0. 0. 0.
      0. 0. 0. 2.13219621e-03 2.13219621e-03 0. 2.13219621e-03 0. 0. 0.
      0. 0. 4.26439242e-03 0. 2.13219621e-03 2.13219621e-03 0. 0. 0. 0.
      0. 4.26439242e-03 2.13219621e-03 0. 0. 0. 0. 0. 0. 0. 0. 0. 0. 0.
      2.13219621e-03 0. 2.13219621e-03 0. 0. 2.13219621e-03 0.
      2.13219621e-03 0. 2.13219621e-03 0. 2.13219621e-03 0. 0. 0.
      2.13219621e-03 0. 0. 0. 0. 0. 2.13219621e-03 0. 2.13219621e-03 0.
      0. 0. 0. 0. 0. 0. 4.26439242e-03 0. 4.26439242e-03 0. 0. 0. 0. 0.
      0. 0. 2.13219621e-03 2.13219621e-03 0. 0. 0. 6.39658887e-03 0. 0.
      2.13219621e-03 2.13219621e-03 2.13219621e-03 0. 0. 0. 0. 0. 0. 0.
      0. 8.52878485e-03 0. 1.27931777e-02 0. 0. 2.13219621e-03
      4.26439242e-03 0. 0. 0. 2.13219621e-03 0. 0. 2.13219621e-03 0.
      2.13219621e-03 0. 0. 2.13219621e-03 0. 0. 0. 0. 0. 0. 0.
      6.39658887e-03 0. 0. 4.26439242e-03 0. 0. 4.26439242e-03
      2.13219621e-03 0. 0. 0. 0. 0. 0. 0. 1.27931777e-02 0. 0. 0.
      4.26439242e-03 0. 0. 0. 0. 2.13219621e-03 8.52878485e-03 0. 0. 0.
      0. 2.13219621e-03 0. 0. 0. 0. 0. 0. 0. 2.13219621e-03
      4.26439242e-03 0. 0. 2.13219621e-03 0. 0. 0. 0. 0. 2.13219621e-03
      0. 0. 0. 0. 0. 0. 0. 0. 0. 0. 0. 0. 6.39658887e-03 0. 0. 0. 0.
      2.13219621e-03 2.13219621e-03 2.13219621e-03 0. 0. 0. 0.
      2.13219621e-03 0. 6.39658887e-03 0. 0. 0. 0. 2.13219621e-03 0. 0.
      0. 0. 0. 0. 2.13219621e-03 2.13219621e-03 0. 0. 2.13219621e-03 0.
      0. 0. 0. 0. 2.13219621e-03 0. 2.13219621e-03 0. 2.13219621e-03
      2.13219621e-03 0. 0. 0. 0. 2.13219621e-03 0. 2.13219621e-03 0. 0.
      0. 0. 0. 0. 0. 2.13219621e-03 0. 2.13219621e-03 0. 0. 0. 0. 0. 0.
      0. 0. 2.13219621e-03 0. 0. 0. 2.13219621e-03 2.13219621e-03 0. 0.
      0. 0. 0. 0. 2.13219621e-03 0. 0. 0. 0. 2.13219621e-03
      2.13219621e-03 0. 0. 0. 0. 0. 0. 2.13219621e-03 0. 1.06609808e-02
      2.13219621e-03 0. 0. 8.52878485e-03 0. 0. 0. 0. 0. 0. 0. 0. 0. 0.
      2.13219621e-03 0. 0. 0. 0. 0. 0. 2.13219621e-03 2.13219621e-03 0.
      0. 2.13219621e-03 0. 0. 2.13219621e-03 0. 0. 6.39658887e-03 0.
      2.13219621e-03 0. 2.13219621e-03 2.13219621e-03 4.26439242e-03
      2.13219621e-03 0. 0. 0. 0. 0. 0. 0. 0. 8.52878485e-03 0. 0. 0. 0.
      0. 0. 2.13219621e-03 0. 0. 4.26439242e-03 0. 0. 0. 0. 0.
      2.13219621e-03 8.52878485e-03 0. 0. 0. 4.26439242e-03 0. 0. 0. 0.
      0. 2.13219621e-03 0. 2.13219621e-03 0. 0. 0. 0. 0. 4.26439242e-03
      0. 0. 0. 0. 0. 0. 2.13219621e-03 2.13219621e-03 0. 2.13219621e-03
      0. 2.13219621e-03 0. 2.13219621e-03 2.13219621e-03 0.
      4.26439242e-03 0. 8.52878485e-03 0. 0. 0. 0. 0. 0. 2.13219621e-03
      0. 0. 0. 0. 4.26439242e-03 0. 2.13219621e-03 1.27931777e-02 0.
      2.13219621e-03 2.13219621e-03 0. 6.39658887e-03 0. 0. 0. 0. 0. 0.
      0. 0. 0. 0. 0. 0. 0. 0. 0. 0. 0. 0. 0. 0. 0. 0. 0. 0. 0.
      2.13219621e-03 0. 2.13219621e-03 0. 0. 0. 0. 0. 0. 0.
      2.13219621e-03 0. 2.13219621e-03 0. 0. 2.13219621e-03
      4.26439242e-03 0. 2.13219621e-03 0. 0. 0. 0. 0. 0. 0. 0. 0. 0. 0.
      0. 0. 0. 0. 0. 6.39658887e-03 0. 0. 0. 2.13219621e-03 0. 0. 0. 0.
      0. 0. 4.26439242e-03 0. 0. 0. 0. 0. 0. 0. 0. 6.39658887e-03 0.
      4.26439242e-03 0. 0. 0. 0. 0. 0. 2.13219621e-03 0. 0. 0.
      4.26439242e-03 2.13219621e-03 4.26439242e-03 0. 0. 0. 0. 0. 0. 0.
      0. 0. 6.39658887e-03 2.13219621e-03 0. 0. 0. 0. 0. 0. 0. 0. 0.
      2.13219621e-03 0. 8.52878485e-03 0. 2.13219621e-03 0.
      4.26439242e-03 0. 0. 0. 0. 0. 0. 0. 4.26439242e-03 0. 0. 0. 0. 0.
      0. 0. 0. 0. 0. 0. 0. 0. 0. 0. 2.13219621e-03 0. 2.13219621e-03
      6.39658887e-03 0. 0. 1.49253737e-02 0. 0. 0. 2.13219621e-03
      2.13219621e-03 0. 0. 0. 0. 0. 0. 0. 0. 0. 0. 0. 0. 0. 0.
      2.13219621e-03 0. 0. 2.13219621e-03 2.13219617e-02 8.52878485e-03
      0. 0. 0. 2.13219621e-03 4.26439242e-03 2.13219621e-03 0.
      6.39658887e-03 0. 0. 0. 0. 0. 0. 0. 0. 4.26439242e-03 0. 0. 0. 0.
      6.39658887e-03 0. 8.52878485e-03 0. 0. 0. 2.13219621e-03 0. 0. 0.
      2.13219621e-03 0. 1.49253737e-02 8.52878485e-03 0. 2.13219621e-03
      0. 4.26439242e-03 0. 0. 2.13219621e-03 0. 0. 0. 0. 0. 0. 0. 0.
      4.26439242e-03 2.13219621e-03 0. 0. 2.13219621e-03 0. 0.
      2.13219621e-03 0. 2.13219621e-03 2.13219621e-03</_>
    <_>
      0. 0. 2.24719103e-03 4.49438207e-03 0. 0. 0. 2.24719103e-03
      2.24719103e-03 0. 0. 0. 4.49438207e-03 4.49438207e-03 0. 0. 0.
      4.49438207e-03 0. 0. 0. 0. 0. 0. 0. 6.74157310e-03 0. 0. 0. 0.
      2.24719103e-03 0. 0. 0. 0. 2.24719103e-03 2.24719103e-03
      4.49438207e-03 2.24719103e-03 2.24719103e-03 0. 0. 0. 0.
      2.24719103e-03 2.24719103e-03 0. 0. 0. 2.24719103e-03 0. 0. 0. 0.
      6.74157310e-03 1.12359552e-02 0. 0. 0. 0. 0. 2.24719103e-03 0. 0.
      0. 0. 2.24719103e-03 2.24719103e-03 0. 0. 0. 4.49438207e-03
      2.24719103e-03 0. 4.49438207e-03 0. 0. 0. 0. 2.24719103e-03 0.
      2.24719103e-03 0. 2.24719103e-03 0. 0. 0. 0. 0. 0. 2.24719103e-02
      0. 0. 0. 0. 2.24719103e-03 0. 0. 0. 2.24719103e-03 0. 0. 0. 0. 0.
      4.49438207e-03 2.24719103e-03 0. 0. 0. 0. 0. 0. 0. 0.
      2.24719103e-03 0. 2.24719103e-03 0. 2.24719103e-03 0. 0.
      2.24719103e-03 0. 0. 4.49438207e-03 4.49438207e-03 0.
      2.24719103e-03 0. 0. 0. 0. 0. 0. 0. 0. 0. 0. 0. 4.49438207e-03 0.
      0. 4.49438207e-03 2.24719103e-03 0. 2.24719103e-03 2.24719103e-03
      0. 0. 0. 0. 2.24719103e-03 6.74157310e-03 0. 0. 0. 0. 0.
      2.24719103e-03 2.24719103e-03 0. 0. 0. 2.24719103e-03 0. 0. 0. 0.
      0. 0. 2.24719103e-03 0. 0. 0. 0. 0. 0. 0. 2.24719103e-03 0. 0. 0.
      0. 0. 0. 0. 0. 0. 0. 0. 0. 0. 0. 0. 0. 0. 2.24719103e-03
      2.24719103e-03 2.24719103e-03 0. 0. 0. 0. 0. 0. 0. 6.74157310e-03
      0. 0. 6.74157310e-03 0. 1.34831462e-02 0. 0. 0. 0. 0. 0.
      1.12359552e-02 0. 2.24719103e-03 0. 2.24719103e-03 0. 0.
      8.98876414e-03 0. 0. 0. 6.74157310e-03 2.24719103e-03 0. 0.
      2.24719103e-03 4.49438207e-03 2.24719103e-03 2.24719103e-03
      2.24719103e-03 8.98876414e-03 0. 0. 6.74157310e-03 0. 0. 0.
      2.24719103e-03 0. 2.24719103e-03 0. 0. 0. 2.24719103e-03
      2.24719103e-03 0. 0. 2.24719103e-03 0. 4.49438207e-03
      2.24719103e-03 0. 2.24719103e-03 0. 0. 0. 0. 0. 0. 2.24719103e-03
      0. 2.24719103e-03 0. 0. 2.24719103e-03 0. 0. 0. 0. 2.24719103e-03
      0. 0. 0. 0. 0. 0. 0. 0. 0. 2.24719103e-03 0. 0. 0. 0. 0. 0. 0. 0.
      0. 0. 0. 0. 0. 0. 0. 0. 0. 0. 1.12359552e-02 0. 0. 0. 0. 0.
      2.24719103e-03 0. 0. 0. 0. 0. 0. 0. 0. 0. 0. 0. 0. 0.
      4.49438207e-03 4.49438207e-03 0. 0. 0. 6.74157310e-03 0. 0. 0.
      2.24719103e-03 0. 0. 0. 0. 0. 4.49438207e-03 0. 0. 6.74157310e-03
      0. 0. 0. 0. 0. 1.34831462e-02 0. 2.24719103e-03 0. 0.
      8.98876414e-03 2.24719103e-03 0. 0. 0. 0. 2.24719103e-03 0. 0. 0.
      2.24719103e-03 4.49438207e-03 0. 0. 0. 0. 0. 0. 0. 0. 0.
      6.74157310e-03 0. 0. 0. 0. 0. 4.49438207e-03 2.24719103e-03 0. 0.
      0. 0. 0. 0. 0. 2.24719103e-03 0. 0. 0. 0. 0. 0. 0. 0.
      2.24719103e-03 0. 0. 0. 0. 0. 0. 6.74157310e-03 0. 0.
      2.24719103e-03 1.57303363e-02 0. 0. 0. 1.12359552e-02
      2.24719103e-03 0. 0. 0. 0. 2.24719103e-03 0. 0. 0. 4.49438207e-03
      0. 8.98876414e-03 0. 0. 0. 0. 0. 0. 2.24719103e-03 0. 0.
      2.24719103e-03 0. 0. 0. 2.24719103e-03 4.49438207e-03 0.
      4.49438207e-03 0. 0. 0. 0. 2.24719103e-03 2.24719103e-03 0. 0.
      4.49438207e-03 0. 0. 2.24719103e-03 0. 4.49438207e-03 0. 0.
      2.24719103e-03 6.74157310e-03 0. 0. 2.24719103e-03 2.24719103e-03
      0. 0. 0. 0. 0. 2.24719103e-03 0. 0. 0. 0. 0. 0. 2.24719103e-03 0.
      6.74157310e-03 0. 0. 2.24719103e-03 4.49438207e-03 2.24719103e-03
      0. 0. 2.24719103e-03 0. 0. 0. 0. 2.24719103e-03 0. 2.24719103e-03
      4.49438207e-03 0. 0. 0. 2.24719103e-03 0. 0. 2.24719103e-03 0. 0.
      0. 0. 0. 0. 0. 4.49438207e-03 0. 0. 0. 0. 0. 0. 0. 2.24719103e-03
      2.24719103e-03 0. 0. 0. 0. 0. 4.49438207e-03 0. 0. 0. 0. 0.
      6.74157310e-03 0. 2.24719103e-03 0. 0. 0. 0. 0. 0. 2.24719103e-03
      0. 0. 0. 0. 2.24719103e-03 2.24719103e-03 0. 2.24719103e-03 0. 0.
      0. 2.24719103e-03 2.24719103e-03 0. 6.74157310e-03 0. 0. 0. 0. 0.
      4.49438207e-03 0. 0. 0. 0. 0. 0. 0. 0. 0. 0. 0. 0. 0. 0. 0. 0. 0.
      0. 0. 0. 0. 0. 0. 0. 0. 6.74157310e-03 0. 2.24719103e-03
      2.24719103e-03 2.24719103e-03 0. 0. 0. 0. 0. 0. 0. 2.24719103e-03
      0. 0. 0. 0. 0. 0. 0. 0. 6.74157310e-03 0. 0. 0. 0. 4.49438207e-03
      0. 0. 0. 2.24719103e-03 0. 0. 2.24719103e-03 0. 0. 0. 0.
      4.49438207e-03 0. 0. 2.24719103e-03 0. 2.24719103e-03 0. 0. 0. 0.
      4.49438207e-03 0. 8.98876414e-03 0. 0. 0. 2.24719103e-03 0.
      2.24719103e-03 0. 0. 0. 0. 0. 0. 0. 0. 0. 0. 0. 0. 0. 0. 0. 0. 0.
      0. 0. 0. 0. 0. 0. 2.24719103e-03 0. 0. 0. 0. 0. 2.24719103e-03 0.
      2.24719103e-03 0. 0. 2.24719103e-03 0. 0. 0. 0. 2.24719103e-03 0.
      0. 0. 0. 0. 0. 0. 0. 1.79775283e-02 2.24719103e-03 0. 0. 0. 0. 0.
      0. 2.24719103e-03 4.49438207e-03 0. 0. 0. 0. 0. 0. 0. 0. 0. 0.
      4.49438207e-03 2.24719103e-03 0. 0. 0. 0. 6.74157310e-03 0. 0. 0.
      0. 0. 0. 2.24719103e-03 0. 2.24719103e-03 0. 0. 0. 0.
      4.49438207e-03 0. 0. 0. 0. 2.24719103e-03 0. 0. 0. 0. 0. 0. 0. 0.
      0. 0. 0. 2.24719103e-03 0. 0. 1.12359552e-02 0. 6.74157310e-03
      4.49438207e-03 4.49438207e-03 0. 0. 0. 0. 0. 0. 6.74157310e-03
      2.24719103e-03 0. 0. 0. 0. 0. 0. 2.24719103e-03 2.24719103e-03 0.
      0. 2.24719103e-03 0. 2.24719103e-03 0. 0. 2.24719103e-03 0. 0.
      4.49438207e-03 0. 2.24719103e-03 0. 0. 0. 0. 0. 0. 0. 0. 0. 0. 0.
      0. 0. 0. 0. 0. 4.49438207e-03 0. 0. 2.24719103e-03 0. 0. 0. 0. 0.
      0. 0. 0. 0. 0. 0. 0. 2.24719103e-03 0. 0. 0. 0. 0. 0. 0. 0. 0. 0.
      2.02247202e-02 0. 2.24719103e-03 0. 0. 0. 0. 0. 2.24719103e-03
      6.74157310e-03 0. 0. 0. 0. 2.24719103e-03 0. 0. 0. 0. 0. 0. 0.
      4.49438207e-03 0. 6.74157310e-03 4.49438207e-03 2.24719103e-03 0.
      0. 0. 4.49438207e-03 0. 0. 0. 4.49438207e-03 0. 0. 0. 0. 0. 0. 0.
      0. 0. 0. 2.24719103e-03 0. 4.49438207e-03 0. 0. 2.24719103e-03 0.
      0. 0. 0. 2.24719103e-03 2.24719103e-03 2.24719103e-02 0. 0.
      2.24719103e-03 0. 0. 0. 0. 0. 0. 0. 0. 0. 0. 2.24719103e-03 0. 0.
      0. 0. 2.24719103e-03 0. 2.24719103e-03 0. 0. 0. 0. 6.74157310e-03
      2.24719103e-03 0. 0. 0. 0. 0. 0. 0. 0. 0. 0. 0. 0. 0. 0. 0.
      2.24719103e-03 0. 0. 2.24719103e-03 0. 2.24719103e-02
      4.49438207e-03 0. 0. 0. 0. 0. 0. 0. 4.49438207e-03 4.49438207e-03
      0. 0. 4.49438207e-03 0. 0. 0. 2.24719103e-03 2.24719103e-03
      4.49438207e-03 0. 0. 0. 0. 2.24719103e-03 2.24719103e-03 0. 0. 0.
      0. 0. 0. 0. 0. 0. 1.57303363e-02 6.74157310e-03 0. 2.24719103e-03
      0. 2.24719103e-03 0. 2.24719103e-03 0. 0. 2.24719103e-03 0. 0. 0.
      0. 2.24719103e-03 6.74157310e-03 0. 2.24719103e-03 0. 0.
      2.24719103e-03 0. 0. 0. 0. 2.24719103e-03 0.</_>
    <_>
      0. 0. 0. 0. 0. 0. 0. 4.35729837e-03 0. 0. 0. 0. 0. 0. 0.
      2.17864919e-03 0. 8.71459674e-03 0. 2.17864919e-03 0. 0. 0. 0. 0.
      0. 4.35729837e-03 0. 0. 0. 6.53594732e-03 0. 0. 0. 0. 0. 0. 0.
      6.53594732e-03 1.08932462e-02 0. 0. 0. 0. 2.17864919e-03 0. 0. 0.
      0. 0. 0. 0. 0. 2.17864919e-03 1.30718946e-02 8.71459674e-03 0. 0.
      2.17864919e-03 2.17864919e-03 0. 2.17864919e-03 0. 0. 0. 0. 0.
      6.53594732e-03 0. 0. 0. 2.17864919e-03 2.17864919e-03 0.
      1.52505441e-02 0. 0. 0. 2.17864919e-03 0. 0. 3.05010881e-02 0.
      4.35729837e-03 0. 0. 2.17864919e-03 4.35729837e-03 2.17864919e-03
      0. 0. 0. 0. 0. 2.17864919e-03 0. 0. 4.35729837e-03 0. 0. 0. 0. 0.
      0. 0. 0. 0. 2.17864919e-03 0. 0. 0. 0. 4.35729837e-03 0. 0.
      2.17864919e-03 6.53594732e-03 0. 0. 0. 2.17864919e-03 0. 0. 0.
      2.17864919e-03 1.74291935e-02 0. 0. 0. 0. 0. 0. 0. 6.53594732e-03
      0. 0. 0. 2.17864919e-03 2.17864919e-03 4.35729837e-03
      2.17864919e-03 0. 0. 4.35729837e-03 6.53594732e-03 0. 0.
      4.35729837e-03 0. 0. 0. 2.17864919e-03 0. 0. 0. 0. 2.17864919e-03
      0. 0. 2.17864919e-03 0. 0. 0. 0. 0. 0. 0. 0. 0. 0. 0. 0. 0. 0. 0.
      0. 0. 0. 2.17864919e-03 2.17864919e-03 0. 2.17864919e-03 0. 0. 0.
      0. 0. 0. 0. 0. 0. 0. 0. 0. 0. 0. 4.35729837e-03 0. 4.35729837e-03
      0. 0. 0. 0. 0. 0. 2.17864919e-03 0. 0. 0. 0. 6.53594732e-03 0.
      2.17864919e-03 0. 0. 0. 0. 0. 0. 0. 0. 0. 0. 0. 0. 0. 0.
      2.17864919e-03 0. 4.35729837e-03 2.17864919e-03 0. 0. 0.
      4.35729837e-03 2.17864919e-03 0. 2.17864919e-03 0. 1.08932462e-02
      6.53594732e-03 8.71459674e-03 2.17864919e-03 0. 0. 0.
      2.17864919e-03 0. 0. 0. 0. 0. 4.35729837e-03 0. 0. 0. 0. 0.
      1.52505441e-02 0. 0. 2.17864919e-03 0. 0. 0. 4.35729837e-03 0. 0.
      0. 0. 2.17864919e-03 4.35729837e-03 0. 0. 0. 0. 0. 0. 0. 0. 0. 0.
      0. 0. 0. 0. 0. 0. 0. 0. 0. 0. 0. 0. 0. 0. 0. 0. 2.17864919e-03 0.
      2.17864919e-03 0. 0. 0. 0. 0. 0. 2.17864919e-03 0. 0. 0. 0. 0.
      2.17864919e-03 0. 2.17864919e-03 0. 0. 0. 0. 0. 0. 0. 0. 0. 0. 0.
      2.17864919e-03 0. 0. 2.17864919e-03 0. 8.71459674e-03 0. 0.
      2.17864919e-03 0. 0. 0. 2.17864919e-03 2.17864919e-03 0.
      2.17864919e-03 0. 0. 0. 0. 0. 0. 0. 0. 1.08932462e-02 0. 0. 0.
      4.35729837e-03 4.35729837e-03 0. 0. 0. 0. 0. 0. 0. 0. 0.
      2.17864919e-03 1.30718946e-02 0. 0. 2.17864919e-03 0. 0. 0. 0. 0.
      0. 4.35729837e-03 0. 0. 0. 0. 0. 2.17864919e-03 2.17864919e-03
      2.17864919e-03 0. 0. 0. 0. 2.17864919e-03 0. 0. 2.17864919e-03 0.
      0. 0. 0. 0. 2.17864919e-03 0. 0. 0. 0. 0. 0. 2.17864919e-03 0. 0.
      0. 2.17864919e-03 0. 1.08932462e-02 0. 0. 0. 0. 0. 0. 0.
      2.17864919e-03 0. 0. 0. 0. 0. 0. 0. 2.17864919e-03 0. 0. 0.
      2.17864919e-03 0. 4.35729837e-03 0. 0. 0. 2.17864919e-03 0. 0. 0.
      0. 2.17864919e-03 0. 0. 2.17864919e-03 2.17864919e-03 0. 0. 0. 0.
      0. 0. 6.53594732e-03 0. 0. 2.17864919e-03 0. 4.35729837e-03 0. 0.
      8.71459674e-03 1.52505441e-02 0. 0. 2.17864919e-03 1.08932462e-02
      0. 0. 0. 0. 0. 2.17864919e-03 0. 0. 0. 0. 0. 0. 0. 2.17864919e-03
      0. 0. 0. 0. 4.35729837e-03 0. 0. 2.17864919e-03 0. 0. 0. 0. 0. 0.
      0. 2.17864919e-03 2.39651408e-02 0. 0. 0. 2.17864919e-03 0. 0. 0.
      2.17864919e-03 0. 4.35729837e-03 0. 0. 0. 0. 6.53594732e-03 0.
      2.17864919e-03 0. 0. 4.35729837e-03 0. 0. 0. 2.17864919e-03 0. 0.
      0. 0. 0. 6.53594732e-03 0. 0. 0. 0. 0. 0. 4.35729837e-03 0. 0. 0.
      0. 0. 0. 0. 0. 0. 0. 6.53594732e-03 0. 0. 0. 2.17864919e-03
      2.17864919e-03 0. 0. 0. 0. 0. 0. 2.17864919e-03 0. 0.
      2.17864919e-03 0. 0. 0. 0. 0. 0. 0. 0. 0. 0. 2.17864919e-03 0. 0.
      0. 2.17864919e-03 0. 0. 0. 0. 0. 0. 0. 0. 0. 4.35729837e-03 0. 0.
      0. 4.35729837e-03 2.17864919e-03 0. 2.17864919e-03 4.35729837e-03
      0. 0. 0. 0. 0. 0. 0. 2.17864919e-03 0. 0. 2.17864919e-03 0.
      4.35729837e-03 2.17864919e-03 0. 0. 1.30718946e-02 2.17864919e-03
      0. 0. 0. 2.17864919e-03 0. 0. 0. 0. 0. 0. 2.17864919e-03 0. 0. 0.
      2.17864919e-03 4.35729837e-03 0. 0. 0. 0. 0. 0. 0. 0.
      2.17864919e-03 8.71459674e-03 0. 1.74291935e-02 0. 0. 0.
      2.17864919e-03 2.17864919e-03 2.17864919e-03 2.17864919e-03 0. 0.
      0. 2.17864919e-03 0. 0. 0. 0. 0. 0. 0. 0. 0. 0. 0. 2.17864919e-03
      2.17864919e-03 2.17864919e-03 0. 2.17864919e-03 0. 0. 0. 0.
      2.17864919e-03 0. 4.35729837e-03 0. 0. 0. 0. 0. 4.35729837e-03 0.
      0. 0. 0. 0. 8.71459674e-03 0. 0. 0. 0. 0. 0. 6.53594732e-03 0.
      2.17864919e-03 0. 0. 0. 0. 0. 0. 0. 0. 0. 0. 0. 0. 0. 0. 0. 0.
      2.17864919e-03 4.35729837e-03 0. 0. 0. 0. 0. 2.17864919e-03 0. 0.
      0. 0. 0. 2.17864919e-03 0. 0. 8.71459674e-03 0. 0. 0. 0. 0. 0.
      6.53594732e-03 0. 0. 0. 0. 4.35729837e-03 0. 0. 0. 0. 0. 0. 0.
      2.17864919e-03 0. 0. 0. 2.17864919e-03 0. 0. 8.71459674e-03 0.
      2.17864919e-03 2.17864919e-03 0. 0. 0. 0. 0. 0. 0. 0. 0. 0. 0. 0.
      0. 0. 0. 0. 0. 0. 0. 0. 0. 0. 0. 0. 0. 0. 0. 4.35729837e-03 0.
      4.35729837e-03 0. 0. 0. 4.35729837e-03 0. 0. 0. 0. 0. 0. 0. 0. 0.
      4.35729837e-03 0. 2.17864919e-03 2.17864919e-03 0. 0. 0. 0. 0. 0.
      0. 0. 0. 0. 0. 0. 0. 0. 0. 6.53594732e-03 0. 2.17864919e-03 0.
      2.17864919e-03 0. 0. 0. 0. 0. 0. 0. 2.17864919e-03 0. 0. 0. 0. 0.
      0. 0. 2.17864919e-03 0. 1.08932462e-02 0. 0. 0. 0. 0. 0. 0. 0. 0.
      0. 4.35729837e-03 0. 1.08932462e-02 0. 0. 0. 2.17864919e-03 0.
      4.35729837e-03 0. 0. 0. 1.08932462e-02 0. 0. 0. 0. 0.
      2.17864919e-03 0. 0. 0. 0. 0. 0. 0. 0. 0. 0. 0. 0. 0.
      2.17864919e-03 0. 0. 2.17864919e-03 0. 0. 2.17864919e-03 0. 0. 0.
      2.17864919e-03 0. 0. 0. 0. 0. 4.35729837e-03 0. 4.35729837e-03 0.
      0. 2.17864919e-03 2.17864919e-03 0. 2.17864919e-03 2.17864919e-03
      0. 6.53594732e-03 0. 2.17864919e-03 0. 0. 0. 0. 0. 0. 0. 0. 0. 0.
      0. 0. 0. 0. 0. 0. 0. 0. 0. 2.17864919e-03 2.17864919e-03
      8.71459674e-03 6.53594732e-03 0. 0. 0. 4.35729837e-03 0. 0.
      2.17864919e-03 0. 2.17864919e-03 2.17864919e-03 0. 2.17864919e-03
      0. 0. 0. 4.35729837e-03 2.17864919e-03 0. 2.17864919e-03 0.
      2.17864919e-03 0. 6.53594732e-03 0. 0. 0. 0. 2.17864919e-03 0. 0.
      0. 0. 0. 1.30718946e-02 4.35729837e-03 2.17864919e-03
      2.17864919e-03 0. 2.17864919e-03 0. 0. 0. 0. 0. 0. 0. 0. 0.
      2.17864919e-03 4.35729837e-03 1.30718946e-02 0. 0. 0.
      2.17864919e-03 0. 0. 0. 0. 2.17864919e-03 0.</_>
    <_>
      2.06611562e-03 0. 0. 6.19834661e-03 0. 0. 4.13223123e-03 0.
      2.06611562e-03 0. 0. 2.06611562e-03 0. 6.19834661e-03 0.
      4.13223123e-03 0. 2.06611562e-03 2.06611562e-03 2.06611562e-03 0.
      2.06611562e-03 4.13223123e-03 0. 0. 2.06611562e-03 0. 0. 0. 0.
      2.06611562e-03 0. 2.06611562e-03 4.13223123e-03 0. 0.
      2.06611562e-03 2.06611562e-03 1.85950398e-02 6.19834661e-03 0. 0.
      2.06611562e-03 2.06611562e-03 0. 4.13223123e-03 0. 0. 0.
      2.06611562e-03 0. 0. 0. 4.13223123e-03 4.13223123e-03
      8.26446246e-03 0. 0. 0. 4.13223123e-03 0. 0. 0. 0. 0. 0. 0.
      2.06611562e-03 0. 0. 2.06611562e-03 4.13223123e-03 0. 0.
      1.23966932e-02 0. 0. 0. 0. 2.06611562e-03 0. 4.13223123e-03 0. 0.
      0. 2.06611562e-03 4.13223123e-03 0. 4.13223123e-03 0.
      8.26446246e-03 2.06611562e-03 0. 0. 4.13223123e-03 0. 0.
      2.06611562e-03 0. 6.19834661e-03 2.06611562e-03 0. 0. 0. 0. 0. 0.
      2.06611562e-03 0. 0. 8.26446246e-03 0. 0. 0. 4.13223123e-03 0. 0.
      2.06611562e-03 0. 4.13223123e-03 0. 0. 0. 0. 2.06611562e-03
      6.19834661e-03 0. 0. 0. 0. 0. 0. 0. 0. 0. 0. 0. 0. 0.
      6.19834661e-03 6.19834661e-03 0. 2.06611562e-03 4.13223123e-03
      4.13223123e-03 0. 2.06611562e-03 2.06611562e-03 0. 0. 0. 0. 0.
      4.13223123e-03 2.06611562e-03 0. 0. 0. 4.13223123e-03
      2.06611562e-03 2.06611562e-03 0. 0. 2.06611562e-03 0. 0.
      2.06611562e-03 0. 0. 0. 0. 0. 0. 2.06611562e-03 0. 0.
      4.13223123e-03 4.13223123e-03 2.06611562e-03 0. 0. 4.13223123e-03
      0. 0. 0. 0. 2.06611562e-03 0. 2.06611562e-03 0. 0. 0. 0. 0. 0. 0.
      4.13223123e-03 0. 0. 0. 2.06611562e-03 2.06611562e-03 0. 0. 0. 0.
      0. 0. 2.06611562e-03 2.06611562e-03 0. 0. 2.06611562e-03 0.
      2.06611562e-03 0. 0. 0. 4.13223123e-03 4.13223123e-03
      2.06611562e-03 0. 0. 0. 2.06611562e-03 2.06611562e-03 0. 0. 0. 0.
      2.06611562e-03 0. 2.06611562e-03 4.13223123e-03 0. 0. 0. 0. 0.
      1.85950398e-02 0. 0. 0. 0. 0. 0. 2.06611562e-03 0. 0. 0. 0. 0.
      2.06611562e-03 0. 0. 0. 0. 0. 0. 0. 0. 0. 0. 0. 0. 0. 0. 0. 0. 0.
      0. 0. 2.06611562e-03 2.06611562e-03 0. 0. 0. 0. 2.06611562e-03 0.
      1.23966932e-02 0. 0. 0. 0. 6.19834661e-03 0. 0. 4.13223123e-03 0.
      6.19834661e-03 0. 2.06611562e-03 0. 0. 0. 0. 0. 2.06611562e-03 0.
      0. 0. 0. 0. 0. 0. 0. 2.06611562e-03 0. 0. 0. 4.13223123e-03 0. 0.
      0. 4.13223123e-03 0. 2.06611562e-03 0. 0. 0. 0. 2.06611562e-03 0.
      0. 0. 0. 0. 0. 0. 4.13223123e-03 2.06611562e-03 1.85950398e-02 0.
      0. 0. 4.13223123e-03 2.06611562e-03 0. 2.06611562e-03 0. 0. 0.
      2.06611562e-03 0. 0. 2.06611562e-03 0. 4.13223123e-03 0.
      2.06611562e-03 6.19834661e-03 0. 0. 0. 4.13223123e-03
      4.13223123e-03 2.06611562e-03 0. 0. 0. 0. 0. 4.13223123e-03 0.
      2.06611562e-03 4.13223123e-03 2.06611562e-03 0. 0. 0. 0.
      2.06611562e-03 2.06611562e-03 0. 0. 0. 8.26446246e-03
      2.06611562e-03 2.06611562e-03 0. 0. 0. 0. 4.13223123e-03 0. 0. 0.
      0. 2.06611562e-03 1.23966932e-02 0. 4.13223123e-03 0. 0. 0. 0. 0.
      0. 2.06611562e-03 0. 4.13223123e-03 0. 0. 4.13223123e-03 0.
      2.06611562e-03 0. 0. 0. 0. 0. 8.26446246e-03 0. 0. 0.
      8.26446246e-03 0. 0. 0. 6.19834661e-03 0. 0. 4.13223123e-03 0.
      4.13223123e-03 2.06611562e-03 2.06611562e-03 0. 0. 0. 0.
      4.13223123e-03 0. 4.13223123e-03 2.06611562e-03 0. 0.
      2.06611562e-03 0. 0. 2.06611562e-03 0. 2.06611562e-03 0.
      2.06611562e-03 0. 0. 0. 0. 0. 0. 0. 0. 2.06611562e-03 0. 0.
      2.06611562e-03 0. 2.06611562e-03 0. 0. 4.13223123e-03 0. 0.
      2.06611562e-03 0. 6.19834661e-03 0. 0. 0. 0. 2.06611562e-03 0. 0.
      0. 0. 0. 0. 0. 2.06611562e-03 4.13223123e-03 6.19834661e-03 0. 0.
      0. 2.06611562e-03 0. 2.06611562e-03 0. 0. 0. 0. 0. 2.06611562e-03
      0. 6.19834661e-03 2.06611562e-03 0. 0. 0. 0. 0. 0. 0.
      2.06611562e-03 0. 0. 0. 0. 0. 0. 0. 8.26446246e-03 0.
      2.06611562e-03 6.19834661e-03 0. 0. 0. 2.06611562e-03 0. 0. 0. 0.
      0. 0. 0. 0. 0. 4.13223123e-03 0. 0. 2.06611562e-03 0.
      2.06611562e-03 4.13223123e-03 0. 0. 4.13223123e-03 2.06611562e-03
      0. 0. 0. 0. 0. 0. 0. 2.06611562e-03 0. 0. 0. 0. 0. 0.
      2.06611562e-03 0. 0. 6.19834661e-03 0. 0. 2.06611562e-03 0. 0. 0.
      2.06611562e-03 0. 0. 0. 0. 2.06611562e-03 0. 0. 0. 0. 0. 0. 0. 0.
      0. 2.06611562e-03 0. 0. 0. 2.06611562e-03 8.26446246e-03 0.
      2.06611562e-03 2.06611562e-03 0. 4.13223123e-03 0. 2.06611562e-03
      0. 2.06611562e-03 0. 0. 2.06611562e-03 0. 0. 0. 0. 0. 0. 0. 0. 0.
      6.19834661e-03 0. 0. 0. 2.06611562e-03 2.06611562e-03 0. 0. 0.
      4.13223123e-03 0. 0. 0. 0. 0. 0. 2.06611562e-03 0. 2.06611562e-03
      0. 0. 0. 0. 2.06611562e-03 0. 0. 0. 0. 0. 0. 0. 0. 0.
      4.13223123e-03 0. 0. 0. 2.06611562e-03 0. 4.13223123e-03
      2.06611562e-03 0. 0. 0. 0. 0. 0. 0. 0. 0. 0. 0. 0. 2.06611562e-03
      0. 2.06611562e-03 0. 2.06611562e-03 2.06611562e-03 2.06611562e-03
      0. 0. 0. 0. 0. 0. 0. 2.06611562e-03 0. 6.19834661e-03 0.
      2.06611562e-03 0. 4.13223123e-03 6.19834661e-03 0. 2.06611562e-03
      2.06611562e-03 0. 8.26446246e-03 0. 0. 0. 0. 0. 2.06611562e-03 0.
      0. 0. 0. 0. 0. 2.06611562e-03 0. 0. 2.06611562e-03 0. 0. 0. 0.
      2.06611562e-03 0. 0. 0. 0. 0. 0. 0. 0. 0. 0. 2.06611562e-03 0. 0.
      0. 0. 0. 0. 0. 0. 0. 6.19834661e-03 0. 0. 0. 0. 0. 0. 0. 0.
      2.06611562e-03 0. 0. 4.13223123e-03 0. 0. 0. 6.19834661e-03 0. 0.
      0. 0. 0. 2.06611562e-03 0. 6.19834661e-03 0. 0. 2.06611562e-03 0.
      2.06611562e-03 0. 2.06611562e-03 4.13223123e-03 0. 0. 0.
      2.06611562e-03 0. 4.13223123e-03 0. 0. 0. 0. 0. 0. 0. 0. 0. 0. 0.
      2.06611562e-03 0. 0. 0. 0. 0. 0. 2.06611562e-03 4.13223123e-03
      2.06611562e-03 2.06611562e-03 0. 0. 0. 0. 0. 0. 0. 0. 0. 0. 0. 0.
      2.06611562e-03 0. 0. 0. 0. 0. 0. 0. 0. 0. 0. 0. 0. 0. 0. 0. 0. 0.
      0. 2.06611562e-03 0. 2.06611562e-03 0. 0. 0. 0. 0. 0. 0. 0. 0.
      2.06611562e-03 0. 0. 0. 2.06611562e-03 0. 2.06611562e-03
      2.06611562e-03 0. 0. 0. 2.06611562e-03 0. 0. 2.06611562e-03
      2.06611562e-03 0. 2.06611562e-03 0. 2.06611562e-03 0.
      6.19834661e-03 0. 0. 2.06611562e-03 0. 0. 0. 4.13223123e-03 0. 0.
      0. 0. 4.13223123e-03 2.06611562e-03 0. 0. 0. 0. 0. 0.
      2.06611562e-03 0. 0. 0. 0. 0. 8.26446246e-03 2.06611562e-03 0. 0.
      0. 0. 0. 2.06611562e-03 2.06611562e-03 0. 4.13223123e-03 0. 0. 0.
      0. 0. 0. 0. 0. 4.13223123e-03 0. 0. 0. 0. 0. 2.06611562e-03 0. 0.
      0. 0. 2.06611562e-03 2.06611562e-03 0. 0. 4.13223123e-03 0. 0.
      2.06611562e-03 0. 0. 0. 0. 2.06611562e-03 0. 2.06611562e-03 0.
      2.06611562e-03 0. 0. 0. 0. 0. 0. 0. 0. 0. 4.13223123e-03 0.
      1.44628091e-02 8.26446246e-03 0. 0. 0. 0. 0. 0. 0. 0. 0.
      2.06611562e-03 0. 0. 0. 0. 0. 2.06611562e-03 4.13223123e-03 0. 0.
      0. 0. 0. 0. 0. 0. 2.06611562e-03 0. 0. 0. 0. 0. 2.06611562e-03
      2.06611562e-03 1.23966932e-02 8.26446246e-03 2.06611562e-03 0. 0.
      4.13223123e-03 2.06611562e-03 0. 0. 0. 0. 0. 0. 0. 0.
      2.06611562e-03 2.06611562e-03 0. 0. 0. 2.06611562e-03 0.
      2.06611562e-03 0. 0. 2.06611562e-03 0. 0.</_>
    <_>
      0. 0. 0. 2.17864919e-03 0. 0. 1.74291935e-02 0. 0. 0. 0. 0. 0.
      2.17864919e-03 0. 4.35729837e-03 2.17864919e-03 2.17864919e-03
      2.17864919e-03 2.17864919e-03 0. 0. 2.17864919e-03 0. 0.
      2.17864919e-03 6.53594732e-03 0. 2.17864919e-03 0. 0. 0. 0.
      2.17864919e-03 0. 0. 2.17864919e-03 0. 6.53594732e-03
      6.53594732e-03 0. 0. 2.17864919e-03 0. 0. 0. 0. 2.17864919e-03
      2.17864919e-03 2.17864919e-03 0. 4.35729837e-03 0. 6.53594732e-03
      2.17864919e-03 2.17864919e-03 0. 0. 2.17864919e-03 8.71459674e-03
      2.17864919e-03 0. 0. 2.17864919e-03 0. 0. 0. 0. 0. 0. 0. 0.
      2.17864919e-03 0. 2.17864919e-03 0. 4.35729837e-03 0. 0.
      2.17864919e-03 0. 1.08932462e-02 0. 2.17864919e-03 0. 0. 0. 0. 0.
      2.17864919e-03 4.35729837e-03 6.53594732e-03 2.17864919e-03
      2.17864919e-03 0. 0. 0. 0. 0. 0. 2.17864919e-03 4.35729837e-03 0.
      0. 0. 0. 2.17864919e-03 0. 0. 0. 2.17864923e-02 0. 0. 0.
      1.52505441e-02 0. 0. 0. 0. 0. 0. 0. 0. 0. 2.17864919e-03 0. 0.
      2.17864919e-03 0. 0. 0. 0. 0. 0. 0. 0. 0. 0. 0. 8.71459674e-03
      2.17864919e-03 0. 0. 0. 4.35729837e-03 0. 0. 0. 2.17864919e-03 0.
      2.17864919e-03 0. 2.17864919e-03 0. 0. 0. 2.17864919e-03 0. 0. 0.
      0. 0. 2.17864919e-03 2.17864919e-03 4.35729837e-03 0.
      2.17864919e-03 0. 0. 2.17864919e-03 0. 2.17864919e-03 0. 0. 0. 0.
      4.35729837e-03 0. 0. 2.17864919e-03 0. 0. 0. 0. 0. 0. 0. 0. 0. 0.
      0. 0. 0. 2.17864919e-03 2.17864919e-03 2.17864919e-03 0. 0. 0. 0.
      2.17864919e-03 0. 2.17864919e-03 0. 0. 0. 4.35729837e-03
      2.17864919e-03 0. 2.17864919e-03 0. 0. 4.35729837e-03 0.
      2.17864919e-03 4.35729837e-03 0. 0. 0. 0. 2.17864919e-03 0.
      2.17864919e-03 2.17864919e-03 2.17864919e-03 4.35729837e-03
      6.53594732e-03 2.17864919e-03 0. 0. 0. 0. 2.17864919e-03
      4.35729837e-03 0. 0. 0. 0. 0. 6.53594732e-03 0. 0. 0. 0.
      2.17864919e-03 0. 0. 0. 2.17864919e-03 0. 2.17864919e-03 0. 0. 0.
      0. 0. 0. 0. 2.17864923e-02 0. 0. 0. 0. 0. 2.17864919e-03 0. 0. 0.
      2.17864919e-03 0. 8.71459674e-03 0. 2.17864919e-03 0. 0.
      6.53594732e-03 0. 0. 2.17864919e-03 0. 0. 0. 0. 0. 0.
      2.17864919e-03 0. 0. 0. 0. 0. 0. 6.53594732e-03 0. 0. 0. 0.
      2.17864919e-03 0. 0. 0. 0. 0. 2.17864919e-03 0. 0. 0. 0. 0.
      2.17864919e-03 0. 2.17864919e-03 0. 0. 2.17864919e-03 0. 0.
      2.17864919e-03 0. 4.35729837e-03 0. 0. 0. 0. 0. 2.17864919e-03 0.
      2.17864919e-03 2.17864919e-03 2.17864919e-03 6.53594732e-03 0.
      8.71459674e-03 0. 0. 0. 0. 0. 0. 0. 0. 0. 6.53594732e-03 0. 0. 0.
      2.17864919e-03 0. 0. 0. 0. 2.17864919e-03 2.17864919e-03 0. 0. 0.
      0. 0. 0. 0. 2.17864919e-03 2.17864919e-03 2.17864919e-03
      2.17864919e-03 2.17864919e-03 2.17864919e-03 4.35729837e-03
      2.17864919e-03 0. 0. 0. 0. 0. 0. 0. 0. 0. 0. 0. 0. 4.35729837e-03
      0. 0. 8.71459674e-03 4.35729837e-03 0. 4.35729837e-03 0. 0. 0.
      4.35729837e-03 0. 0. 0. 0. 0. 0. 0. 0. 0. 0. 2.17864919e-03
      2.17864919e-03 0. 0. 0. 0. 0. 0. 0. 0. 0. 0. 0. 0. 0.
      4.35729837e-03 0. 0. 0. 8.71459674e-03 0. 0. 1.08932462e-02 0.
      2.17864919e-03 0. 0. 0. 0. 0. 0. 0. 2.17864919e-03 2.17864919e-03
      0. 2.17864919e-03 0. 0. 0. 0. 0. 0. 2.17864919e-03 0. 0. 0. 0. 0.
      0. 0. 0. 2.17864919e-03 0. 4.35729837e-03 0. 2.17864919e-03 0. 0.
      0. 0. 0. 0. 4.35729837e-03 2.17864919e-03 0. 0. 2.61437893e-02 0.
      2.17864919e-03 0. 0. 0. 0. 2.17864919e-03 0. 0. 0. 0. 0.
      6.53594732e-03 0. 0. 0. 2.17864919e-03 0. 0. 0. 0. 0.
      6.53594732e-03 0. 4.35729837e-03 2.17864919e-03 0. 0. 0. 0. 0. 0.
      0. 0. 2.17864919e-03 0. 0. 2.17864919e-03 0. 0. 0. 0. 0. 0. 0. 0.
      2.17864919e-03 0. 4.35729837e-03 0. 0. 2.17864919e-03 0.
      4.35729837e-03 0. 0. 0. 0. 2.17864919e-03 0. 0. 0. 0. 0. 0. 0. 0.
      6.53594732e-03 0. 0. 2.17864919e-03 2.17864919e-03 2.17864919e-03
      2.17864919e-03 0. 0. 0. 2.17864919e-03 6.53594732e-03 0. 0.
      2.17864919e-03 0. 0. 0. 0. 0. 2.17864919e-03 1.08932462e-02 0.
      2.17864919e-03 0. 0. 0. 2.17864919e-03 0. 0. 0. 0. 0. 0. 0. 0. 0.
      2.17864919e-03 0. 2.17864919e-03 0. 2.17864919e-03 4.35729837e-03
      0. 0. 2.17864919e-03 0. 0. 2.17864919e-03 0. 4.35729837e-03 0. 0.
      0. 2.17864919e-03 0. 0. 0. 0. 4.35729837e-03 0. 0. 0. 0. 0. 0. 0.
      0. 0. 0. 2.17864919e-03 2.17864919e-03 0. 2.17864919e-03 0. 0. 0.
      0. 0. 0. 0. 2.17864919e-03 0. 0. 0. 2.17864919e-03 0.
      4.35729837e-03 0. 0. 2.17864919e-03 2.17864919e-03 0. 0.
      2.17864919e-03 0. 0. 2.17864919e-03 0. 0. 0. 0. 0. 2.17864919e-03
      0. 6.53594732e-03 0. 0. 0. 0. 0. 4.35729837e-03 0. 0. 0. 0. 0. 0.
      0. 0. 0. 2.17864919e-03 0. 0. 0. 2.17864919e-03 0. 0. 0.
      4.35729837e-03 0. 2.17864919e-03 0. 2.17864919e-03 2.17864919e-03
      0. 2.17864919e-03 2.17864919e-03 0. 4.35729837e-03 0.
      2.17864919e-03 4.35729837e-03 0. 0. 0. 2.17864919e-03 0. 0. 0. 0.
      4.35729837e-03 0. 2.17864919e-03 2.17864919e-03 0. 0.
      2.17864919e-03 4.35729837e-03 0. 2.17864919e-03 2.17864919e-03 0.
      0. 0. 0. 0. 2.17864919e-03 0. 0. 0. 0. 0. 0. 0. 0. 0.
      4.35729837e-03 0. 0. 4.35729837e-03 0. 0. 0. 0. 0. 0. 0. 0. 0.
      2.17864919e-03 0. 0. 4.35729837e-03 0. 0. 2.17864919e-03 0. 0. 0.
      0. 0. 0. 0. 0. 4.35729837e-03 2.17864919e-03 0. 0. 2.17864919e-03
      0. 0. 0. 0. 0. 2.17864919e-03 0. 2.17864919e-03 0. 0.
      1.74291935e-02 0. 0. 0. 0. 4.35729837e-03 0. 0. 0. 0. 0. 0. 0. 0.
      0. 0. 0. 0. 0. 4.35729837e-03 0. 0. 0. 2.17864919e-03 0.
      2.17864919e-03 0. 0. 0. 0. 2.17864919e-03 2.17864919e-03
      2.17864919e-03 0. 0. 0. 0. 4.35729837e-03 0. 0. 0. 2.17864919e-03
      0. 2.17864919e-03 0. 0. 0. 0. 2.17864919e-03 0. 4.35729837e-03 0.
      0. 2.17864919e-03 0. 4.35729837e-03 0. 0. 2.17864919e-03 0. 0. 0.
      0. 0. 0. 0. 0. 0. 0. 0. 2.17864919e-03 0. 0. 0. 0. 0.
      4.35729837e-03 0. 0. 2.17864919e-03 0. 0. 2.17864919e-03 0. 0. 0.
      4.35729837e-03 0. 2.17864919e-03 0. 0. 2.17864919e-03
      8.71459674e-03 0. 2.17864919e-03 0. 0. 0. 6.53594732e-03 0. 0.
      2.17864919e-03 0. 0. 0. 0. 2.17864919e-03 0. 0. 2.17864919e-03
      4.35729837e-03 0. 0. 0. 0. 0. 0. 0. 6.53594732e-03 4.35729837e-03
      0. 0. 0. 0. 0. 4.35729837e-03 0. 0. 0. 0. 0. 0. 0. 0. 0.
      4.35729837e-03 2.17864919e-03 0. 0. 0. 0. 0. 0. 0. 0. 0. 0. 0. 0.
      0. 0. 0. 0. 0. 0. 2.17864919e-03 2.17864919e-03 0. 0. 0. 0. 0. 0.
      0. 0. 0. 0. 0. 2.17864919e-03 0. 2.17864919e-03 0. 0. 0. 0. 0. 0.
      0. 0. 0. 0. 0. 0. 4.35729837e-03 0. 0. 0. 4.35729837e-03 0. 0. 0.
      0. 0. 4.35729837e-03 0. 0. 0. 2.17864919e-03 2.17864919e-03 0.
      4.35729837e-03 0. 0. 0. 0. 0. 0. 0. 0. 0. 0. 0. 0. 0. 0. 0. 0.
      4.35729837e-03 1.96078420e-02 4.35729837e-03 4.35729837e-03 0.
      4.35729837e-03 0. 0. 2.17864919e-03 2.17864919e-03 0. 0. 0. 0. 0.
      6.53594732e-03 0. 4.35729837e-03 0. 0. 0. 0. 0. 0. 0. 0. 0. 0.</_>
    <_>
      2.19298247e-03 4.38596494e-03 2.19298247e-03 0. 0. 0. 0.
      2.19298247e-03 0. 0. 0. 0. 0. 4.38596494e-03 0. 2.19298247e-03 0.
      2.19298247e-03 4.38596494e-03 2.19298247e-03 0. 0. 0. 0. 0.
      2.19298247e-03 0. 0. 2.19298247e-03 0. 2.19298247e-03 0. 0.
      2.19298247e-03 0. 2.19298247e-03 0. 0. 6.57894742e-03
      6.57894742e-03 0. 0. 0. 0. 0. 0. 0. 0. 4.38596494e-03 0. 0.
      2.19298247e-03 0. 0. 2.19298247e-03 4.38596494e-03 0. 0.
      4.38596494e-03 0. 0. 0. 0. 0. 0. 0. 0. 6.57894742e-03 0. 0. 0.
      4.38596494e-03 0. 6.57894742e-03 1.09649124e-02 0. 0. 0. 0. 0. 0.
      2.19298247e-03 0. 0. 2.19298247e-03 0. 0. 0. 4.38596494e-03 0.
      2.85087712e-02 0. 0. 2.19298247e-03 2.19298247e-03 2.19298247e-03
      0. 0. 0. 0. 0. 0. 0. 0. 0. 0. 0. 4.38596494e-03 2.19298247e-03 0.
      6.57894742e-03 0. 0. 0. 4.38596494e-03 0. 0. 0. 0. 0.
      2.19298247e-03 0. 0. 0. 4.38596494e-03 8.77192989e-03 0.
      2.19298247e-03 8.77192989e-03 0. 2.19298247e-03 0. 0. 0. 0.
      2.19298247e-03 0. 2.19298247e-03 0. 4.38596494e-03 1.31578948e-02
      2.19298247e-03 0. 0. 2.19298247e-03 0. 0. 2.19298247e-03 0. 0. 0.
      0. 0. 2.19298247e-03 0. 0. 2.19298247e-03 0. 2.19298247e-03
      4.38596494e-03 0. 0. 0. 0. 0. 0. 0. 0. 0. 0. 0. 0. 0. 0. 0. 0. 0.
      0. 0. 0. 0. 2.19298247e-03 0. 0. 2.19298247e-03 0. 0. 0. 0. 0. 0.
      0. 0. 0. 2.19298247e-03 0. 0. 0. 1.09649124e-02 0. 2.19298247e-03
      2.19298247e-03 0. 2.19298247e-03 0. 0. 0. 0. 0. 2.19298247e-03
      4.38596494e-03 0. 4.38596494e-03 0. 0. 0. 2.19298247e-03 0. 0.
      6.57894742e-03 0. 0. 0. 0. 0. 0. 0. 0. 0. 2.19298247e-03
      2.19298247e-03 0. 0. 0. 2.19298247e-03 2.19298247e-03
      4.38596494e-03 4.38596494e-03 0. 1.09649124e-02 0. 0. 0. 0. 0. 0.
      4.38596494e-03 0. 0. 0. 0. 0. 0. 0. 0. 0. 0. 0. 0. 2.19298247e-03
      0. 2.19298247e-03 2.19298247e-03 0. 2.19298247e-03 0. 0. 0.
      2.19298247e-03 0. 0. 0. 0. 0. 0. 2.19298247e-03 0. 0. 0.
      2.19298247e-03 6.57894742e-03 0. 0. 0. 0. 0. 0. 0. 4.38596494e-03
      0. 4.38596494e-03 0. 0. 0. 0. 0. 0. 0. 8.77192989e-03 0.
      2.19298247e-03 0. 0. 0. 0. 0. 0. 0. 2.19298247e-03 0. 0. 0.
      2.19298247e-03 2.19298247e-03 0. 0. 0. 0. 4.38596494e-03 0. 0.
      2.19298247e-03 0. 0. 0. 0. 0. 0. 4.38596494e-03 2.19298247e-03 0.
      0. 4.38596494e-03 0. 0. 0. 2.19298247e-03 0. 0. 4.38596494e-03 0.
      0. 0. 0. 4.38596494e-03 0. 0. 0. 0. 0. 0. 2.19298247e-03 0. 0. 0.
      0. 4.38596494e-03 0. 0. 0. 0. 0. 0. 2.19298247e-03 0. 0.
      8.77192989e-03 0. 0. 0. 0. 0. 0. 2.19298247e-03 0. 0. 0. 0. 0. 0.
      0. 0. 0. 2.19298247e-03 0. 0. 0. 0. 0. 0. 4.38596494e-03 0. 0.
      2.19298247e-03 0. 0. 0. 0. 2.19298247e-03 0. 0. 0. 0. 0.
      4.38596494e-03 0. 0. 2.19298247e-03 0. 2.19298247e-03
      2.19298247e-03 0. 2.19298247e-03 0. 0. 0. 0. 2.19298247e-03 0. 0.
      0. 0. 0. 0. 0. 0. 0. 2.19298247e-03 2.19298247e-03 0. 0. 0. 0.
      2.19298247e-03 0. 0. 2.19298247e-03 0. 0. 0. 0. 0. 0. 0. 0.
      2.19298247e-03 0. 2.19298247e-03 0. 4.38596494e-03 0.
      2.19298247e-03 0. 0. 2.19298247e-03 0. 0. 0. 0. 1.09649124e-02 0.
      0. 8.77192989e-03 6.57894742e-03 0. 0. 0. 0. 0. 0. 0. 0.
      2.19298247e-03 2.19298247e-03 0. 4.38596494e-03 0. 0. 0. 0.
      2.19298247e-03 4.38596494e-03 2.19298247e-03 0. 0. 0. 0. 0.
      2.19298247e-03 4.38596494e-03 0. 2.19298247e-03 0. 2.19298247e-03
      0. 0. 0. 0. 0. 0. 0. 0. 0. 0. 0. 0. 0. 0. 0. 2.19298247e-03
      2.19298247e-03 0. 2.19298247e-03 8.77192989e-03 0. 2.19298247e-03
      0. 0. 0. 0. 0. 0. 0. 0. 0. 0. 4.38596494e-03 0. 0. 0. 0. 0. 0. 0.
      0. 0. 0. 0. 0. 0. 0. 0. 0. 0. 0. 0. 0. 2.19298247e-03
      4.38596494e-03 2.19298247e-03 2.19298247e-03 0. 0. 0. 0. 0. 0.
      2.19298247e-03 1.09649124e-02 0. 0. 0. 0. 0. 4.38596494e-03 0. 0.
      0. 2.19298247e-03 0. 0. 0. 0. 0. 2.19298247e-03 0. 0. 0. 0. 0.
      2.19298247e-03 0. 0. 0. 0. 2.19298247e-03 4.38596494e-03
      2.19298247e-03 0. 0. 0. 0. 0. 0. 0. 0. 0. 0. 0. 0. 2.19298247e-03
      0. 0. 0. 2.19298247e-03 2.19298247e-03 0. 2.19298247e-03 0.
      2.19298247e-03 0. 1.31578948e-02 0. 0. 0. 0. 0. 0. 0. 0. 0. 0. 0.
      0. 2.19298247e-03 2.19298247e-03 0. 0. 0. 0. 0. 0. 0. 0. 0. 0. 0.
      0. 6.57894742e-03 0. 6.57894742e-03 0. 0. 0. 0. 0. 0. 0. 0. 0.
      2.19298247e-03 0. 0. 0. 0. 0. 0. 2.19298247e-03 0. 0.
      2.19298247e-03 0. 0. 0. 2.19298247e-03 1.31578948e-02 0. 0. 0. 0.
      0. 2.19298247e-03 0. 0. 0. 0. 2.19298247e-03 0. 0. 0. 0.
      2.19298247e-03 2.19298247e-03 0. 0. 0. 2.41228081e-02 0.
      2.19298247e-03 0. 2.19298247e-03 2.19298247e-03 0. 0. 0.
      4.38596494e-03 0. 0. 0. 0. 4.38596494e-03 0. 0. 0. 2.19298247e-03
      0. 0. 0. 0. 4.38596494e-03 0. 2.19298247e-03 2.19298247e-03
      2.19298247e-03 0. 0. 0. 2.19298247e-03 2.19298247e-03 0. 0.
      4.38596494e-03 0. 0. 0. 2.19298247e-03 0. 0. 8.77192989e-03 0.
      2.19298247e-03 0. 0. 0. 0. 6.57894742e-03 2.19298247e-03
      2.19298247e-03 0. 0. 4.38596494e-03 0. 0. 0. 0. 0. 0.
      2.19298247e-03 0. 0. 2.19298247e-03 0. 0. 0. 0. 2.19298247e-03 0.
      0. 0. 0. 0. 2.19298247e-03 0. 0. 0. 0. 0. 0. 0. 2.19298247e-03 0.
      0. 0. 0. 2.19298247e-03 0. 0. 0. 0. 0. 0. 0. 0. 0. 0. 0.
      2.19298247e-03 2.19298247e-03 2.19298247e-03 0. 0. 0. 0.
      2.19298247e-03 0. 0. 0. 0. 0. 0. 0. 0. 0. 2.19298247e-03 0. 0. 0.
      0. 2.19298247e-03 0. 0. 0. 0. 2.19298247e-03 0. 0. 0.
      2.19298247e-03 0. 2.19298247e-03 2.19298247e-03 1.31578948e-02 0.
      2.19298247e-03 0. 0. 0. 0. 0. 0. 0. 4.38596494e-03 2.19298247e-03
      0. 0. 0. 0. 0. 0. 0. 0. 4.38596494e-03 0. 2.19298247e-03 0. 0. 0.
      0. 0. 2.19298247e-03 0. 2.19298247e-03 0. 0. 2.19298247e-03
      2.19298247e-03 2.19298247e-03 0. 0. 0. 2.19298247e-03 0. 0. 0. 0.
      0. 4.38596494e-03 0. 2.19298247e-03 0. 4.38596494e-03 0. 0. 0. 0.
      0. 0. 0. 2.19298247e-03 4.38596494e-03 0. 2.19298247e-03 0.
      2.19298247e-03 0. 0. 0. 0. 0. 2.19298247e-03 0. 0. 0. 0. 0. 0. 0.
      0. 0. 0. 0. 0. 2.19298247e-03 0. 2.19298247e-03 0. 0.
      2.19298247e-03 6.57894742e-03 0. 1.31578948e-02 2.19298247e-03 0.
      2.19298247e-03 0. 0. 0. 0. 0. 0. 0. 0. 0. 0. 0. 0. 0. 0. 0. 0. 0.
      0. 0. 0. 0. 0. 0. 2.63157897e-02 1.31578948e-02 0. 0. 0. 0.
      2.19298247e-03 2.19298247e-03 0. 6.57894742e-03 6.57894742e-03 0.
      0. 0. 0. 0. 0. 4.38596494e-03 0. 2.19298247e-03 0. 0.
      6.57894742e-03 0. 4.38596494e-03 8.77192989e-03 0. 0. 0. 0. 0. 0.
      0. 2.19298247e-03 0. 1.31578948e-02 0. 2.19298247e-03 0. 0.
      6.57894742e-03 0. 0. 0. 2.19298247e-03 1.31578948e-02 0.
      2.19298247e-03 0. 0. 0. 2.19298247e-03 0. 0. 0. 0. 2.19298247e-03
      4.38596494e-03 0. 0. 0. 4.38596494e-03 0.</_>
    <_>
      2.10970454e-03 4.21940908e-03 2.10970454e-03 2.10970454e-03 0. 0.
      2.10970454e-03 6.32911362e-03 0. 0. 2.10970454e-03 0. 0.
      6.32911362e-03 0. 0. 8.43881816e-03 2.10970454e-03 0. 0.
      2.10970454e-03 0. 0. 0. 0. 2.10970454e-03 0. 0. 2.10970454e-03
      8.43881816e-03 2.10970454e-03 0. 0. 0. 0. 2.10970454e-03
      2.10970454e-03 0. 1.05485227e-02 0. 2.10970454e-03 0. 0. 0. 0. 0.
      0. 0. 4.21940908e-03 0. 0. 2.10970454e-03 0. 2.10970454e-03 0.
      8.43881816e-03 0. 2.10970454e-03 0. 0. 0. 0. 0. 0. 0. 0. 0. 0.
      4.21940908e-03 0. 0. 2.10970454e-03 2.10970454e-03 4.21940908e-03
      2.10970454e-03 0. 4.21940908e-03 0. 0. 0. 0. 1.26582272e-02 0. 0.
      0. 0. 2.10970454e-03 2.10970454e-03 2.10970454e-03 2.10970454e-03
      2.53164545e-02 0. 0. 0. 1.05485227e-02 0. 0. 2.10970454e-03
      2.10970454e-03 0. 0. 0. 2.10970454e-03 0. 0. 4.21940908e-03 0. 0.
      2.10970454e-03 0. 2.10970454e-03 0. 0. 0. 6.32911362e-03 0. 0. 0.
      2.10970454e-03 2.10970454e-03 0. 0. 0. 0. 0. 2.10970454e-03 0. 0.
      2.10970454e-03 0. 0. 0. 0. 0. 2.10970454e-03 2.10970454e-03 0.
      2.10970454e-03 0. 2.10970454e-03 0. 2.10970454e-03 0.
      2.10970454e-03 6.32911362e-03 0. 0. 4.21940908e-03 0. 0. 0. 0.
      4.21940908e-03 0. 0. 0. 0. 0. 0. 0. 2.10970454e-03 0.
      2.10970454e-03 0. 0. 0. 0. 0. 0. 0. 0. 0. 0. 0. 0. 0.
      4.21940908e-03 0. 0. 2.10970454e-03 0. 2.10970454e-03 0. 0. 0. 0.
      0. 0. 0. 0. 0. 0. 0. 2.10970454e-03 0. 0. 4.21940908e-03
      2.10970454e-03 0. 2.10970454e-03 2.10970454e-03 0. 0.
      6.32911362e-03 0. 0. 0. 0. 0. 0. 0. 0. 8.43881816e-03 0. 0.
      2.10970454e-03 2.10970454e-03 2.10970454e-03 0. 8.43881816e-03 0.
      0. 0. 0. 0. 4.21940908e-03 0. 2.10970454e-03 0. 4.21940908e-03
      8.43881816e-03 0. 0. 2.10970454e-03 0. 2.10970454e-03
      2.10970454e-03 2.10970454e-03 0. 1.05485227e-02 0. 0. 0. 0.
      2.10970454e-03 0. 2.10970454e-03 0. 0. 0. 0. 0. 0. 0. 0. 0. 0.
      2.10970454e-03 2.10970454e-03 0. 0. 0. 0. 0. 0. 0. 0. 0.
      2.10970454e-03 0. 0. 4.21940908e-03 0. 2.10970454e-03 0. 0. 0. 0.
      2.10970454e-03 4.21940908e-03 0. 0. 0. 0. 0. 0. 0. 2.10970454e-03
      0. 0. 0. 0. 0. 0. 0. 0. 0. 0. 6.32911362e-03 0. 0. 0. 0. 0. 0. 0.
      0. 0. 0. 0. 0. 0. 0. 0. 0. 0. 0. 0. 0. 0. 0. 0. 0. 0. 0. 0. 0.
      4.21940908e-03 0. 2.10970454e-03 2.10970454e-03 0. 6.32911362e-03
      2.10970454e-03 0. 0. 0. 0. 0. 4.21940908e-03 0. 0. 4.21940908e-03
      0. 0. 0. 0. 0. 0. 0. 2.10970454e-03 2.10970454e-03 0.
      6.32911362e-03 0. 0. 2.10970454e-03 0. 0. 0. 0. 0. 0. 0. 0.
      2.10970454e-03 2.10970454e-03 1.26582272e-02 2.10970454e-03
      2.10970454e-03 0. 2.10970454e-03 2.10970454e-03 0. 0. 0. 0.
      2.10970454e-03 2.10970454e-03 0. 0. 0. 0. 0. 1.47679318e-02 0. 0.
      0. 2.10970454e-03 0. 0. 0. 2.10970454e-03 0. 0. 0. 0. 0. 0. 0. 0.
      4.21940908e-03 0. 0. 0. 4.21940908e-03 0. 0. 2.10970454e-03
      2.10970454e-03 0. 0. 1.26582272e-02 0. 0. 0. 0. 0. 0. 0.
      1.05485227e-02 0. 0. 0. 0. 0. 2.10970454e-03 0. 2.10970454e-03 0.
      0. 0. 0. 0. 4.21940908e-03 2.10970454e-03 0. 0. 2.10970454e-03 0.
      0. 0. 0. 8.43881816e-03 0. 2.10970454e-03 0. 4.21940908e-03 0.
      2.10970454e-03 0. 0. 0. 0. 0. 0. 0. 8.43881816e-03 0.
      6.32911362e-03 0. 0. 8.43881816e-03 6.32911362e-03 0. 0. 0.
      4.21940908e-03 0. 0. 0. 0. 0. 0. 0. 0. 2.10970454e-03 0. 0. 0.
      2.10970454e-03 0. 4.21940908e-03 0. 0. 0. 0. 0. 0. 2.10970454e-03
      0. 0. 2.10970454e-03 0. 2.10970454e-03 0. 0. 2.10970454e-03 0. 0.
      2.10970454e-03 0. 0. 0. 0. 4.21940908e-03 0. 0. 0. 0. 0. 0. 0.
      2.10970454e-03 0. 0. 2.10970454e-03 0. 0. 0. 0. 2.10970454e-03 0.
      0. 2.10970454e-03 0. 0. 0. 0. 0. 0. 0. 2.10970454e-03 0.
      2.10970454e-03 0. 0. 0. 0. 0. 0. 0. 2.10970454e-03 0.
      2.10970454e-03 0. 2.10970454e-03 0. 0. 2.10970454e-03 0.
      2.10970454e-03 0. 0. 0. 0. 0. 0. 2.10970454e-03 0. 2.10970454e-03
      0. 2.10970454e-03 0. 2.10970454e-03 4.21940908e-03 0. 0. 0. 0. 0.
      0. 0. 0. 0. 0. 0. 0. 0. 0. 0. 0. 0. 0. 2.10970454e-03
      6.32911362e-03 8.43881816e-03 0. 0. 0. 6.32911362e-03 0.
      4.21940908e-03 0. 0. 0. 0. 0. 0. 0. 0. 0. 0. 0. 0. 4.21940908e-03
      2.10970454e-03 0. 2.10970454e-03 0. 2.10970454e-03 6.32911362e-03
      2.10970454e-03 0. 0. 0. 0. 0. 0. 0. 0. 0. 0. 1.05485227e-02
      2.10970454e-03 0. 0. 0. 0. 0. 2.10970454e-03 0. 2.10970454e-03
      4.21940908e-03 2.10970454e-03 0. 0. 0. 2.10970454e-03 0.
      4.21940908e-03 0. 2.10970454e-03 0. 4.21940908e-03 0.
      2.10970454e-03 0. 0. 0. 0. 0. 0. 0. 0. 2.10970454e-03 0. 0. 0.
      2.10970454e-03 0. 0. 0. 0. 2.10970454e-03 6.32911362e-03 0. 0. 0.
      0. 0. 2.10970454e-03 0. 0. 0. 0. 2.10970454e-03 0. 0. 0. 0.
      2.10970454e-03 0. 0. 0. 0. 4.21940908e-03 0. 0. 0. 4.21940908e-03
      0. 4.21940908e-03 2.10970454e-03 0. 4.21940908e-03 0. 0. 0. 0. 0.
      0. 0. 0. 2.10970454e-03 0. 0. 2.10970454e-03 0. 0. 0. 0. 0. 0. 0.
      0. 0. 0. 1.05485227e-02 0. 0. 0. 0. 2.10970454e-03 0. 0. 0. 0.
      6.32911362e-03 6.32911362e-03 0. 2.10970454e-03 0. 0. 0.
      2.10970454e-03 0. 0. 0. 2.10970454e-03 6.32911362e-03
      2.10970454e-03 0. 0. 0. 0. 0. 0. 0. 0. 0. 0. 0. 0. 0.
      2.10970454e-03 0. 4.21940908e-03 2.10970454e-03 2.10970454e-03 0.
      0. 0. 0. 0. 0. 0. 0. 0. 0. 0. 0. 2.10970454e-03 2.10970454e-03 0.
      0. 0. 0. 0. 0. 0. 0. 0. 0. 0. 0. 4.21940908e-03 4.21940908e-03 0.
      0. 0. 0. 0. 0. 0. 0. 0. 0. 0. 2.10970454e-03 0. 0. 0. 0. 0. 0.
      2.10970454e-03 2.10970454e-03 0. 0. 0. 0. 0. 0. 0. 0. 0. 0. 0.
      2.10970454e-03 0. 2.10970454e-03 0. 0. 0. 2.10970454e-03
      6.32911362e-03 0. 4.21940908e-03 0. 2.10970454e-03 0.
      2.10970454e-03 2.10970454e-03 0. 0. 0. 0. 4.21940908e-03
      2.10970454e-03 0. 8.43881816e-03 0. 0. 0. 0. 0. 4.21940908e-03 0.
      0. 0. 2.10970454e-03 0. 4.21940908e-03 2.10970454e-03 0.
      8.43881816e-03 4.21940908e-03 0. 0. 2.10970454e-03 0. 0. 0. 0. 0.
      1.68776363e-02 0. 2.10970454e-03 0. 2.10970454e-03 0. 0.
      2.10970454e-03 0. 0. 0. 0. 0. 8.43881816e-03 2.10970454e-03 0. 0.
      0. 0. 0. 2.10970454e-03 4.21940908e-03 0. 0. 0. 0. 2.10970454e-03
      0. 0. 0. 0. 0. 0. 0. 2.10970454e-03 0. 2.10970454e-03 0.
      2.10970454e-03 0. 0. 0. 0. 1.26582272e-02 4.21940908e-03 0. 0.
      4.21940908e-03 0. 4.21940908e-03 2.10970454e-03 0. 0. 0.
      2.10970454e-03 0. 0. 0. 0. 0. 0. 0. 0. 0. 0. 0. 0. 0. 0.
      2.10970454e-03 2.10970454e-03 2.10970454e-03 2.10970454e-03 0. 0.
      0. 2.10970454e-03 4.21940908e-03 2.10970454e-03 0. 4.21940908e-03
      2.10970454e-03 6.32911362e-03 0. 0. 0. 0. 0. 0. 4.21940908e-03 0.
      0. 0. 2.10970454e-03 0. 2.10970454e-03 0. 0. 0. 0. 2.10970454e-03
      0. 0. 0. 0. 2.10970454e-03 8.43881816e-03 2.10970454e-03 0.
      2.10970454e-03 0. 4.21940908e-03 0. 0. 0. 0. 0. 0. 0. 0. 0. 0.
      2.10970454e-03 2.10970454e-03 0. 0. 0. 0. 2.10970454e-03 0. 0. 0.
      2.10970454e-03 0.</_>
    <_>
      0. 0. 0. 2.82485876e-03 0. 0. 0. 0. 2.82485876e-03 0.
      2.82485876e-03 0. 0. 0. 0. 2.82485876e-03 0. 2.82485876e-03 0. 0.
      0. 0. 0. 0. 0. 0. 2.82485876e-03 0. 0. 0. 0. 0. 0. 0.
      2.82485876e-03 0. 0. 0. 2.82485876e-03 2.82485876e-03
      2.82485876e-03 0. 0. 0. 0. 2.82485876e-03 0. 0. 2.82485876e-03 0.
      0. 0. 0. 5.64971752e-03 0. 2.82485876e-03 0. 0. 0. 5.64971752e-03
      2.82485876e-03 0. 0. 2.82485876e-03 0. 0. 0. 0. 0. 0. 0. 0.
      2.82485876e-03 0. 5.64971752e-03 0. 0. 0. 0. 0. 0. 1.12994350e-02
      0. 0. 0. 0. 0. 0. 2.82485876e-03 0. 2.25988701e-02 0. 0. 0. 0. 0.
      0. 0. 0. 2.82485876e-03 0. 0. 2.82485876e-03 0. 0. 0. 0.
      2.82485876e-03 0. 0. 0. 0. 2.82485876e-03 0. 5.64971752e-03
      2.82485876e-03 0. 0. 0. 0. 0. 0. 0. 0. 0. 8.47457629e-03 0. 0. 0.
      0. 0. 0. 0. 2.82485876e-03 0. 5.64971752e-03 0. 0. 5.64971752e-03
      0. 2.82485876e-03 0. 0. 5.64971752e-03 5.64971752e-03 0. 0. 0. 0.
      0. 0. 2.82485876e-03 0. 5.64971752e-03 0. 0. 0. 0. 0.
      2.82485876e-03 0. 0. 2.82485876e-03 0. 0. 0. 0. 0. 2.82485876e-03
      0. 0. 5.64971752e-03 0. 0. 0. 0. 0. 0. 2.82485876e-03 0. 0. 0. 0.
      0. 0. 0. 0. 0. 2.82485876e-03 0. 0. 0. 0. 0. 0. 0. 5.64971752e-03
      0. 2.82485876e-03 0. 0. 0. 2.82485876e-03 2.82485876e-03
      2.82485876e-03 0. 0. 2.82485876e-03 0. 0. 2.82485876e-03 0.
      8.47457629e-03 0. 0. 0. 0. 0. 0. 2.82485876e-03 2.82485876e-03 0.
      0. 0. 0. 0. 0. 0. 0. 0. 5.64971752e-03 0. 0. 0. 0. 2.82485876e-03
      2.82485876e-03 0. 0. 2.82485876e-03 0. 0. 0. 0. 0. 0. 0. 0. 0. 0.
      0. 0. 0. 0. 0. 0. 0. 0. 2.82485876e-03 0. 0. 0. 0. 0. 0. 0. 0. 0.
      2.82485876e-03 0. 2.82485876e-03 0. 0. 2.82485876e-03 0. 0.
      2.82485876e-03 0. 5.64971752e-03 0. 5.64971752e-03 0. 0. 0. 0. 0.
      0. 0. 0. 0. 0. 0. 0. 0. 0. 0. 0. 0. 5.64971752e-03 0. 0. 0. 0. 0.
      0. 0. 0. 2.82485876e-03 0. 0. 0. 0. 0. 0. 0. 0. 2.82485876e-03 0.
      0. 0. 2.82485876e-03 0. 0. 0. 0. 0. 0. 0. 5.64971752e-03 0. 0. 0.
      1.12994350e-02 0. 0. 2.82485876e-03 0. 0. 0. 0. 0. 0. 0.
      2.82485876e-03 0. 0. 0. 0. 0. 0. 2.82485876e-03 5.64971752e-03 0.
      0. 2.82485876e-03 2.82485876e-03 2.82485876e-03 0. 0. 0. 0. 0. 0.
      0. 0. 0. 2.82485876e-03 5.64971752e-03 0. 5.64971752e-03 0. 0. 0.
      0. 0. 0. 0. 2.82485876e-03 0. 0. 0. 0. 0. 0. 1.12994350e-02 0. 0.
      0. 0. 0. 2.82485876e-03 0. 0. 0. 0. 0. 2.82485876e-03 0. 0. 0. 0.
      2.82485876e-03 2.82485876e-03 0. 0. 0. 5.64971752e-03 0. 0. 0. 0.
      0. 2.25988701e-02 0. 0. 2.82485876e-03 0. 0. 0. 0. 2.82485876e-03
      0. 0. 0. 0. 0. 2.82485876e-03 0. 2.82485876e-03 0. 0. 0. 0. 0.
      2.82485876e-03 0. 0. 0. 0. 0. 0. 0. 0. 8.47457629e-03 0.
      2.82485876e-03 0. 0. 0. 0. 0. 0. 0. 0. 1.97740123e-02 0. 0. 0. 0.
      0. 0. 0. 0. 0. 0. 0. 0. 1.12994350e-02 0. 0. 0. 0. 2.82485876e-03
      0. 0. 2.82485876e-03 0. 2.82485876e-03 0. 0. 0. 0. 2.82485876e-03
      0. 0. 0. 0. 0. 0. 5.64971752e-03 0. 0. 0. 0. 0. 2.82485876e-03 0.
      0. 6.21468946e-02 0. 0. 0. 0. 0. 0. 5.64971752e-03 0. 0. 0. 0. 0.
      2.82485876e-03 0. 5.64971752e-03 0. 0. 0. 0. 0. 0. 0.
      2.82485876e-03 0. 0. 0. 5.64971752e-03 2.82485876e-03 0.
      5.64971752e-03 0. 0. 5.64971752e-03 0. 0. 2.82485876e-03
      2.82485876e-03 5.64971752e-03 0. 0. 0. 0. 0. 0. 2.82485876e-03 0.
      0. 0. 0. 2.82485876e-03 2.82485876e-03 0. 2.82485876e-03 0. 0. 0.
      0. 2.82485876e-03 0. 0. 0. 0. 0. 0. 0. 0. 2.82485876e-03 0. 0. 0.
      0. 0. 0. 0. 0. 2.82485876e-03 0. 2.82485876e-03 0. 0. 0. 0. 0. 0.
      0. 0. 8.47457629e-03 0. 0. 0. 0. 0. 0. 2.82485876e-03 0. 0. 0. 0.
      0. 0. 0. 0. 0. 2.82485876e-03 0. 2.82485876e-03 0. 0. 0. 0. 0. 0.
      5.64971752e-03 0. 0. 0. 0. 0. 2.82485876e-03 1.12994350e-02 0. 0.
      0. 0. 2.82485876e-03 0. 0. 0. 0. 0. 2.82485876e-03 0. 0. 0.
      5.64971752e-03 0. 0. 0. 0. 0. 0. 5.64971752e-03 0. 0. 0. 0. 0.
      2.82485876e-03 0. 0. 0. 0. 0. 0. 0. 0. 0. 0. 0. 0. 0. 0. 0. 0.
      2.82485876e-03 2.82485876e-03 5.64971752e-03 0. 0. 0. 0.
      2.82485876e-03 2.82485876e-03 0. 0. 0. 0. 0. 0. 2.82485876e-03 0.
      0. 0. 0. 1.12994350e-02 2.82485876e-03 0. 2.82485876e-03 0. 0. 0.
      0. 2.82485876e-03 0. 0. 0. 2.82485876e-03 2.82485876e-03 0. 0. 0.
      0. 2.82485876e-03 0. 0. 0. 0. 0. 0. 0. 0. 0. 0. 5.64971752e-03
      2.82485876e-03 0. 8.47457629e-03 0. 0. 0. 0. 0. 0. 0. 0.
      2.82485876e-03 0. 0. 0. 0. 2.82485876e-03 0. 0. 2.82485876e-03 0.
      0. 0. 0. 0. 0. 0. 0. 0. 0. 0. 0. 0. 0. 0. 2.82485876e-03 0.
      2.82485876e-03 0. 0. 0. 0. 1.12994350e-02 0. 0. 0. 0.
      1.41242938e-02 0. 0. 0. 0. 0. 0. 0. 0. 2.82485876e-03 0. 0. 0. 0.
      0. 0. 0. 0. 0. 0. 0. 0. 0. 0. 0. 0. 2.82485876e-03 0. 0. 0. 0. 0.
      0. 0. 0. 0. 0. 0. 0. 0. 0. 5.64971752e-03 0. 0. 0. 0. 0. 0. 0. 0.
      2.82485876e-03 0. 0. 0. 0. 0. 0. 0. 2.82485876e-03 0. 0. 0. 0. 0.
      0. 0. 0. 0. 0. 0. 0. 2.82485876e-03 0. 0. 0. 0. 0. 0. 0. 0. 0.
      8.47457629e-03 0. 1.12994350e-02 0. 0. 0. 5.64971752e-03 0.
      2.82485876e-03 0. 0. 0. 0. 2.82485876e-03 0. 2.25988701e-02
      2.82485876e-03 2.82485876e-03 0. 5.64971752e-03 2.82485876e-03
      5.64971752e-03 0. 0. 0. 2.82485876e-03 2.82485876e-03 0. 0. 0. 0.
      0. 0. 0. 0. 0. 0. 0. 5.64971752e-03 0. 0. 2.82485876e-03 0. 0.
      2.82485876e-03 2.82485876e-03 0. 0. 0. 0. 0. 8.47457629e-03 0. 0.
      0. 0. 0. 0. 0. 0. 0. 0. 2.82485876e-03 0. 0. 0. 2.82485876e-03 0.
      0. 2.82485876e-03 0. 0. 0. 0. 1.12994350e-02 0. 0. 0. 0. 0. 0. 0.
      0. 0. 8.47457629e-03 0. 2.82485876e-03 0. 0. 0. 0. 0. 0. 0. 0.
      2.82485876e-03 2.82485876e-03 1.12994350e-02 0. 0. 0. 0. 0. 0. 0.
      0. 0. 2.82485876e-03 0. 0. 0. 0. 0. 0. 0. 0. 0. 0. 2.82485876e-03
      0. 2.82485876e-03 1.12994350e-02 0. 0. 5.64971752e-03 0. 0. 0. 0.
      0. 0. 1.97740123e-02 1.41242938e-02 2.82485876e-03 0. 0.
      8.47457629e-03 0. 0. 0. 0. 0. 0. 0. 0. 0. 0. 0. 0. 0. 0.
      2.82485876e-03 2.82485876e-03 0. 0. 0. 0. 0. 2.82485876e-03</_>
    <_>
      0. 0. 0. 0. 0. 0. 0. 0. 0. 0. 0. 0. 0. 0. 0. 2.25733640e-03 0.
      6.77200919e-03 0. 4.51467279e-03 2.25733640e-03 2.25733640e-03 0.
      0. 0. 9.02934559e-03 0. 0. 2.25733640e-03 0. 6.77200919e-03 0. 0.
      2.25733640e-03 0. 0. 0. 0. 2.25733640e-03 9.02934559e-03 0. 0. 0.
      0. 0. 9.02934559e-03 0. 0. 2.25733640e-03 2.25733640e-03 0. 0. 0.
      0. 0. 9.02934559e-03 0. 0. 0. 0. 4.51467279e-03 0. 0. 0.
      2.25733640e-03 0. 0. 4.51467279e-03 2.25733640e-03 0. 0.
      4.51467279e-03 2.25733640e-03 0. 9.02934559e-03 0. 0. 0. 0. 0.
      2.25733640e-03 2.25733640e-03 0. 0. 0. 0. 0. 2.25733640e-03 0. 0.
      2.25733630e-02 0. 2.25733640e-03 4.51467279e-03 0. 0. 0. 0. 0.
      1.35440184e-02 2.25733640e-03 0. 0. 0. 0. 2.25733640e-03 0. 0. 0.
      4.51467279e-03 2.25733640e-03 0. 0. 0. 0. 0. 0. 0. 0.
      6.77200919e-03 0. 0. 0. 2.25733640e-03 0. 1.12866815e-02 0. 0.
      6.77200919e-03 0. 0. 0. 0. 0. 0. 2.25733640e-03 0. 0. 0. 0.
      6.77200919e-03 0. 0. 6.77200919e-03 2.25733640e-03 0. 0.
      2.25733640e-03 0. 0. 0. 0. 0. 4.51467279e-03 0. 0. 2.25733640e-03
      0. 0. 2.25733640e-03 4.51467279e-03 0. 4.51467279e-03 0. 0. 0. 0.
      0. 0. 0. 0. 2.25733640e-03 0. 0. 0. 0. 0. 0. 0. 0. 0.
      2.25733640e-03 0. 0. 0. 0. 0. 0. 0. 0. 0. 0. 0. 0. 0. 0.
      2.25733640e-03 0. 4.51467279e-03 0. 0. 2.25733640e-03 0. 0. 0. 0.
      0. 0. 2.25733640e-03 0. 6.77200919e-03 0. 1.58013552e-02 0. 0. 0.
      0. 0. 0. 4.51467279e-03 2.25733640e-03 0. 0. 0. 4.51467279e-03
      2.25733640e-03 2.25733640e-03 2.25733640e-03 0. 2.25733640e-03 0.
      0. 0. 2.25733640e-03 4.51467279e-03 0. 4.51467279e-03 0. 0.
      6.77200919e-03 0. 0. 2.25733640e-03 0. 0. 0. 9.02934559e-03 0.
      2.25733640e-03 0. 0. 0. 0. 0. 0. 0. 0. 0. 2.25733640e-03
      2.25733640e-03 0. 4.51467279e-03 0. 0. 0. 4.51467279e-03
      2.25733640e-03 0. 4.51467279e-03 0. 0. 2.25733640e-03 0. 0. 0. 0.
      0. 0. 0. 0. 0. 0. 2.25733640e-03 0. 2.25733640e-03 2.25733640e-03
      2.25733640e-03 0. 4.51467279e-03 0. 0. 2.25733640e-03 0.
      2.25733640e-03 0. 0. 0. 0. 2.25733640e-03 0. 0. 0. 0. 0. 0. 0. 0.
      0. 2.25733640e-03 0. 0. 0. 0. 0. 0. 0. 0. 0. 0. 0. 0.
      2.25733640e-03 0. 0. 2.25733640e-03 0. 0. 0. 0. 0. 0. 0.
      2.25733640e-03 0. 0. 0. 0. 0. 0. 0. 0. 0. 2.25733640e-03 0. 0.
      2.25733640e-03 0. 0. 0. 0. 2.25733640e-03 4.51467279e-03
      2.25733640e-03 0. 0. 0. 0. 0. 0. 0. 0. 0. 4.51467279e-03 0. 0. 0.
      0. 6.77200919e-03 0. 4.51467279e-03 0. 0. 0. 0. 0. 0. 0.
      4.51467279e-03 0. 0. 0. 0. 0. 2.25733640e-03 4.51467279e-03 0. 0.
      0. 2.25733640e-03 0. 0. 0. 0. 0. 0. 0. 0. 0. 0. 0. 0.
      4.51467279e-03 0. 0. 0. 0. 0. 0. 4.51467279e-03 2.25733640e-03
      2.25733640e-03 0. 4.51467279e-03 0. 0. 2.25733640e-03
      2.25733640e-03 0. 0. 0. 1.12866815e-02 0. 0. 0. 0. 0. 0. 0. 0.
      2.25733640e-03 0. 0. 0. 0. 4.51467279e-03 2.25733640e-03 0. 0. 0.
      0. 0. 2.25733640e-03 0. 6.77200919e-03 0. 2.25733640e-03
      2.25733640e-03 0. 0. 0. 2.25733640e-03 0. 0. 0. 0. 0. 0. 0. 0.
      1.12866815e-02 0. 0. 6.77200919e-03 6.77200919e-03 0. 0. 0.
      1.12866815e-02 0. 0. 0. 0. 0. 0. 0. 2.25733640e-03 0. 0. 0. 0. 0.
      0. 4.51467279e-03 0. 0. 2.25733640e-03 0. 2.25733640e-03 0.
      4.51467279e-03 0. 0. 0. 2.25733640e-03 0. 2.25733640e-03 0. 0. 0.
      0. 0. 0. 0. 0. 0. 2.25733640e-03 2.25733640e-03 0. 6.77200919e-03
      0. 4.51467279e-03 0. 0. 6.77200919e-03 0. 0. 0. 0. 0. 0. 0. 0. 0.
      0. 0. 0. 0. 0. 0. 0. 2.25733640e-03 0. 0. 0. 2.25733640e-03
      4.51467279e-03 4.51467279e-03 0. 0. 0. 2.25733640e-03 0. 0. 0. 0.
      0. 2.25733640e-03 0. 0. 0. 0. 2.25733640e-03 0. 0. 0.
      2.25733640e-03 0. 0. 1.35440184e-02 0. 6.77200919e-03 0. 0. 0.
      4.51467279e-03 0. 0. 0. 0. 0. 0. 0. 0. 0. 0. 0. 0. 0. 0. 0. 0. 0.
      0. 0. 6.77200919e-03 4.51467279e-03 0. 0. 0. 2.25733640e-03
      1.58013552e-02 2.25733640e-03 2.25733640e-03 0. 0. 0. 0. 0. 0. 0.
      2.25733640e-03 0. 2.25733640e-03 0. 0. 4.51467279e-03 0. 0.
      2.25733640e-03 0. 0. 4.51467279e-03 2.25733640e-03 0. 0. 0.
      4.51467279e-03 0. 0. 0. 2.25733640e-03 0. 0. 4.51467279e-03 0.
      2.25733640e-03 0. 0. 0. 0. 0. 0. 0. 0. 0. 0. 0. 0. 0. 0.
      2.25733640e-03 2.25733640e-03 2.25733640e-03 0. 0. 0.
      2.25733640e-03 0. 0. 0. 0. 0. 0. 2.25733640e-03 0. 0. 0. 0. 0. 0.
      2.25733640e-03 0. 0. 0. 4.51467279e-03 4.51467279e-03 0. 0. 0. 0.
      0. 0. 0. 0. 0. 0. 4.51467279e-03 0. 0. 2.25733640e-03
      4.51467279e-03 0. 0. 0. 0. 0. 4.51467279e-03 0. 0. 0.
      2.25733640e-03 0. 0. 6.77200919e-03 0. 0. 0. 0. 0. 0. 0. 0.
      2.25733640e-03 2.25733640e-03 2.25733640e-03 0. 0. 0. 0. 0. 0.
      2.25733640e-03 2.25733640e-03 0. 0. 0. 0. 0. 0. 0. 0. 0. 0. 0. 0.
      2.25733640e-03 2.25733640e-03 0. 0. 0. 0. 0. 0. 0. 0.
      2.25733640e-03 2.25733640e-03 0. 0. 0. 6.77200919e-03 0. 0. 0. 0.
      0. 0. 0. 0. 0. 2.25733640e-03 0. 0. 0. 0. 2.25733640e-03
      2.25733640e-03 2.25733640e-03 0. 0. 2.25733640e-03 0. 0. 0. 0. 0.
      2.25733640e-03 0. 0. 0. 2.25733640e-03 0. 0. 0. 0. 0. 0. 0. 0. 0.
      2.25733640e-03 2.25733640e-03 0. 0. 0. 0. 2.25733640e-03 0. 0. 0.
      0. 0. 0. 0. 0. 0. 4.51467279e-03 0. 2.25733640e-03 0. 0.
      2.25733640e-03 2.25733640e-03 2.25733640e-03 0. 2.25733640e-03
      2.25733640e-03 0. 0. 2.25733640e-03 2.25733640e-03 0.
      2.25733640e-03 0. 0. 0. 0. 0. 0. 0. 0. 0. 0. 0. 0. 0.
      2.25733640e-03 0. 0. 0. 0. 0. 6.77200919e-03 2.25733640e-03 0. 0.
      0. 0. 0. 0. 0. 2.25733640e-03 0. 0. 0. 0. 0. 2.25733640e-03 0. 0.
      0. 0. 0. 0. 0. 0. 2.25733640e-03 0. 0. 0. 4.51467279e-03 0.
      2.25733640e-03 0. 0. 0. 0. 0. 0. 0. 0. 0. 0. 0. 0. 2.25733640e-03
      0. 4.51467279e-03 0. 9.02934559e-03 0. 0. 2.25733640e-03
      2.25733640e-03 0. 0. 0. 2.25733640e-03 0. 2.25733640e-03
      2.25733640e-03 2.25733640e-03 0. 0. 0. 0. 0. 0. 0. 2.25733640e-03
      2.25733640e-03 0. 0. 2.25733640e-03 2.25733640e-03 0. 0.
      2.25733640e-03 4.51467279e-03 2.25733640e-03 0. 4.51467279e-03 0.
      0. 9.02934559e-03 0. 0. 0. 2.25733640e-03 0. 2.25733640e-03 0. 0.
      0. 0. 2.25733640e-03 0. 0. 0. 0. 0. 0. 0. 0. 2.25733640e-03
      2.25733640e-03 0. 1.58013552e-02 6.77200919e-03 0. 0. 0. 0.
      2.25733640e-03 2.25733640e-03 0. 1.12866815e-02 2.25733640e-03
      4.51467279e-03 0. 0. 0. 0. 0. 0. 0. 2.25733640e-03 0. 0. 0. 0.
      6.77200919e-03 1.58013552e-02 0. 0. 0. 2.25733640e-03 0. 0. 0.
      2.25733640e-03 0. 2.93453727e-02 6.77200919e-03 0. 0. 0.
      2.25733640e-03 0. 0. 0. 0. 0. 0. 0. 0. 2.25733640e-03
      2.25733640e-03 0. 0. 0. 0. 0. 0. 0. 0. 0. 0. 0. 0.</_>
    <_>
      0. 0. 2.52525252e-03 0. 0. 0. 7.57575780e-03 2.52525252e-03
      2.52525252e-03 2.52525252e-03 0. 0. 0. 0. 0. 0. 0. 0. 0. 0. 0. 0.
      0. 0. 0. 0. 0. 0. 0. 0. 5.05050505e-03 0. 0. 2.52525252e-03 0. 0.
      0. 0. 0. 0. 0. 0. 0. 0. 0. 2.52525252e-03 0. 0. 5.05050505e-03 0.
      0. 0. 0. 0. 5.05050505e-03 7.57575780e-03 2.52525252e-03 0. 0.
      5.05050505e-03 0. 2.52525252e-03 0. 0. 2.52525252e-03 0.
      2.52525252e-03 2.52525252e-03 0. 0. 0. 0. 0. 2.52525252e-03
      2.02020202e-02 0. 0. 0. 0. 0. 5.05050505e-03 0. 2.52525252e-03
      2.52525252e-03 0. 0. 2.52525252e-03 0. 0. 0. 1.76767670e-02 0. 0.
      0. 2.52525252e-03 2.52525252e-03 0. 0. 0. 2.52525252e-03 0. 0.
      5.05050505e-03 0. 0. 0. 0. 5.05050505e-03 0. 0. 2.52525252e-03 0.
      0. 0. 0. 0. 0. 2.52525252e-03 0. 0. 1.01010101e-02 0. 0.
      2.52525252e-03 0. 5.05050505e-03 0. 5.05050505e-03 0. 0. 0.
      5.05050505e-03 0. 0. 0. 0. 0. 0. 0. 7.57575780e-03 7.57575780e-03
      0. 0. 2.52525252e-03 0. 0. 0. 2.52525252e-03 0. 0. 0. 0. 0. 0. 0.
      0. 0. 0. 0. 2.52525252e-03 2.52525252e-03 0. 2.52525252e-03
      2.52525252e-03 0. 0. 0. 0. 0. 0. 0. 0. 0. 0. 0. 0. 2.52525252e-03
      0. 0. 0. 0. 0. 0. 2.52525252e-03 0. 0. 2.52525252e-03 0. 0. 0. 0.
      0. 0. 2.52525252e-03 0. 0. 2.52525252e-03 0. 2.52525252e-03 0. 0.
      0. 0. 2.52525252e-03 5.05050505e-03 0. 0. 5.05050505e-03 0. 0.
      5.05050505e-03 0. 0. 0. 2.52525252e-03 0. 0. 0. 2.52525252e-03
      1.01010101e-02 0. 0. 0. 0. 2.52525252e-03 2.52525252e-03
      2.52525252e-03 2.52525252e-03 0. 2.52525252e-03 2.52525252e-03 0.
      0. 0. 5.05050505e-03 0. 0. 2.52525252e-03 2.52525252e-03
      7.57575780e-03 0. 2.52525252e-03 2.52525252e-03 0. 0. 0.
      7.57575780e-03 0. 2.52525252e-03 0. 0. 0. 5.05050505e-03 0. 0. 0.
      0. 0. 2.52525252e-03 0. 0. 2.52525252e-03 0. 0. 0. 0. 0. 0. 0. 0.
      0. 0. 0. 0. 0. 0. 0. 2.52525252e-03 0. 0. 0. 0. 0. 0. 0. 0.
      2.52525252e-03 0. 0. 0. 0. 0. 0. 0. 0. 0. 0. 0. 2.52525252e-03 0.
      0. 0. 0. 0. 0. 0. 0. 0. 2.52525252e-03 0. 0. 0. 0. 0. 0. 0. 0. 0.
      0. 0. 2.52525252e-03 2.52525252e-03 2.52525252e-03 0. 0.
      2.52525252e-03 0. 0. 5.05050505e-03 0. 0. 0. 5.05050505e-03 0. 0.
      0. 0. 0. 0. 0. 2.52525252e-03 0. 0. 0. 2.52525252e-03 0. 0. 0. 0.
      0. 0. 3.03030312e-02 0. 0. 0. 0. 0. 0. 0. 0. 0. 0. 0. 0. 0. 0.
      5.05050505e-03 2.52525252e-03 0. 0. 0. 0. 0. 2.52525252e-03 0. 0.
      0. 2.52525252e-03 0. 0. 0. 0. 0. 0. 5.05050505e-03 2.52525252e-03
      5.05050505e-03 0. 0. 0. 2.52525252e-03 0. 2.52525252e-03 0. 0. 0.
      0. 0. 0. 2.52525252e-03 0. 0. 0. 0. 2.52525252e-03 2.52525252e-03
      0. 0. 2.52525252e-03 0. 0. 2.52525252e-03 1.01010101e-02 0. 0. 0.
      0. 2.52525252e-03 0. 0. 2.52525252e-03 0. 0. 0. 0. 0.
      2.52525252e-03 0. 0. 2.52525252e-03 0. 2.52525252e-03 0. 0.
      2.52525252e-03 0. 0. 0. 2.52525252e-03 0. 0. 2.52525252e-03
      2.52525252e-03 7.57575780e-03 0. 0. 0. 2.52525252e-03 0. 0. 0. 0.
      0. 0. 0. 0. 0. 0. 2.52525252e-03 2.52525252e-03 0. 0.
      1.26262624e-02 0. 0. 0. 0. 7.57575780e-03 0. 2.52525252e-03 0.
      2.52525252e-03 0. 0. 0. 0. 2.52525252e-03 0. 0. 0. 0. 0.
      5.05050505e-03 0. 0. 0. 7.57575780e-03 0. 0. 1.01010101e-02
      2.52525252e-03 2.52525252e-03 0. 2.52525252e-03 2.52525252e-03
      7.57575780e-03 0. 0. 2.52525252e-03 0. 0. 0. 0. 0. 0. 0. 0. 0.
      2.52525252e-03 0. 0. 0. 0. 7.57575780e-03 0. 0. 2.52525252e-03 0.
      5.05050505e-03 0. 0. 0. 2.52525252e-03 0. 0. 0. 0. 0. 0. 0. 0. 0.
      0. 5.05050505e-03 0. 0. 0. 0. 0. 0. 2.52525252e-03 0. 0.
      2.52525252e-03 0. 0. 2.52525252e-03 2.52525252e-03 2.52525252e-03
      2.52525252e-03 2.52525252e-03 0. 0. 0. 0. 0. 0. 5.05050505e-03
      7.57575780e-03 0. 0. 2.52525252e-03 0. 0. 1.26262624e-02
      2.52525252e-03 0. 0. 2.52525252e-03 0. 0. 0. 0. 0. 0. 0. 0. 0. 0.
      0. 2.52525252e-03 0. 0. 0. 0. 0. 0. 0. 0. 0. 0. 0. 1.26262624e-02
      2.52525252e-03 0. 0. 0. 2.52525252e-03 0. 0. 0. 0. 2.52525252e-03
      0. 0. 0. 0. 2.52525252e-03 0. 0. 0. 7.57575780e-03 0. 0. 0. 0.
      5.05050505e-03 0. 0. 0. 0. 0. 0. 0. 0. 0. 0. 2.52525252e-03
      2.52525252e-03 0. 0. 0. 2.52525252e-03 0. 0. 0. 5.05050505e-03 0.
      5.05050505e-03 2.52525252e-03 2.52525252e-03 0. 0. 0.
      5.05050505e-03 0. 0. 0. 0. 0. 0. 0. 0. 0. 0. 0. 0. 0. 0. 0. 0. 0.
      0. 0. 0. 0. 0. 0. 0. 0. 0. 0. 0. 0. 0. 0. 2.52525252e-03 0. 0. 0.
      0. 0. 0. 0. 0. 2.52525252e-03 1.76767670e-02 0. 0. 2.52525252e-03
      0. 0. 2.52525252e-03 2.52525252e-03 0. 0. 2.52525252e-03 0. 0. 0.
      0. 0. 0. 0. 2.52525252e-03 0. 0. 0. 0. 2.52525252e-03 0.
      2.52525252e-03 5.05050505e-03 1.01010101e-02 0. 0. 0. 0.
      2.52525252e-03 5.05050505e-03 0. 0. 0. 2.52525252e-03 0. 0. 0. 0.
      0. 2.52525252e-03 0. 0. 0. 0. 0. 2.52525252e-03 2.52525252e-03 0.
      0. 0. 7.57575780e-03 2.52525252e-03 2.52525252e-03 0. 0. 0. 0. 0.
      0. 0. 2.52525252e-03 0. 2.52525252e-03 0. 0. 7.57575780e-03 0.
      1.26262624e-02 2.52525252e-03 0. 0. 0. 0. 0. 0. 0. 0. 0. 0. 0. 0.
      0. 0. 0. 0. 0. 0. 0. 0. 0. 0. 0. 0. 0. 0. 0. 0. 0. 0. 0. 0. 0. 0.
      0. 0. 0. 2.52525252e-03 0. 0. 0. 0. 0. 0. 0. 0. 5.05050505e-03 0.
      0. 0. 0. 0. 0. 0. 0. 0. 0. 0. 0. 0. 0. 0. 0. 0. 0. 0. 0. 0. 0. 0.
      2.52525252e-03 2.52525252e-03 0. 7.57575780e-03 2.52525252e-03 0.
      0. 2.52525252e-03 0. 2.52525252e-03 0. 0. 5.05050505e-03 0. 0. 0.
      0. 0. 0. 0. 0. 0. 0. 0. 0. 2.52525252e-03 0. 1.26262624e-02
      2.52525252e-03 2.52525252e-03 0. 0. 0. 2.52525252e-03 0. 0. 0.
      5.05050505e-03 0. 2.52525252e-03 0. 0. 0. 0. 0. 0. 0. 0. 0. 0.
      5.05050505e-03 2.52525252e-03 5.05050505e-03 0. 0. 0. 0. 0. 0. 0.
      5.05050505e-03 0. 0. 7.57575780e-03 0. 0. 0. 0. 0. 2.52525252e-03
      0. 0. 0. 5.05050505e-03 0. 2.52525252e-03 0. 0. 0. 0. 0. 0. 0. 0.
      7.57575780e-03 0. 2.52525252e-03 0. 0. 0. 0. 0. 0. 0. 0. 0.
      2.52525252e-03 0. 0. 0. 0. 0. 0. 0. 0. 2.52525252e-03 0. 0.
      2.02020202e-02 2.02020202e-02 0. 0. 0. 0. 0. 0. 0. 7.57575780e-03
      2.52525252e-03 0. 0. 0. 0. 0. 0. 0. 0. 0. 0. 0. 0. 0. 0. 0. 0. 0.
      2.52525252e-03 2.52525252e-03 0. 0. 0. 0. 0. 7.57575780e-03 0.
      2.52525252e-03 2.52525252e-03 0. 0. 0. 0. 0. 0. 2.52525252e-03 0.
      0. 2.52525252e-03 0. 0. 5.05050505e-03 1.26262624e-02 0. 0. 0. 0.
      5.05050505e-03 2.52525252e-03 0. 0. 2.52525252e-03 0.</_>
    <_>
      0. 0. 2.15982716e-03 0. 0. 0. 2.15982716e-03 4.31965431e-03 0. 0.
      0. 4.31965431e-03 0. 8.63930862e-03 0. 0. 0. 0. 4.31965431e-03 0.
      0. 0. 0. 2.15982716e-03 0. 2.15982716e-03 0. 0. 0. 0. 0. 0. 0. 0.
      0. 0. 0. 2.15982716e-03 0. 8.63930862e-03 0. 0. 0. 0. 0.
      2.15982716e-03 0. 0. 0. 0. 0. 0. 0. 2.15982716e-03 6.47948124e-03
      6.47948124e-03 0. 0. 4.31965431e-03 6.47948124e-03 0. 0. 0. 0.
      6.47948124e-03 0. 4.31965431e-03 2.15982716e-03 0. 0.
      2.15982716e-03 8.63930862e-03 2.15982716e-03 4.31965431e-03
      2.15982720e-02 0. 0. 0. 2.15982716e-03 0. 0. 2.15982716e-03 0. 0.
      0. 0. 0. 0. 0. 0. 1.51187899e-02 0. 0. 4.31965431e-03 0. 0. 0. 0.
      0. 0. 2.15982716e-03 0. 0. 0. 0. 2.15982716e-03 0. 2.15982716e-03
      0. 0. 8.63930862e-03 0. 0. 0. 4.31965431e-03 0. 0. 0. 0.
      2.15982716e-03 2.15982716e-03 4.31965431e-03 0. 0. 0.
      8.63930862e-03 0. 0. 0. 0. 0. 0. 2.15982716e-03 0. 0. 0. 0. 0. 0.
      0. 1.07991360e-02 0. 0. 2.15982716e-03 0. 0. 0. 2.15982716e-03 0.
      0. 0. 2.15982716e-03 6.47948124e-03 0. 0. 0. 4.31965431e-03 0. 0.
      2.15982716e-03 2.15982716e-03 0. 0. 2.15982716e-03 0. 0.
      2.15982716e-03 0. 0. 0. 0. 0. 0. 0. 0. 0. 0. 0. 0. 0. 0.
      2.15982716e-03 0. 0. 0. 0. 0. 0. 0. 0. 0. 0. 0. 0. 0. 0.
      2.15982716e-03 0. 0. 0. 0. 2.15982716e-03 0. 0. 0. 0. 0. 0. 0. 0.
      0. 0. 4.31965431e-03 0. 0. 0. 2.15982716e-03 0. 0. 1.29589625e-02
      0. 0. 0. 2.15982716e-03 4.31965431e-03 0. 6.47948124e-03 0. 0.
      4.31965431e-03 0. 0. 0. 6.47948124e-03 0. 0. 0. 2.15982716e-03 0.
      2.15982716e-03 0. 0. 2.15982716e-03 0. 0. 0. 8.63930862e-03 0. 0.
      0. 0. 0. 2.15982716e-03 0. 0. 0. 0. 2.15982716e-03 0. 0. 0.
      2.15982716e-03 0. 0. 0. 0. 0. 0. 0. 0. 2.15982716e-03 0. 0.
      2.15982716e-03 0. 0. 0. 0. 0. 0. 4.31965431e-03 0. 0. 0. 0.
      2.15982716e-03 0. 0. 6.47948124e-03 0. 0. 2.15982716e-03 0. 0. 0.
      0. 4.31965431e-03 0. 4.31965431e-03 0. 0. 0. 0. 0. 0. 0. 0.
      4.31965431e-03 0. 0. 2.15982716e-03 2.15982716e-03 0. 0. 0. 0. 0.
      0. 2.15982716e-03 0. 0. 0. 0. 2.15982716e-03 0. 4.31965431e-03 0.
      4.31965431e-03 2.15982716e-03 0. 2.15982716e-03 0. 4.31965431e-03
      0. 0. 2.15982716e-03 0. 0. 0. 0. 0. 0. 2.15982716e-03 0. 0. 0. 0.
      0. 0. 0. 8.63930862e-03 6.47948124e-03 0. 0. 0. 0. 0. 0. 0. 0. 0.
      0. 0. 0. 2.15982716e-03 0. 0. 2.15982716e-03 0. 0. 0. 0. 0.
      2.15982716e-03 0. 2.15982716e-03 0. 0. 0. 0. 2.15982716e-03 0. 0.
      0. 0. 2.15982716e-03 0. 0. 2.15982716e-03 0. 0. 0. 0. 0. 0. 0.
      2.15982716e-03 0. 0. 4.31965431e-03 0. 2.15982716e-03 0. 0. 0. 0.
      4.31965431e-03 0. 0. 2.15982716e-03 0. 0. 1.07991360e-02 0. 0. 0.
      0. 0. 0. 0. 4.31965431e-03 0. 0. 0. 0. 0. 2.15982716e-03 0.
      6.47948124e-03 0. 0. 0. 0. 2.15982716e-03 6.47948124e-03
      2.15982716e-03 2.15982716e-03 2.15982716e-03 2.15982716e-03 0. 0.
      2.15982716e-03 0. 4.31965431e-03 0. 0. 0. 0. 0. 0. 0. 0. 0. 0. 0.
      0. 0. 2.15982716e-03 2.15982716e-03 2.15982716e-03 0. 0.
      1.29589625e-02 0. 2.15982716e-03 0. 0. 2.15982716e-03 0. 0. 0. 0.
      0. 0. 2.15982716e-03 2.15982716e-03 2.15982716e-03 0. 0. 0.
      2.15982716e-03 0. 0. 0. 0. 0. 0. 0. 6.47948124e-03 2.15982716e-03
      0. 0. 0. 2.15982716e-03 0. 0. 0. 0. 2.15982716e-03 0. 0. 0. 0. 0.
      0. 2.15982716e-03 0. 0. 0. 0. 1.07991360e-02 0. 0. 8.63930862e-03
      0. 4.31965431e-03 0. 0. 0. 0. 0. 0. 0. 0. 2.15982716e-03 0. 0.
      2.15982716e-03 0. 0. 0. 0. 0. 0. 2.15982716e-03 0. 0. 0. 0. 0. 0.
      0. 0. 0. 0. 2.15982716e-03 0. 0. 0. 6.47948124e-03 0. 0. 0.
      2.15982716e-03 0. 0. 1.29589625e-02 0. 8.63930862e-03
      2.15982716e-03 0. 0. 0. 0. 4.31965431e-03 0. 0. 0. 2.15982716e-03
      0. 0. 0. 0. 0. 0. 0. 0. 2.15982716e-03 0. 0. 0. 0. 0. 0. 0.
      2.15982716e-03 2.15982716e-03 2.15982716e-03 2.15982716e-03 0.
      2.15982716e-03 0. 4.31965431e-03 2.15982716e-03 2.15982716e-03 0.
      0. 0. 0. 0. 0. 0. 0. 0. 0. 0. 0. 0. 0. 0. 0. 8.63930862e-03
      2.15982716e-03 0. 0. 0. 6.47948124e-03 0. 0. 0. 0. 0. 0.
      2.15982716e-03 0. 0. 0. 0. 0. 0. 0. 0. 0. 0. 0. 0. 0. 0. 0. 0.
      6.47948124e-03 0. 0. 0. 8.63930862e-03 2.15982716e-03 0. 0. 0. 0.
      0. 0. 0. 0. 0. 0. 0. 0. 0. 0. 0. 0. 0. 0. 8.63930862e-03
      2.15982716e-03 0. 0. 0. 0. 2.15982716e-03 0. 0. 0. 0. 0. 0. 0. 0.
      2.15982716e-03 0. 0. 0. 2.15982716e-03 0. 0. 2.15982716e-03 0. 0.
      0. 0. 0. 0. 4.31965431e-03 0. 2.15982716e-03 0. 0. 2.15982716e-03
      0. 0. 0. 0. 0. 0. 4.31965431e-03 0. 2.15982716e-03 0.
      2.15982716e-03 0. 0. 0. 0. 0. 2.15982716e-03 2.15982716e-03 0. 0.
      0. 0. 2.15982716e-03 0. 0. 0. 0. 0. 0. 4.31965431e-03
      2.15982716e-03 0. 2.15982716e-03 0. 0. 0. 2.15982716e-03 0. 0. 0.
      2.15982716e-03 2.59179249e-02 0. 2.15982716e-03 0. 0. 0. 0. 0. 0.
      0. 0. 0. 0. 0. 0. 4.31965431e-03 0. 2.15982716e-03 4.31965431e-03
      4.31965431e-03 4.31965431e-03 0. 2.15982716e-03 0. 0. 0. 0. 0. 0.
      0. 0. 0. 0. 2.15982716e-03 2.15982716e-03 4.31965431e-03 0. 0. 0.
      0. 2.15982716e-03 0. 0. 2.15982716e-03 2.15982716e-03 0.
      2.15982716e-03 0. 2.15982716e-03 2.15982716e-03 0. 0. 0. 0. 0. 0.
      0. 0. 0. 0. 0. 0. 4.31965431e-03 0. 2.15982716e-03 2.15982716e-03
      0. 0. 0. 0. 0. 0. 0. 0. 0. 0. 0. 0. 0. 0. 0. 8.63930862e-03 0. 0.
      0. 0. 0. 0. 0. 0. 2.15982716e-03 2.15982716e-03 0. 0.
      2.15982716e-03 0. 4.31965431e-03 0. 0. 0. 0. 0. 0. 4.31965431e-03
      0. 0. 6.47948124e-03 4.31965431e-03 0. 0. 0. 0. 0. 0. 0. 0.
      8.63930862e-03 0. 0. 0. 0. 0. 2.15982716e-03 0. 0. 2.15982716e-03
      0. 0. 0. 0. 0. 0. 0. 0. 0. 0. 0. 2.15982716e-03 0. 6.47948124e-03
      0. 0. 0. 4.31965431e-03 0. 0. 0. 2.15982716e-03 0. 2.15982716e-03
      0. 2.15982716e-03 2.15982716e-03 0. 2.15982716e-03 0. 0. 0.
      2.15982716e-03 0. 0. 0. 6.47948124e-03 0. 0. 0. 0. 0.
      8.63930862e-03 0. 0. 0. 0. 8.63930862e-03 0. 2.15982716e-03 0. 0.
      0. 0. 0. 0. 2.15982716e-03 2.15982716e-03 0. 8.63930862e-03 0. 0.
      0. 2.15982716e-03 0. 0. 0. 0. 0. 4.31965431e-03 2.15982716e-03
      3.67170610e-02 4.31965431e-03 0. 0. 0. 2.15982716e-03 0. 0. 0.
      8.63930862e-03 2.15982716e-03 0. 0. 2.15982716e-03 0. 0. 0.
      2.15982716e-03 0. 0. 0. 0. 0. 0. 6.47948124e-03 6.47948124e-03 0.
      0. 2.15982716e-03 4.31965431e-03 0. 0. 0. 0. 0. 6.47948124e-03
      4.31965431e-03 2.15982716e-03 0. 0. 6.47948124e-03 2.15982716e-03
      0. 2.15982716e-03 0. 2.15982716e-03 0. 0. 2.15982716e-03 0.
      2.15982716e-03 2.15982716e-03 2.15982716e-03 2.15982716e-03 0. 0.
      4.31965431e-03 0. 0. 0. 0. 0. 0.</_>
    <_>
      0. 2.67379684e-03 0. 0. 0. 0. 0. 2.67379684e-03 0. 0. 0. 0. 0. 0.
      2.67379684e-03 2.67379684e-03 2.67379684e-03 0. 0. 2.67379684e-03
      0. 5.34759369e-03 0. 0. 0. 0. 2.67379684e-03 0. 2.67379684e-03 0.
      2.67379684e-03 0. 2.67379684e-03 0. 0. 0. 0. 0. 5.34759369e-03 0.
      2.67379684e-03 0. 0. 0. 0. 0. 2.67379684e-03 0. 0. 0. 0. 0. 0.
      5.34759369e-03 0. 8.02139007e-03 0. 0. 0. 2.67379684e-03 0. 0. 0.
      0. 0. 0. 2.67379684e-03 2.67379684e-03 0. 0. 2.67379684e-03
      2.67379684e-03 5.34759369e-03 8.02139007e-03 1.60427801e-02 0.
      2.67379684e-03 0. 0. 0. 5.34759369e-03 1.60427801e-02 0.
      2.67379684e-03 0. 0. 5.34759369e-03 0. 0. 0. 8.02139007e-03 0. 0.
      0. 0. 0. 0. 0. 0. 0. 0. 0. 0. 0. 0. 2.67379684e-03 0. 0.
      2.67379684e-03 0. 5.34759369e-03 0. 0. 0. 2.67379684e-03 0. 0. 0.
      0. 0. 0. 0. 0. 0. 0. 8.02139007e-03 0. 8.02139007e-03 0. 0. 0. 0.
      0. 0. 0. 2.67379684e-03 0. 0. 0. 5.34759369e-03 8.02139007e-03 0.
      0. 0. 5.34759369e-03 0. 0. 0. 0. 2.67379684e-03 0. 0.
      5.34759369e-03 2.67379684e-03 0. 0. 0. 2.67379684e-03 0. 0. 0. 0.
      0. 0. 0. 0. 0. 0. 2.67379684e-03 0. 0. 8.02139007e-03 0. 0. 0. 0.
      0. 0. 0. 0. 0. 0. 0. 0. 0. 0. 0. 0. 0. 0. 0. 0. 0. 0. 0. 0.
      2.67379684e-03 5.34759369e-03 2.67379684e-03 0. 0. 0. 0. 0. 0. 0.
      0. 0. 0. 0. 0. 0. 0. 0. 0. 0. 0. 0. 0. 2.67379684e-03 0. 0. 0. 0.
      5.34759369e-03 2.67379684e-03 0. 0. 0. 5.34759369e-03
      1.33689847e-02 0. 0. 0. 2.67379684e-03 0. 0. 5.34759369e-03 0. 0.
      0. 0. 2.67379684e-03 0. 0. 0. 0. 0. 0. 0. 0. 0. 0. 0. 0. 0. 0. 0.
      5.34759369e-03 0. 2.67379684e-03 0. 0. 0. 0. 0. 0. 0. 0. 0. 0. 0.
      0. 2.67379684e-03 0. 0. 0. 0. 2.67379684e-03 0. 5.34759369e-03 0.
      0. 0. 0. 0. 0. 0. 0. 0. 2.67379684e-03 0. 0. 0. 2.67379684e-03 0.
      0. 0. 5.34759369e-03 0. 2.67379684e-03 0. 2.67379684e-03 0. 0. 0.
      0. 0. 0. 0. 0. 2.67379684e-03 0. 0. 0. 0. 0. 5.34759369e-03 0. 0.
      0. 0. 0. 0. 0. 0. 0. 5.34759369e-03 8.02139007e-03 0.
      2.67379684e-03 0. 1.60427801e-02 0. 0. 0. 0. 0. 0. 0. 0. 0.
      2.67379684e-03 0. 0. 2.67379684e-03 0. 0. 0. 0. 0. 0.
      2.67379684e-03 2.67379684e-03 0. 2.67379684e-03 0. 0. 0. 0. 0. 0.
      0. 0. 0. 0. 1.06951874e-02 0. 0. 0. 0. 0. 0. 0. 0. 0. 0. 0.
      2.67379684e-03 2.67379684e-03 0. 0. 0. 0. 0. 2.67379684e-03 0. 0.
      0. 0. 2.67379684e-03 0. 0. 0. 0. 0. 0. 0. 0. 2.67379684e-03 0.
      8.02139007e-03 0. 0. 0. 0. 2.67379684e-03 0. 2.67379684e-03 0.
      2.67379684e-03 0. 8.02139007e-03 0. 0. 0. 5.34759369e-03 0. 0. 0.
      1.06951874e-02 0. 0. 2.67379684e-03 0. 0. 0. 0. 0. 0. 0. 0. 0.
      2.67379684e-03 5.34759369e-03 0. 2.67379684e-03 0. 2.67379684e-03
      2.67379684e-03 0. 0. 0. 2.67379684e-03 0. 0. 0. 0. 0. 0.
      2.67379684e-03 0. 0. 0. 5.34759369e-03 0. 0. 2.67379684e-03 0. 0.
      0. 0. 1.33689847e-02 8.02139007e-03 0. 0. 0. 1.87165774e-02 0. 0.
      2.67379684e-03 0. 0. 2.67379684e-03 0. 2.67379684e-03 0. 0. 0. 0.
      0. 0. 0. 0. 0. 0. 2.67379684e-03 0. 0. 8.02139007e-03 0. 0. 0. 0.
      2.67379684e-03 0. 5.34759369e-03 0. 0. 0. 0. 0. 0. 0. 0.
      8.02139007e-03 0. 0. 0. 0. 0. 0. 0. 2.67379684e-03 0. 0.
      1.06951874e-02 0. 0. 0. 0. 2.67379684e-03 0. 0. 0. 0. 0. 0. 0. 0.
      0. 2.67379684e-03 0. 0. 0. 0. 2.67379684e-03 0. 0. 0. 0. 0. 0. 0.
      0. 0. 2.67379684e-03 0. 0. 8.02139007e-03 0. 0. 0. 0. 0. 0.
      2.67379684e-03 0. 1.06951874e-02 0. 0. 0. 0. 0. 2.67379684e-03 0.
      0. 0. 0. 0. 0. 0. 0. 0. 0. 0. 0. 2.67379684e-03 0. 0.
      2.67379684e-03 0. 0. 0. 0. 2.67379684e-03 2.67379684e-03 0. 0. 0.
      5.34759369e-03 2.67379684e-03 0. 0. 2.67379684e-03 0. 0. 0. 0. 0.
      2.67379684e-03 0. 0. 0. 0. 0. 0. 0. 0. 0. 0. 2.67379684e-03 0. 0.
      0. 0. 0. 0. 0. 0. 0. 0. 0. 2.67379684e-03 0. 0. 0. 0. 0.
      8.02139007e-03 0. 2.67379684e-03 0. 0. 0. 0. 2.67379684e-03 0.
      8.02139007e-03 0. 1.60427801e-02 0. 0. 0. 0. 0. 0. 0. 0. 0. 0. 0.
      0. 0. 0. 0. 0. 2.67379684e-03 0. 0. 0. 0. 0. 0. 2.67379684e-03
      2.67379684e-03 0. 0. 0. 0. 2.67379684e-03 0. 0. 0. 0. 0. 0. 0. 0.
      0. 0. 5.34759369e-03 0. 2.67379684e-03 0. 0. 2.67379684e-03 0.
      2.67379684e-03 0. 0. 2.67379684e-03 5.34759369e-03 8.02139007e-03
      0. 2.67379684e-03 0. 0. 0. 0. 0. 0. 0. 5.34759369e-03 0. 0. 0. 0.
      0. 0. 0. 0. 5.34759369e-03 5.34759369e-03 0. 0. 0. 0. 0. 0. 0. 0.
      0. 0. 0. 0. 0. 0. 0. 0. 0. 0. 0. 0. 0. 2.67379684e-03 0. 0. 0.
      5.34759369e-03 5.34759369e-03 0. 0. 0. 2.67379684e-03
      2.67379684e-03 0. 0. 0. 0. 2.67379684e-03 0. 2.67379684e-03
      2.67379684e-03 0. 1.33689847e-02 0. 0. 0. 0. 0. 0. 0. 0. 0. 0. 0.
      0. 0. 0. 0. 0. 2.67379684e-03 0. 0. 0. 0. 0. 0. 0. 0. 0. 0. 0. 0.
      0. 5.34759369e-03 0. 0. 0. 0. 0. 0. 0. 0. 2.67379684e-03 0. 0. 0.
      0. 0. 5.34759369e-03 5.34759369e-03 0. 0. 0. 2.67379684e-03 0. 0.
      0. 0. 0. 0. 0. 0. 0. 0. 0. 0. 0. 0. 8.02139007e-03 0. 0. 0.
      2.67379684e-03 5.34759369e-03 0. 0. 0. 0. 0. 8.02139007e-03 0. 0.
      0. 2.67379684e-03 2.67379684e-03 2.67379684e-03 0. 0. 0. 0. 0. 0.
      0. 2.67379684e-03 0. 0. 2.67379684e-03 0. 0. 0. 2.67379684e-03 0.
      0. 0. 0. 0. 0. 0. 0. 0. 0. 0. 0. 1.60427801e-02 0. 0. 0. 0. 0.
      1.06951874e-02 0. 0. 0. 0. 2.67379684e-03 0. 2.67379684e-03 0. 0.
      2.67379684e-03 0. 0. 0. 2.67379684e-03 8.02139007e-03
      2.67379684e-03 2.67379684e-03 0. 0. 0. 0. 2.67379684e-03 0. 0. 0.
      0. 5.34759369e-03 2.67379684e-03 0. 0. 0. 0. 0. 0. 2.67379684e-03
      0. 1.06951874e-02 0. 2.67379684e-03 0. 8.02139007e-03 0.
      5.34759369e-03 0. 0. 0. 0. 0. 0. 0. 0. 0. 0. 0. 0. 0. 0. 0. 0. 0.
      0. 0. 0. 0. 5.34759369e-03 1.60427801e-02 0. 0. 0. 1.06951874e-02
      0. 0. 0. 2.67379684e-03 0. 0. 2.67379684e-03 0. 0. 0. 0.
      2.67379684e-03 0. 0. 0. 0. 0. 0. 5.34759369e-03 0. 0. 0. 0. 0. 0.
      0. 0. 0. 0. 2.13903747e-02 2.67379684e-03 0. 0. 0. 1.87165774e-02
      0. 0. 0. 0. 0. 0. 0. 2.67379684e-03 0. 0. 5.34759369e-03
      2.67379684e-03 0. 0. 0. 0. 0. 0. 0. 0. 5.34759369e-03
      2.67379684e-03</_>
    <_>
      0. 2.39234441e-03 0. 0. 0. 0. 0. 0. 0. 0. 0. 0. 0. 2.39234441e-03
      0. 0. 0. 2.39234441e-03 0. 2.39234441e-03 0. 2.39234441e-03 0. 0.
      2.39234441e-03 7.17703346e-03 2.39234441e-03 0. 2.39234441e-03
      2.39234441e-03 0. 0. 4.78468882e-03 0. 0. 0. 0. 4.78468882e-03
      9.56937764e-03 9.56937764e-03 0. 0. 0. 0. 0. 0. 0. 0. 0. 0.
      2.39234441e-03 0. 0. 0. 4.78468882e-03 2.39234441e-03
      2.39234441e-03 0. 0. 1.19617218e-02 2.39234441e-03 0. 0. 0. 0. 0.
      0. 0. 2.39234441e-03 0. 0. 0. 2.39234441e-03 2.39234441e-03
      1.19617218e-02 0. 0. 0. 0. 0. 2.39234441e-03 7.17703346e-03 0. 0.
      0. 0. 2.39234441e-03 0. 2.39234441e-03 0. 1.67464111e-02 0. 0. 0.
      2.39234441e-03 0. 0. 0. 0. 0. 0. 0. 0. 0. 0. 0. 0. 4.78468882e-03
      0. 0. 2.39234441e-03 0. 0. 2.39234441e-03 7.17703346e-03 0. 0. 0.
      0. 0. 2.39234441e-03 7.17703346e-03 0. 2.39234441e-03 0.
      7.17703346e-03 0. 4.78468882e-03 0. 2.39234441e-03 0. 0. 0. 0. 0.
      0. 0. 0. 0. 0. 1.43540669e-02 0. 0. 7.17703346e-03 7.17703346e-03
      0. 0. 0. 0. 0. 0. 4.78468882e-03 0. 0. 0. 0. 4.78468882e-03 0. 0.
      0. 0. 0. 0. 0. 0. 0. 0. 0. 0. 0. 0. 2.39234441e-03 0. 0. 0. 0.
      2.39234441e-03 0. 0. 0. 0. 0. 0. 4.78468882e-03 0. 0. 0. 0. 0. 0.
      0. 0. 2.39234441e-03 0. 0. 2.39234441e-03 2.39234441e-03 0.
      2.39234441e-03 0. 0. 0. 0. 0. 2.39234441e-03 0. 0. 0. 0.
      4.78468882e-03 0. 0. 0. 0. 0. 0. 0. 0. 2.39234441e-03 0. 0. 0. 0.
      0. 2.39234441e-03 4.78468882e-03 0. 0. 0. 2.39234441e-03
      2.39234441e-03 0. 0. 2.39234441e-03 0. 0. 0. 0. 0. 1.43540669e-02
      4.78468882e-03 2.39234441e-03 2.39234441e-03 0. 0. 0.
      2.39234441e-03 0. 0. 0. 0. 2.39234441e-03 4.78468882e-03 0. 0. 0.
      0. 0. 2.39234441e-03 2.39234441e-03 0. 0. 0. 0. 0. 0. 0. 0. 0. 0.
      0. 0. 0. 1.19617218e-02 0. 0. 0. 0. 2.39234441e-03 0. 0. 0. 0. 0.
      0. 0. 0. 0. 2.39234441e-03 0. 2.39234441e-03 0. 0. 0. 0. 0.
      2.39234441e-03 0. 4.78468882e-03 0. 0. 0. 0. 0. 0. 0. 0.
      4.78468882e-03 0. 2.39234441e-03 2.39234441e-03 0. 0. 0. 0. 0. 0.
      2.39234441e-03 0. 0. 2.39234441e-03 0. 2.39234441e-03
      2.39234441e-03 0. 4.78468882e-03 0. 0. 0. 0. 0. 0. 9.56937764e-03
      0. 0. 0. 0. 0. 0. 0. 0. 0. 0. 0. 0. 0. 0. 0. 0. 2.39234441e-03
      4.78468882e-03 0. 2.39234441e-03 2.39234441e-03 0. 4.78468882e-03
      4.78468882e-03 0. 0. 0. 0. 0. 0. 0. 2.39234441e-03 2.39234441e-03
      2.39234441e-03 4.78468882e-03 0. 2.39234441e-03 0. 0. 0. 0. 0.
      2.39234441e-03 0. 4.78468882e-03 0. 0. 0. 0. 0. 0. 9.56937764e-03
      0. 0. 0. 4.78468882e-03 0. 0. 0. 0. 4.78468882e-03 0. 0. 0. 0. 0.
      0. 0. 7.17703346e-03 0. 0. 0. 0. 0. 0. 0. 0. 2.39234441e-03 0.
      1.19617218e-02 0. 0. 0. 4.78468882e-03 0. 0. 0. 0. 0. 0. 0. 0. 0.
      0. 4.78468882e-03 0. 0. 0. 0. 0. 2.39234441e-03 0. 7.17703346e-03
      0. 0. 0. 0. 0. 0. 0. 0. 0. 2.39234441e-03 4.78468882e-03
      2.39234441e-03 0. 0. 0. 0. 0. 0. 4.78468882e-03 2.39234441e-03 0.
      4.78468882e-03 0. 9.56937764e-03 0. 2.39234441e-03 7.17703346e-03
      9.56937764e-03 0. 0. 0. 2.39234441e-03 0. 0. 0. 0. 0. 0. 0.
      2.39234441e-03 0. 0. 0. 0. 2.39234441e-03 0. 2.39234441e-03 0. 0.
      0. 4.78468882e-03 0. 2.39234441e-03 7.17703346e-03 0. 0. 0. 0. 0.
      0. 0. 0. 2.39234441e-03 0. 2.39234441e-03 0. 7.17703346e-03 0. 0.
      0. 0. 0. 0. 2.39234441e-03 0. 0. 0. 4.78468882e-03 0.
      4.78468882e-03 0. 0. 0. 0. 0. 2.39234441e-03 0. 0. 2.39234441e-03
      2.39234441e-03 2.39234441e-03 0. 0. 0. 0. 0. 0. 0. 0.
      7.17703346e-03 0. 0. 0. 0. 7.17703346e-03 0. 0. 0. 0. 0. 0.
      2.39234441e-03 0. 2.39234441e-03 0. 7.17703346e-03 0. 0. 0. 0. 0.
