<?xml version="1.0"?>
<opencv_storage>
<opencv_ml_svm>
  <format>3</format>
  <svmType>C_SVC</svmType>
  <kernel>
    <type>LINEAR</type></kernel>
  <C>1.</C>
  <term_criteria><iterations>100</iterations></term_criteria>
  <var_count>1000</var_count>
  <class_count>2</class_count>
  <class_labels type_id="opencv-matrix">
    <rows>2</rows>
    <cols>1</cols>
    <dt>i</dt>
    <data>
      -1 1</data></class_labels>
  <sv_total>1</sv_total>
  <support_vectors>
    <_>
      8.18377547e-03 1.72638483e-02 1.76160187e-02 -1.40094915e-02
      -2.84696766e-03 8.16882402e-03 7.32869133e-02 5.98367490e-03
      2.49537099e-02 3.90087091e-03 -3.58034447e-02 -2.59781140e-04
      -5.94199914e-03 2.96643190e-02 -2.72307196e-03 -4.21725139e-02
      3.64416912e-02 2.29608342e-02 8.24598037e-03 1.62142832e-02
      3.81346093e-03 -6.31236052e-03 -1.69728398e-01 -4.15863516e-03
      -3.72695853e-03 3.24047245e-02 3.44981113e-03 2.87687406e-02
      3.35898548e-02 5.88978082e-03 1.62481517e-02 2.19519818e-04
      2.49020476e-02 1.49850836e-02 5.37065137e-03 7.09854765e-03
      1.05694542e-02 -4.64871563e-02 -4.43910323e-02 -5.06718531e-02
      2.90259048e-02 1.14134687e-03 8.54104292e-03 0. -1.79556909e-03
      1.38557451e-02 2.05338816e-03 -3.81491613e-03 1.17814196e-02
      4.54848725e-03 2.32577953e-03 1.55381011e-02 -4.58515137e-02
      -3.31242871e-03 2.63274051e-02 4.47314382e-02 1.88805461e-02
      3.78727657e-03 2.41122469e-02 4.07768115e-02 1.14874612e-03
      -1.31655792e-02 8.75159050e-04 2.05065217e-02 2.40535513e-02
      -3.21335942e-02 1.56297199e-02 3.07575078e-03 1.71866175e-02
      -6.79997308e-03 3.05795646e-03 2.10460145e-02 -2.57680546e-02
      -2.65797377e-02 2.57619601e-02 3.81090725e-03 -1.18754327e-03
      3.13083438e-04 -1.90378772e-03 8.21303017e-03 2.64869770e-03
      -1.57752484e-02 -6.88785966e-03 5.83831333e-02 7.08160782e-03 0.
      2.05693431e-02 6.46120589e-03 -6.08848082e-03 -1.79359280e-02
      6.08940795e-02 -1.07164066e-02 8.44232645e-03 2.62216069e-02
      5.79251871e-02 1.15267644e-02 -2.00000009e-03 2.74510076e-03
      1.48997223e-02 6.44764379e-02 2.37605870e-02 -7.35803545e-02
      6.65975828e-03 9.83686838e-03 7.95389060e-03 4.96346550e-03
      1.39344465e-02 -1.40038645e-02 6.16138149e-03 6.16594311e-03
      2.76303012e-02 7.85345305e-03 4.75301556e-02 -5.90994768e-03
      3.76105383e-02 1.34815434e-02 1.08313374e-02 8.16019904e-03
      3.62638873e-03 5.24582863e-02 2.68115336e-03 -5.69713973e-02
      6.25649955e-06 3.95406922e-03 1.14813065e-02 -1.04882838e-02
      2.79033883e-03 1.41699882e-02 1.29382703e-02 -3.40247639e-02
      5.83354151e-03 -2.59142127e-02 -1.47668958e-01 4.79139946e-02
      3.91443772e-03 1.36222122e-02 3.67543590e-03 -2.23429827e-03
      -9.58107691e-03 -4.25859131e-02 3.47462855e-02 7.05191400e-04
      9.09747032e-04 5.02619445e-02 1.26882754e-02 3.61676095e-03
      1.45937968e-02 -2.24131607e-02 0. 4.86820238e-03 -2.33779661e-03
      2.58201314e-03 6.82808012e-02 -1.90939471e-01 -2.42571859e-03
      -4.84190462e-03 -2.17362729e-04 1.47495465e-02 1.44512265e-03
      1.09499032e-02 3.07659036e-03 -1.35757506e-03 2.58369148e-02
      4.04530615e-02 1.29991965e-02 1.88500155e-04 3.28798071e-02
      -1.95603725e-03 6.62857201e-03 4.84363269e-03 6.75743446e-04
      1.50517756e-02 4.36484627e-03 2.16223039e-02 1.91181805e-02
      4.01742756e-03 2.47541834e-02 -7.13886507e-03 -3.09746992e-03
      1.71433166e-02 4.43937592e-02 2.08758730e-02 3.36470874e-03
      -1.29422331e-02 5.73861471e-04 -1.91864267e-03 -3.72957182e-03
      1.99356023e-02 1.25592598e-03 9.23964381e-03 4.09634877e-03
      -1.53220305e-02 1.99997961e-03 -3.28574097e-03 -4.20486182e-03
      6.37806812e-03 -2.47605518e-02 -3.86475399e-03 1.30292419e-02
      -6.73457573e-04 4.42138463e-02 1.04227941e-02 -5.27996290e-03
      5.89783257e-03 3.33208102e-03 1.92145898e-03 9.01464373e-03
      -2.76942458e-02 -3.35972128e-03 -1.12527549e-01 -2.20662523e-02
      2.35849060e-03 -8.49710923e-05 1.10009371e-03 6.49125921e-03
      2.97441725e-02 1.05504002e-02 5.08737750e-04 1.47379497e-02
      -5.85101871e-03 -2.31905282e-03 -1.47924444e-03 7.14371726e-03
      -3.71595137e-02 3.37316189e-03 -3.49752838e-03 6.77268654e-02
      2.11051293e-03 3.21359345e-04 1.99922733e-02 -2.45472677e-02
      2.32997304e-03 9.03815404e-03 3.21375653e-02 -2.69805249e-02
      1.59545094e-02 4.88679390e-03 2.97561791e-02 3.68292183e-02
      5.09180613e-02 6.58390438e-03 2.85565457e-03 6.33518957e-03
      -3.79146659e-03 -6.41252473e-03 -3.14282603e-04 1.55312540e-02
      -1.00723710e-02 2.64077466e-02 4.86630015e-03 6.55175326e-03
      1.78420497e-03 -1.13421725e-02 1.23944404e-02 1.93526677e-03
      -1.15430579e-02 4.32619313e-03 -2.11683270e-02 -5.48658520e-03
      -4.21776902e-03 2.95402668e-03 7.09942449e-03 3.89150903e-03
      2.03503668e-03 5.12152154e-04 -2.87721050e-03 6.28366927e-03
      1.30139105e-02 1.42835267e-02 9.83871752e-04 -1.46901026e-01
      2.56522428e-02 1.70999160e-03 3.72655839e-02 1.53832631e-02
      2.23476961e-02 4.79143709e-02 0. 2.27383953e-02 3.12566757e-02
      -1.77205294e-01 -1.57432014e-03 2.42140912e-03 3.74667011e-02
      7.25877099e-03 -5.44329220e-03 2.27930001e-03 -1.42049091e-03
      -6.61722198e-02 -1.83054209e-02 -3.99791822e-03 -4.11785324e-04
      5.81203820e-03 -2.78750318e-04 1.12747389e-03 3.61909159e-03
      5.38317999e-03 5.11884736e-03 1.25720846e-02 2.23713648e-03
      -4.13697632e-03 -4.88980161e-03 9.90863983e-03 2.51212413e-03
      -1.53123010e-02 2.02839752e-03 -3.06748459e-03 -7.03670084e-02
      3.97635764e-03 5.58217242e-03 1.50635457e-02 -3.11909430e-02
      1.13747595e-02 3.64383822e-03 1.39025087e-02 4.78738211e-02
      6.98882621e-03 2.31225807e-02 3.46801691e-02 8.15984604e-05
      1.23253977e-02 1.59330945e-02 -4.57002316e-04 2.10084044e-03
      6.75679184e-03 -7.66537935e-02 5.90177719e-03 7.14036748e-02
      1.18333781e-02 9.88513418e-03 4.02098522e-02 8.29305127e-03
      -8.90784562e-02 0. 8.85368418e-03 -5.31756319e-03 1.14910724e-02
      5.39753307e-03 1.91225689e-02 -1.84602067e-01 3.85207962e-03
      9.88329295e-03 2.72416486e-03 1.60013717e-02 -2.60907728e-02
      1.24509130e-02 -3.26604320e-04 -2.30752514e-03 -2.88805086e-03
      1.03291515e-02 5.07443137e-02 -1.06089041e-02 8.68141768e-04
      4.52792970e-03 -8.55066627e-03 -1.38697671e-02 -1.62214953e-02
      3.28747556e-02 1.03001413e-03 -7.24281091e-03 1.43592004e-02
      1.99868865e-02 3.08723585e-03 -8.36088229e-03 2.57311109e-03
      -8.54298472e-04 -2.83419430e-01 6.24483489e-02 4.21091216e-03
      2.71589053e-03 2.10084044e-03 -2.35664239e-03 -1.02107180e-03
      -2.51484681e-02 2.24719103e-03 1.46795353e-02 -7.00248033e-03
      3.39020006e-02 -1.29677840e-02 1.78235956e-02 -1.36857538e-03
      3.53675801e-03 4.40070126e-03 -6.04778063e-03 1.52193254e-03
      1.04967533e-02 2.44082864e-02 -5.06748445e-03 6.39878633e-03
      8.10499303e-03 9.62863863e-03 0. -2.45006904e-01 8.61137640e-03
      -6.58793598e-02 4.03420301e-03 9.38105490e-03 -1.17506180e-02
      -1.71770751e-02 1.48856854e-02 -6.09756075e-03 -1.04401819e-01
      -1.14727085e-02 -1.42902760e-02 2.27313093e-03 3.68346204e-03
      1.78971980e-02 -4.48664883e-03 8.46299622e-03 9.87134036e-03
      9.51695163e-03 -9.66992602e-02 -5.55284768e-02 -2.63370946e-03
      -3.43066570e-03 -7.32417335e-04 -6.78083533e-03 5.14415605e-03
      2.99534388e-03 -9.22478794e-04 7.43000656e-02 -1.51753603e-02
      -3.79135105e-04 1.68270916e-02 -2.19216873e-03 1.56875253e-02
      2.04198398e-02 -3.56416032e-03 -1.15287013e-03 -1.74310306e-04 0.
      -1.89242922e-02 4.24980186e-02 7.10456632e-03 -1.65832099e-02
      2.26140246e-02 1.16706146e-02 3.61476652e-03 3.09750740e-03
      2.81209387e-02 -7.00766407e-03 2.85392767e-03 -1.67365000e-02
      -3.07401884e-02 6.42682007e-03 2.20117196e-02 8.42013210e-03
      1.46704065e-02 -1.81149994e-03 -1.09632805e-04 2.34209709e-02
      -3.54534434e-03 9.02187545e-04 1.58191961e-03 -1.45089598e-02
      2.37766951e-02 1.27662934e-04 1.80738401e-02 8.81160423e-03
      -1.98506154e-02 3.49003589e-03 5.16383909e-03 -2.99675968e-02
      1.00739952e-02 -1.50928758e-02 5.15076751e-03 5.60894003e-03
      7.62768090e-02 -6.45112526e-03 6.61875680e-03 -8.13783612e-03
      1.71016739e-03 2.36666389e-02 1.19926902e-02 1.00576198e-02
      1.36006037e-02 5.62778441e-04 2.16919743e-03 2.69776117e-03
      3.08340229e-03 3.35246325e-02 -8.66905879e-03 5.93691273e-03
      -1.02360891e-02 3.05719823e-02 4.98950202e-03 9.18186456e-03
      -1.59863271e-02 -1.53358616e-02 -8.67608935e-02 1.96736250e-02
      -2.13950849e-03 3.60019319e-02 4.21531722e-02 4.45925118e-03
      -5.79556031e-03 2.81323977e-02 1.12295840e-02 -7.92481452e-02
      8.11866578e-03 -1.63883101e-02 0. 1.02102906e-02 -3.26438621e-03
      -6.32018410e-03 9.88809392e-03 6.38039876e-03 -4.54545440e-03
      1.75257344e-02 -8.63894541e-03 -3.64674591e-02 -3.62495729e-03 0.
      2.65639741e-02 7.52815697e-03 1.55744106e-02 -1.46910583e-03
      8.27878620e-03 1.33655285e-02 2.77681858e-03 -4.96418960e-03
      9.76191368e-03 8.12431145e-03 -9.37100779e-03 -1.22954221e-02
      6.18303940e-03 -3.58829312e-02 3.71016748e-03 -2.18543425e-01
      2.35919748e-03 2.02645059e-03 1.56633761e-02 -7.73612468e-04
      -2.96992483e-03 -6.02619293e-05 -9.94054321e-03 4.43262309e-02
      4.19331789e-02 -2.96339802e-02 -3.80935855e-02 -2.41363272e-01
      7.80251576e-03 -6.03846973e-03 7.45591568e-03 6.97577125e-05
      3.03676184e-02 2.33368557e-02 -2.33328273e-03 3.79722624e-04
      -1.82010867e-02 3.22969980e-03 2.24194340e-02 -5.38231293e-03
      -1.89136399e-03 5.96712576e-04 3.91639862e-03 -5.63477129e-02
      5.13374340e-03 -3.53410677e-03 2.86877621e-03 7.76366284e-03
      -1.31865039e-01 7.30330183e-04 -1.95988994e-02 2.19828263e-02
      -4.20153374e-04 -6.80640014e-03 2.13730359e-03 -9.66820121e-03
      2.35667708e-03 6.61492348e-03 -5.73966540e-02 -6.46556960e-03
      6.51767384e-03 1.11240642e-02 -5.29513648e-03 -6.82794349e-03
      -2.03379337e-02 5.46918344e-03 0. -3.34012136e-02 0.
      2.25911848e-04 9.28545743e-03 -2.98456219e-03 1.19828507e-02
      -1.08668813e-02 6.49530615e-04 4.86251013e-03 3.11120180e-03
      4.03802888e-03 -1.29728084e-02 -5.66812581e-04 2.62530558e-02
      -1.93705689e-02 4.05441504e-03 -4.71256161e-03 1.04576135e-02
      1.65641913e-03 -5.38253635e-02 7.37444358e-03 4.19759471e-03
      1.75452419e-02 2.62072100e-03 5.08737750e-04 9.04019829e-03
      1.43431993e-02 3.13617813e-04 1.50268674e-02 1.09007414e-02
      7.26424670e-03 -2.58954894e-03 2.11178344e-02 -2.67573632e-04
      -2.14378210e-03 -1.49185292e-03 2.71142274e-02 2.72721448e-03
      -8.82367883e-03 3.98361683e-03 -1.52136909e-03 2.37136381e-04
      6.59613917e-03 6.17563017e-02 -2.00000009e-03 3.36924219e-03
      2.01945174e-02 1.05179795e-04 4.94032279e-02 1.51865017e-02
      3.77553143e-03 4.92431037e-03 3.36089730e-02 2.05507677e-04
      -9.22693289e-04 0. -1.41268773e-02 7.93759245e-03 2.46068891e-02
      3.91917350e-03 5.79531677e-02 1.04685519e-02 9.29629616e-03
      -8.07678606e-03 1.46395322e-02 8.89520161e-03 -9.75795276e-03
      4.84324107e-03 -5.87679725e-03 -7.29281083e-03 -8.72441288e-03
      -5.72953979e-03 1.18271180e-03 -5.47738222e-04 5.49129630e-03
      -6.68096542e-03 4.96694306e-03 5.79149229e-03 2.26244354e-03
      -1.81360710e-02 1.36417579e-02 -2.96038780e-02 2.84746529e-05
      5.57290716e-03 -4.43768762e-02 -2.24513803e-02 -1.24286979e-01
      8.51152651e-03 1.73564889e-02 2.13772431e-02 9.69246030e-03
      1.41176060e-02 -8.29863548e-03 4.34696581e-03 3.43588479e-02
      5.18424297e-03 -7.66843930e-02 -6.51264284e-03 1.92569066e-02
      2.12295400e-03 -1.14549501e-02 -1.10348500e-01 2.50300765e-03
      1.44178011e-02 8.41598865e-03 -3.21073434e-03 -3.33784185e-02 0.
      3.70281795e-03 -3.75733175e-03 1.86439063e-02 -8.78406502e-03
      6.90791290e-03 5.48917986e-02 0. -2.36804895e-02 2.21660873e-03
      6.79922383e-03 0. -1.90017966e-03 -1.22875988e-01 4.40163771e-03
      8.84846319e-03 7.72849377e-03 4.86287754e-03 -2.03054189e-03
      -6.48425845e-03 4.63553611e-03 8.82176217e-03 -2.13975459e-02
      7.65302568e-04 -1.06524620e-02 -2.44058687e-02 6.39992859e-03
      3.58490506e-04 -9.03172866e-02 5.95492683e-03 4.46685357e-03
      -4.51535266e-03 -6.04074541e-03 -6.18082983e-03 8.63848906e-03
      -8.80241219e-04 8.78349598e-03 -1.01172067e-01 1.95664316e-02
      8.69148038e-03 8.75159050e-04 -2.09202483e-01 1.78105813e-02
      -1.33579597e-01 1.60929170e-02 -2.26757373e-03 -1.99592784e-02
      -2.45074602e-03 5.26420912e-03 1.29996417e-02 -3.03727644e-03
      5.67358406e-03 -1.49092730e-02 -1.25362664e-01 2.26015318e-02
      6.72955357e-04 -1.09573000e-03 -6.25125468e-02 2.00000009e-03
      9.01134312e-03 -1.95509568e-03 1.85870714e-02 -5.64803835e-04
      -3.74338813e-02 2.00000009e-03 -3.11475042e-02 1.01352343e-03
      -2.23800843e-03 5.54155372e-02 6.65439805e-03 -7.59177143e-04
      -9.80185717e-03 4.99629136e-03 1.57030281e-02 -2.82239495e-03
      4.52371947e-02 5.10793133e-03 1.53307309e-02 1.40479235e-02
      -1.93438679e-03 7.78055238e-03 -1.02007408e-02 8.41505732e-03
      -7.10816495e-03 0. -2.13956162e-02 -7.63239246e-03 1.22411419e-02
      9.32289660e-03 -2.36737751e-03 -1.09879160e-03 1.79896411e-02
      2.69845291e-03 2.50523910e-02 5.45543199e-03 3.69469199e-04
      -1.57368404e-03 0. 1.68757383e-02 7.28446916e-02 -7.10542127e-02
      -1.41889160e-03 0. 6.02944754e-04 0. -7.02274498e-03
      -2.54541542e-02 0. 8.68813251e-04 -4.18963563e-03 -1.10130920e-03
      7.38551933e-03 -6.30615221e-04 0. -3.92439403e-02 1.78618412e-02
      1.92456897e-02 1.26147326e-02 4.89823446e-02 -8.81714560e-03
      1.23255970e-02 3.37924771e-02 -1.06748450e-03 -2.43712906e-02 0.
      -2.03730725e-03 -1.21151109e-03 6.86880574e-03 6.95824809e-03 0.
      9.90843866e-03 -3.99720680e-04 0. 1.66219957e-02 3.86902923e-03
      4.10542637e-03 4.43471596e-03 1.05632525e-02 1.13429939e-02
      1.65486000e-02 1.63535774e-02 1.20113241e-02 3.87810133e-02
      1.35169961e-02 -1.12730023e-02 3.37259322e-02 -6.92854403e-03
      1.89485569e-02 2.16919743e-03 -7.61007071e-02 4.43441281e-03
      3.13765043e-03 1.28473155e-02 5.40046813e-03 1.45127000e-02
      5.22247050e-03 5.90412086e-03 0. 1.11097610e-02 3.19860466e-02
      4.20803726e-02 8.91737733e-03 1.31952371e-02 1.28792750e-03
      -3.50945676e-03 2.32905452e-03 -2.00295672e-01 6.64785504e-03
      4.96014953e-03 -2.50192801e-03 8.40644279e-05 3.19566787e-03
      2.66187737e-04 2.69259922e-02 1.76769756e-02 1.51530560e-02 0.
      7.43068149e-03 1.32277273e-02 2.20724521e-03 -3.45281587e-05
      6.37251977e-03 0. 8.32179841e-03 1.16774335e-03 5.17661031e-03
      4.30238433e-02 -1.24952368e-01 3.86354839e-03 2.52862158e-03
      7.01120216e-03 7.34162808e-04 -7.26298476e-03 -4.58757915e-02
      -4.45165206e-03 8.18428956e-03 -1.26996925e-02 -1.99374370e-03
      -2.68096523e-03 4.56890091e-03 -6.76333485e-03 0. -7.98584986e-03
      4.06839065e-02 5.77174593e-03 1.01017188e-02 0. 8.62694811e-03
      2.26145517e-03 1.03997374e-02 4.06540232e-03 1.48477592e-02
      5.30173676e-03 7.22755562e-04 3.05298269e-02 1.32780569e-02
      3.60529404e-03 -2.76959296e-02 3.89724248e-03 4.20168089e-03
      1.19130323e-02 -5.37951849e-02 7.28322342e-02 1.43126277e-02
      1.18327877e-02 1.00248242e-02 -2.01589037e-02 6.91966806e-03
      2.10493356e-02 2.23793671e-03 3.38195520e-03 7.49930227e-03 0.
      2.34562214e-02 -2.65268851e-02 -1.73582528e-02 1.01886699e-02
      3.23464209e-03 -2.05512531e-03 2.94847693e-03 0. -1.42284343e-02
      1.49730430e-03 4.94162226e-03 1.19566778e-03 7.34419853e-04
      -1.28925906e-03 3.89014906e-03 2.53202543e-02 7.63364742e-03
      8.42576623e-02 1.87403988e-02 2.57430207e-02 -1.29039176e-02
      1.08755399e-02 4.38917018e-02 3.82433017e-03 3.54215526e-03
      4.33797669e-03 1.50345229e-02 -6.48810109e-03 -5.16973341e-05
      9.09465714e-04 4.23121033e-03 6.38634991e-03 3.99295799e-03
      2.66187737e-04 3.05036847e-02 7.55191897e-04 -6.65983418e-04
      1.66785922e-02 2.50238529e-03 1.27074204e-03 -1.18760072e-01
      2.01243162e-03 1.45085994e-02 -2.60626432e-03 3.20521474e-04
      1.06541319e-02 7.32535124e-03 -1.03968766e-03 1.02576446e-02 0.
      8.00019968e-03 1.56517923e-02 7.59519683e-03 -2.50696559e-02
      3.86361144e-02 3.18776956e-03 6.29409822e-03 3.63481045e-02
      7.01010181e-03 0. 1.17311608e-02 -1.42771332e-02 3.45402304e-03
      1.65353017e-03 5.49139164e-04 3.13520730e-02 -6.94853347e-03
      1.02914562e-02 9.95987747e-03 5.61161386e-03 -6.08748831e-02
      4.42584045e-03 1.88349703e-04 -1.83972565e-03 1.04303211e-02
      -8.75532627e-03 -3.15403752e-03 -2.33689882e-03 -4.20974717e-02
      1.98010821e-04</_></support_vectors>
  <uncompressed_sv_total>86</uncompressed_sv_total>
  <uncompressed_support_vectors>
    <_>
      0. 0. 0. 0. 0. 0. 0. 0. 0. 0. 5.78034669e-03 0. 0. 0. 0. 0. 0. 0.
      0. 0. 0. 5.78034669e-03 5.78034669e-03 0. 5.78034669e-03 0. 0. 0.
      0. 0. 5.78034669e-03 0. 0. 5.78034669e-03 0. 0. 0. 0.
      5.78034669e-03 2.31213868e-02 0. 0. 0. 0. 0. 0. 0. 0. 0. 0. 0. 0.
      0. 5.78034669e-03 0. 0. 0. 0. 0. 5.78034669e-03 0. 0. 0. 0. 0. 0.
      0. 0. 0. 0. 0. 0. 0. 0. 0. 0. 5.78034669e-03 5.78034669e-03 0. 0.
      0. 5.78034669e-03 0. 0. 0. 0. 1.15606934e-02 0. 5.78034669e-03 0.
      5.78034669e-03 0. 0. 0. 1.15606934e-02 0. 0. 0. 0. 0. 0. 0. 0. 0.
      0. 0. 0. 0. 0. 0. 3.46820801e-02 0. 0. 0. 1.15606934e-02 0.
      1.15606934e-02 0. 0. 5.78034669e-03 0. 1.73410401e-02 0. 0.
      1.15606934e-02 5.78034669e-03 0. 0. 0. 0. 0. 0. 0. 0. 0. 0. 0. 0.
      0. 5.78034669e-03 0. 0. 0. 1.15606934e-02 5.78034669e-03 0. 0. 0.
      0. 0. 0. 0. 0. 0. 0. 0. 0. 0. 0. 0. 0. 0. 0. 5.78034669e-03 0. 0.
      0. 0. 0. 0. 0. 0. 0. 0. 0. 0. 0. 0. 0. 0. 0. 5.78034669e-03 0.
      5.78034669e-03 0. 0. 0. 0. 0. 0. 0. 0. 0. 0. 0. 0. 0. 0. 0. 0. 0.
      0. 0. 5.78034669e-03 0. 0. 0. 0. 0. 0. 0. 0. 0. 0. 0. 0. 0. 0. 0.
      0. 0. 0. 0. 5.78034669e-03 0. 0. 0. 0. 0. 0. 0. 0. 0. 0. 0. 0. 0.
      5.78034669e-03 0. 1.73410401e-02 0. 0. 0. 0. 0. 0. 0. 0. 0. 0. 0.
      0. 1.73410401e-02 0. 0. 0. 0. 0. 5.78034669e-03 0. 0. 0. 0. 0. 0.
      0. 0. 0. 0. 0. 0. 0. 5.78034669e-03 0. 0. 5.78034669e-03 0. 0. 0.
      5.78034669e-03 0. 5.78034669e-03 0. 0. 0. 0. 0. 0. 0. 0. 0. 0. 0.
      0. 0. 0. 0. 0. 0. 0. 5.78034669e-03 0. 0. 0. 0. 0. 0.
      5.78034669e-03 0. 0. 0. 0. 0. 0. 0. 0. 0. 0. 0. 0. 0. 0. 0. 0. 0.
      0. 5.78034669e-03 0. 0. 0. 0. 0. 6.35838136e-02 0. 0. 0. 0. 0. 0.
      5.78034669e-03 0. 0. 1.15606934e-02 0. 0. 0. 0. 0. 0. 0.
      5.78034669e-03 0. 0. 0. 0. 0. 0. 0. 0. 0. 5.78034669e-03 0. 0. 0.
      0. 0. 1.73410401e-02 0. 0. 0. 0. 0. 0. 0. 0. 0. 0. 0. 0. 0. 0. 0.
      0. 0. 5.78034669e-03 0. 0. 0. 0. 0. 0. 0. 0. 0. 0. 0.
      5.78034669e-03 0. 0. 0. 0. 1.15606934e-02 2.89017335e-02 0. 0. 0.
      0. 0. 0. 0. 0. 0. 5.78034669e-03 0. 0. 0. 0. 5.78034669e-03 0. 0.
      5.78034669e-03 0. 0. 0. 0. 0. 0. 0. 5.78034669e-03 0. 0. 0. 0. 0.
      0. 0. 0. 0. 0. 0. 0. 0. 0. 0. 0. 0. 0. 0. 0. 0. 0. 0. 0. 0. 0. 0.
      0. 0. 0. 5.78034669e-03 0. 0. 5.78034669e-03 0. 0. 0. 0. 0.
      5.78034669e-03 0. 0. 0. 0. 0. 0. 0. 0. 0. 0. 0. 1.73410401e-02 0.
      0. 0. 0. 0. 0. 0. 0. 5.78034669e-03 0. 0. 0. 0. 0. 0. 0. 0. 0. 0.
      0. 0. 0. 0. 5.78034669e-03 0. 0. 0. 5.78034669e-03 0. 0. 0. 0. 0.
      0. 0. 5.78034669e-03 0. 0. 0. 0. 0. 0. 0. 0. 0. 1.15606934e-02 0.
      0. 0. 0. 0. 0. 0. 0. 0. 0. 0. 0. 0. 0. 0. 0. 0. 0. 0. 0. 0. 0. 0.
      0. 0. 0. 0. 0. 0. 0. 0. 5.78034669e-03 0. 0. 0. 0. 0. 0. 0. 0. 0.
      0. 0. 0. 5.78034669e-03 0. 0. 0. 0. 0. 0. 0. 0. 5.78034669e-03 0.
      0. 0. 0. 1.73410401e-02 0. 0. 0. 0. 5.78034669e-03 0. 0. 0. 0. 0.
      0. 0. 0. 0. 0. 0. 0. 0. 0. 0. 0. 0. 0. 0. 0. 0. 5.78034669e-03 0.
      0. 0. 1.15606934e-02 0. 0. 0. 0. 0. 0. 0. 0. 0. 5.78034669e-03 0.
      0. 0. 0. 0. 0. 1.15606934e-02 0. 0. 1.15606934e-02 0. 0. 0. 0. 0.
      0. 0. 0. 0. 0. 0. 0. 0. 0. 0. 0. 0. 0. 0. 0. 0. 0. 0. 0. 0. 0. 0.
      5.78034669e-03 0. 0. 0. 0. 0. 0. 0. 0. 0. 0. 0. 1.73410401e-02 0.
      0. 0. 0. 0. 0. 0. 0. 0. 5.78034669e-03 0. 0. 5.78034669e-03 0.
      5.78034669e-03 0. 0. 0. 0. 0. 0. 0. 0. 5.78034669e-03 0. 0. 0. 0.
      0. 0. 0. 0. 0. 0. 0. 0. 0. 0. 5.78034669e-03 0. 0. 0. 0.
      5.78034669e-03 0. 0. 0. 0. 0. 0. 0. 0. 0. 0. 0. 0. 0. 0. 0. 0. 0.
      0. 0. 1.73410401e-02 0. 5.78034669e-03 0. 0. 0. 0. 0. 0. 0.
      2.31213868e-02 0. 1.15606934e-02 0. 0. 5.78034669e-03 0. 0. 0. 0.
      0. 0. 0. 0. 0. 0. 5.78034669e-03 0. 0. 0. 0. 0. 0. 0. 0. 0.
      5.78034669e-03 0. 0. 0. 0. 0. 0. 0. 0. 0. 5.78034669e-03 0. 0. 0.
      5.78034669e-03 0. 0. 0. 0. 0. 0. 0. 0. 0. 0. 0. 0. 5.78034669e-03
      0. 0. 0. 0. 0. 0. 5.78034669e-03 0. 0. 0. 0. 0. 0. 0. 0. 0.
      5.78034669e-03 0. 0. 0. 0. 0. 0. 0. 0. 0. 0. 0. 0. 0. 0. 0.
      5.78034669e-03 0. 0. 0. 0. 5.78034669e-03 0. 0. 0. 0. 0. 0. 0. 0.
      0. 0. 0. 1.73410401e-02 0. 0. 0. 0. 0. 0. 0. 5.78034669e-03 0. 0.
      0. 0. 0. 0. 0. 0. 0. 0. 0. 0. 0. 0. 0. 0. 5.78034669e-03 0. 0. 0.
      0. 0. 0. 0. 0. 0. 0. 0. 0. 0. 1.15606934e-02 0. 0. 0. 0. 0. 0. 0.
      0. 0. 0. 0. 0. 0. 0. 5.78034669e-03 0. 0. 5.78034669e-03 0. 0. 0.
      0. 0. 0. 0. 0. 0. 0. 0. 0. 0. 0. 0. 0. 0. 0. 0. 0. 0. 0. 0. 0. 0.
      0. 5.78034669e-03 0. 0. 0. 0. 0. 0. 0. 0. 0. 0. 0. 0. 0. 0. 0. 0.
      5.78034669e-03 0. 0. 0. 0. 0. 0. 5.78034669e-03 0. 0. 0. 0. 0. 0.
      0. 0. 0. 0. 0. 3.46820801e-02 0. 5.78034669e-03 0. 0. 0. 0. 0. 0.
      0. 0. 0. 0. 0. 5.78034669e-03 0. 0. 0. 0. 0. 0. 0. 0. 0. 0.
      5.78034669e-03 0.</_>
    <_>
      0. 0. 2.17391294e-03 0. 0. 0. 4.34782589e-03 0. 0. 0. 0. 0. 0. 0.
      0. 0. 2.17391294e-03 0. 0. 0. 0. 0. 2.17391290e-02 0. 0. 0. 0. 0.
      0. 0. 0. 0. 0. 0. 0. 0. 0. 2.17391294e-03 1.30434781e-02
      2.39130426e-02 0. 0. 0. 0. 0. 0. 0. 0. 0. 0. 0. 2.17391294e-03
      4.34782589e-03 0. 2.17391294e-03 0. 0. 0. 0. 2.17391294e-03 0. 0.
      0. 0. 0. 0. 0. 0. 0. 0. 0. 0. 0. 0. 0. 0. 0. 2.17391294e-03 0. 0.
      0. 0. 0. 0. 0. 0. 0. 0. 0. 0. 0. 4.34782589e-03 0. 0. 0. 0. 0. 0.
      0. 0. 0. 1.30434781e-02 2.17391294e-03 0. 0. 0. 0. 0. 0. 0.
      3.69565189e-02 0. 2.17391294e-03 0. 2.17391294e-03 2.17391294e-03
      1.08695645e-02 0. 0. 0. 0. 2.82608680e-02 0. 0. 0. 0. 0. 0. 0. 0.
      0. 0. 1.30434781e-02 0. 0. 0. 0. 0. 0. 6.52173907e-03 0.
      4.34782589e-03 0. 0. 0. 0. 0. 2.17391294e-03 0. 0. 0. 0.
      4.34782589e-03 1.95652172e-02 4.34782589e-03 0. 0. 0.
      2.17391294e-03 0. 0. 0. 2.17391294e-03 4.34782589e-03 0. 0. 0. 0.
      0. 0. 2.17391294e-03 0. 0. 0. 0. 0. 0. 4.34782589e-03 0.
      2.17391294e-03 0. 0. 0. 0. 0. 0. 0. 0. 0. 0. 0. 2.17391294e-03 0.
      0. 0. 0. 1.08695645e-02 0. 0. 0. 0. 0. 0. 0. 6.52173907e-03 0. 0.
      0. 0. 2.60869563e-02 0. 0. 0. 0. 0. 0. 0. 0. 1.08695645e-02 0. 0.
      0. 0. 1.08695645e-02 0. 6.52173907e-03 0. 0. 0. 0. 0. 0. 0. 0. 0.
      0. 0. 0. 0. 4.34782589e-03 0. 0. 0. 0. 0. 0. 0. 0. 0. 0.
      2.17391294e-03 0. 0. 0. 0. 0. 0. 0. 2.17391294e-03 0. 0. 0. 0. 0.
      0. 0. 0. 0. 0. 2.17391294e-03 1.52173908e-02 2.17391294e-03 0.
      8.69565178e-03 0. 0. 0. 0. 0. 0. 1.30434781e-02 0. 0. 0. 0. 0. 0.
      0. 0. 2.17391294e-03 0. 0. 0. 0. 0. 0. 0. 0. 0. 0. 0. 0.
      2.17391294e-03 0. 0. 0. 0. 2.17391294e-03 0. 0. 0. 0. 0. 0. 0. 0.
      0. 0. 0. 0. 0. 0. 0. 0. 0. 4.34782589e-03 0. 0. 0. 0.
      2.17391294e-03 0. 1.30434781e-02 0. 0. 0. 0. 0. 0. 1.30434781e-02
      0. 0. 0. 0. 0. 0. 4.34782589e-03 0. 0. 0. 4.34782589e-03 0. 0. 0.
      2.17391294e-03 0. 0. 0. 0. 0. 0. 0. 0. 0. 0. 0. 2.39130426e-02 0.
      0. 0. 0. 0. 0. 0. 0. 0. 0. 0. 0. 0. 0. 0. 0. 0. 0. 0.
      2.17391294e-03 0. 0. 0. 6.52173907e-03 0. 1.73913036e-02 0.
      1.73913036e-02 0. 0. 0. 0. 0. 0. 0. 4.34782589e-03 0. 0. 0. 0. 0.
      0. 0. 0. 8.69565178e-03 6.52173907e-03 0. 2.17391294e-03 0.
      8.69565178e-03 0. 0. 0. 0. 0. 0. 0. 0. 0. 0. 0. 0. 0. 0.
      2.17391294e-03 0. 0. 0. 0. 0. 0. 0. 0. 2.17391294e-03 0.
      6.52173907e-03 0. 2.17391294e-03 0. 0. 0. 0. 0. 0. 2.17391294e-03
      0. 0. 0. 0. 0. 0. 0. 0. 0. 0. 0. 0. 0. 0. 0. 0. 0. 0.
      2.17391294e-03 0. 0. 0. 0. 0. 0. 0. 0. 0. 0. 0. 0. 0. 0. 0.
      2.17391294e-03 0. 0. 0. 0. 0. 0. 0. 0. 0. 2.17391294e-03 0.
      1.30434781e-02 0. 0. 0. 0. 0. 0. 0. 0. 0. 0. 2.17391294e-03 0. 0.
      0. 0. 0. 2.17391294e-03 4.34782589e-03 0. 0. 0. 0. 0. 0. 0. 0. 0.
      4.34782589e-03 0. 1.95652172e-02 0. 0. 0. 0. 0. 4.34782589e-03 0.
      0. 0. 0. 2.17391294e-03 4.56521735e-02 0. 0. 0. 0. 0. 0. 0. 0. 0.
      0. 0. 0. 0. 0. 0. 0. 0. 0. 0. 0. 1.08695645e-02 2.17391294e-03 0.
      0. 0. 0. 0. 0. 0. 0. 0. 0. 0. 0. 0. 0. 1.30434781e-02 0. 0.
      3.26086953e-02 0. 0. 0. 0. 3.26086953e-02 0. 0. 0. 0. 0. 0. 0. 0.
      6.52173907e-03 0. 0. 0. 0. 0. 0. 0. 0. 0. 0. 0. 0. 0. 0. 0. 0. 0.
      0. 0. 0. 0. 2.17391294e-03 0. 0. 0. 0. 0. 0. 0. 0. 0. 0. 0. 0. 0.
      0. 0. 0. 0. 0. 0. 6.52173907e-03 0. 0. 0. 0. 0. 0. 0. 0. 0. 0. 0.
      0. 0. 0. 0. 0. 0. 0. 0. 0. 0. 0. 0. 0. 4.34782589e-03 0. 0. 0.
      2.17391294e-03 6.52173907e-03 0. 0. 0. 0. 0. 0. 0. 0. 0.
      8.69565178e-03 2.17391294e-03 0. 0. 0. 6.52173907e-03 0. 0.
      2.17391294e-03 0. 0. 0. 0. 2.17391294e-03 0. 0. 0. 0. 0. 0. 0. 0.
      0. 2.17391294e-03 2.17391294e-03 0. 0. 0. 0. 0. 0. 0. 0. 0. 0. 0.
      0. 0. 0. 2.17391294e-03 0. 0. 0. 0. 0. 0. 0. 0. 4.34782589e-03 0.
      2.17391294e-03 0. 8.69565178e-03 0. 2.17391294e-03 0. 0. 0. 0. 0.
      0. 0. 0. 0. 4.34782589e-03 0. 0. 0. 8.69565178e-03 0. 0. 0. 0. 0.
      4.34782589e-03 0. 1.30434781e-02 0. 0. 0. 0. 0. 0. 0. 0. 0. 0. 0.
      0. 0. 0. 0. 0. 0. 0. 0. 0. 0. 0. 0. 0. 0. 2.17391294e-03 0. 0. 0.
      0. 2.17391294e-03 0. 0. 0. 2.17391294e-03 0. 0. 0. 0. 0.
      2.17391294e-03 0. 0. 0. 0. 0. 0. 0. 0. 0. 2.17391294e-03 0. 0. 0.
      0. 0. 0. 0. 0. 0. 0. 0. 0. 0. 0. 0. 0. 0. 0. 0. 0. 0. 0. 0. 0. 0.
      0. 0. 0. 0. 0. 0. 0. 8.69565178e-03 0. 4.34782589e-03 0. 0. 0. 0.
      8.69565178e-03 0. 0. 2.17391294e-03 2.17391294e-03 4.34782589e-03
      0. 0. 0. 0. 3.69565189e-02 0. 0. 0. 0. 0. 0. 0. 0. 0. 0.
      2.17391294e-03 2.17391294e-03 0. 0. 0. 0. 0. 0. 0. 0.
      1.08695645e-02 0. 0. 0. 0. 0. 2.17391294e-03 0. 0. 0. 0. 0. 0. 0.
      0. 0. 0. 0. 0. 0. 0. 0. 0. 0. 0. 0. 0. 0. 0. 0. 0. 0. 0. 0.
      1.30434781e-02 0. 0. 0. 0. 0. 0. 0. 0. 0. 0. 0. 0. 1.30434781e-02
      0. 0. 0. 0. 0. 0. 0. 0. 0. 0. 0. 0. 2.17391294e-03 0. 0. 0. 0. 0.
      0. 0. 0. 0. 0. 0. 0. 0. 0. 0. 0. 0. 0. 0. 0. 0. 0. 0. 0. 0.
      8.69565178e-03 0. 0. 0. 0. 0. 0. 0. 0. 0. 0. 0. 0. 8.69565178e-03
      0. 0. 0. 2.17391294e-03 0. 0. 0. 0. 0. 0. 0. 0. 0. 0. 0. 0.
      1.08695645e-02 0. 0. 2.17391294e-03 0. 0. 0. 0. 0. 0.</_>
    <_>
      6.41025649e-03 0. 0. 0. 0. 0. 0. 0. 0. 0. 0. 0. 0. 6.41025649e-03
      0. 9.61538497e-03 0. 6.41025649e-03 0. 0. 0. 3.20512825e-03 0. 0.
      0. 0. 0. 0. 0. 0. 0. 0. 0. 3.20512825e-03 0. 0. 0. 0.
      2.56410260e-02 6.41025649e-03 0. 0. 3.20512825e-03 0. 0. 0. 0. 0.
      0. 0. 0. 0. 3.20512825e-03 0. 0. 0. 0. 0. 0. 0. 0. 6.41025649e-03
      0. 0. 0. 0. 0. 0. 0. 0. 0. 0. 0. 0. 3.20512825e-03 0.
      6.41025649e-03 0. 0. 0. 0. 6.41025649e-03 0. 3.20512825e-03 0. 0.
      0. 0. 0. 0. 9.61538497e-03 0. 0. 3.20512825e-03 0. 0. 0. 0. 0. 0.
      0. 0. 0. 0. 0. 0. 6.41025649e-03 6.41025649e-03 0. 0.
      2.24358980e-02 3.20512825e-03 0. 0. 1.28205130e-02 0.
      3.20512825e-03 0. 0. 0. 0. 1.92307699e-02 0. 0. 6.41025649e-03
      1.60256419e-02 0. 0. 0. 0. 0. 0. 0. 0. 0. 0. 0. 0. 0.
      3.20512825e-03 0. 0. 0. 0. 1.92307699e-02 0. 0. 0. 0.
      3.20512825e-03 0. 0. 0. 9.61538497e-03 0. 0. 0. 0. 0. 0. 0. 0.
      3.20512825e-03 0. 0. 0. 0. 0. 0. 0. 0. 0. 0. 0. 0. 0.
      6.41025649e-03 0. 0. 0. 0. 0. 0. 3.20512825e-03 0. 0.
      3.20512825e-03 0. 0. 0. 0. 0. 0. 0. 0. 0. 6.41025649e-03
      3.20512825e-03 0. 0. 0. 0. 0. 0. 0. 0. 0. 3.20512825e-03 0. 0. 0.
      0. 0. 0. 0. 0. 0. 0. 0. 0. 0. 0. 0. 3.20512825e-03 0. 0.
      6.41025649e-03 0. 0. 0. 0. 0. 0. 9.61538497e-03 6.41025649e-03 0.
      0. 0. 0. 1.60256419e-02 0. 0. 0. 0. 0. 0. 0. 0. 0. 0. 0. 0. 0. 0.
      0. 0. 0. 0. 3.20512825e-03 0. 0. 0. 0. 0. 0. 0. 0. 0. 0.
      3.20512825e-03 0. 0. 0. 6.41025649e-03 0. 0. 6.41025649e-03 0. 0.
      3.20512825e-03 0. 0. 0. 0. 0. 0. 0. 0. 0. 0. 0. 0. 0. 0. 0. 0. 0.
      0. 0. 0. 0. 0. 3.20512825e-03 0. 0. 0. 0. 0. 0. 0. 3.20512825e-03
      0. 0. 0. 6.41025649e-03 0. 0. 0. 0. 0. 0. 0. 0. 0. 0.
      9.61538497e-03 0. 0. 0. 0. 3.20512825e-03 0. 1.28205130e-02 0. 0.
      0. 0. 0. 0. 0. 0. 3.20512825e-03 3.20512825e-03 0. 0. 0. 0. 0. 0.
      0. 0. 3.20512825e-03 0. 0. 0. 0. 0. 0. 0. 0. 3.20512825e-03 0. 0.
      3.20512825e-03 0. 0. 1.28205130e-02 9.61538497e-03 0. 0. 0. 0. 0.
      3.20512825e-03 0. 0. 0. 3.20512825e-03 0. 0. 0. 0. 0.
      3.20512825e-03 3.20512825e-03 0. 0. 0. 0. 0. 3.20512825e-03 0. 0.
      0. 0. 0. 0. 0. 0. 0. 0. 3.20512825e-03 3.20512825e-03 0. 0. 0. 0.
      0. 0. 0. 0. 0. 1.28205130e-02 0. 0. 0. 6.41025649e-03
      3.20512825e-03 0. 0. 9.61538497e-03 0. 0. 0. 0. 0. 0.
      3.20512825e-03 0. 0. 0. 0. 0. 3.20512825e-03 3.20512825e-03 0. 0.
      0. 0. 0. 0. 0. 0. 3.20512825e-03 0. 0. 0. 0. 0. 3.20512825e-03 0.
      3.20512825e-03 0. 0. 3.20512825e-03 0. 0. 0. 0. 0. 0. 0.
      9.61538497e-03 6.41025649e-03 0. 0. 0. 0. 0. 0. 0. 0. 0. 0. 0. 0.
      0. 0. 0. 0. 6.41025649e-03 0. 0. 0. 0. 0. 0. 6.41025649e-03 0.
      9.61538497e-03 0. 0. 0. 0. 0. 0. 3.20512825e-03 0. 0. 0. 0. 0.
      3.20512825e-03 0. 0. 0. 0. 0. 0. 0. 3.20512825e-03 0. 0. 0. 0. 0.
      1.92307699e-02 0. 3.20512825e-03 0. 0. 0. 0. 0. 0. 0.
      9.61538497e-03 0. 0. 0. 0. 0. 0. 0. 0. 3.20512825e-03 0.
      6.41025649e-03 0. 0. 3.20512825e-03 0. 0. 0. 0. 0. 0. 0. 0. 0. 0.
      0. 0. 0. 0. 0. 0. 0. 0. 0. 3.20512825e-03 0. 3.20512825e-03 0. 0.
      0. 0. 0. 3.20512825e-03 0. 0. 0. 0. 3.20512825e-03 0. 0. 0. 0. 0.
      0. 3.20512825e-03 0. 0. 0. 0. 3.20512839e-02 0. 0. 0. 0.
      6.41025649e-03 0. 6.41025649e-03 0. 3.20512825e-03 0. 0. 0. 0. 0.
      0. 0. 0. 0. 0. 0. 0. 0. 0. 0. 0. 0. 0. 0. 0. 0. 0. 0. 0. 0. 0. 0.
      3.20512825e-03 0. 0. 0. 0. 0. 0. 0. 0. 0. 0. 0. 0. 0. 0. 0. 0. 0.
      0. 0. 0. 0. 0. 0. 6.41025649e-03 0. 0. 3.20512825e-03
      3.20512825e-03 0. 0. 0. 0. 0. 0. 0. 0. 0. 0. 0. 9.61538497e-03 0.
      1.28205130e-02 3.20512825e-03 0. 0. 0. 0. 0. 0. 0. 0. 0. 0. 0. 0.
      0. 0. 0. 2.24358980e-02 0. 0. 0. 0. 6.41025649e-03 0.
      3.20512825e-03 6.41025649e-03 0. 0. 0. 0. 0. 6.41025649e-03 0. 0.
      0. 6.41025649e-03 0. 3.20512825e-03 0. 0. 0. 3.20512825e-03 0. 0.
      0. 0. 0. 3.20512825e-03 3.20512825e-03 0. 0. 0. 0. 0. 0. 0. 0. 0.
      0. 0. 0. 3.20512825e-03 0. 0. 6.41025649e-03 0. 0. 3.20512825e-03
      0. 0. 0. 0. 0. 0. 0. 3.20512825e-03 3.20512825e-03 0. 0. 0. 0. 0.
      0. 0. 0. 0. 9.61538497e-03 0. 9.61538497e-03 0. 0. 0. 0.
      3.20512825e-03 0. 0. 0. 0. 0. 0. 0. 0. 3.20512825e-03 0. 0. 0. 0.
      0. 0. 0. 0. 0. 0. 0. 0. 0. 0. 0. 0. 0. 0. 0. 0. 1.28205130e-02 0.
      0. 0. 0. 0. 0. 0. 0. 0. 0. 0. 0. 0. 0. 3.20512825e-03 0. 0. 0. 0.
      0. 0. 0. 0. 0. 0. 3.20512825e-03 0. 0. 0. 0. 3.20512825e-03 0.
      6.41025649e-03 0. 0. 0. 0. 0. 0. 0. 6.41025649e-03 0. 0. 0.
      3.20512825e-03 6.41025649e-03 0. 0. 3.20512825e-03 0. 0. 0. 0. 0.
      0. 0. 0. 0. 0. 3.20512825e-03 0. 0. 0. 0. 0. 9.61538497e-03
      3.20512825e-03 0. 3.20512825e-03 0. 0. 0. 3.20512825e-03 0. 0. 0.
      0. 6.41025649e-03 6.41025649e-03 0. 0. 0. 0. 0. 0. 0.
      3.20512825e-03 0. 0. 0. 0. 3.20512825e-03 9.61538497e-03
      3.20512825e-03 0. 0. 0. 0. 0. 0. 0. 0. 0. 0. 0. 0. 0. 0. 0. 0. 0.
      0. 0. 0. 0. 0. 3.20512825e-03 0. 0. 0. 0. 0. 0. 0. 0.
      3.20512825e-03 0. 0. 0. 0. 0. 0. 0. 0. 0. 0. 3.20512825e-03
      3.20512825e-03 0. 0. 0. 0. 0. 0. 0. 0. 0. 0. 0. 0. 1.28205130e-02
      0. 0. 0. 3.20512825e-03 0. 0. 0. 3.20512825e-03 3.20512825e-03 0.
      0. 3.20512825e-03 0. 0. 0. 3.20512825e-03 0. 0. 0. 0. 0.
      3.20512825e-03 6.41025649e-03 0. 0. 0. 0. 0. 3.20512825e-03 0. 0.
      3.20512825e-03 0. 6.41025649e-03 3.20512825e-03 0. 0. 0.
      1.92307699e-02 0. 0. 0. 0. 0. 3.20512825e-03 0. 0. 3.20512825e-03
      0. 0. 3.20512825e-03 0. 0. 3.20512825e-03 0. 0. 0. 0. 0. 0. 0.</_>
    <_>
      0. 0. 0. 0. 2.44498788e-03 0. 1.22249397e-02 0. 0. 0. 0. 0. 0. 0.
      0. 0. 0. 0. 2.44498788e-03 0. 0. 0. 0. 0. 0. 0. 0. 0. 0. 0. 0. 0.
      0. 0. 0. 0. 0. 0. 0. 1.46699268e-02 0. 0. 0. 0. 0. 0. 0. 0. 0. 0.
      0. 0. 0. 0. 1.71149150e-02 2.44498788e-03 0. 2.44498788e-03 0.
      4.88997577e-03 0. 4.88997577e-03 0. 0. 0. 0. 0. 0. 0. 0.
      2.44498788e-03 0. 0. 0. 4.88997577e-03 0. 0. 0. 0. 0.
      2.44498788e-03 0. 0. 0. 0. 0. 0. 0. 0. 0. 0. 0. 0. 0. 0. 0. 0. 0.
      2.44498788e-03 0. 0. 0. 0. 0. 0. 0. 0. 0. 0. 0. 0. 2.44498788e-03
      0. 0. 9.77995154e-03 0. 0. 0. 0. 0. 0. 0. 0. 0. 0. 0. 0. 0. 0.
      2.44498788e-03 0. 2.44498788e-03 0. 0. 0. 0. 0. 2.44498788e-03
      1.22249397e-02 0. 0. 0. 0. 0. 0. 0. 0. 0. 0. 0. 0. 0. 0.
      2.44498788e-03 0. 0. 0. 0. 0. 0. 0. 0. 0. 0. 0. 0. 0. 0. 0. 0. 0.
      0. 0. 0. 0. 2.44498788e-03 0. 0. 0. 0. 0. 0. 0. 0. 0. 0.
      2.44498788e-03 0. 0. 0. 0. 0. 0. 0. 0. 0. 2.44498788e-03 0. 0. 0.
      0. 0. 0. 0. 0. 0. 0. 0. 2.44498788e-03 4.88997577e-03
      1.71149150e-02 0. 0. 0. 0. 0. 0. 0. 0. 0. 4.88997577e-03 0. 0. 0.
      2.44498788e-03 0. 0. 0. 0. 2.44498788e-03 2.44498788e-03 0. 0. 0.
      0. 2.44498788e-03 0. 0. 0. 0. 0. 0. 0. 0. 0. 0. 0. 0. 0.
      2.44498788e-03 0. 0. 0. 0. 0. 0. 0. 0. 0. 0. 0. 0. 0. 0. 0. 0. 0.
      0. 0. 0. 0. 0. 0. 0. 0. 0. 0. 0. 2.44498788e-03 0. 2.44498788e-03
      0. 0. 0. 0. 0. 0. 2.44498788e-03 3.66748199e-02 0. 0. 0. 0. 0. 0.
      0. 0. 0. 2.44498788e-03 0. 0. 0. 0. 0. 0. 0. 0. 3.42298299e-02 0.
      0. 0. 0. 0. 0. 0. 0. 0. 0. 0. 0. 0. 0. 0. 0. 0. 0. 0. 0. 0. 0. 0.
      0. 0. 0. 0. 0. 0. 0. 0. 9.77995154e-03 0. 0. 0. 0. 0. 0. 0. 0. 0.
      0. 0. 1.71149150e-02 0. 7.33496342e-03 0. 0. 9.77995154e-03 0. 0.
      0. 0. 0. 0. 2.44498788e-03 0. 4.88997577e-03 1.22249397e-02
      2.44498788e-03 0. 0. 0. 0. 0. 2.44498788e-03 0. 0. 0. 0. 0. 0. 0.
      0. 0. 0. 0. 0. 0. 0. 0. 0. 2.44498788e-03 0. 4.88997577e-03 0. 0.
      0. 0. 2.44498788e-03 0. 0. 0. 2.68948674e-02 0. 0. 0. 0. 0. 0. 0.
      0. 0. 4.88997577e-03 2.93398537e-02 0. 0. 0. 0. 0. 0. 0.
      2.44498788e-03 0. 0. 0. 0. 0. 0. 0. 0. 0. 0. 0. 0. 0. 0. 0. 0. 0.
      0. 0. 0. 0. 4.88997577e-03 2.20048912e-02 0. 0. 0. 0. 0. 0. 0. 0.
      2.44498788e-03 0. 3.42298299e-02 2.44498788e-03 0. 0. 0. 0. 0. 0.
      9.77995154e-03 0. 0. 2.44498788e-03 0. 2.44498788e-03 0. 0. 0. 0.
      2.44498788e-03 0. 0. 0. 4.88997577e-03 0. 0. 0. 0. 0.
      1.46699268e-02 0. 0. 0. 0. 0. 4.88997577e-03 1.46699268e-02 0. 0.
      0. 0. 0. 0. 0. 0. 2.68948674e-02 0. 0. 0. 0. 0. 0. 0. 0. 0. 0. 0.
      1.71149150e-02 2.44498788e-03 0. 0. 0. 0. 0. 0. 0. 2.44498788e-03
      0. 0. 0. 0. 0. 0. 0. 0. 7.33496342e-03 0. 0. 0. 0. 0. 0. 0.
      2.44498788e-03 0. 0. 0. 2.44498793e-02 0. 0. 0. 0. 0. 0. 0. 0. 0.
      0. 2.44498788e-03 0. 0. 0. 0. 2.93398537e-02 0. 4.88997577e-03 0.
      0. 2.44498788e-03 0. 0. 0. 0. 0. 0. 2.44498788e-03 0. 0. 0. 0. 0.
      0. 0. 0. 0. 0. 0. 2.44498788e-03 0. 0. 0. 4.88997577e-03
      4.88997577e-03 0. 0. 0. 2.44498788e-03 4.88997577e-03
      2.44498788e-03 0. 0. 9.77995154e-03 0. 2.44498788e-03 0. 0. 0. 0.
      0. 0. 0. 0. 0. 0. 1.22249397e-02 0. 0. 0. 0. 0. 0. 0. 0.
      2.44498788e-03 0. 1.46699268e-02 0. 0. 0. 0. 7.33496342e-03 0.
      2.44498788e-03 0. 0. 0. 0. 0. 0. 0. 0. 0. 0. 0. 0. 0. 0. 0. 0. 0.
      0. 0. 0. 2.44498788e-03 0. 0. 0. 0. 0. 0. 0. 0. 0. 0. 0. 0.
      1.46699268e-02 0. 0. 0. 0. 0. 0. 0. 0. 0. 0. 0. 0. 0. 0. 0. 0. 0.
      0. 0. 0. 0. 0. 0. 0. 0. 0. 9.77995154e-03 0. 0. 0. 0. 0. 0. 0. 0.
      4.88997577e-03 2.44498788e-03 0. 0. 0. 2.44498788e-03 0. 0. 0. 0.
      0. 0. 0. 0. 4.88997577e-03 0. 0. 2.44498788e-03 0. 0.
      1.22249397e-02 0. 0. 0. 0. 0. 0. 2.44498788e-03 0. 2.44498788e-03
      0. 0. 0. 0. 0. 3.17848437e-02 0. 0. 2.44498788e-03 0. 0. 0. 0. 0.
      0. 0. 0. 0. 0. 4.88997577e-03 0. 0. 0. 0. 0. 0. 0. 0. 0. 0. 0. 0.
      2.44498788e-03 0. 0. 1.95599031e-02 0. 0. 0. 0. 0. 0. 0. 0. 0. 0.
      0. 0. 2.44498788e-03 0. 0. 0. 0. 0. 0. 0. 0. 0. 0. 0.
      2.44498788e-03 0. 7.33496342e-03 2.44498788e-03 0. 0. 0. 0. 0. 0.
      0. 0. 4.88997577e-03 0. 0. 0. 3.17848437e-02 0. 0. 0. 0. 0. 0. 0.
      0. 4.88997577e-03 0. 0. 0. 0. 0. 0. 4.88997577e-03 0. 0. 0. 0. 0.
      0. 0. 0. 2.44498788e-03 0. 0. 0. 0. 0. 0. 4.88997577e-03 0. 0. 0.
      0. 0. 0. 0. 0. 0. 0. 0. 0. 0. 0. 0. 0. 0. 0. 0. 0. 0. 0.
      1.22249397e-02 0. 0. 0. 0. 0. 2.44498788e-03 0. 0. 2.44498788e-03
      0. 0. 0. 0. 0. 0. 0. 0. 1.22249397e-02 0. 0. 0. 0. 0.
      2.44498788e-03 0. 0. 0. 0. 0. 0. 0. 0. 2.44498788e-03 0. 0.
      2.44498788e-03 0. 0. 0. 0. 0. 0. 2.44498788e-03 2.44498788e-03
      2.44498788e-03 0. 0. 0. 0. 0. 0. 0. 0. 0. 0. 0. 1.71149150e-02 0.
      0. 0. 0. 0. 0. 0. 2.44498788e-03 0. 0. 0. 0. 0. 0. 0. 0. 0. 0. 0.
      0. 0. 0. 0. 1.22249397e-02 9.77995154e-03 0. 0. 0. 0. 0. 0. 0. 0.
      0. 0. 0. 0. 0. 0. 0. 0. 0. 0. 0. 0. 0. 0. 0. 0. 0. 0. 0. 0.
      2.44498788e-03 0. 0. 0. 0. 0. 2.44498788e-03 0. 0. 0. 0. 0. 0. 0.
      0. 0. 0. 0. 0. 0. 0. 0. 0. 0. 0. 0. 0. 0. 0. 2.44498788e-03 0.
      1.46699268e-02 0.</_>
    <_>
      0. 0. 0. 4.42477874e-03 0. 0. 4.42477874e-03 0. 0. 0.
      8.84955749e-03 0. 0. 0. 0. 1.32743362e-02 4.42477874e-03
      8.84955749e-03 0. 0. 4.42477874e-03 0. 4.42477874e-03 0. 0. 0.
      8.84955749e-03 0. 0. 0. 0. 0. 0. 0. 0. 0. 0. 0. 2.21238937e-02 0.
      0. 0. 0. 0. 0. 0. 0. 0. 0. 0. 0. 0. 0. 0. 0. 0. 0. 0. 0. 0. 0. 0.
      0. 0. 0. 0. 0. 0. 0. 0. 0. 0. 0. 0. 0. 0. 8.84955749e-03 0. 0. 0.
      0. 0. 0. 0. 0. 0. 0. 0. 0. 0. 4.42477874e-03 4.42477874e-03 0. 0.
      8.84955749e-03 0. 0. 0. 0. 0. 0. 0. 0. 0. 0. 0. 0. 4.42477874e-03
      0. 0. 1.76991150e-02 0. 4.42477874e-03 0. 4.42477874e-03 0. 0. 0.
      0. 4.42477874e-03 0. 8.84955749e-03 0. 0. 0. 0. 4.42477874e-03 0.
      0. 4.42477874e-03 0. 0. 4.42477874e-03 4.42477874e-03 0.
      4.42477874e-03 0. 0. 0. 4.42477874e-03 0. 0. 0. 0. 0. 0. 0. 0. 0.
      0. 0. 0. 4.42477874e-03 0. 0. 0. 4.42477874e-03 0. 0. 0. 0. 0. 0.
      0. 0. 0. 0. 0. 0. 0. 0. 0. 0. 4.42477874e-03 0. 0. 0. 0. 0.
      4.42477874e-03 0. 0. 0. 4.42477874e-03 0. 0. 4.42477874e-03 0. 0.
      0. 0. 0. 0. 0. 0. 0. 0. 0. 0. 0. 0. 0. 0. 0. 1.32743362e-02 0. 0.
      0. 0. 0. 0. 0. 4.42477874e-03 0. 0. 0. 4.42477874e-03 0.
      8.84955749e-03 0. 0. 0. 0. 0. 0. 4.42477874e-03 0. 0. 0. 0. 0. 0.
      0. 4.42477874e-03 0. 0. 0. 0. 0. 0. 0. 0. 0. 0. 0. 0. 0. 0. 0. 0.
      0. 0. 4.42477874e-03 0. 0. 0. 0. 0. 8.84955749e-03 0. 0. 0. 0. 0.
      0. 0. 0. 0. 0. 0. 0. 0. 0. 0. 0. 0. 0. 0. 0. 0. 0. 0. 0.
      4.42477874e-03 0. 0. 0. 0. 4.42477874e-03 0. 0. 0. 4.42477874e-03
      0. 0. 0. 0. 0. 4.42477874e-03 0. 0. 0. 0. 0. 0. 0. 0. 0. 0. 0. 0.
      1.76991150e-02 0. 0. 4.42477874e-03 0. 0. 0. 0. 0. 0. 0. 0. 0. 0.
      1.76991150e-02 0. 0. 0. 0. 8.84955749e-03 0. 5.75221255e-02 0. 0.
      0. 0. 0. 0. 8.84955749e-03 0. 0. 0. 0. 0. 0. 0. 0. 0. 0. 0. 0. 0.
      0. 4.42477874e-03 0. 0. 0. 0. 0. 4.42477874e-03 0. 0.
      4.42477874e-03 0. 0. 3.09734512e-02 0. 0. 0. 0. 0. 0. 0. 0. 0. 0.
      0. 0. 0. 4.42477874e-03 0. 0. 4.42477874e-03 0. 0. 0. 0. 0. 0.
      4.42477874e-03 0. 0. 0. 0. 0. 0. 8.84955749e-03 0. 0. 0. 0.
      8.84955749e-03 0. 0. 0. 0. 0. 0. 0. 0. 0. 8.84955749e-03 0. 0.
      4.42477874e-03 0. 0. 0. 0. 4.42477874e-03 0. 0. 0. 0. 0. 0. 0. 0.
      0. 0. 4.42477874e-03 0. 0. 8.84955749e-03 0. 0. 0. 0. 0. 0. 0. 0.
      4.42477874e-03 0. 0. 0. 0. 0. 0. 0. 0. 4.42477874e-03 0.
      2.21238937e-02 0. 0. 0. 0. 0. 0. 0. 8.84955749e-03 0. 0. 0. 0. 0.
      0. 0. 0. 0. 0. 0. 0. 0. 0. 0. 0. 0. 4.42477874e-03 4.42477874e-03
      0. 0. 0. 0. 0. 0. 0. 0. 0. 0. 0. 0. 0. 0. 0. 0. 0. 0. 0. 0. 0. 0.
      0. 0. 0. 0. 0. 0. 4.42477874e-03 0. 0. 0. 0. 0. 8.84955749e-03 0.
      0. 0. 0. 0. 0. 0. 0. 8.84955749e-03 8.84955749e-03 0. 0. 0. 0.
      8.84955749e-03 0. 0. 4.42477874e-03 0. 0. 4.42477874e-03 0. 0. 0.
      0. 0. 0. 0. 0. 0. 0. 4.42477874e-03 0. 0. 1.32743362e-02 0. 0. 0.
      0. 0. 0. 0. 0. 0. 0. 0. 4.42477874e-03 0. 0. 0. 4.42477874e-03 0.
      0. 0. 0. 0. 0. 4.42477874e-03 0. 4.42477874e-03 1.32743362e-02 0.
      0. 0. 0. 0. 0. 0. 4.42477874e-02 0. 0. 0. 0. 0. 1.32743362e-02 0.
      0. 3.09734512e-02 0. 0. 0. 0. 0. 0. 0. 0. 0. 0. 0. 0. 0. 0. 0. 0.
      0. 8.84955749e-03 0. 0. 0. 0. 0. 4.42477874e-03 4.42477874e-03 0.
      0. 0. 0. 0. 0. 0. 0. 0. 0. 0. 0. 0. 0. 0. 0. 0. 0. 0. 0.
      3.09734512e-02 0. 0. 0. 0. 0. 0. 0. 0. 0. 0. 0. 0. 0. 0. 0. 0. 0.
      0. 0. 0. 0. 0. 0. 0. 0. 0. 0. 0. 0. 0. 0. 0. 0. 0. 0.
      4.42477874e-03 0. 0. 0. 0. 0. 0. 0. 0. 0. 0. 0. 0. 4.42477874e-03
      0. 0. 0. 0. 0. 0. 0. 0. 0. 0. 0. 0. 0. 0. 0. 0. 0. 0. 0. 0. 0. 0.
      0. 0. 0. 4.42477874e-03 0. 0. 4.42477874e-03 0. 0. 0. 0. 0. 0. 0.
      0. 0. 4.42477874e-03 0. 0. 0. 0. 0. 0. 0. 0. 0. 0. 1.76991150e-02
      4.42477874e-03 0. 0. 0. 0. 0. 0. 0. 0. 0. 8.84955749e-03 0.
      2.21238937e-02 0. 0. 0. 0. 0. 0. 0. 0. 4.42477874e-03 0. 0. 0. 0.
      0. 0. 0. 0. 0. 0. 0. 0. 0. 0. 0. 0. 0. 0. 0. 0. 0. 0. 0. 0.
      8.84955749e-03 0. 0. 0. 0. 0. 0. 0. 0. 0. 0. 0. 0. 0. 0. 0.
      4.42477874e-03 0. 0. 0. 4.42477874e-03 0. 0. 0. 4.42477874e-03 0.
      0. 0. 0. 0. 0. 0. 0. 0. 8.84955749e-03 0. 0. 0. 0. 0. 0. 0. 0.
      4.42477874e-03 0. 0. 0. 0. 0. 0. 0. 0. 0. 0. 0. 0. 0. 0. 0. 0. 0.
      4.42477874e-03 0. 0. 0. 0. 0. 0. 0. 0. 0. 0. 0. 0. 0. 0. 0. 0. 0.
      0. 0. 0. 0. 0. 0. 0. 0. 0. 0. 0. 0. 0. 0. 0. 0. 0. 0. 0. 0. 0. 0.
      0. 0. 8.84955749e-03 0. 0. 4.42477874e-03 0. 0. 0. 0. 0. 0. 0. 0.
      4.42477874e-03 0. 0. 4.42477874e-03 0. 0. 0. 4.42477874e-03
      8.84955749e-03 0. 0. 0. 0. 0. 0. 0. 0. 0. 0. 0. 0. 0. 0. 0. 0. 0.
      0. 0. 0. 0. 0. 0. 0. 0. 0. 0. 0. 0. 0. 0. 0. 4.42477874e-03 0. 0.
      0. 0. 0. 0. 0. 0. 0. 0. 0. 0. 0. 0. 0. 0. 4.42477874e-03 0. 0. 0.
      0. 0. 0. 0. 0. 0. 0. 0. 0. 4.42477874e-03 1.76991150e-02 0.
      1.32743362e-02 0. 8.84955749e-03 0. 0. 0. 0. 0. 0. 0. 0.
      4.42477874e-03 4.42477874e-03 0. 0. 0. 0. 0. 0. 0. 0. 0. 0. 0. 0.</_>
    <_>
      0. 0. 5.30503970e-03 0. 0. 0. 0. 2.65251985e-03 0. 0.
      2.65251985e-03 0. 5.30503970e-03 0. 0. 5.30503970e-03
      1.06100794e-02 0. 0. 0. 0. 0. 0. 0. 0. 0. 0. 0. 2.65251985e-03 0.
      0. 0. 0. 0. 0. 0. 0. 0. 5.30503970e-03 2.65251985e-03 0. 0. 0. 0.
      0. 0. 0. 0. 0. 0. 0. 0. 0. 0. 0. 0. 0. 0. 0. 0. 0. 2.65251985e-03
      0. 0. 0. 0. 2.65251985e-03 0. 0. 0. 0. 0. 0. 2.65251985e-03 0. 0.
      2.65251985e-03 0. 0. 0. 0. 0. 0. 0. 0. 0. 0. 0. 0. 0.
      7.95755908e-03 0. 0. 0. 2.65251985e-03 0. 0. 2.65251985e-03 0.
      2.65251985e-03 0. 7.95755908e-03 0. 0. 0. 0. 0. 0. 0. 0.
      4.24403176e-02 0. 0. 0. 7.95755908e-03 0. 5.30503970e-03 0. 0.
      5.30503970e-03 0. 5.30503970e-03 0. 0. 0. 5.30503970e-03 0. 0. 0.
      2.65251985e-03 0. 0. 0. 5.30503970e-03 0. 2.65251985e-03 0. 0. 0.
      2.65251985e-03 0. 0. 0. 2.65251985e-03 2.65251985e-03 0. 0. 0. 0.
      0. 0. 0. 0. 2.65251985e-03 2.65251985e-03 0. 0. 0. 0. 0. 0. 0. 0.
      2.65251985e-03 0. 0. 0. 0. 0. 0. 0. 0. 0. 0. 0. 0. 0. 0. 0.
      2.65251985e-03 0. 0. 0. 0. 2.65251985e-03 0. 0. 2.65251985e-03 0.
      0. 0. 0. 0. 0. 5.30503970e-03 0. 0. 2.65251985e-03 5.30503970e-03
      0. 0. 0. 0. 2.65251985e-03 2.65251985e-03 0. 0. 0. 0.
      1.32625997e-02 0. 0. 0. 0. 0. 0. 0. 0. 2.65251985e-03
      2.65251985e-03 0. 0. 0. 0. 0. 5.30503970e-03 0. 0. 0. 0. 0. 0. 0.
      0. 0. 0. 0. 0. 0. 7.95755908e-03 0. 0. 0. 0. 5.30503970e-03 0. 0.
      0. 0. 0. 2.65251985e-03 0. 2.65251985e-03 0. 0. 0. 0. 0.
      7.95755908e-03 2.65251985e-03 0. 0. 0. 0. 0. 0. 0. 0. 0. 0.
      1.06100794e-02 0. 0. 2.65251985e-03 0. 0. 0. 0. 0. 0.
      1.59151182e-02 0. 0. 0. 0. 0. 0. 0. 7.95755908e-03 0.
      2.65251985e-03 0. 0. 0. 0. 0. 0. 0. 2.65251985e-03 0. 0. 0. 0. 0.
      0. 0. 0. 2.65251985e-03 0. 0. 0. 0. 0. 0. 0. 0. 0. 0. 0. 0. 0. 0.
      0. 0. 0. 0. 0. 0. 0. 0. 0. 0. 2.91777179e-02 0. 0. 2.65251985e-03
      0. 0. 0. 0. 0. 0. 0. 0. 0. 0. 0. 0. 2.65251985e-03 2.65251985e-03
      0. 0. 0. 0. 0. 2.65251985e-03 5.30503970e-03 2.65251985e-03 0.
      5.30503970e-03 2.65251985e-03 0. 0. 0. 0. 5.30503970e-03
      1.85676385e-02 1.06100794e-02 0. 0. 0. 0. 0. 0. 0. 0. 0. 0. 0. 0.
      0. 0. 0. 0. 5.30503970e-03 2.65251985e-03 0. 0. 0. 0.
      2.12201588e-02 0. 1.59151182e-02 0. 5.30503970e-03 0. 0. 0. 0. 0.
      0. 1.06100794e-02 7.95755908e-03 2.65251985e-03 0. 0.
      2.65251985e-03 0. 2.65251985e-03 0. 0. 2.65251985e-03
      1.06100794e-02 0. 0. 2.65251985e-03 2.65251985e-03 0. 0. 0.
      5.30503970e-03 0. 0. 0. 0. 2.65251985e-03 0. 0. 0. 0. 0.
      7.95755908e-03 0. 0. 5.30503970e-03 0. 0. 0. 0. 0. 0. 0. 0. 0. 0.
      0. 0. 0. 0. 0. 2.65251985e-03 0. 0. 0. 0. 0. 0. 0. 0. 0. 0. 0.
      2.65251985e-03 2.65251985e-03 2.65251985e-03 0. 0. 0. 0. 0. 0. 0.
      0. 0. 0. 5.30503970e-03 0. 0. 0. 0. 2.65251985e-03 2.65251985e-03
      0. 0. 0. 0. 0. 0. 0. 2.65251985e-03 0. 0. 0. 0. 0. 0.
      2.65251985e-03 0. 2.91777179e-02 0. 0. 0. 2.65251985e-03 0. 0. 0.
      0. 0. 0. 0. 0. 0. 0. 2.65251985e-03 0. 0. 2.65251985e-03 0. 0. 0.
      0. 0. 0. 0. 0. 0. 7.95755908e-03 0. 5.30503970e-03 0. 0. 0. 0. 0.
      0. 0. 0. 0. 0. 0. 1.32625997e-02 0. 0. 0. 0. 0. 0. 0. 0. 0. 0.
      2.65251985e-03 0. 2.65251985e-03 0. 0. 0. 0. 2.65251985e-03 0. 0.
      0. 5.30503970e-03 0. 0. 0. 0. 0. 0. 0. 0. 2.65251985e-03 0. 0. 0.
      0. 0. 0. 0. 0. 1.85676385e-02 0. 0. 0. 0. 3.18302363e-02 0. 0. 0.
      0. 7.95755908e-03 0. 2.65251985e-03 2.65251985e-03 0. 0. 0. 0. 0.
      0. 0. 0. 0. 0. 0. 0. 0. 0. 0. 0. 0. 2.65251985e-03 2.65251985e-03
      0. 0. 0. 2.65251985e-03 2.65251985e-03 0. 0. 0. 0. 0. 0. 0. 0. 0.
      0. 0. 5.30503970e-03 0. 0. 0. 0. 0. 0. 2.65251985e-03 0. 0. 0.
      2.65251985e-03 0. 2.65251985e-03 5.30503970e-03 0. 0.
      5.30503970e-03 0. 0. 0. 0. 0. 0. 0. 0. 0. 0. 0. 0. 0. 0.
      2.65251985e-03 0. 0. 1.59151182e-02 2.65251985e-03 0. 0. 0. 0. 0.
      0. 0. 0. 0. 0. 5.30503970e-03 0. 0. 0. 0. 1.85676385e-02 0. 0. 0.
      2.65251985e-03 2.65251985e-03 0. 0. 0. 0. 0. 0. 0. 0. 0. 0. 0. 0.
      0. 0. 0. 0. 0. 0. 0. 0. 0. 0. 0. 0. 0. 1.06100794e-02 0. 0. 0. 0.
      0. 0. 0. 0. 0. 0. 0. 0. 2.65251985e-03 0. 0. 7.95755908e-03 0. 0.
      0. 0. 0. 0. 0. 0. 0. 0. 5.30503970e-03 2.65251985e-03 0. 0. 0. 0.
      0. 0. 0. 2.65251985e-03 0. 5.30503970e-03 0. 1.06100794e-02 0. 0.
      2.65251985e-03 0. 0. 0. 0. 2.65251985e-03 0. 0. 0. 0. 0. 0. 0. 0.
      2.65251985e-03 0. 0. 0. 2.65251985e-03 2.65251985e-03 0. 0. 0. 0.
      0. 0. 0. 0. 0. 0. 0. 5.30503970e-03 0. 0. 0. 2.65251985e-03 0. 0.
      2.65251985e-03 0. 0. 5.30503970e-03 0. 0. 0. 0. 0. 0. 0. 0. 0.
      2.65251985e-03 0. 0. 0. 2.65251985e-03 0. 0. 0. 0. 0. 0. 0. 0. 0.
      2.65251985e-03 0. 0. 0. 0. 2.65251985e-03 2.65251985e-03 0. 0. 0.
      0. 5.30503970e-03 0. 5.30503970e-03 0. 0. 1.32625997e-02 0. 0. 0.
      0. 0. 0. 2.65251985e-03 0. 0. 0. 2.65251985e-03 0. 0. 0. 0. 0.
      7.95755908e-03 2.65251985e-03 0. 7.95755908e-03 0. 0. 0.
      2.65251985e-03 2.65251985e-03 0. 0. 0. 0. 0. 2.65251985e-03 0. 0.
      0. 0. 0. 0. 7.95755908e-03 0. 0. 0. 0. 0. 5.30503970e-03 0. 0. 0.
      0. 0. 0. 0. 0. 2.65251985e-03 0. 0. 0. 0. 0. 0. 0. 0. 0. 0. 0. 0.
      0. 0. 2.65251985e-03 0. 0. 0. 0. 0. 0. 0. 0. 0. 0. 0. 0. 0. 0. 0.
      0. 1.32625997e-02 0. 0. 0. 0. 0. 0. 0. 0. 0. 0. 0. 0. 0. 0. 0.
      5.30503970e-03 2.65251985e-03 0. 0. 0. 2.65251985e-03 0. 0. 0. 0.
      0. 0. 0. 0. 0. 0. 0. 0. 0. 0. 0. 0. 5.30503970e-03 2.65251985e-03
      0. 5.30503970e-03 0. 0. 2.65251985e-03 2.65251985e-03 0. 0. 0. 0.
      0. 0. 1.85676385e-02 0. 0. 0. 2.65251985e-03 0. 0. 0.
      7.95755908e-03 0. 0. 0. 0. 0. 0. 0. 2.65251985e-03 0. 0. 0. 0. 0.
      0. 0. 0. 0. 0.</_>
    <_>
      0. 0. 0. 0. 0. 0. 6.39658887e-03 0. 0. 0. 0. 0. 0. 0. 0. 0.
      6.39658887e-03 4.26439242e-03 0. 0. 0. 0. 1.06609808e-02 0. 0. 0.
      0. 0. 2.13219621e-03 0. 0. 0. 0. 0. 0. 0. 0. 2.13219621e-03
      3.83795314e-02 6.39658887e-03 0. 0. 2.13219621e-03 0. 0. 0. 0. 0.
      0. 0. 0. 0. 0. 0. 4.26439242e-03 2.13219621e-03 0. 0. 0.
      1.27931777e-02 0. 2.13219621e-03 0. 0. 0. 2.13219621e-03 0. 0. 0.
      0. 0. 0. 8.52878485e-03 0. 0. 0. 0. 0. 0. 0. 0. 0. 0.
      2.13219621e-03 0. 0. 8.52878485e-03 0. 0. 0. 2.13219621e-03
      2.13219621e-03 0. 0. 0. 0. 0. 0. 0. 2.13219621e-03 0.
      6.39658887e-03 0. 0. 0. 2.13219621e-03 0. 4.26439242e-03
      2.13219621e-03 2.13219621e-03 1.49253737e-02 0. 6.39658887e-03 0.
      2.13219621e-03 0. 0. 0. 0. 2.13219621e-03 0. 0. 0. 0. 0.
      8.52878485e-03 0. 2.13219621e-03 0. 2.13219621e-03 0.
      2.13219621e-03 4.26439242e-03 0. 0. 0. 0. 2.13219621e-03 0. 0. 0.
      2.13219621e-03 0. 0. 0. 0. 0. 2.13219621e-03 0. 0. 0. 0.
      4.26439242e-03 2.13219621e-03 0. 0. 0. 0. 0. 0. 0. 0.
      2.13219621e-03 2.13219621e-03 4.26439242e-03 0. 0. 0. 0. 0.
      2.13219621e-03 2.13219621e-03 0. 0. 0. 0. 0. 0. 0. 0. 0.
      2.13219621e-03 0. 2.13219621e-03 0. 0. 0. 4.26439242e-03 0. 0. 0.
      0. 0. 0. 0. 0. 2.13219621e-03 2.13219621e-03 0. 0. 0. 0. 0. 0. 0.
      0. 2.13219621e-03 2.13219621e-03 0. 2.13219621e-03 0. 0.
      2.13219621e-03 0. 0. 0. 0. 0. 0. 0. 0. 0. 0. 4.26439242e-03
      2.13219621e-03 0. 2.13219621e-03 0. 0. 0. 0. 0. 2.13219621e-03 0.
      0. 0. 0. 0. 0. 0. 2.13219621e-03 0. 0. 0. 0. 0. 2.13219621e-03 0.
      0. 0. 0. 0. 0. 0. 0. 0. 0. 4.26439242e-03 2.13219621e-03
      2.13219621e-03 0. 2.13219621e-03 0. 0. 0. 0. 2.13219621e-03 0. 0.
      0. 4.26439242e-03 2.13219621e-03 0. 6.39658887e-03 0. 0. 0. 0.
      2.13219621e-03 0. 6.39658887e-03 0. 0. 4.26439242e-03 0.
      2.13219621e-03 0. 0. 2.13219621e-03 0. 0. 0. 0. 0. 0. 0. 0. 0. 0.
      0. 0. 2.13219621e-03 0. 0. 0. 0. 0. 0. 0. 2.13219621e-03
      2.13219621e-03 0. 0. 0. 2.13219621e-03 4.26439242e-03 0. 0. 0. 0.
      0. 0. 0. 0. 4.26439242e-03 3.41151394e-02 0. 0. 2.13219621e-03 0.
      8.52878485e-03 0. 5.75692989e-02 0. 0. 0. 0. 0. 0. 8.52878485e-03
      2.13219621e-03 0. 4.26439242e-03 0. 0. 2.13219621e-03 0. 0. 0. 0.
      1.06609808e-02 0. 0. 2.13219621e-03 0. 0. 0. 0. 0. 0.
      2.13219621e-03 0. 0. 0. 0. 0. 2.34541576e-02 2.13219621e-03 0. 0.
      0. 0. 0. 0. 0. 0. 0. 0. 0. 0. 0. 0. 0. 6.39658887e-03
      2.13219621e-03 0. 0. 0. 0. 0. 4.26439242e-03 0. 2.13219621e-03 0.
      4.26439242e-03 0. 2.13219621e-03 2.13219621e-03 2.13219621e-03 0.
      0. 4.26439242e-03 1.27931777e-02 0. 0. 0. 4.26439242e-03 0. 0. 0.
      0. 0. 4.26439242e-03 0. 0. 0. 0. 0. 0. 0. 0. 0. 0. 0. 0. 0. 0. 0.
      0. 0. 0. 0. 4.26439242e-03 0. 0. 0. 1.06609808e-02 0. 0. 0. 0. 0.
      0. 0. 0. 0. 0. 0. 0. 0. 0. 0. 0. 0. 0. 0. 2.13219621e-03 0. 0.
      4.26439242e-03 2.13219621e-03 0. 0. 2.13219621e-03 2.13219621e-03
      0. 0. 2.13219621e-03 0. 2.13219621e-03 0. 0. 0. 0. 0. 0. 0. 0. 0.
      0. 8.52878485e-03 0. 0. 0. 0. 0. 2.13219621e-03 0. 2.13219621e-03
      0. 2.13219621e-03 0. 2.13219621e-03 0. 0. 0. 0. 2.13219621e-03
      4.26439242e-03 0. 0. 0. 0. 0. 0. 0. 0. 0. 0. 0. 0. 0. 0. 0. 0.
      6.39658887e-03 2.13219621e-03 0. 0. 0. 0. 0. 4.26439242e-03 0.
      4.26439242e-03 6.39658887e-03 0. 0. 4.26439242e-03 0. 0. 0. 0. 0.
      0. 0. 4.26439242e-03 0. 2.13219621e-03 2.13219621e-03
      1.06609808e-02 0. 0. 0. 0. 0. 2.13219621e-03 0. 0. 0. 0.
      2.13219621e-03 0. 0. 0. 0. 2.13219617e-02 0. 0. 0. 0. 0. 0. 0. 0.
      0. 0. 0. 4.26439242e-03 0. 0. 0. 0. 0. 1.06609808e-02 0. 0.
      6.39658887e-03 0. 0. 2.13219621e-03 0. 0. 0. 0. 8.52878485e-03 0.
      2.13219621e-03 0. 0. 0. 0. 0. 0. 6.39658887e-03 0. 0. 0. 0.
      2.13219621e-03 0. 0. 0. 0. 0. 0. 0. 0. 0. 0. 0. 2.13219621e-03 0.
      0. 0. 0. 4.26439242e-03 0. 0. 0. 0. 0. 0. 0. 0. 0. 0. 0. 0. 0. 0.
      2.13219621e-03 0. 2.13219621e-03 0. 0. 0. 0. 4.26439242e-03 0. 0.
      0. 2.13219621e-03 0. 0. 6.39658887e-03 0. 0. 0. 0. 0. 0. 0. 0. 0.
      0. 0. 0. 0. 0. 0. 2.13219621e-03 2.13219621e-03 0. 0. 0. 0. 0.
      2.13219621e-03 0. 0. 2.13219621e-03 0. 0. 2.13219621e-03 0. 0. 0.
      0. 0. 2.13219621e-03 4.26439242e-03 0. 0. 0. 0. 0. 0. 0.
      4.26439242e-03 0. 0. 4.26439242e-03 2.13219621e-03 0. 0. 0. 0. 0.
      0. 0. 0. 0. 0. 0. 0. 4.26439242e-03 0. 0. 0. 0. 0. 2.13219621e-03
      0. 0. 0. 0. 0. 2.13219621e-03 0. 0. 0. 2.13219621e-03 0.
      2.13219621e-03 0. 0. 0. 1.27931777e-02 0. 0. 2.13219621e-03 0. 0.
      0. 0. 0. 0. 0. 2.13219621e-03 1.70575697e-02 0. 0. 0.
      2.13219621e-03 0. 0. 0. 0. 0. 2.13219621e-03 0. 1.06609808e-02 0.
      0. 0. 0. 0. 0. 0. 0. 0. 0. 0. 0. 0. 0. 0. 0. 0. 0. 0. 0. 0. 0. 0.
      0. 2.13219621e-03 2.13219621e-03 0. 0. 0. 2.13219621e-03 0. 0. 0.
      2.13219621e-03 2.13219621e-03 0. 0. 0. 0. 2.13219621e-03
      2.13219621e-03 0. 2.13219621e-03 2.13219621e-03 0. 0. 0. 0. 0.
      2.13219621e-03 0. 0. 0. 2.13219621e-03 0. 0. 0. 4.26439242e-03 0.
      0. 0. 0. 0. 0. 0. 0. 0. 0. 0. 2.13219621e-03 0. 0. 0. 0. 0. 0. 0.
      0. 2.13219621e-03 2.13219621e-03 0. 0. 0. 4.26439242e-03
      2.13219621e-03 0. 0. 4.26439242e-03 0. 0. 4.26439242e-03 0. 0. 0.
      6.39658887e-03 0. 2.13219621e-03 0. 0. 0. 2.13219617e-02 0. 0. 0.
      0. 0. 0. 0. 0. 0. 0. 0. 4.26439242e-03 0. 0. 0. 0. 0. 0. 0.
      2.13219621e-03 6.39658887e-03 0. 0. 0. 0. 0. 2.13219621e-03 0. 0.
      6.39658887e-03 0. 0. 0. 2.13219621e-03 0. 0. 0. 0. 0. 0. 0. 0. 0.
      0. 0. 0. 0. 0. 0. 0. 4.26439242e-03 0. 0. 0. 2.13219621e-03
      4.26439242e-03 2.13219621e-03 2.13219621e-03 0. 0. 0. 0. 0. 0. 0.
      0. 0. 0. 2.13219621e-03 2.13219621e-03 0. 0. 0. 0. 0. 0. 0. 0. 0.
      0. 4.26439242e-03 0. 0. 4.26439242e-03 4.26439242e-03 0. 0. 0.
      4.26439242e-03 0. 0. 0. 0. 0. 0. 0. 2.13219621e-03 0. 0. 0.
      6.39658887e-03 0. 0. 0. 0. 0. 1.49253737e-02 4.26439242e-03
      4.26439242e-03 0. 0. 0. 0. 0. 0. 0. 0. 0. 2.13219621e-03
      8.52878485e-03 4.26439242e-03 0. 0. 0. 0. 0. 0. 0. 0. 0. 0. 0. 0.
      0. 0. 0. 0. 0. 0. 2.13219621e-03 0. 0. 0. 0. 6.39658887e-03 0.</_>
    <_>
      0. 0. 0. 0. 0. 0. 1.00000007e-02 0. 0. 0. 2.00000009e-03 0. 0. 0.
      0. 4.00000019e-03 0. 2.00000009e-03 0. 2.00000009e-03
      2.00000009e-03 0. 4.00000019e-03 2.00000009e-03 0. 0.
      2.00000009e-03 0. 2.00000009e-03 0. 0. 0. 0. 0. 0. 2.00000009e-03
      0. 4.00000019e-03 2.00000009e-03 2.00000009e-03 0. 0. 0. 0. 0. 0.
      0. 2.00000009e-03 0. 0. 0. 0. 0. 0. 6.00000005e-03 6.00000005e-03
      2.00000009e-03 0. 0. 0. 0. 2.00000009e-03 0. 0. 0. 2.00000009e-03
      2.00000009e-03 0. 0. 2.00000009e-03 0. 0. 2.00000009e-03 0. 0. 0.
      2.00000009e-03 0. 0. 0. 0. 0. 2.00000009e-03 0. 4.00000019e-03 0.
      0. 0. 0. 0. 1.60000008e-02 0. 0. 0. 4.00000019e-03 0. 0.
      2.00000009e-03 0. 0. 2.00000009e-03 1.00000007e-02 2.00000009e-03
      0. 0. 0. 0. 4.00000019e-03 0. 0. 1.20000001e-02 0. 4.00000019e-03
      0. 4.00000019e-03 0. 2.00000009e-03 0. 0. 2.00000009e-03
      2.00000009e-03 6.00000005e-03 0. 0. 0. 2.00000009e-03 0. 0. 0. 0.
      0. 2.00000009e-03 1.00000007e-02 0. 0. 0. 0. 0. 0. 4.00000019e-03
      0. 0. 0. 2.00000009e-03 4.00000019e-03 0. 0. 0. 0. 0. 0. 0. 0.
      4.00000019e-03 4.00000019e-03 2.00000009e-03 4.00000019e-03 0. 0.
      0. 0. 0. 0. 2.00000009e-03 0. 0. 2.00000009e-03 2.00000009e-03 0.
      0. 0. 0. 0. 0. 0. 0. 2.00000009e-03 4.00000019e-03 0. 0. 0.
      2.00000009e-03 0. 0. 0. 0. 0. 4.00000019e-03 0. 0. 0. 0. 0. 0. 0.
      0. 4.00000019e-03 0. 0. 0. 0. 0. 0. 0. 0. 0. 0. 2.00000009e-03
      6.00000005e-03 0. 0. 0. 0. 0. 0. 0. 0. 0. 0. 6.00000005e-03
      4.00000019e-03 0. 0. 1.60000008e-02 0. 0. 0. 2.00000009e-03 0. 0.
      4.00000019e-03 0. 0. 2.00000009e-03 0. 2.00000009e-03 0. 0.
      2.00000009e-03 4.00000019e-03 2.00000009e-03 0. 0. 0. 0.
      2.00000009e-03 0. 0. 2.00000009e-03 0. 4.00000019e-03 0.
      4.00000019e-03 0. 2.00000009e-03 0. 0. 4.00000019e-03 0. 0. 0.
      2.00000009e-03 0. 0. 0. 0. 0. 0. 0. 0. 6.00000005e-03 0. 0.
      4.00000019e-03 0. 0. 0. 0. 0. 0. 4.00000019e-03 0. 0.
      2.00000009e-03 0. 0. 0. 2.00000009e-03 0. 4.00000019e-03 0. 0.
      4.00000019e-03 0. 0. 0. 0. 0. 0. 0. 2.00000009e-03 0. 0. 0. 0. 0.
      0. 0. 0. 0. 0. 2.00000009e-03 0. 0. 0. 0. 0. 0. 0. 0.
      6.00000005e-03 0. 0. 0. 0. 2.00000009e-03 0. 0. 0. 0.
      2.00000009e-03 0. 4.00000019e-03 0. 0. 2.00000009e-03 0. 0. 0. 0.
      0. 0. 4.00000019e-03 0. 1.40000004e-02 2.00000009e-03 0. 0.
      6.00000005e-03 0. 4.00000019e-03 0. 0. 0. 0. 0. 0. 0. 0. 0.
      2.00000009e-03 0. 0. 6.00000005e-03 0. 0. 8.00000038e-03
      2.00000009e-03 0. 0. 0. 0. 0. 2.00000009e-03 0. 0. 0. 0. 0.
      2.00000009e-03 4.00000019e-03 0. 0. 2.00000009e-03 4.00000019e-03
      2.00000009e-03 2.00000009e-03 2.00000009e-03 0. 0. 6.00000005e-03
      0. 2.00000009e-03 0. 0. 0. 2.00000009e-03 2.00000009e-03
      2.00000009e-03 0. 0. 6.00000005e-03 2.40000002e-02 2.00000009e-03
      0. 0. 0. 0. 0. 2.00000009e-03 0. 0. 6.00000005e-03 0. 0. 0.
      2.00000009e-03 0. 0. 0. 6.00000005e-03 2.00000009e-03
      2.00000009e-03 0. 4.00000019e-03 0. 0. 0. 2.00000009e-03 0. 0. 0.
      2.00000009e-03 0. 2.00000009e-03 2.00000009e-03 2.00000009e-03 0.
      0. 0. 2.00000009e-03 0. 4.00000019e-03 0. 0. 0. 0. 0.
      2.00000009e-03 0. 0. 0. 2.00000009e-03 0. 4.00000019e-03 0. 0. 0.
      0. 4.00000019e-03 0. 0. 0. 2.00000009e-03 2.00000009e-03 0. 0. 0.
      4.00000019e-03 0. 0. 0. 0. 0. 4.00000019e-03 0. 0. 0. 0. 0.
      6.00000005e-03 2.00000009e-03 2.00000009e-03 0. 0. 0.
      2.00000009e-03 2.00000009e-03 0. 0. 2.00000009e-03 0.
      2.00000009e-03 4.00000019e-03 0. 0. 2.00000009e-03 0.
      4.00000019e-03 0. 2.00000009e-03 0. 2.00000009e-03 0. 0. 0. 0. 0.
      0. 0. 0. 0. 0. 0. 0. 0. 0. 4.00000019e-03 0. 0. 0. 2.00000009e-03
      0. 2.00000009e-03 4.00000019e-03 8.00000038e-03 0. 0.
      1.20000001e-02 0. 2.00000009e-03 0. 0. 0. 0. 0. 6.00000005e-03 0.
      1.20000001e-02 6.00000005e-03 8.00000038e-03 2.00000009e-03 0. 0.
      0. 0. 2.00000009e-03 2.00000009e-03 0. 0. 0. 0. 2.00000009e-03 0.
      0. 0. 4.00000019e-03 0. 0. 0. 0. 2.00000009e-03 6.00000005e-03 0.
      2.00000009e-03 0. 0. 0. 0. 0. 0. 1.00000007e-02 4.00000019e-03 0.
      2.00000009e-03 2.00000009e-03 0. 0. 0. 0. 1.20000001e-02 0. 0. 0.
      0. 8.00000038e-03 2.00000009e-03 0. 0. 0. 0. 0. 2.00000009e-03
      4.00000019e-03 2.00000009e-03 0. 0. 0. 0. 0. 0. 0. 0. 0. 0.
      4.00000019e-03 0. 0. 2.00000009e-03 0. 4.00000019e-03
      4.00000019e-03 2.00000009e-03 0. 0. 4.00000019e-03 0. 0.
      2.00000009e-03 0. 0. 2.00000009e-03 0. 0. 2.00000009e-03 0. 0. 0.
      0. 2.00000009e-03 0. 2.00000009e-03 0. 0. 0. 0. 0. 0. 0. 0. 0. 0.
      4.00000019e-03 2.00000009e-03 0. 0. 0. 0. 0. 0. 4.00000019e-03 0.
      0. 0. 0. 0. 0. 0. 0. 0. 0. 0. 0. 2.00000009e-03 6.00000005e-03
      2.00000009e-03 2.00000009e-03 0. 0. 0. 0. 2.00000009e-03
      2.00000009e-03 0. 0. 0. 0. 0. 2.00000009e-03 0. 0. 2.00000009e-03
      0. 0. 4.00000019e-03 0. 0. 0. 0. 2.00000009e-03 0. 0.
      2.00000009e-03 0. 0. 2.00000009e-03 0. 0. 0. 0. 2.00000009e-03 0.
      2.00000009e-03 0. 0. 0. 2.00000009e-03 0. 0. 4.00000019e-03 0. 0.
      0. 0. 2.00000009e-03 6.00000005e-03 0. 0. 0. 2.00000009e-03
      2.00000009e-03 0. 0. 0. 4.00000019e-03 0. 0. 0. 1.60000008e-02 0.
      0. 0. 0. 0. 0. 0. 0. 0. 2.00000009e-03 4.00000019e-03
      8.00000038e-03 0. 0. 0. 2.00000009e-03 0. 0. 0. 0. 0.
      1.00000007e-02 0. 6.00000005e-03 4.00000019e-03 0. 4.00000019e-03
      0. 0. 0. 0. 2.00000009e-03 0. 2.00000009e-03 0. 0. 0. 0. 0.
      2.00000009e-03 0. 0. 0. 0. 0. 0. 0. 0. 0. 0. 0. 2.00000009e-03
      2.00000009e-03 0. 0. 0. 2.00000009e-03 6.00000005e-03
      6.00000005e-03 0. 0. 0. 0. 0. 0. 0. 0. 2.00000009e-03
      4.00000019e-03 0. 0. 0. 0. 0. 0. 0. 2.00000009e-03 2.00000009e-03
      0. 0. 0. 4.00000019e-03 0. 0. 0. 0. 0. 0. 0. 0. 0. 2.00000009e-03
      0. 0. 0. 0. 0. 0. 0. 0. 0. 0. 4.00000019e-03 4.00000019e-03 0. 0.
      0. 8.00000038e-03 0. 0. 0. 0. 0. 0. 2.00000009e-03 0. 0.
      2.00000009e-03 1.00000007e-02 0. 0. 0. 0. 0. 1.00000007e-02 0. 0.
      2.00000009e-03 0. 0. 0. 0. 0. 0. 0. 2.00000009e-03 0. 0. 0. 0. 0.
      0. 0. 0. 2.00000009e-03 0. 0. 0. 0. 2.00000009e-03 0.
      8.00000038e-03 0. 0. 0. 0. 0. 0. 0. 0. 0. 0. 0. 0. 0. 0. 0. 0. 0.
      0. 0. 0. 2.00000009e-03 0. 0. 0. 0. 0. 0. 6.00000005e-03
      2.00000009e-03 0. 0. 2.00000009e-03 0. 2.00000009e-03 0. 0. 0. 0.
      0. 0. 8.00000038e-03 0. 0. 0. 2.00000009e-03 0. 0. 0. 0. 0. 0. 0.
      0. 2.00000009e-03 0. 0. 0. 6.00000005e-03 0. 2.00000009e-03 0.
      2.00000009e-03 0. 0. 0. 2.00000009e-03 0. 0. 0. 4.00000019e-03 0.
      0. 0. 4.00000019e-03 0. 0. 0. 0. 0. 2.00000009e-03 0.
      2.00000009e-03 0. 0. 0. 0. 0. 0. 0. 0. 0. 0. 2.40000002e-02 0.
      2.00000009e-03 0. 0. 0. 0. 0. 0. 0. 0. 0. 0. 0. 4.00000019e-03 0.
      0. 0. 0. 0. 0. 0. 0. 0. 0. 0. 0.</_>
    <_>
      2.65957438e-03 2.65957438e-03 0. 0. 0. 0. 5.31914877e-03 0. 0. 0.
      1.06382975e-02 0. 0. 0. 0. 0. 0. 0. 0. 0. 0. 2.65957438e-03
      2.12765951e-02 0. 0. 0. 0. 0. 0. 0. 0. 0. 0. 0. 0. 0. 0.
      5.31914877e-03 1.59574468e-02 2.65957438e-03 0. 0. 0. 0. 0. 0. 0.
      0. 0. 0. 0. 0. 2.65957438e-03 0. 0. 0. 0. 0. 0. 0. 0. 0. 0. 0. 0.
      0. 0. 0. 0. 0. 0. 0. 0. 0. 0. 0. 0. 0. 0. 0. 0. 0. 0. 0. 0. 0. 0.
      0. 0. 0. 2.65957438e-03 0. 0. 0. 0. 0. 0. 0. 0. 0. 0. 0. 0. 0. 0.
      0. 0. 1.59574468e-02 0. 0. 2.12765951e-02 0. 0. 0. 0. 0.
      7.97872338e-03 0. 0. 2.65957438e-03 0. 1.86170209e-02 0. 0.
      2.65957438e-03 0. 0. 0. 0. 0. 0. 0. 2.39361692e-02 0. 0. 0. 0. 0.
      0. 0. 0. 0. 0. 0. 0. 0. 0. 0. 0. 0. 0. 0. 0. 1.59574468e-02 0. 0.
      0. 0. 0. 0. 0. 0. 7.97872338e-03 0. 0. 0. 5.31914877e-03 0. 0. 0.
      0. 0. 0. 0. 0. 0. 0. 0. 0. 2.65957438e-03 0. 0. 0. 0. 0. 0. 0. 0.
      0. 0. 0. 0. 0. 0. 0. 0. 2.65957438e-03 0. 0. 0. 0. 0. 0. 0. 0. 0.
      0. 2.65957438e-03 0. 7.97872338e-03 0. 0. 0. 0. 0. 0. 0. 0.
      2.65957438e-03 2.65957438e-03 0. 0. 0. 7.97872338e-03 0.
      5.31914877e-03 0. 2.65957438e-03 0. 0. 0. 0. 0. 0. 0. 0. 0. 0. 0.
      7.97872338e-03 0. 0. 0. 0. 0. 0. 0. 0. 0. 0. 2.65957438e-03 0. 0.
      0. 0. 0. 0. 0. 0. 0. 0. 0. 0. 0. 0. 0. 0. 0. 0. 0. 1.32978717e-02
      0. 0. 5.31914877e-03 0. 0. 0. 0. 0. 0. 2.12765951e-02 0. 0. 0. 0.
      0. 0. 0. 0. 0. 0. 0. 2.65957438e-03 0. 0. 0. 0. 0. 0. 0. 0. 0. 0.
      0. 0. 0. 0. 2.65957438e-03 0. 0. 0. 2.65957438e-03 0. 0.
      2.65957438e-03 0. 0. 0. 0. 0. 0. 0. 0. 0. 0. 0. 0. 0. 0.
      2.65957438e-03 2.65957438e-03 0. 3.19148935e-02 0. 0. 0. 0. 0. 0.
      3.72340418e-02 0. 0. 2.65957438e-03 0. 0. 0. 0. 0. 0. 0. 0. 0. 0.
      0. 0. 0. 0. 0. 0. 0. 0. 0. 0. 2.65957438e-03 0. 0. 2.12765951e-02
      0. 0. 0. 0. 2.65957438e-03 0. 0. 0. 0. 0. 0. 0. 0. 0. 0. 0.
      5.31914877e-03 0. 0. 0. 0. 0. 0. 2.65957438e-03 0. 1.59574468e-02
      2.65957438e-03 2.65957438e-03 0. 0. 0. 0. 0. 0. 2.65957438e-03
      1.86170209e-02 0. 0. 0. 0. 0. 0. 0. 0. 2.65957438e-03 0. 0. 0.
      2.65957438e-03 0. 0. 0. 0. 0. 0. 0. 0. 0. 0. 0. 0. 0. 0. 0. 0. 0.
      0. 0. 0. 5.31914877e-03 0. 0. 0. 0. 0. 5.31914877e-03 0.
      2.65957438e-03 0. 0. 0. 0. 0. 0. 0. 0. 0. 0. 0. 0. 0. 0. 0. 0. 0.
      0. 0. 0. 0. 0. 0. 0. 0. 0. 0. 0. 0. 0. 0. 0. 0. 0. 0.
      2.65957438e-03 0. 0. 0. 0. 0. 0. 0. 0. 2.65957438e-03 0. 0. 0.
      5.31914877e-03 0. 0. 5.31914877e-03 0. 2.92553175e-02 0.
      7.97872338e-03 0. 0. 0. 0. 0. 0. 0. 0. 0. 0. 0. 0. 0. 0. 0.
      2.65957438e-03 0. 0. 0. 0. 0. 0. 0. 0. 1.32978717e-02 0. 0.
      4.52127643e-02 0. 0. 0. 0. 0. 2.65957438e-03 2.65957438e-03 0. 0.
      5.31914877e-03 1.32978717e-02 4.78723384e-02 0. 0. 0. 0. 0. 0. 0.
      0. 0. 0. 0. 0. 0. 0. 0. 0. 0. 0. 0. 0. 7.97872338e-03 0. 0. 0. 0.
      0. 0. 0. 0. 0. 0. 0. 0. 0. 0. 0. 0. 0. 0. 2.12765951e-02 0. 0. 0.
      0. 1.86170209e-02 0. 0. 0. 0. 0. 0. 0. 0. 2.65957438e-03 0. 0. 0.
      0. 0. 0. 0. 0. 0. 0. 2.65957438e-03 0. 0. 2.65957438e-03 0. 0. 0.
      0. 0. 0. 0. 0. 0. 0. 0. 0. 0. 0. 0. 0. 0. 0. 0. 0. 0. 0. 0. 0. 0.
      2.65957438e-03 0. 0. 0. 0. 0. 0. 0. 0. 0. 0. 0. 0. 0. 0. 0. 0. 0.
      0. 0. 0. 0. 0. 0. 0. 0. 0. 2.65957438e-03 0. 0. 0. 0.
      5.31914877e-03 0. 0. 0. 0. 2.65957438e-03 2.65957438e-03 0.
      5.31914877e-03 0. 2.65957438e-03 0. 0. 0. 0. 1.06382975e-02 0. 0.
      0. 0. 0. 0. 0. 2.65957438e-03 0. 2.65957438e-03 0. 0. 0. 0. 0. 0.
      0. 0. 0. 0. 0. 0. 0. 0. 0. 0. 0. 0. 0. 0. 2.65957438e-03 0. 0.
      7.97872338e-03 0. 0. 0. 0. 0. 0. 0. 0. 2.65957438e-03 0. 0. 0.
      4.52127643e-02 0. 0. 0. 0. 0. 0. 0. 0. 0. 0. 0. 1.86170209e-02 0.
      0. 0. 2.65957438e-03 0. 0. 0. 0. 0. 7.97872338e-03 0.
      1.59574468e-02 0. 0. 0. 0. 0. 0. 0. 0. 0. 0. 0. 0. 0. 0. 0. 0. 0.
      0. 0. 0. 0. 0. 0. 0. 0. 0. 0. 0. 0. 0. 0. 0. 0. 2.65957438e-03 0.
      0. 0. 0. 0. 2.65957438e-03 0. 0. 0. 0. 0. 0. 0. 0. 2.65957438e-03
      0. 0. 0. 0. 0. 0. 0. 0. 0. 0. 0. 0. 0. 0. 0. 0. 0. 0. 0. 0. 0. 0.
      0. 0. 0. 0. 0. 0. 0. 0. 0. 0. 0. 0. 5.31914877e-03 0. 0. 0. 0. 0.
      0. 7.97872338e-03 0. 0. 0. 2.65957438e-03 0. 0. 0. 0. 0.
      3.45744677e-02 0. 0. 0. 0. 0. 0. 0. 0. 0. 0. 5.31914877e-03
      2.65957438e-03 0. 0. 0. 0. 0. 0. 0. 0. 1.32978717e-02 0. 0. 0. 0.
      0. 5.31914877e-03 0. 0. 0. 0. 0. 0. 0. 0. 0. 0. 0. 0. 0. 0. 0. 0.
      0. 0. 0. 0. 2.65957438e-03 0. 0. 0. 0. 0. 0. 5.31914877e-03 0. 0.
      0. 0. 0. 0. 0. 0. 0. 0. 0. 0. 1.32978717e-02 0. 0. 0. 0. 0. 0. 0.
      0. 0. 0. 0. 0. 0. 0. 0. 0. 0. 0. 0. 0. 2.65957438e-03 0. 0. 0. 0.
      0. 0. 0. 0. 0. 0. 0. 2.65957438e-03 2.65957438e-03 0. 0. 0. 0.
      1.06382975e-02 0. 0. 0. 0. 0. 0. 0. 0. 0. 0. 0. 0. 1.06382975e-02
      0. 0. 0. 2.65957438e-03 0. 0. 2.65957438e-03 0. 0. 0. 0. 0. 0. 0.
      0. 0. 2.65957438e-03 0. 0. 0. 0. 2.65957438e-03 0. 0. 0. 0.</_>
    <_>
      2.45700241e-03 0. 0. 4.91400482e-03 0. 2.45700241e-03 0.
      2.45700241e-03 0. 0. 0. 0. 0. 0. 0. 0. 2.45700241e-03
      4.91400482e-03 0. 0. 0. 0. 2.45700241e-03 2.45700241e-03 0. 0. 0.
      0. 0. 0. 0. 0. 0. 0. 0. 0. 0. 2.45700241e-03 4.91400482e-03
      2.45700241e-03 0. 0. 0. 0. 2.45700241e-03 0. 0. 0. 0. 0.
      2.45700241e-03 0. 0. 0. 0. 2.45700241e-03 0. 0. 0. 2.45700241e-03
      0. 0. 0. 0. 2.45700241e-03 0. 0. 1.47420149e-02 2.45700241e-03 0.
      0. 0. 0. 9.82800964e-03 0. 0. 2.45700241e-03 2.45700241e-03 0. 0.
      0. 2.45700241e-03 0. 0. 0. 0. 0. 0. 0. 0. 2.21130215e-02 0. 0. 0.
      4.91400482e-03 0. 0. 0. 0. 0. 2.45700241e-03 2.45700241e-03 0. 0.
      0. 0. 0. 2.45700241e-03 0. 0. 0. 0. 0. 0. 4.91400482e-03
      2.45700241e-03 0. 2.45700241e-03 0. 0. 0. 4.91400482e-03 0. 0.
      2.45700241e-03 1.96560193e-02 2.45700241e-03 0. 0. 0. 0. 0. 0. 0.
      2.45700241e-03 0. 0. 0. 0. 0. 4.91400482e-03 0. 0. 2.45700241e-03
      4.91400482e-03 0. 0. 0. 0. 0. 0. 4.91400482e-03 2.45700241e-03
      4.91400482e-03 0. 0. 0. 0. 0. 0. 7.37100746e-03 0. 0. 0. 0.
      2.45700241e-03 0. 0. 0. 0. 0. 0. 0. 0. 0. 0. 0. 0. 2.45700241e-03
      0. 0. 0. 0. 2.45700241e-03 0. 0. 0. 2.45700241e-03 0. 0. 0.
      2.45700241e-03 0. 2.45700241e-03 0. 0. 2.45700241e-03 0. 0.
      2.45700241e-03 0. 0. 0. 0. 0. 0. 0. 2.45700241e-03 7.37100746e-03
      0. 9.82800964e-03 0. 0. 0. 0. 0. 0. 0. 0. 2.45700241e-03 0. 0. 0.
      0. 0. 0. 0. 2.45700241e-03 0. 0. 7.37100746e-03 0. 0. 0.
      2.45700236e-02 0. 0. 4.91400482e-03 0. 9.82800964e-03 0. 0. 0. 0.
      2.45700241e-03 0. 2.45700241e-03 4.91400482e-03 0. 0. 0. 0. 0.
      2.45700241e-03 2.45700241e-03 7.37100746e-03 0. 0. 0. 0. 0. 0. 0.
      0. 0. 9.82800964e-03 0. 0. 2.45700241e-03 0. 2.45700241e-03 0. 0.
      0. 0. 0. 0. 0. 0. 0. 2.45700241e-03 0. 0. 0. 0. 2.45700241e-03 0.
      0. 1.47420149e-02 0. 2.45700241e-03 0. 0. 0. 0. 0. 0. 0.
      4.91400482e-03 0. 0. 0. 0. 0. 0. 0. 0. 9.82800964e-03
      4.91400482e-03 0. 0. 0. 0. 2.45700241e-03 0. 2.45700241e-03 0.
      4.91400482e-03 0. 0. 2.45700241e-03 0. 2.45700241e-03 0.
      2.45700241e-03 4.91400482e-03 0. 0. 0. 0. 0. 0. 2.45700241e-03 0.
      0. 0. 2.45700241e-03 0. 0. 2.45700241e-03 0. 4.91400482e-03 0. 0.
      0. 0. 0. 0. 2.45700241e-03 0. 2.45700241e-03 2.45700241e-03 0.
      9.82800964e-03 0. 0. 7.37100746e-03 0. 0. 0. 0. 0. 0.
      2.45700241e-03 0. 0. 9.82800964e-03 4.91400482e-03 0. 0. 0. 0. 0.
      4.91400482e-03 0. 0. 2.45700241e-03 0. 0. 0. 0. 0. 0.
      2.45700241e-03 9.82800964e-03 0. 0. 0. 0. 0. 2.45700241e-03 0.
      7.37100746e-03 0. 2.45700241e-03 0. 0. 0. 0. 0. 0. 2.45700241e-03
      0. 0. 0. 0. 0. 0. 0. 0. 0. 7.37100746e-03 7.37100746e-03 0. 0. 0.
      2.45700241e-03 0. 0. 0. 0. 2.45700241e-03 0. 0. 0. 0. 0. 0. 0.
      2.45700241e-03 0. 2.45700241e-03 0. 4.91400482e-03 2.45700241e-03
      0. 0. 0. 2.45700241e-03 0. 0. 0. 4.91400482e-03 4.91400482e-03 0.
      0. 0. 0. 2.45700241e-03 0. 0. 2.45700241e-03 0. 0. 0. 0. 0. 0. 0.
      7.37100746e-03 0. 0. 7.37100746e-03 4.91400482e-03 0. 0. 0. 0. 0.
      0. 0. 0. 0. 0. 0. 0. 0. 0. 0. 0. 2.45700241e-03 0. 0. 0. 0. 0. 0.
      0. 0. 2.45700241e-03 0. 0. 0. 0. 0. 0. 0. 0. 0. 0. 0. 0. 0. 0. 0.
      0. 0. 0. 0. 0. 1.22850118e-02 0. 0. 0. 0. 0. 0. 1.22850118e-02 0.
      0. 0. 0. 0. 7.37100746e-03 2.45700241e-03 4.91400482e-03 0. 0.
      7.37100746e-03 0. 0. 0. 0. 0. 2.45700241e-03 0. 0. 0. 0. 0. 0. 0.
      2.45700241e-03 0. 0. 0. 0. 0. 0. 0. 0. 0. 0. 0. 0. 0. 0. 0. 0. 0.
      0. 0. 0. 0. 0. 0. 2.45700241e-03 0. 0. 0. 0. 2.45700241e-03 0. 0.
      0. 0. 2.45700241e-03 2.45700241e-03 0. 0. 4.91400482e-03 0. 0. 0.
      0. 4.91400482e-03 4.91400482e-03 0. 0. 0. 1.22850118e-02 0. 0. 0.
      0. 0. 0. 0. 0. 9.82800964e-03 0. 0. 0. 0. 0. 4.91400482e-03 0. 0.
      0. 0. 0. 0. 0. 0. 0. 0. 9.82800964e-03 2.45700241e-03 0. 0. 0. 0.
      2.45700241e-03 9.82800964e-03 0. 2.45700241e-03 2.45700241e-03 0.
      2.45700241e-03 0. 0. 0. 0. 0. 0. 0. 0. 0. 0. 0. 0. 0. 0.
      2.45700241e-03 0. 0. 2.45700241e-03 0. 0. 0. 0. 0. 0.
      2.45700241e-03 0. 0. 0. 0. 0. 2.45700241e-03 0. 0. 0. 0.
      4.91400482e-03 2.45700241e-03 0. 0. 0. 0. 2.45700241e-03 0.
      2.45700241e-03 0. 0. 0. 4.91400482e-03 0. 0. 2.45700241e-03
      7.37100746e-03 2.45700241e-03 0. 0. 0. 0. 9.82800964e-03 0. 0. 0.
      0. 0. 0. 0. 0. 7.37100746e-03 2.45700241e-03 0. 0. 0.
      1.22850118e-02 0. 0. 0. 0. 4.91400482e-03 2.45700241e-03 0. 0. 0.
      0. 0. 0. 2.45700241e-03 0. 1.22850118e-02 0. 0. 2.45700241e-03 0.
      0. 0. 0. 0. 1.71990171e-02 0. 0. 0. 0. 2.45700241e-03
      1.71990171e-02 0. 0. 0. 2.45700241e-03 2.45700241e-03 0. 0. 0. 0.
      7.37100746e-03 0. 0. 0. 0. 0. 0. 2.45700241e-03 0. 0.
      4.91400482e-03 0. 2.45700241e-03 0. 0. 0. 0. 0. 2.45700241e-03 0.
      0. 0. 0. 0. 0. 0. 0. 0. 0. 0. 2.45700241e-03 0. 2.45700241e-03 0.
      0. 0. 0. 0. 0. 0. 0. 0. 0. 0. 0. 0. 0. 4.91400482e-03 0. 0. 0. 0.
      0. 0. 0. 0. 2.45700241e-03 0. 0. 0. 0. 0. 0. 0. 0. 0. 0. 0. 0. 0.
      2.45700241e-03 0. 0. 0. 0. 0. 0. 0. 0. 0. 0. 0. 0. 0. 0. 0. 0. 0.
      0. 0. 2.45700241e-03 1.22850118e-02 2.45700241e-03 2.45700241e-03
      0. 0. 0. 0. 0. 0. 0. 0. 0. 0. 0. 0. 0. 0. 0. 0. 0. 0. 0. 0. 0. 0.
      0. 2.45700241e-03 0. 0. 0. 0. 2.45700241e-03 0. 0. 2.45700241e-03
      0. 0. 0. 0. 0. 0. 0. 2.45700241e-03 7.37100746e-03 0. 0. 0. 0.
      4.91400482e-03 0. 0. 0. 0. 0. 0. 0. 0. 0. 2.45700241e-03 0. 0.
      2.45700241e-03 0. 0. 0. 0. 0. 0. 0. 0. 0. 0. 0. 0. 0. 0. 0. 0. 0.
      0. 0. 0. 4.91400482e-03 4.91400482e-03 0. 2.45700241e-03 0. 0. 0.
      0. 0. 0. 2.45700241e-03 0. 4.91400482e-03 0. 0. 0. 0. 0. 0.
      2.45700241e-03 2.45700241e-03 2.45700241e-03 0. 0. 4.91400482e-03
      0. 0. 0. 0. 0. 0. 0. 0. 0. 2.45700241e-03 0. 0. 0. 0. 0. 0. 0. 0.
      0. 0. 0. 0. 2.45700241e-03 2.45700241e-03 4.91400482e-03 0.
      2.45700241e-03 0. 0. 4.91400482e-03 0. 0. 0. 0. 7.37100746e-03
      9.82800964e-03 0. 2.45700241e-03 0. 4.91400482e-03 2.45700241e-03
      0. 0. 0. 0. 0. 0. 2.45700241e-03 4.91400482e-03 0. 0. 0.
      2.45700241e-03 0. 2.45700241e-03 2.45700241e-03 0. 7.37100746e-03
      0. 2.45700241e-03 0. 0.</_>
    <_>
      2.04918021e-03 0. 0. 0. 0. 0. 4.09836043e-03 4.09836043e-03 0. 0.
      0. 0. 0. 2.04918021e-03 0. 1.02459006e-02 2.04918021e-03 0. 0. 0.
      0. 0. 4.09836043e-03 0. 0. 0. 4.09836043e-03 0. 4.09836043e-03 0.
      0. 2.04918021e-03 2.04918021e-03 0. 0. 2.04918021e-03 0. 0.
      4.09836043e-03 6.14754064e-03 0. 0. 0. 0. 0. 0. 0. 0. 0. 0. 0. 0.
      4.09836043e-03 2.04918021e-03 2.04918021e-03 2.04918021e-03 0.
      2.04918021e-03 0. 0. 0. 0. 0. 0. 0. 0. 2.04918021e-03 0. 0. 0. 0.
      2.04918021e-03 1.84426215e-02 0. 1.43442620e-02 0. 2.04918021e-03
      0. 0. 0. 0. 2.04918021e-03 0. 0. 0. 0. 2.04918021e-03 0. 0. 0.
      2.25409828e-02 0. 2.04918021e-03 0. 2.04918021e-03 0. 0. 0. 0. 0.
      2.04918021e-03 4.09836043e-03 0. 2.04918021e-03 0. 0. 0. 0. 0. 0.
      1.22950813e-02 0. 0. 0. 4.09836043e-03 0. 4.09836043e-03 0. 0. 0.
      0. 0. 0. 0. 0. 2.04918021e-03 0. 0. 2.04918021e-03 0. 0. 0.
      2.04918021e-03 0. 0. 4.09836043e-03 0. 0. 0. 2.04918021e-03 0.
      2.04918021e-03 0. 6.14754064e-03 6.14754064e-03 0. 0. 0. 0. 0. 0.
      2.04918021e-03 6.14754064e-03 0. 4.09836043e-03 0. 4.09836043e-03
      0. 0. 0. 0. 0. 2.04918021e-03 0. 0. 0. 0. 2.04918021e-03 0. 0.
      2.04918021e-03 0. 0. 0. 0. 2.04918021e-03 0. 0. 0. 0. 0. 0. 0. 0.
      0. 0. 0. 2.04918021e-03 0. 2.04918021e-03 0. 2.04918021e-03 0. 0.
      0. 0. 0. 0. 2.04918021e-03 2.04918021e-03 0. 0. 0. 0.
      1.22950813e-02 0. 0. 0. 0. 0. 0. 0. 0. 0. 0. 0. 0. 0. 0.
      4.09836043e-03 0. 0. 0. 0. 0. 6.14754064e-03 0. 0. 0. 0.
      6.14754064e-03 0. 0. 0. 2.04918021e-03 0. 0. 0. 0. 8.19672085e-03
      4.09836043e-03 0. 2.04918021e-03 0. 0. 0. 2.04918021e-03 0. 0. 0.
      0. 0. 2.04918021e-03 0. 0. 0. 0. 2.04918021e-03 8.19672085e-03
      2.04918021e-03 2.04918021e-03 0. 0. 0. 0. 0. 0. 0. 4.09836043e-03
      0. 8.19672085e-03 2.04918021e-03 0. 4.09836043e-03 0. 0. 0. 0.
      2.04918021e-03 0. 2.04918021e-03 0. 0. 0. 2.04918021e-03
      2.04918021e-03 0. 0. 0. 0. 2.04918021e-03 0. 0. 0. 0. 0. 0. 0.
      2.04918021e-03 0. 0. 0. 0. 0. 0. 0. 0. 2.04918021e-03 0. 0. 0. 0.
      0. 0. 0. 0. 0. 0. 0. 0. 0. 0. 0. 0. 0. 1.02459006e-02 0. 0. 0. 0.
      0. 0. 4.09836043e-03 0. 0. 0. 0. 0. 0. 6.14754064e-03 0.
      2.04918021e-03 6.14754064e-03 0. 0. 0. 2.04918021e-03 0. 0. 0. 0.
      6.14754064e-03 0. 0. 0. 0. 0. 0. 0. 0. 0. 0. 0. 0. 0.
      2.04918021e-03 1.43442620e-02 2.04918021e-03 0. 0. 0. 0. 0. 0. 0.
      0. 0. 0. 0. 2.04918021e-03 4.09836043e-03 0. 0. 2.04918021e-03
      4.09836043e-03 0. 0. 0. 0. 0. 2.04918021e-03 0. 2.04918021e-03 0.
      0. 0. 0. 0. 0. 0. 0. 8.19672085e-03 2.04918021e-03 0. 0. 0.
      2.04918021e-03 0. 0. 0. 0. 4.09836043e-03 1.02459006e-02
      2.04918021e-03 0. 0. 4.09836043e-03 0. 0. 0. 4.09836043e-03
      4.09836043e-03 0. 0. 0. 0. 2.04918021e-03 2.04918021e-03
      2.04918021e-03 0. 0. 4.09836043e-03 0. 0. 0. 0. 2.04918021e-03 0.
      0. 0. 0. 0. 2.04918021e-03 6.14754064e-03 0. 0. 0. 0. 0.
      4.09836043e-03 0. 0. 0. 0. 8.19672085e-03 0. 0. 0. 0.
      2.04918021e-03 0. 0. 1.02459006e-02 2.04918021e-03 0. 0. 0.
      6.14754064e-03 0. 0. 0. 0. 0. 0. 0. 4.09836043e-03 0. 0. 0. 0.
      8.19672085e-03 0. 4.09836043e-03 0. 0. 0. 0. 0. 0. 6.14754064e-03
      0. 2.04918021e-03 0. 4.09836043e-03 0. 4.09836043e-03
      2.04918021e-03 2.04918021e-03 0. 0. 0. 0. 0. 0. 0. 2.04918021e-03
      0. 0. 2.04918021e-03 0. 0. 0. 0. 0. 0. 2.04918021e-03 0. 0. 0. 0.
      0. 0. 0. 0. 0. 0. 6.14754064e-03 0. 2.04918021e-03 0.
      1.02459006e-02 0. 0. 0. 0. 0. 0. 2.04918021e-03 2.04918021e-03 0.
      2.04918021e-03 0. 2.04918021e-03 0. 0. 0. 0. 0. 0. 6.14754064e-03
      0. 4.09836043e-03 0. 0. 0. 0. 0. 2.04918021e-03 6.14754064e-03 0.
      0. 2.04918021e-03 0. 0. 2.04918021e-03 0. 0. 0. 0. 0. 0. 0. 0. 0.
      0. 0. 0. 0. 0. 0. 2.04918021e-03 0. 0. 0. 4.09836043e-03
      8.19672085e-03 0. 0. 2.04918021e-03 4.09836043e-03 4.09836043e-03
      0. 0. 0. 4.09836043e-03 0. 0. 2.04918021e-03 0. 0. 0. 0.
      2.04918021e-03 0. 0. 2.04918021e-03 0. 0. 0. 0. 0. 8.19672085e-03
      0. 0. 0. 0. 0. 0. 0. 0. 0. 0. 0. 0. 0. 0. 2.04918021e-03 0. 0. 0.
      0. 0. 2.04918021e-03 0. 0. 0. 2.04918021e-03 0. 2.04918021e-03 0.
      4.09836043e-03 0. 2.04918021e-03 2.04918021e-03 0. 0.
      2.04918021e-03 0. 0. 0. 0. 0. 0. 2.04918021e-03 0. 0. 0. 0. 0. 0.
      0. 0. 0. 0. 0. 4.09836043e-03 8.19672085e-03 0. 0. 0. 0. 0. 0. 0.
      0. 0. 0. 0. 0. 0. 6.14754064e-03 0. 0. 2.04918021e-03 0.
      2.04918021e-03 1.43442620e-02 0. 0. 0. 0. 0. 0. 4.09836043e-03 0.
      0. 0. 0. 0. 0. 6.14754064e-03 0. 0. 0. 0. 0. 0. 0. 0. 0. 0.
      4.09836043e-03 1.22950813e-02 0. 0. 2.04918021e-03 0. 0. 0. 0. 0.
      0. 0. 0. 0. 0. 0. 0. 2.04918021e-03 2.04918021e-03 2.04918021e-03
      0. 0. 6.14754064e-03 0. 0. 0. 0. 0. 0. 1.22950813e-02 0. 0. 0. 0.
      0. 0. 0. 0. 2.04918021e-03 6.14754064e-03 0. 2.04918012e-02 0. 0.
      1.43442620e-02 0. 2.04918021e-03 0. 0. 2.04918021e-03 0. 0. 0. 0.
      0. 0. 0. 0. 0. 0. 0. 2.04918021e-03 0. 0. 0. 0. 0. 0. 0. 0. 0. 0.
      0. 0. 0. 0. 2.04918021e-03 0. 0. 0. 0. 0. 4.09836043e-03 0. 0. 0.
      0. 0. 0. 0. 4.09836043e-03 0. 0. 0. 0. 0. 0. 0. 0. 6.14754064e-03
      0. 0. 0. 0. 0. 0. 0. 0. 0. 4.09836043e-03 2.04918021e-03 0. 0. 0.
      0. 0. 0. 0. 2.04918021e-03 2.04918021e-03 0. 0. 0. 0. 0.
      2.04918021e-03 0. 0. 0. 0. 0. 0. 0. 0. 0. 0. 0. 0. 0. 0. 0. 0.
      8.19672085e-03 2.04918021e-03 0. 2.04918021e-03 0. 0. 0. 0. 0.
      2.04918021e-03 0. 0. 2.04918021e-03 0. 0. 0. 0. 2.04918021e-03 0.
      0. 0. 2.25409828e-02 0. 0. 0. 0. 4.09836043e-03 8.19672085e-03 0.
      0. 2.04918021e-03 0. 0. 0. 0. 0. 2.04918021e-03 0. 0. 0. 0. 0. 0.
      0. 0. 0. 0. 0. 0. 2.04918021e-03 0. 2.04918021e-03 0. 0. 0.
      4.09836043e-03 2.04918021e-03 0. 0. 0. 4.09836043e-03 0. 0. 0. 0.
      0. 0. 0. 0. 2.04918021e-03 0. 0. 0. 0. 0. 0. 0. 0. 0. 0. 0. 0. 0.
      2.04918021e-03 2.86885239e-02 2.25409828e-02 0. 0. 0.
      4.09836043e-03 0. 0. 0. 4.09836043e-03 2.04918021e-03
      4.09836043e-03 0. 0. 0. 0. 0. 2.04918021e-03 4.09836043e-03 0. 0.
      0. 0. 0. 0. 0. 0. 0. 0. 0. 0. 0. 0. 0. 0. 1.63934417e-02
      6.14754064e-03 0. 2.04918021e-03 0. 0. 0. 0. 0. 0. 0. 0. 0. 0. 0.
      2.04918021e-03 0. 6.14754064e-03 2.04918021e-03 0. 0. 0. 0. 0. 0.
      0. 4.09836043e-03 2.04918021e-03</_>
    <_>
      1.19047631e-02 0. 3.96825420e-03 0. 0. 0. 7.93650839e-03 0. 0. 0.
      3.96825420e-03 0. 0. 0. 0. 3.96825420e-03 0. 0. 0. 0. 0.
      3.96825420e-03 7.93650839e-03 0. 0. 0. 0. 0. 0. 0. 0. 0. 0. 0. 0.
      0. 0. 0. 3.96825420e-03 7.93650839e-03 0. 0. 0. 0. 0. 0. 0. 0. 0.
      0. 0. 0. 0. 0. 0. 0. 0. 0. 0. 1.98412705e-02 0. 0. 0. 0. 0. 0. 0.
      0. 0. 0. 0. 0. 1.19047631e-02 0. 0. 0. 0. 0. 0. 0. 0. 0.
      3.96825420e-03 0. 0. 0. 0. 0. 0. 0. 0. 0. 0. 0. 0. 0. 0. 0. 0. 0.
      0. 3.96825420e-03 0. 0. 0. 0. 0. 0. 0. 0. 0. 0. 0. 0.
      1.19047631e-02 3.96825420e-03 1.19047631e-02 0. 0. 0. 0.
      5.15873060e-02 0. 0. 0. 3.96825420e-03 0. 0. 0. 0. 0. 0.
      1.19047631e-02 0. 3.96825420e-03 0. 0. 3.96825420e-03 0.
      3.96825420e-03 0. 3.96825420e-03 0. 0. 0. 0. 0. 3.96825420e-03 0.
      0. 0. 0. 3.96825420e-03 1.98412705e-02 3.96825420e-03
      3.96825420e-03 0. 0. 0. 0. 0. 0. 3.96825420e-03 3.96825420e-03 0.
      0. 0. 3.96825420e-03 0. 0. 0. 0. 0. 0. 0. 0. 0. 3.96825420e-03 0.
      0. 0. 0. 0. 0. 0. 0. 0. 0. 0. 0. 0. 3.96825420e-03 0. 0. 0. 0. 0.
      0. 0. 0. 0. 0. 0. 0. 0. 0. 0. 0. 0. 3.96825420e-03 0. 0. 0. 0. 0.
      0. 0. 0. 3.96825420e-03 0. 3.96825420e-03 0. 0. 0. 0. 0. 0. 0. 0.
      0. 3.96825420e-03 0. 0. 3.96825420e-03 0. 3.96825420e-03 0. 0. 0.
      3.96825420e-03 0. 0. 0. 0. 0. 0. 0. 0. 0. 0. 0. 0. 3.96825420e-03
      0. 0. 0. 0. 1.19047631e-02 7.93650839e-03 0. 0. 0. 0. 0. 0.
      3.96825420e-03 0. 0. 0. 0. 3.96825420e-03 0. 0. 1.98412705e-02 0.
      0. 0. 0. 0. 0. 3.17460336e-02 0. 0. 3.96825420e-03 0. 0. 0. 0. 0.
      0. 3.96825420e-03 0. 3.96825420e-03 0. 0. 0. 0. 0. 0. 0. 0. 0. 0.
      0. 0. 0. 0. 0. 0. 0. 0. 0. 0. 0. 0. 0. 0. 0. 0. 0. 0. 0. 0. 0. 0.
      0. 3.96825420e-03 0. 0. 0. 0. 0. 2.77777798e-02 0. 0. 0. 0. 0. 0.
      1.58730168e-02 0. 0. 0. 0. 0. 0. 3.96825420e-03 0. 0. 0.
      3.96825420e-03 0. 0. 0. 3.96825420e-03 0. 0. 0. 0. 0. 0. 0. 0.
      3.96825420e-03 0. 0. 1.58730168e-02 0. 0. 0. 0. 0. 0. 0. 0. 0. 0.
      0. 0. 0. 3.96825420e-03 0. 0. 7.93650839e-03 0. 0. 0. 0. 0. 0.
      3.96825420e-03 0. 1.58730168e-02 0. 3.96825420e-03 0. 0. 0.
      3.96825420e-03 0. 0. 3.96825420e-03 3.96825420e-03 3.96825420e-03
      0. 0. 0. 0. 0. 0. 0. 0. 3.96825420e-03 0. 0. 0. 0. 0. 0. 0. 0. 0.
      0. 0. 0. 0. 0. 0. 0. 0. 0. 0. 0. 3.96825420e-03 0. 0. 0. 0. 0. 0.
      0. 0. 0. 3.96825420e-03 0. 0. 0. 0. 0. 0. 0. 0. 0. 0.
      3.96825420e-03 0. 0. 0. 0. 0. 0. 0. 0. 0. 0. 0. 0. 0. 0. 0. 0. 0.
      0. 0. 0. 0. 0. 0. 0. 0. 0. 0. 0. 0. 0. 0. 0. 0. 0. 0. 0. 0. 0. 0.
      0. 0. 0. 0. 1.98412705e-02 0. 3.96825420e-03 0. 0. 0. 0. 0. 0. 0.
      0. 0. 0. 0. 0. 0. 0. 0. 0. 0. 0. 0. 0. 0. 0. 0. 0. 3.96825420e-03
      0. 0. 4.36507948e-02 0. 3.96825420e-03 0. 3.96825420e-03 0.
      1.19047631e-02 0. 0. 0. 1.98412705e-02 7.93650839e-03
      1.98412705e-02 0. 0. 0. 0. 0. 0. 0. 0. 0. 0. 0. 0. 0. 0. 0. 0. 0.
      0. 0. 0. 1.58730168e-02 0. 0. 0. 0. 0. 0. 0. 0. 0. 7.93650839e-03
      0. 0. 7.93650839e-03 0. 0. 0. 0. 0. 1.98412705e-02 0. 0. 0. 0.
      1.19047631e-02 0. 0. 0. 0. 0. 0. 0. 0. 3.96825420e-03 0. 0. 0. 0.
      0. 0. 0. 0. 0. 0. 0. 0. 0. 0. 0. 0. 0. 0. 0. 0. 0. 0. 0. 0. 0. 0.
      0. 0. 0. 0. 0. 0. 0. 0. 0. 0. 0. 0. 0. 0. 0. 0. 0. 0. 0. 0. 0. 0.
      0. 0. 0. 0. 0. 0. 0. 0. 0. 0. 0. 0. 0. 0. 0. 0. 0. 0. 0. 0. 0. 0.
      0. 0. 0. 0. 0. 0. 0. 0. 0. 0. 0. 1.19047631e-02 3.96825420e-03 0.
      0. 0. 3.96825420e-03 0. 0. 0. 0. 0. 0. 0. 1.19047631e-02 0. 0. 0.
      0. 0. 0. 0. 0. 0. 0. 3.96825420e-03 0. 0. 0. 0. 0. 0. 0. 0. 0. 0.
      0. 0. 0. 0. 1.19047631e-02 0. 0. 0. 0. 0. 0. 0. 0. 3.96825420e-03
      0. 0. 0. 3.57142873e-02 0. 3.96825420e-03 0. 0. 0. 0. 0. 0. 0. 0.
      0. 7.93650839e-03 0. 0. 0. 3.96825410e-02 0. 0. 0. 0. 0.
      3.96825420e-03 0. 2.38095261e-02 0. 0. 0. 0. 0. 0. 0. 0. 0. 0. 0.
      0. 0. 0. 0. 0. 0. 0. 0. 0. 0. 0. 0. 0. 0. 0. 0. 0. 0. 0. 0. 0. 0.
      0. 3.96825420e-03 0. 0. 0. 0. 0. 3.96825420e-03 0. 0. 0. 0. 0. 0.
      0. 0. 0. 0. 0. 0. 0. 0. 0. 0. 0. 0. 0. 0. 0. 0. 0. 0. 0. 0. 0. 0.
      0. 0. 0. 0. 0. 0. 0. 0. 0. 0. 0. 0. 0. 0. 1.19047631e-02 0. 0. 0.
      0. 0. 0. 0. 0. 0. 0. 0. 0. 0. 0. 0. 0. 7.93650839e-03 0. 0. 0. 0.
      0. 0. 0. 0. 0. 0. 0. 0. 0. 0. 0. 0. 0. 0. 0. 0. 1.98412705e-02 0.
      0. 0. 0. 0. 1.98412705e-02 0. 0. 0. 0. 0. 0. 0. 0. 0. 0. 0. 0. 0.
      0. 0. 0. 0. 0. 0. 0. 0. 0. 0. 0. 0. 0. 0. 0. 0. 0. 0. 0. 0. 0. 0.
      0. 0. 0. 0. 0. 1.19047631e-02 0. 0. 0. 0. 0. 0. 0. 0. 0. 0. 0. 0.
      0. 0. 0. 0. 0. 0. 0. 0. 0. 0. 0. 0. 0. 0. 0. 0. 0. 0. 0. 0.
      3.96825420e-03 0. 0. 0. 0. 3.96825420e-03 0. 3.96825420e-03 0. 0.
      0. 0. 0. 0. 0. 0. 0. 0. 0. 0. 0. 0. 0. 0. 0. 0. 0. 0. 0. 0. 0.
      3.96825420e-03 0. 0. 0. 0. 0. 0. 0. 0. 0. 0. 0. 0. 0. 0.</_>
    <_>
      0. 0. 0. 0. 2.84900283e-03 0. 1.42450146e-02 0. 0. 0.
      5.69800567e-03 0. 0. 0. 0. 5.69800567e-03 5.69800567e-03 0. 0. 0.
      0. 0. 1.13960113e-02 0. 0. 0. 0. 0. 0. 0. 0. 0. 0. 0. 0. 0. 0. 0.
      8.54700804e-03 2.84900283e-03 2.84900283e-03 0. 0. 0. 0. 0. 0. 0.
      0. 0. 0. 0. 2.84900283e-03 0. 0. 0. 0. 0. 0. 5.69800567e-03 0. 0.
      0. 0. 0. 0. 0. 0. 0. 0. 0. 0. 8.54700804e-03 0. 0. 0.
      2.84900283e-03 0. 0. 0. 0. 0. 0. 0. 0. 0. 0. 2.84900283e-03 0. 0.
      0. 0. 0. 0. 0. 0. 0. 0. 0. 0. 0. 1.13960113e-02 0. 0. 0. 0. 0.
      8.54700804e-03 0. 0. 1.42450146e-02 0. 0. 0. 1.13960113e-02
      2.84900283e-03 5.69800567e-03 0. 0. 2.84900283e-03 0.
      1.70940161e-02 0. 0. 2.84900283e-03 0. 2.84900283e-03 0. 0. 0. 0.
      0. 8.54700804e-03 0. 2.84900283e-03 0. 0. 0. 0. 5.69800567e-03 0.
      5.69800567e-03 0. 0. 2.84900283e-03 0. 2.84900283e-03
      5.69800567e-03 0. 0. 0. 0. 5.69800567e-03 3.70370373e-02
      2.84900283e-03 0. 0. 0. 0. 0. 0. 0. 0. 0. 0. 0. 5.69800567e-03 0.
      0. 0. 0. 0. 0. 0. 2.84900283e-03 0. 0. 0. 2.84900283e-03 0. 0. 0.
      0. 0. 0. 0. 0. 0. 0. 0. 0. 0. 0. 0. 0. 0. 2.84900283e-03 0. 0. 0.
      0. 0. 0. 0. 2.84900283e-03 0. 0. 0. 0. 2.27920227e-02 0. 0. 0. 0.
      0. 0. 0. 0. 0. 0. 0. 0. 0. 5.69800567e-03 0. 0. 0. 0. 0. 0. 0. 0.
      0. 0. 0. 0. 0. 0. 0. 2.84900283e-03 0. 0. 0. 0. 0. 0. 0. 0. 0. 0.
      0. 0. 5.69800567e-03 0. 0. 0. 0. 5.69800567e-03 2.84900283e-03 0.
      0. 0. 0. 2.84900283e-03 0. 0. 0. 0. 0. 0. 1.70940161e-02 0. 0.
      8.54700804e-03 0. 0. 0. 0. 0. 0. 1.99430194e-02 0. 0. 0. 0. 0. 0.
      0. 2.84900283e-03 2.84900283e-03 0. 0. 0. 0. 0. 0. 0. 0. 0. 0. 0.
      0. 2.84900283e-03 2.84900283e-03 0. 0. 0. 2.84900283e-03 0. 0. 0.
      8.54700804e-03 0. 0. 0. 0. 0. 0. 0. 0. 0. 0. 0. 0. 0.
      2.84900283e-03 0. 0. 0. 5.69800567e-03 0. 0. 1.99430194e-02 0. 0.
      2.84900283e-03 0. 0. 0. 1.42450146e-02 0. 0. 5.69800567e-03 0. 0.
      2.84900283e-03 0. 0. 0. 0. 0. 0. 0. 0. 0. 0. 0. 0. 0. 0. 0. 0. 0.
      0. 0. 0. 1.42450146e-02 5.69800567e-03 0. 0. 0. 0. 0. 0. 0. 0. 0.
      0. 0. 0. 0. 0. 0. 8.54700804e-03 0. 0. 0. 0. 0. 0. 0. 0.
      1.42450146e-02 0. 2.84900283e-03 0. 0. 0. 2.84900283e-03 0. 0.
      2.84900283e-03 5.69800567e-03 0. 0. 2.84900283e-03 2.84900283e-03
      0. 0. 0. 0. 8.54700804e-03 0. 0. 0. 2.84900283e-03 2.84900283e-03
      0. 0. 0. 0. 0. 0. 0. 0. 0. 0. 0. 0. 0. 0. 0. 0. 0. 0. 0. 0. 0. 0.
      0. 0. 0. 2.84900283e-03 0. 0. 0. 0. 0. 0. 0. 0. 0. 0. 0. 0. 0. 0.
      0. 0. 0. 0. 0. 0. 2.84900283e-03 2.84900283e-03 0. 0.
      2.84900283e-03 0. 0. 0. 0. 0. 0. 0. 0. 0. 0. 0. 0. 2.84900283e-03
      0. 0. 0. 0. 0. 0. 2.84900283e-03 0. 0. 0. 0. 2.84900283e-03
      2.84900283e-03 0. 0. 2.84900283e-03 0. 8.54700804e-03 0. 0. 0. 0.
      2.84900283e-03 0. 0. 0. 0. 0. 0. 0. 0. 0. 0. 0. 0. 1.42450146e-02
      2.84900283e-03 0. 0. 2.84900283e-03 0. 0. 0. 0. 5.69800567e-03
      2.84900283e-03 0. 8.54700804e-03 0. 0. 0. 0. 0. 0. 0. 0. 0.
      8.54700804e-03 0. 8.54700804e-03 0. 0. 0. 0. 2.84900283e-03 0. 0.
      0. 0. 0. 0. 0. 0. 0. 0. 0. 0. 0. 0. 0. 5.69800567e-03
      5.69800567e-03 0. 0. 0. 0. 0. 0. 0. 0. 0. 0. 0. 2.84900283e-03 0.
      2.84900283e-03 2.84900283e-03 0. 0. 5.69800567e-03 0. 0. 0. 0.
      2.27920227e-02 0. 0. 0. 0. 0. 0. 0. 0. 0. 0. 0. 0. 0.
      2.84900283e-03 0. 0. 0. 0. 0. 2.84900283e-03 0. 0. 0. 0. 0. 0. 0.
      0. 0. 0. 0. 0. 0. 0. 0. 0. 0. 0. 0. 0. 0. 0. 0. 0. 0. 0. 0. 0. 0.
      0. 2.84900283e-03 0. 0. 0. 0. 0. 0. 2.84900283e-03 0. 0.
      8.54700804e-03 0. 0. 0. 0. 0. 0. 0. 0. 0. 0. 0. 0. 0. 0. 0. 0. 0.
      0. 5.69800567e-03 2.84900283e-03 0. 0. 2.84900283e-03 0. 0. 0. 0.
      0. 0. 1.42450146e-02 0. 0. 0. 0. 1.13960113e-02 0. 0.
      2.84900283e-03 0. 0. 0. 0. 2.84900283e-03 0. 2.84900283e-03 0. 0.
      0. 0. 0. 0. 0. 0. 0. 0. 2.84900283e-03 0. 0. 0. 0. 0. 0. 0. 0. 0.
      1.13960113e-02 0. 0. 5.69800567e-03 0. 0. 0. 0. 0. 0. 0. 0. 0. 0.
      0. 0. 3.13390307e-02 0. 0. 0. 0. 0. 0. 0. 0. 0. 0. 2.84900283e-03
      1.70940161e-02 0. 0. 0. 2.27920227e-02 0. 0. 0. 0. 0.
      8.54700804e-03 0. 1.99430194e-02 0. 0. 0. 0. 0. 0. 0.
      2.84900283e-03 0. 0. 0. 0. 0. 0. 0. 0. 0. 0. 0. 0. 0. 0.
      2.84900283e-03 0. 0. 0. 0. 0. 0. 0. 0. 0. 0. 2.84900283e-03
      2.84900283e-03 0. 0. 0. 0. 0. 0. 0. 0. 0. 0. 0. 0. 0. 0. 0. 0. 0.
      0. 2.84900283e-03 0. 2.84900283e-03 0. 2.84900283e-03 0. 0. 0. 0.
      0. 0. 0. 0. 0. 0. 0. 2.84900283e-03 0. 0. 0. 0. 2.84900283e-03 0.
      0. 0. 2.84900283e-03 0. 0. 0. 0. 5.69800567e-03 0. 0. 0. 0. 0. 0.
      2.84900283e-03 0. 0. 0. 0. 0. 0. 0. 0. 0. 1.70940161e-02 0. 0. 0.
      0. 0. 0. 0. 0. 0. 0. 2.84900283e-03 0. 0. 0. 0. 0. 0. 0. 0.
      2.84900283e-03 1.70940161e-02 0. 0. 0. 0. 0. 1.13960113e-02 0. 0.
      2.84900283e-03 0. 0. 0. 0. 0. 0. 0. 0. 0. 0. 0. 0. 0. 0. 0. 0. 0.
      2.84900283e-03 0. 0. 0. 0. 0. 0. 2.84900283e-03 5.69800567e-03
      2.84900283e-03 0. 0. 0. 0. 0. 0. 0. 0. 0. 0. 5.69800567e-03 0. 0.
      0. 0. 0. 0. 0. 0. 0. 0. 0. 0. 2.84900283e-03 2.84900283e-03 0. 0.
      0. 0. 0. 0. 0. 0. 0. 0. 0. 0. 0. 0. 0. 0. 0. 0. 0. 0.
      2.84900283e-03 2.84900283e-03 0. 5.69800567e-03 8.54700804e-03 0.
      2.84900283e-03 0. 0. 0. 0. 0. 0. 0. 0. 0. 0. 1.70940161e-02 0.
      5.69800567e-03 0. 0. 0. 0. 0. 0. 0. 0. 0. 0. 0. 0. 0. 0. 0. 0. 0.
      0. 0. 0. 0. 0. 0. 0.</_>
    <_>
      0. 0. 6.09756075e-03 0. 0. 0. 0. 0. 0. 0. 0. 0. 0. 0. 0.
      6.09756075e-03 0. 0. 0. 0. 0. 0. 6.09756075e-03 0. 0. 0. 0. 0. 0.
      0. 0. 0. 0. 0. 0. 6.09756075e-03 0. 0. 2.43902430e-02
      1.21951215e-02 0. 0. 0. 0. 0. 0. 0. 6.09756075e-03 0. 0. 0. 0. 0.
      0. 0. 0. 0. 0. 0. 0. 0. 0. 0. 0. 0. 0. 0. 0. 0. 0. 0. 0. 0. 0.
      6.09756075e-03 0. 0. 0. 0. 0. 0. 1.21951215e-02 0. 0. 0. 0. 0. 0.
      0. 6.09756075e-03 1.82926822e-02 0. 0. 0. 0. 0. 0. 0. 0. 0. 0. 0.
      0. 0. 0. 0. 0. 6.09756075e-03 0. 0. 6.09756075e-03 0. 0. 0.
      6.09756075e-03 0. 0. 0. 0. 0. 0. 0. 0. 0. 0. 0. 0. 0. 0. 0. 0. 0.
      0. 0. 0. 0. 0. 0. 0. 1.21951215e-02 0. 6.09756075e-03 0. 0.
      6.09756075e-03 0. 0. 0. 0. 0. 0. 0. 0. 0. 6.09756075e-03 0.
      1.21951215e-02 0. 0. 0. 0. 0. 1.21951215e-02 0. 0. 0. 0. 0. 0. 0.
      0. 0. 0. 0. 0. 0. 0. 0. 6.09756075e-03 0. 0. 0. 0. 0. 0. 0. 0. 0.
      0. 0. 0. 0. 0. 6.09756075e-03 0. 0. 0. 0. 0. 0. 0. 0. 0. 0. 0. 0.
      0. 0. 0. 0. 0. 0. 0. 0. 0. 6.09756075e-03 0. 0. 0. 0. 0. 0. 0.
      6.09756075e-03 0. 1.21951215e-02 0. 6.09756075e-03 0. 0. 0. 0. 0.
      0. 0. 0. 0. 0. 0. 6.09756075e-03 0. 0. 0. 0. 0. 0. 6.09756075e-03
      0. 0. 0. 0. 0. 0. 0. 0. 6.09756075e-03 0. 0. 0. 0. 0. 0. 0. 0.
      6.09756075e-03 0. 0. 0. 0. 0. 0. 0. 0. 0. 0. 0. 0. 0. 0. 0. 0. 0.
      0. 0. 0. 0. 0. 0. 6.09756075e-03 0. 0. 0. 0. 0. 0. 0. 0. 0.
      6.09756075e-03 0. 6.09756075e-03 0. 0. 0. 0. 0. 0. 0. 0. 0. 0.
      6.09756075e-03 0. 0. 0. 0. 0. 0. 0. 0. 0. 6.09756075e-03 0. 0. 0.
      0. 0. 0. 0. 0. 0. 0. 3.65853645e-02 0. 0. 0. 0. 0. 0. 0. 0. 0.
      6.09756075e-03 0. 0. 0. 0. 0. 0. 0. 0. 0. 0. 0. 0. 0.
      6.09756075e-03 0. 0. 0. 0. 0. 0. 0. 6.09756075e-03 6.09756075e-03
      0. 6.09756075e-03 0. 0. 0. 0. 6.09756075e-03 0. 0. 0. 0. 0. 0. 0.
      0. 0. 0. 0. 0. 0. 0. 0. 0. 0. 0. 0. 1.21951215e-02 0. 0. 0. 0. 0.
      0. 0. 6.09756075e-03 0. 1.21951215e-02 0. 6.09756075e-03 0.
      6.09756075e-03 0. 0. 0. 0. 0. 6.09756075e-03 0. 0. 0.
      6.09756075e-03 0. 0. 0. 6.09756075e-03 0. 0. 0. 0. 0. 0. 0. 0. 0.
      0. 0. 0. 0. 0. 0. 6.09756075e-03 0. 0. 0. 0. 0. 0. 0. 0. 0. 0. 0.
      0. 0. 0. 0. 0. 0. 1.21951215e-02 0. 0. 0. 0. 0. 0. 0.
      1.21951215e-02 6.09756075e-03 0. 0. 0. 1.21951215e-02 0. 0. 0. 0.
      0. 0. 0. 0. 0. 0. 0. 0. 0. 0. 0. 0. 0. 0. 0. 6.09756075e-03
      6.09756075e-03 1.21951215e-02 0. 6.09756075e-03 0. 0. 0. 0.
      6.09756075e-03 0. 0. 0. 0. 0. 6.09756075e-03 0. 6.09756075e-03 0.
      0. 0. 0. 0. 0. 0. 0. 0. 0. 0. 6.09756075e-03 0. 0. 0. 0. 0. 0. 0.
      6.09756075e-03 0. 6.09756075e-03 0. 1.21951215e-02 0. 0. 0. 0. 0.
      1.21951215e-02 0. 1.82926822e-02 0. 0. 0. 6.09756075e-03 0. 0. 0.
      0. 0. 6.09756075e-03 6.09756075e-03 0. 1.21951215e-02 0. 0. 0. 0.
      0. 0. 0. 6.09756075e-03 0. 0. 0. 6.09756075e-03 0. 1.21951215e-02
      0. 0. 0. 0. 0. 0. 0. 0. 6.09756075e-03 0. 0. 0. 0. 0. 0. 0.
      6.09756075e-03 0. 0. 0. 0. 1.82926822e-02 0. 0. 0. 0. 0. 0. 0. 0.
      0. 0. 0. 0. 0. 0. 0. 0. 0. 0. 0. 6.09756075e-03 0. 0. 0. 0. 0.
      1.21951215e-02 0. 0. 0. 0. 0. 0. 0. 0. 6.09756075e-03 0. 0. 0. 0.
      0. 0. 0. 0. 0. 0. 0. 0. 0. 0. 0. 0. 0. 0. 0. 1.21951215e-02 0. 0.
      0. 0. 0. 6.09756075e-03 0. 0. 0. 0. 6.09756075e-03 0. 0. 0. 0. 0.
      0. 0. 0. 0. 6.09756075e-03 0. 0. 1.21951215e-02 0. 0. 0. 0. 0. 0.
      0. 0. 0. 0. 0. 6.09756075e-03 0. 0. 0. 0. 0. 0. 0. 0. 0.
      6.09756075e-03 0. 0. 6.09756075e-03 0. 0. 0. 0. 0. 0. 0. 0. 0. 0.
      0. 0. 0. 0. 0. 0. 0. 0. 0. 0. 0. 0. 0. 0. 0. 0. 0. 0.
      1.21951215e-02 0. 0. 0. 0. 0. 0. 0. 0. 0. 3.04878037e-02 0. 0.
      6.09756075e-03 0. 0. 0. 6.09756075e-03 0. 0. 0. 0. 0. 0. 0. 0. 0.
      0. 0. 0. 0. 0. 6.09756075e-03 0. 6.09756075e-03 0. 0. 0. 0. 0.
      6.09756075e-03 0. 1.82926822e-02 0. 0. 0. 0. 0. 0. 0. 0. 0. 0. 0.
      0. 0. 0. 0. 0. 0. 0. 0. 0. 0. 0. 0. 0. 0. 0. 0. 0. 0. 0. 0.
      6.09756075e-03 0. 0. 0. 0. 0. 0. 0. 0. 6.09756075e-03 0. 0. 0. 0.
      0. 0. 0. 0. 6.09756075e-03 0. 0. 0. 0. 0. 0. 0. 0. 0. 0. 0. 0. 0.
      0. 0. 0. 0. 0. 0. 0. 6.09756075e-03 0. 0. 0. 0. 0. 0. 0. 0. 0. 0.
      0. 0. 0. 0. 0. 0. 0. 0. 0. 6.09756075e-03 0. 6.09756075e-03 0. 0.
      0. 0. 0. 0. 0. 0. 0. 0. 0. 6.09756075e-03 0. 0. 0. 0. 0. 0. 0. 0.
      0. 0. 0. 0. 0. 6.09756075e-03 0. 0. 0. 6.09756075e-03 0. 0. 0. 0.
      0. 0. 0. 0. 6.09756075e-03 0. 0. 0. 0. 0. 0. 0. 0. 0. 0. 0.
      1.21951215e-02 0. 0. 0. 6.09756075e-03 6.09756075e-03 0. 0. 0.
      6.09756075e-03 0. 0. 0. 0. 0. 0. 0. 0. 0. 0. 0. 0. 0. 0.
      6.09756075e-03 0. 0. 0. 0. 0. 6.09756075e-03 0. 0. 0.
      1.21951215e-02 0. 0. 0. 0. 6.09756075e-03 0. 0. 6.09756075e-03 0.
      6.09756075e-03 0. 0. 0. 0. 0. 0. 0. 0. 0. 0. 0. 1.21951215e-02 0.
      0. 0. 0. 0. 0. 0. 0. 0. 0. 0. 0. 0. 0. 6.09756075e-03 0.
      6.09756075e-03 0. 0. 0. 0. 0. 0. 0. 0. 0. 0. 0. 0. 0. 0.
      6.09756075e-03 0. 0. 0. 0. 0. 0. 0.</_>
    <_>
      2.45098048e-03 0. 0. 0. 0. 0. 4.90196096e-03 0. 0. 0.
      4.90196096e-03 0. 0. 0. 0. 2.45098048e-03 0. 2.45098048e-03 0. 0.
      0. 2.45098048e-03 4.90196096e-03 0. 0. 0. 0. 0. 0. 0. 0. 0. 0. 0.
      0. 0. 0. 0. 9.80392192e-03 1.22549022e-02 0. 0. 0. 0. 0. 0. 0. 0.
      0. 0. 0. 0. 0. 0. 2.45098048e-03 0. 0. 0. 0. 0. 0. 0. 0. 0. 0.
      2.45098048e-03 0. 0. 0. 0. 0. 2.45098048e-03 0. 0. 0. 0.
      2.45098048e-03 0. 0. 0. 0. 0. 0. 0. 0. 0. 0. 0. 2.45098048e-03
      2.45098048e-03 2.45098048e-03 0. 0. 0. 0. 2.45098048e-03 0. 0. 0.
      0. 0. 0. 0. 0. 0. 2.45098048e-03 0. 4.90196096e-03 0. 0.
      2.45098048e-03 0. 2.45098048e-03 0. 0. 0. 2.45098048e-03 0. 0.
      4.90196096e-03 0. 7.35294167e-03 0. 0. 0. 4.90196096e-03 0. 0. 0.
      4.90196096e-03 4.90196096e-03 4.90196096e-03 9.80392192e-03 0. 0.
      0. 0. 0. 0. 0. 0. 2.45098048e-03 0. 0. 2.45098048e-03 0. 0.
      4.90196096e-03 0. 0. 2.45098048e-03 0. 0. 2.45098048e-03 0. 0.
      4.90196096e-03 0. 0. 2.45098048e-03 0. 2.45098048e-03 0. 0. 0. 0.
      0. 0. 0. 0. 2.45098048e-03 0. 0. 0. 0. 0. 0. 4.90196096e-03 0.
      9.80392192e-03 0. 0. 0. 0. 0. 0. 0. 0. 0. 0. 0. 0. 0. 0. 0. 0.
      1.47058833e-02 0. 0. 0. 0. 2.45098048e-03 0. 0. 0. 2.45098048e-03
      2.45098048e-03 0. 0. 0. 2.45098048e-03 0. 0. 0. 0. 0. 0. 0.
      4.90196096e-03 0. 4.90196096e-03 0. 0. 7.35294167e-03 0. 0.
      2.45098048e-03 7.35294167e-03 2.45098048e-03 0. 4.90196096e-03 0.
      2.45098048e-03 2.45098048e-03 2.45098048e-03 0. 0. 0. 0.
      4.90196096e-03 2.45098048e-03 0. 0. 0. 0. 0. 0. 0. 0.
      2.45098048e-03 2.45098048e-03 0. 0. 2.45098048e-03 0. 0. 0.
      2.45098048e-03 2.45098048e-03 0. 0. 2.45098048e-03 0. 0. 0. 0.
      2.45098048e-03 0. 4.90196096e-03 2.45098048e-03 4.90196096e-03 0.
      0. 7.35294167e-03 0. 0. 0. 0. 0. 2.45098048e-03 7.35294167e-03 0.
      0. 2.45098048e-03 0. 2.45098048e-03 0. 0. 2.45098048e-03
      4.90196096e-03 0. 0. 0. 0. 0. 0. 0. 0. 0. 0. 0. 2.45098048e-03 0.
      0. 0. 0. 0. 0. 0. 0. 0. 2.45098048e-03 0. 0. 0. 0. 0. 0. 0. 0. 0.
      0. 0. 0. 0. 7.35294167e-03 0. 0. 0. 0. 0. 0. 1.47058833e-02 0. 0.
      0. 0. 0. 0. 4.90196096e-03 0. 0. 4.90196096e-03 0. 4.90196096e-03
      0. 0. 0. 2.45098048e-03 0. 0. 0. 0. 0. 0. 0. 0. 0. 0. 0. 0. 0. 0.
      2.45098048e-03 2.45098048e-03 0. 1.96078438e-02 2.45098048e-03 0.
      0. 0. 0. 0. 7.35294167e-03 0. 0. 0. 0. 0. 0. 4.90196096e-03 0. 0.
      0. 0. 0. 0. 0. 0. 0. 2.45098048e-03 0. 2.45098048e-03 0.
      7.35294167e-03 0. 0. 0. 4.90196096e-03 0. 0. 2.45098048e-03
      4.90196096e-03 0. 0. 0. 0. 0. 0. 2.45098048e-03 0. 1.22549022e-02
      4.90196096e-03 0. 0. 2.45098048e-03 0. 0. 0. 0. 0. 0.
      2.45098048e-03 2.45098048e-03 0. 0. 0. 2.45098048e-03 0. 0. 0. 0.
      0. 0. 2.45098048e-03 0. 2.45098048e-03 0. 2.45098048e-03 0. 0. 0.
      0. 0. 0. 0. 0. 0. 0. 0. 0. 0. 2.45098048e-03 0. 0. 0. 0.
      2.45098048e-03 0. 2.45098048e-03 0. 0. 2.45098048e-03 0.
      2.45098048e-03 0. 0. 1.22549022e-02 0. 0. 0. 0. 2.45098048e-03 0.
      0. 0. 0. 0. 0. 0. 9.80392192e-03 2.45098048e-03 0. 0. 0. 0.
      2.45098048e-03 0. 0. 0. 0. 0. 0. 2.45098048e-03 2.45098048e-03 0.
      0. 0. 2.45098048e-03 0. 2.45098048e-03 0. 0. 0. 0. 0. 0. 0. 0.
      2.45098048e-03 0. 0. 0. 0. 2.45098048e-03 0. 2.45098048e-03 0.
      2.45098048e-03 0. 0. 2.45098048e-03 0. 0. 0. 7.35294167e-03
      2.45098048e-03 0. 0. 0. 0. 0. 0. 0. 2.45098048e-03 0. 0. 0.
      2.45098048e-03 0. 4.90196096e-03 0. 0. 0. 0. 0. 0. 0. 0. 0. 0. 0.
      0. 0. 4.90196096e-03 0. 4.90196096e-03 2.45098048e-03 0. 0. 0.
      4.90196096e-03 0. 0. 0. 0. 2.45098048e-03 0. 0. 0. 0. 0. 0. 0. 0.
      2.45098048e-03 2.45098048e-03 0. 0. 0. 7.35294167e-03 0. 0. 0. 0.
      9.80392192e-03 2.45098048e-03 4.90196096e-03 0. 0. 0. 0. 0. 0.
      2.45098048e-03 0. 0. 0. 2.45098048e-03 0. 0. 0. 0. 2.45098048e-03
      0. 4.90196096e-03 0. 2.45098048e-03 0. 0. 2.45098048e-03 0. 0. 0.
      0. 0. 4.90196096e-03 0. 0. 0. 0. 0. 0. 2.45098048e-03 0. 0. 0. 0.
      0. 2.45098048e-03 0. 0. 0. 0. 2.45098048e-03 0. 0. 0.
      4.90196096e-03 0. 0. 0. 0. 4.90196096e-03 2.45098048e-03
      2.45098048e-03 0. 2.45098048e-03 0. 0. 0. 0. 0. 0. 0. 0. 0. 0. 0.
      0. 0. 0. 0. 0. 0. 0. 4.90196096e-03 0. 0. 2.45098048e-03 0.
      4.90196096e-03 2.45098048e-03 0. 0. 0. 1.22549022e-02
      4.90196096e-03 2.45098048e-03 0. 2.45098048e-03 2.45098048e-03 0.
      0. 9.80392192e-03 0. 0. 0. 0. 7.35294167e-03 2.45098048e-03 0.
      2.45098048e-03 0. 0. 0. 0. 0. 0. 2.45098048e-03 0. 0. 0. 0. 0. 0.
      0. 0. 0. 0. 0. 2.45098048e-03 0. 0. 0. 7.35294167e-03 0. 0. 0. 0.
      0. 0. 2.45098048e-03 0. 7.35294167e-03 0. 0. 0. 1.71568636e-02 0.
      2.45098048e-03 2.45098048e-03 0. 0. 0. 0. 0. 0. 0. 0.
      7.35294167e-03 0. 0. 0. 9.80392192e-03 0. 0. 0. 0. 0.
      1.22549022e-02 0. 1.47058833e-02 0. 2.45098048e-03 4.90196096e-03
      0. 0. 0. 0. 0. 0. 2.45098048e-03 0. 0. 0. 0. 0. 0. 0. 0. 0. 0. 0.
      0. 0. 0. 0. 0. 0. 0. 0. 2.45098048e-03 0. 0. 0. 0. 7.35294167e-03
      0. 0. 0. 0. 2.45098048e-03 4.90196096e-03 0. 2.45098048e-03 0. 0.
      0. 0. 0. 0. 0. 0. 0. 0. 0. 0. 0. 0. 4.90196096e-03 0. 0. 0.
      2.45098048e-03 0. 0. 2.45098048e-03 2.45098048e-03 0.
      2.45098048e-03 0. 0. 0. 0. 4.90196096e-03 0. 0. 2.45098048e-03 0.
      0. 2.45098048e-03 2.45098048e-03 0. 0. 0. 4.90196096e-03 0.
      2.45098048e-03 2.45098048e-03 0. 0. 0. 0. 0. 0. 2.45098048e-03
      9.80392192e-03 0. 2.45098048e-03 2.45098048e-03 0. 0.
      4.90196096e-03 0. 0. 0. 0. 0. 0. 2.45098048e-03 0. 2.45098048e-03
      0. 2.45098048e-03 0. 0. 0. 0. 0. 0. 0. 0. 0. 1.71568636e-02 0. 0.
      0. 0. 2.45098048e-03 7.35294167e-03 0. 0. 2.45098048e-03 0. 0. 0.
      0. 0. 0. 0. 0. 0. 0. 0. 0. 0. 0. 0. 0. 0. 2.45098048e-03 0. 0.
      2.45098048e-03 0. 0. 0. 4.90196096e-03 0. 4.90196096e-03 0. 0. 0.
      4.90196096e-03 0. 0. 0. 0. 0. 0. 9.80392192e-03 0. 0. 0.
      2.45098048e-03 0. 0. 0. 0. 0. 0. 0. 0. 0. 0. 0. 2.45098048e-03
      2.45098048e-03 0. 4.90196096e-03 0. 2.45098048e-03 0. 0. 0. 0.
      2.45098048e-03 0. 2.45098048e-03 0. 0. 0. 0. 0. 0. 4.90196096e-03
      0. 0. 0. 7.35294167e-03 2.45098048e-03 4.90196096e-03 0. 0. 0. 0.
      0. 0. 0. 0. 0. 0. 9.80392192e-03 0. 2.45098048e-03 0. 0. 0. 0. 0.
      2.45098048e-03 0. 0. 0. 0. 0. 0. 0. 0. 9.80392192e-03 0. 0.
      2.45098048e-03 2.45098048e-03 2.45098048e-03 2.45098048e-03
      2.45098048e-03 0. 0.</_>
    <_>
      0. 0. 0. 0. 0. 3.52112669e-03 1.40845068e-02 0. 0. 0. 0.
      3.52112669e-03 3.52112669e-03 0. 0. 0. 0. 0. 0. 7.04225339e-03
