<?xml version="1.0"?>
<opencv_storage>
<opencv_ml_svm>
  <format>3</format>
  <svmType>C_SVC</svmType>
  <kernel>
    <type>LINEAR</type></kernel>
  <C>1.</C>
  <term_criteria><iterations>100</iterations></term_criteria>
  <var_count>1000</var_count>
  <class_count>2</class_count>
  <class_labels type_id="opencv-matrix">
    <rows>2</rows>
    <cols>1</cols>
    <dt>i</dt>
    <data>
      -1 1</data></class_labels>
  <sv_total>1</sv_total>
  <support_vectors>
    <_>
      2.34046988e-02 -2.23253034e-02 3.39616984e-02 1.01318408e-03
      7.75883300e-03 -1.37611441e-02 -2.99889416e-01 -2.60203588e-03
      1.58351362e-02 -5.09830471e-03 -1.63021684e-02 6.81906193e-03
      1.12461587e-02 1.87336672e-02 -5.91955194e-03 -1.99441016e-02
      -1.32801056e-01 1.32745253e-02 9.38844308e-03 3.26674595e-03
      1.23661002e-02 5.08959498e-03 -1.67029873e-02 5.05673001e-03
      -1.26403451e-04 2.59703267e-02 -6.49838895e-02 -7.29280757e-03
      -2.60744002e-02 8.97066109e-03 -2.72891931e-02 9.20500606e-05
      1.31804990e-02 2.04891688e-03 3.12819402e-03 -3.91666964e-03
      -9.13581997e-03 1.39225367e-02 -1.91233277e-01 5.79258204e-02
      3.67312180e-03 1.64502067e-04 -9.83199105e-03 -2.41378183e-03
      -6.27075788e-03 -2.68727597e-02 8.31081439e-03 5.37483953e-03
      9.23830923e-03 5.67920459e-03 1.09500149e-02 2.74623632e-02
      1.17871761e-02 1.31715704e-02 -9.65891406e-03 6.61205733e-03
      1.62058193e-02 9.86104086e-03 1.27276676e-02 5.66394329e-02
      -1.67906354e-03 9.51607060e-03 -2.00000009e-03 -1.94569491e-02
      -2.78475657e-02 2.77904328e-04 7.65014114e-03 6.04820903e-03
      -5.03549501e-02 -1.20577868e-02 4.87756589e-03 -1.05332322e-02
      3.13167684e-02 1.24368956e-02 3.76509950e-02 1.10745328e-02
      5.24196425e-04 -2.17947236e-04 -6.50354708e-03 -1.34537881e-03
      1.05169797e-02 -7.80156925e-02 5.95353963e-03 -4.15172987e-03
      -1.41596505e-02 -1.93589774e-03 -2.32365392e-02 6.05732761e-03
      1.49432728e-02 7.52276182e-03 7.00868368e-02 -7.23850681e-04
      2.88843876e-03 -2.59521008e-02 2.30332669e-02 1.84211452e-02
      4.18126956e-03 -2.52993894e-03 -1.23796165e-02 5.67561481e-03
      2.73411646e-02 -3.30346450e-02 4.75747138e-03 -1.06775947e-02
      -3.28566856e-03 -1.21404547e-02 2.06672144e-03 2.17313003e-02
      6.61512651e-03 6.84619835e-03 -2.66121596e-01 5.14610903e-04
      -1.60954446e-01 4.09643631e-03 5.77717870e-02 3.05449814e-02
      6.99267611e-02 -3.55348038e-03 -1.10020898e-02 8.97843763e-03
      -2.85507049e-02 2.71552838e-02 -8.80084280e-03 -2.69993278e-03
      -1.62980054e-02 9.83541086e-02 -4.49925050e-04 1.55560952e-02
      -2.29870081e-02 1.30169485e-02 3.37919407e-03 1.98355736e-03
      1.34900045e-02 -2.95477407e-03 -8.00708402e-03 -3.89350727e-02
      1.91067360e-04 4.92549967e-03 1.28040779e-02 7.36167729e-02
      -3.19731124e-02 2.32416228e-03 -8.42908584e-03 -1.34576240e-03
      -1.42468996e-02 -9.62149352e-04 1.01239039e-02 1.59813408e-02
      2.17864919e-03 -1.83962309e-03 6.73665619e-03 2.57977489e-02
      -2.94667706e-02 3.47688645e-02 2.38749422e-02 -2.29148613e-03
      1.87087543e-02 5.25991246e-03 -5.26083109e-04 -1.43450154e-02
      -4.65184078e-03 -4.38095257e-03 1.92721635e-02 5.48598841e-02
      -1.52223995e-02 -2.24696193e-03 -2.87641231e-02 1.28798070e-03
      2.68060691e-03 1.90119888e-03 9.53758834e-04 1.23994891e-02
      -2.00000009e-03 2.44568996e-02 3.20853060e-03 3.79174994e-03
      -9.97564383e-03 3.00418045e-02 -1.50165958e-02 2.97791101e-02
      -5.24129113e-03 1.54909231e-02 -1.00794248e-02 2.68395757e-03
      4.72957222e-03 -2.38095247e-03 2.35535204e-02 5.29808998e-02
      -3.18469526e-03 9.29914322e-03 -4.34769597e-03 -3.07324603e-02
      -5.10204071e-03 8.67832173e-03 -8.49715434e-03 7.69265462e-04
      2.76155919e-02 1.24025606e-02 2.41949577e-02 8.10215995e-03
      -5.63546689e-03 6.74035633e-03 -2.48392957e-04 3.80746424e-02
      -1.73544064e-02 -3.03917541e-03 -4.75499220e-03 1.98816806e-02
      -1.11944834e-03 6.77374704e-03 5.30430814e-04 2.31051072e-03
      1.41581921e-02 2.37529702e-03 -1.37276156e-02 8.49280786e-03
      1.84296779e-02 1.50889121e-02 -1.58734918e-02 3.45932096e-02
      -8.41476861e-03 -4.38095257e-03 -1.72571046e-03 -4.26027477e-02
      3.96104530e-03 -2.07829122e-02 -8.36822987e-02 9.75187030e-03
      1.95207843e-03 6.11905428e-03 9.94556490e-03 8.64836620e-04
      4.42402298e-03 -3.62546854e-02 1.69168308e-03 1.07473740e-03
      4.49499860e-03 1.84882469e-02 -9.36143845e-03 -1.24879077e-01
      -1.19022988e-02 -1.28144296e-02 -1.94112193e-02 -4.02327813e-03
      5.92845958e-03 -1.64004427e-03 2.10875235e-02 2.48615607e-03
      -1.72531791e-02 -1.90512352e-02 -4.25981283e-02 1.22432574e-03
      2.98943780e-02 8.81053042e-03 5.40689798e-04 1.10028787e-02
      -2.78061489e-04 1.18478509e-02 2.70429271e-04 4.11703670e-03
      2.56037060e-02 3.31985392e-03 4.65585524e-03 -5.84300142e-04
      2.00785678e-02 8.37356970e-03 -9.88742802e-03 -3.70989041e-03
      -2.22643209e-03 8.81132483e-03 1.47616875e-03 4.67553437e-02
      3.15608196e-02 -8.02983940e-02 3.50096705e-03 -5.97022437e-02
      -3.75687815e-02 -2.86778202e-04 -1.92715883e-01 7.82774668e-03
      6.26418293e-02 -1.96435535e-03 -5.99834928e-03 2.32498422e-02
      -3.63941379e-02 2.85085151e-03 -2.48320145e-03 1.76103131e-04
      6.64288998e-02 3.51743354e-03 1.96123458e-02 -1.77474431e-04
      1.68568944e-03 8.22089985e-03 2.37529702e-03 -3.73323541e-03
      6.86488114e-04 -8.02611408e-04 -3.06210452e-04 2.84118322e-03
      2.17283666e-02 6.62282668e-03 -1.73162818e-02 2.68988553e-02 0.
      2.09205016e-03 2.15982716e-03 5.39140217e-02 6.47864398e-03
      2.86844396e-03 1.62768271e-03 1.39830988e-02 1.90258920e-02
      1.61827914e-03 3.35513707e-03 1.92760851e-03 9.94746340e-04
      9.70058795e-03 -4.18740958e-02 -6.86103012e-03 -1.05909416e-02
      2.64249314e-02 -7.36434362e-04 -4.16778866e-03 1.08479718e-02
      1.20525338e-01 -1.08908229e-02 -4.27689170e-03 2.06114314e-02
      2.69172550e-03 -1.03915684e-01 4.65447921e-03 5.25641954e-03
      9.02856141e-03 -1.94498245e-03 -5.96855953e-03 6.22769468e-04
      -1.60703771e-02 -1.29731570e-03 3.39492261e-02 8.15697853e-03
      -1.59787457e-03 -7.01692402e-02 4.77589807e-03 9.53550683e-04
      7.94707052e-03 -2.40569860e-02 2.86374451e-03 -9.02198534e-03
      -1.14023034e-02 -6.12790212e-02 1.11468676e-02 3.58871679e-04
      1.12035091e-03 5.08811185e-03 -3.55986552e-03 1.82547350e-03
      -3.67780915e-03 2.71853036e-03 3.22695263e-03 4.96654306e-03
      1.30923316e-02 -9.71018709e-03 3.16779800e-02 -5.02798110e-02
      1.62602328e-02 1.02781728e-01 -1.42422706e-01 6.32699952e-03
      1.37106190e-02 -9.99807939e-03 -2.44521885e-03 -2.77208653e-03
      -1.59000568e-02 5.67376381e-04 2.53617819e-02 -4.24904888e-03
      -3.92619986e-03 1.75225865e-02 -6.35016896e-03 -1.44345304e-02
      -1.81573723e-03 -3.12621938e-04 -5.28673455e-02 5.80035113e-02
      1.30630527e-02 -6.96690101e-03 -4.23214305e-03 -4.20653989e-04
      1.63753182e-04 4.91889492e-02 -2.00000009e-03 5.23005463e-02
      -3.52574978e-03 -6.52024616e-03 4.88544907e-03 1.38483429e-02
      6.87729381e-03 -2.65648533e-02 1.02022411e-02 7.36538786e-03
      -1.16915361e-03 -2.51132194e-02 4.43436299e-03 -9.83142667e-03
      -1.36241387e-03 1.51436012e-02 2.71848380e-03 -1.13206729e-03
      -1.88540737e-03 -4.87937825e-03 4.05413704e-03 -3.59411500e-02
      4.30546515e-03 -2.20750552e-03 1.07597085e-02 2.49114935e-03
      2.28982195e-02 2.80929054e-03 5.33364713e-03 -1.78373590e-01
      -3.91968992e-03 -5.65786147e-04 1.12323351e-02 -1.34541234e-03
      9.33728926e-03 2.09739823e-02 -5.95050491e-03 1.73609573e-02
      2.07039341e-03 2.01207236e-03 4.25191298e-02 -4.70647328e-02
      1.36098592e-02 -5.14883548e-03 1.38096074e-02 -6.83976291e-03
      2.52407015e-04 -1.43574737e-02 -1.30713743e-03 1.91974512e-03
      9.29566682e-04 2.67342590e-02 7.19596306e-03 -2.17515938e-02
      -1.63331702e-02 -4.25706711e-03 1.89998914e-02 -2.23214296e-03
      7.63234356e-03 -6.75500929e-02 8.40987824e-03 1.78239383e-02
      2.73972610e-03 -4.69309539e-01 -1.94681827e-02 -3.13052349e-02
      -1.26950806e-02 1.78522337e-02 2.44560428e-02 -6.24631112e-03
      -3.50828958e-03 5.02218865e-02 3.17629315e-02 7.67217157e-03
      -3.87132238e-03 -7.13256467e-03 2.25087851e-02 -2.14648386e-03
      -4.79077362e-03 1.22017749e-02 0. -2.20368034e-03 -1.63574179e-03
      -7.51171552e-04 -1.91376098e-02 2.82467273e-03 7.00265402e-03
      -1.79948304e-02 2.78536743e-03 -3.43112722e-02 2.08070036e-02
      1.08398218e-02 -2.34233541e-03 1.13085005e-02 6.26421440e-03
      3.21205296e-02 -2.48750742e-03 1.13293296e-02 -2.64957501e-03
      1.20178424e-03 2.01037358e-02 2.56088991e-02 -5.34487702e-03
      3.36031131e-02 -9.87423770e-03 3.87123935e-02 1.39920097e-02
      -2.98045296e-02 -1.57944150e-02 3.10546253e-03 -4.00000019e-03
      1.58980321e-02 3.28620343e-04 5.95837226e-03 4.66776779e-03
      -6.50807843e-03 -2.12599081e-03 -1.80889387e-02 4.72256821e-03
      -6.95807673e-03 -4.12733667e-03 -6.91753253e-03 8.42997991e-03
      4.69634216e-03 2.77761202e-02 7.39258230e-02 1.39282672e-02
      3.98374582e-03 5.80010144e-03 -6.84660068e-03 1.02296667e-02
      8.59553227e-04 0. 3.05854692e-03 2.40282249e-02 -4.59755473e-02
      -6.79961964e-03 8.64637643e-02 3.23624606e-03 2.05597933e-02
      5.53555368e-03 -3.82706057e-04 7.11859553e-04 3.66448574e-02
      -5.11862803e-03 -9.87992249e-03 -1.63432192e-02 1.55400233e-02
      -4.64623468e-03 1.46499813e-01 5.18018240e-03 4.58161253e-03
      -4.20277705e-03 8.66383547e-04 3.68667953e-02 2.98049003e-02
      7.10541988e-03 1.27365272e-02 -1.79091822e-02 -6.34759851e-03
      1.12288566e-02 -4.34741797e-03 -2.12785061e-02 4.23276285e-03
      -7.83977937e-03 6.45368993e-02 -1.77203473e-02 -1.26090525e-02
      -6.88171946e-04 -3.16715613e-03 3.06882709e-02 3.24934758e-02
      -1.69136077e-02 2.28263158e-02 7.86935259e-03 9.34301410e-03
      8.21888447e-03 6.53166464e-03 -7.97699206e-03 1.95532292e-03
      3.49204266e-03 -4.10242705e-03 -9.61447321e-03 6.78624772e-03
      -3.56667023e-03 -1.48288440e-03 1.70755014e-02 1.06433593e-03
      -2.00000009e-03 1.18061915e-01 2.16919743e-03 -3.97834694e-03
      2.32690945e-05 8.37293081e-03 -8.15785006e-02 1.94010269e-02
      -1.61158089e-02 6.44891104e-03 -1.80595997e-03 1.26663707e-02
      4.53860406e-03 1.80466026e-02 1.56321637e-02 6.77127466e-02
      -4.23973380e-03 4.50274238e-04 -1.38247954e-02 -4.62100795e-03
      7.89007079e-03 4.05088905e-03 -2.16919743e-03 1.50160408e-02
      -1.52336303e-02 8.71000811e-05 -3.07447277e-02 3.91927082e-03
      5.01919864e-03 -6.38108421e-03 -2.73852726e-03 -1.00421449e-02
      -1.82171166e-02 -8.44263099e-03 0. 4.76496993e-03 -2.67933565e-03
      1.10298989e-03 9.24504362e-03 -6.21337071e-02 5.89691987e-03
      1.42588466e-02 -5.97023033e-03 1.96669083e-02 6.39107777e-03
      -8.92344815e-06 1.71414595e-02 1.55856786e-02 -2.12846804e-04
      4.55893436e-03 1.47893094e-04 9.29430686e-03 -6.95556123e-03
      -4.70858533e-03 1.32453479e-02 -1.37047740e-04 -6.91178581e-03
      1.48915430e-03 8.83728638e-03 4.70160786e-03 -1.02310535e-02
      -9.47839245e-02 -1.58404594e-03 2.56673191e-02 -3.26372683e-03
      -6.38031447e-03 3.47004854e-03 -1.41050085e-01 -3.88733088e-03
      -2.67219148e-03 3.87264276e-03 5.07117575e-03 9.81394667e-03
      -4.43598535e-03 -2.53703794e-03 -4.22170339e-03 2.10970454e-03
      -2.85000307e-04 2.22366047e-03 -4.15112125e-04 1.79694826e-03
      1.31474650e-02 -1.83987245e-02 2.57743662e-03 4.12038947e-03
      7.50521868e-02 3.38678807e-02 1.53252278e-02 -4.52614669e-03
      -1.16156563e-02 1.99711993e-02 1.84130389e-03 -1.73321106e-02
      3.61314765e-03 2.11864407e-03 -2.00233702e-02 5.51043125e-03
      1.03651188e-01 1.20465774e-02 6.84479764e-03 1.10521249e-03
      2.28430200e-02 9.70041826e-02 -4.10145149e-04 -2.14914121e-02
      1.04080457e-02 -6.18210342e-03 -1.06343701e-02 -2.02728296e-03
      -2.48071994e-03 1.50825242e-02 -1.38714781e-03 6.53135264e-03
      -2.00114939e-02 5.15180603e-02 0. -4.22420576e-02 1.97032355e-02
      -3.65226739e-03 4.27184394e-04 -6.17415784e-03 3.42260650e-03
      1.01568289e-02 -2.18969327e-03 2.14889757e-02 9.09816194e-03
      4.09145234e-03 5.08842932e-04 -7.23276939e-03 -8.88423342e-03
      2.68395268e-03 2.27518613e-03 -2.25891490e-02 2.45292354e-02
      7.67475506e-03 1.03371134e-02 6.75918162e-02 -7.13762036e-03
      -2.62423605e-03 1.50800524e-02 -6.48923451e-05 1.27553772e-02
      4.67678765e-03 4.93634865e-03 1.08079715e-02 1.04861520e-02
      4.66011884e-03 -6.42094109e-03 4.79752291e-03 6.71296343e-02
      3.26617667e-03 1.19310580e-02 1.33880973e-02 2.82485876e-03
      8.54404643e-03 3.33913602e-04 5.30948862e-03 -2.24965661e-05
      -2.59356368e-02 -1.20399869e-03 3.17767225e-02 5.84496744e-02
      -3.84543426e-02 -2.13090889e-03 5.37480228e-04 -3.92580964e-02
      -2.00000009e-03 -8.45172722e-03 -1.72738358e-03 -1.72591656e-02
      -7.27492734e-04 5.71215749e-02 3.75296921e-04 -1.41904084e-02
      -2.50528706e-03 4.70276363e-03 7.89725631e-02 9.83203202e-03
      -8.02794099e-03 9.65809263e-03 6.77461503e-03 -1.18269593e-01
      -3.91826173e-03 2.07960028e-02 -2.59134965e-03 -1.15631539e-02
      7.37517234e-03 7.11329048e-03 3.85702192e-03 5.88271674e-03
      1.42597742e-02 0. 0. -6.46428857e-03 -1.10170129e-03
      -1.20721711e-02 -5.80012007e-03 3.26626538e-03 1.11444795e-04
      5.31582814e-03 4.50707041e-04 -2.51695816e-03 1.68964062e-02
      -4.43062093e-03 -6.95976755e-03 -2.20750552e-03 -2.58876160e-02
      9.06374082e-02 4.54046652e-02 3.96155706e-03 -1.37112103e-04
      6.74068136e-03 1.65907771e-03 2.33693682e-02 2.22409759e-02 0.
      3.75991804e-03 6.17654528e-03 4.57546534e-03 -6.63384749e-03
      1.54564716e-03 1.83930027e-03 7.08731916e-03 2.07735877e-02
      -3.81325511e-03 -2.74886191e-03 4.29144874e-03 1.29344258e-02
      1.89829655e-02 -8.08716714e-02 -3.89924506e-04 7.78036863e-02 0.
      2.13947287e-03 5.96990623e-03 1.54992770e-02 -6.85668690e-03 0.
      9.13652033e-03 7.79336272e-03 1.81085407e-03 -2.10674759e-03
      -6.10733870e-04 -8.76756757e-03 4.30647656e-03 1.53439329e-03
      2.72400677e-02 6.89252838e-03 -1.15744323e-02 1.26015209e-02
      -2.54301075e-02 -5.50252851e-04 4.43456359e-02 -3.61485481e-02
      8.67357571e-03 1.14186462e-02 -4.16919775e-03 -2.08371039e-02
      -2.52296124e-03 -2.26162579e-02 5.19773085e-03 -3.56608233e-03
      2.53208540e-02 -2.85083707e-02 -1.16048351e-01 2.37529702e-03
      7.05835083e-03 7.07498658e-03 2.82544643e-04 2.82414956e-04
      -6.87109260e-03 -4.57009859e-03 1.07641092e-04 2.70169694e-04
      -5.95091209e-02 1.20046530e-02 7.18104746e-03 1.90100279e-02
      1.00734588e-02 6.66986173e-03 2.01207236e-03 6.98977755e-03
      -4.64842543e-02 4.27353084e-02 6.56698365e-03 6.71881298e-03
      2.21831668e-02 6.85487390e-02 5.56002557e-03 7.65961641e-03
      5.48594166e-03 1.55975309e-03 -2.17864919e-03 1.11574959e-02
      -9.05254707e-02 7.92874303e-03 6.55575003e-03 2.21948442e-03
      1.62924023e-03 5.88694727e-03 2.21727267e-02 -1.34624522e-02
      5.86621650e-03 1.21940905e-03 7.50947220e-04 -3.08996835e-03
      -2.89030053e-04 2.22990569e-02 4.37617861e-03 1.69197330e-04
      7.97713827e-03 -4.10957634e-02 -9.74992698e-04 3.01927198e-02
      -4.00000019e-03 -8.52609705e-03 4.97841625e-04 -1.60442386e-02
      2.68618809e-03 1.02111772e-02 -5.71807325e-02 1.16034420e-02
      -4.08946872e-02 3.55069782e-03 -1.49761681e-02 5.56995049e-02
      -1.83379813e-03 -2.00000009e-03 -1.14563191e-02 2.05211267e-02
      -4.88314241e-01 -4.48033446e-03 -9.25775338e-03 -3.46311252e-04
      6.71205716e-03 8.49315990e-03 1.67358778e-02 -2.27770279e-03
      -1.00342054e-02 6.85613835e-04 -2.27075792e-03 5.99077391e-03
      -1.41752753e-02 9.86149884e-04 9.33826715e-03 8.31563899e-04
      2.81455461e-02 -4.28677816e-03 5.33742178e-03 3.53667792e-03
      6.86192187e-04 -3.30748502e-04 2.52566207e-03 -2.53319368e-03
      -4.53087315e-03 3.23505849e-02 -3.18243750e-03 -8.02445458e-04
      -6.74311072e-02 6.05295785e-02 2.07995549e-02 2.37026159e-03
      6.13793219e-03 -4.41239076e-03 4.13511042e-03 -4.38406132e-03
      -8.67370330e-03 4.42181043e-02 -2.72288993e-02 1.65221561e-02
      -1.57322292e-03 2.72486964e-03 9.47221555e-03 5.82650164e-03
      -4.23214305e-03 -6.45163357e-02 1.25656864e-02 6.63250918e-03
      -1.28348330e-02 -6.68052910e-03 1.99268851e-02 4.59029041e-02
      1.95573755e-02 2.36086138e-02 5.05991187e-03 4.15160693e-03
      3.91187239e-03 9.91212949e-03 4.90507577e-03 -8.61303473e-04
      -2.29885057e-03 4.62249108e-03 2.36385013e-03 -2.89528649e-02
      -1.18393101e-01 -5.05107120e-02 6.67411927e-03 6.74629165e-03
      2.10043266e-02 -1.32513670e-02 2.16919743e-03 1.57193921e-03
      2.29190351e-04 5.34807798e-04 -1.12189893e-02 0. 1.39982710e-02
      -4.17130254e-03 -2.69032214e-02 1.02024022e-02 1.23630259e-02
      5.59423910e-03 4.59661102e-03 1.06841689e-02 1.15988357e-02
      9.37363785e-03 6.44731661e-03 3.06533743e-03 -2.98140268e-03
      2.75098048e-02 2.06847442e-03</_></support_vectors>
  <uncompressed_sv_total>101</uncompressed_sv_total>
  <uncompressed_support_vectors>
    <_>
      0. 0. 0. 0. 0. 0. 2.18446609e-02 2.42718449e-03 0. 0. 0. 0. 0. 0.
      2.42718449e-03 2.42718449e-03 7.28155347e-03 2.42718449e-03 0. 0.
      2.42718449e-03 0. 0. 0. 0. 0. 0. 0. 2.42718449e-03 0.
      2.42718449e-03 0. 0. 0. 0. 0. 0. 0. 4.85436898e-03 9.70873795e-03
      0. 0. 0. 0. 0. 0. 0. 0. 0. 0. 0. 0. 0. 0. 0. 2.42718449e-03 0. 0.
      0. 7.28155347e-03 0. 2.42718449e-03 0. 4.85436898e-03 0. 0. 0. 0.
      0. 0. 0. 0. 2.42718449e-03 2.42718449e-03 0. 0. 4.85436898e-03 0.
      0. 0. 0. 1.21359229e-02 0. 2.42718449e-03 0. 0. 0. 0. 0. 0.
      9.70873795e-03 4.85436898e-03 0. 7.28155347e-03 2.42718449e-03 0.
      0. 0. 0. 0. 2.42718449e-03 1.45631069e-02 0. 0. 0. 0.
      2.42718449e-03 0. 0. 0. 1.21359229e-02 0. 1.21359229e-02 0. 0. 0.
      0. 0. 0. 0. 2.42718449e-03 2.42718449e-03 0. 0. 0. 0. 0. 0. 0. 0.
      2.42718449e-03 0. 0. 4.85436898e-03 0. 0. 0. 0. 0. 0. 0.
      4.85436898e-03 0. 2.42718449e-03 4.85436898e-03 0. 0. 0. 0. 0. 0.
      0. 9.70873795e-03 7.28155347e-03 0. 0. 4.85436898e-03 0. 0. 0. 0.
      0. 0. 0. 0. 2.42718449e-03 0. 0. 0. 0. 2.42718449e-03 0. 0. 0. 0.
      0. 2.42718449e-03 7.28155347e-03 0. 2.42718449e-03 4.85436898e-03
      0. 0. 0. 0. 0. 2.42718449e-03 0. 0. 0. 2.42718449e-03 0. 0. 0. 0.
      2.42718449e-03 2.42718449e-03 0. 0. 0. 2.42718449e-03 0. 0.
      4.85436898e-03 4.85436898e-03 0. 0. 0. 4.85436898e-03 0.
      2.42718449e-03 0. 0. 0. 2.42718449e-03 0. 2.42718449e-03 0.
      4.85436898e-03 0. 0. 0. 0. 0. 2.42718449e-03 2.42718449e-03 0. 0.
      0. 2.42718449e-03 0. 0. 0. 4.85436898e-03 0. 0. 0. 0. 0.
      9.70873795e-03 0. 0. 0. 0. 0. 0. 2.42718449e-03 0. 0.
      2.42718449e-03 0. 0. 0. 0. 0. 0. 0. 0. 4.85436898e-03 0. 0. 0. 0.
      0. 2.42718449e-03 0. 0. 0. 0. 0. 4.85436898e-03 0. 0.
      7.28155347e-03 0. 0. 7.28155347e-03 0. 2.42718449e-03
      4.85436898e-03 0. 0. 0. 0. 4.85436898e-03 0. 0. 0. 2.42718449e-03
      0. 0. 0. 2.42718449e-03 0. 0. 0. 0. 0. 0. 0. 0. 0. 2.42718449e-03
      0. 0. 0. 0. 0. 0. 0. 0. 2.42718449e-03 0. 0. 7.28155347e-03 0. 0.
      0. 0. 0. 0. 0. 0. 0. 0. 2.42718449e-03 2.42718449e-03
      2.42718449e-03 0. 0. 4.85436898e-03 0. 1.94174759e-02 0. 0. 0. 0.
      0. 0. 0. 0. 0. 2.42718449e-03 2.42718449e-03 0. 0. 2.42718449e-03
      0. 0. 0. 0. 0. 0. 0. 0. 0. 0. 0. 0. 0. 2.42718449e-03 0. 0. 0. 0.
      4.85436898e-03 2.42718449e-03 4.85436898e-03 0. 0. 2.42718449e-03
      0. 0. 0. 0. 0. 0. 0. 0. 2.42718449e-03 0. 0. 0. 2.42718449e-03
      2.42718449e-03 0. 2.42718449e-03 0. 0. 0. 2.42718449e-03 0. 0. 0.
      0. 0. 0. 0. 7.28155347e-03 0. 0. 0. 1.21359229e-02 0. 0. 0.
      2.42718449e-03 0. 0. 0. 0. 0. 4.85436898e-03 0. 0. 0. 0.
      2.42718449e-03 0. 0. 1.69902910e-02 2.42718449e-03 0.
      2.42718449e-03 0. 2.42718449e-03 0. 0. 0. 0. 0. 0. 0. 0. 0. 0. 0.
      0. 0. 0. 0. 0. 0. 0. 2.42718449e-03 2.42718449e-03 0. 0. 0. 0. 0.
      0. 0. 0. 1.21359229e-02 0. 2.42718449e-03 0. 0. 0. 0. 0. 0. 0. 0.
      0. 0. 2.42718449e-03 0. 0. 0. 0. 0. 0. 2.42718449e-03
      2.42718449e-03 0. 0. 0. 0. 4.85436898e-03 0. 7.28155347e-03 0. 0.
      0. 0. 2.42718449e-03 2.42718449e-03 0. 0. 0. 0. 0. 0. 0. 0. 0. 0.
      0. 0. 0. 0. 0. 0. 0. 0. 0. 0. 0. 4.85436898e-03 0. 0. 0. 0. 0.
      2.42718449e-03 0. 0. 0. 0. 2.42718449e-03 0. 0. 0. 0.
      7.28155347e-03 0. 2.42718449e-03 0. 2.42718449e-03 0. 0. 0. 0. 0.
      2.42718449e-03 4.85436898e-03 0. 2.42718449e-03 0. 0. 0. 0. 0. 0.
      0. 0. 0. 2.42718449e-03 0. 2.42718449e-03 0. 0. 0. 0. 0. 0.
      9.70873795e-03 0. 0. 0. 2.42718449e-03 4.85436898e-03 0. 0. 0. 0.
      0. 0. 0. 0. 0. 2.42718449e-03 0. 0. 2.42718449e-03 2.42718449e-03
      0. 0. 0. 0. 0. 0. 0. 3.15533988e-02 0. 0. 0. 0. 0. 2.42718449e-03
      0. 2.42718449e-03 2.42718449e-03 0. 0. 0. 0. 0. 0. 0. 0.
      2.42718449e-03 0. 7.28155347e-03 0. 0. 0. 0. 0. 4.85436898e-03
      2.42718449e-03 0. 0. 0. 2.42718449e-03 0. 0. 0. 0. 0. 0.
      7.28155347e-03 0. 0. 0. 0. 0. 0. 0. 0. 2.42718449e-03 0. 0. 0. 0.
      0. 0. 0. 7.28155347e-03 0. 0. 0. 2.42718449e-03 0. 7.28155347e-03
      0. 0. 0. 0. 0. 0. 0. 0. 0. 0. 0. 2.42718449e-03 0. 0. 0. 0. 0.
      4.85436898e-03 0. 0. 0. 0. 0. 0. 0. 0. 0. 0. 0. 0. 0. 0. 0. 0. 0.
      0. 0. 0. 0. 0. 0. 0. 0. 0. 0. 0. 2.42718449e-03 0. 0. 0. 0. 0. 0.
      2.42718449e-03 0. 0. 0. 0. 0. 0. 0. 0. 0. 0. 0. 7.28155347e-03 0.
      0. 0. 0. 0. 2.42718449e-03 0. 0. 0. 0. 0. 4.85436898e-03
      2.42718449e-03 0. 0. 0. 2.42718449e-03 0. 0. 0. 0. 0. 0. 0. 0. 0.
      0. 4.85436898e-03 0. 0. 0. 4.85436898e-03 0. 0. 0. 0. 0.
      2.42718449e-03 0. 9.70873795e-03 0. 0. 2.42718449e-03 0. 0. 0. 0.
      2.66990289e-02 0. 0. 0. 0. 0. 0. 0. 0. 0. 0. 0. 0. 0. 0.
      2.42718449e-03 0. 0. 2.42718449e-03 0. 0. 0. 0. 0. 0.
      2.42718449e-03 0. 2.42718449e-03 0. 0. 0. 0. 0. 0. 0. 0. 0. 0. 0.
      2.42718449e-03 0. 0. 0. 2.42718449e-03 0. 0. 0. 0. 2.42718449e-03
      0. 2.42718449e-03 0. 0. 0. 0. 0. 0. 0. 0. 0. 2.42718449e-03 0. 0.
      0. 0. 0. 0. 0. 0. 0. 0. 0. 2.42718449e-03 0. 2.42718449e-03 0.
      4.85436898e-03 0. 4.85436898e-03 0. 2.42718449e-03 0.
      4.85436898e-03 0. 0. 0. 2.42718449e-03 2.42718449e-03 0. 0. 0. 0.
      0. 1.21359229e-02 0. 0. 0. 0. 2.42718449e-03 0. 0. 0.
      2.42718449e-03 0. 0. 0. 0. 0. 0. 0. 0. 0. 0. 4.85436898e-03
      2.42718449e-03 0. 0. 0. 0. 0. 2.42718449e-03 0. 0. 0. 0. 0.
      2.42718449e-03 0. 0. 0. 4.85436898e-03 0. 0. 0. 0. 0.
      2.42718449e-03 0. 0. 2.42718449e-03 0. 7.28155347e-03 0. 0. 0. 0.
      0. 0. 7.28155347e-03 7.28155347e-03 1.21359229e-02 0. 0.
      1.21359229e-02 0. 0. 0. 0. 0. 0. 2.42718449e-03 7.28155347e-03 0.
      0. 0. 0. 0. 0. 0. 2.42718449e-03 2.42718449e-03 0. 0. 0. 0. 0.
      2.42718449e-03 1.45631069e-02 2.42718449e-03 0. 0. 0. 0. 0. 0.
      2.42718449e-03 2.42718449e-03 0. 0. 0. 0. 0. 0. 0. 7.28155347e-03
      0. 0. 2.42718449e-03 0. 2.42718449e-03 2.42718449e-03 0.
      2.42718449e-03 0. 0. 2.42718449e-03 0. 0. 0. 0. 0. 0.
      2.42718449e-03 2.66990289e-02 4.85436898e-03 4.85436898e-03 0.
      7.28155347e-03 0. 0. 0. 0. 0. 4.85436898e-03 0. 2.42718449e-03 0.
      0. 0. 0. 0. 0. 0. 0. 2.42718449e-03 0. 0. 0. 0. 0.</_>
    <_>
      0. 5.10204071e-03 0. 0. 0. 0. 7.65306130e-03 0. 0. 0. 0. 0. 0. 0.
      0. 0. 2.04081628e-02 0. 0. 0. 0. 0. 2.55102036e-03 0. 0. 0. 0.
      2.55102036e-03 0. 0. 0. 0. 0. 0. 0. 0. 0. 2.55102036e-03
      2.29591839e-02 5.10204071e-03 0. 0. 2.55102036e-03 0. 0. 0. 0. 0.
      0. 0. 0. 0. 2.55102036e-03 0. 0. 0. 0. 0. 0. 1.27551015e-02 0. 0.
      0. 2.55102036e-03 2.55102036e-03 0. 0. 0. 2.55102036e-03
      2.55102036e-03 0. 2.55102036e-03 5.10204071e-03 0. 0. 0.
      2.55102036e-03 0. 0. 0. 0. 5.10204071e-03 0. 2.55102036e-03
      2.55102036e-03 0. 5.10204071e-03 0. 0. 0. 2.55102036e-03 0. 0. 0.
      5.10204071e-03 0. 0. 0. 0. 0. 0. 0. 0. 2.55102036e-03 0. 0. 0.
      5.10204071e-03 0. 0. 2.55102031e-02 2.55102036e-03 2.04081628e-02
      0. 7.65306130e-03 0. 0. 0. 0. 0. 0. 1.27551015e-02 0. 0.
      2.55102036e-03 0. 0. 0. 0. 0. 0. 0. 0. 2.55102036e-03 0. 0. 0. 0.
      0. 0. 0. 0. 0. 0. 0. 0. 0. 0. 0. 0. 0. 0. 0. 2.55102036e-03 0. 0.
      0. 0. 0. 0. 0. 0. 0. 2.55102036e-03 0. 0. 0. 0. 2.55102036e-03 0.
      0. 0. 0. 0. 0. 0. 2.55102036e-03 0. 0. 0. 0. 0. 0. 0. 0. 0. 0. 0.
      0. 0. 0. 5.10204071e-03 2.55102036e-03 0. 0. 0. 0. 0. 0. 0. 0. 0.
      0. 0. 5.10204071e-03 2.55102036e-03 0. 0. 0. 0. 0. 0. 0. 0. 0.
      2.55102036e-03 2.55102036e-03 0. 2.55102036e-03 0. 0. 0. 0.
      5.10204071e-03 0. 2.55102036e-03 0. 5.10204071e-03 0. 0. 0. 0. 0.
      0. 2.55102036e-03 0. 0. 0. 0. 1.02040814e-02 0. 0. 0. 0. 0.
      2.55102036e-03 0. 0. 0. 0. 5.10204071e-03 0. 2.55102036e-03 0. 0.
      0. 0. 2.55102036e-03 1.27551015e-02 0. 0. 0. 0. 0. 0. 0. 0. 0.
      2.55102036e-03 0. 0. 0. 0. 1.02040814e-02 0. 2.55102036e-03
      5.10204071e-03 0. 1.27551015e-02 2.55102036e-03 0. 0. 0.
      2.55102036e-03 0. 0. 0. 0. 0. 0. 0. 0. 0. 0. 0. 0. 0. 0. 0. 0. 0.
      0. 0. 0. 0. 0. 0. 0. 0. 0. 0. 0. 0. 2.55102036e-03 7.65306130e-03
      0. 0. 0. 0. 0. 2.55102036e-03 0. 0. 0. 0. 0. 0. 2.55102036e-03 0.
      0. 7.65306130e-03 0. 2.29591839e-02 0. 0. 0. 0. 2.55102036e-03 0.
      5.10204071e-03 2.55102036e-03 0. 2.04081628e-02 0. 2.55102036e-03
      0. 2.55102036e-03 0. 0. 0. 5.10204071e-03 0. 0. 0. 2.55102036e-03
      0. 0. 0. 0. 0. 5.10204071e-03 0. 0. 2.55102036e-03 0.
      2.55102036e-03 2.55102036e-03 0. 0. 0. 0. 0. 0. 0. 0. 0. 0. 0. 0.
      0. 5.10204071e-03 0. 0. 1.02040814e-02 0. 0. 2.55102036e-03 0.
      2.55102036e-03 0. 7.65306130e-03 0. 0. 0. 0. 0. 0. 0.
      2.55102036e-03 0. 0. 5.10204071e-03 2.29591839e-02 0.
      2.55102036e-03 0. 0. 0. 0. 7.65306130e-03 0. 0. 0. 0. 0. 0. 0. 0.
      0. 0. 1.53061226e-02 0. 0. 0. 0. 0. 0. 0. 0. 0. 0. 0. 0. 0.
      2.55102036e-03 0. 0. 0. 0. 0. 0. 0. 0. 0. 0. 2.55102036e-03 0. 0.
      0. 0. 5.10204071e-03 0. 0. 0. 1.53061226e-02 2.55102036e-03
      2.55102036e-03 2.55102036e-03 0. 2.55102036e-03 0. 0. 0.
      2.55102036e-03 0. 0. 2.55102036e-03 7.65306130e-03 0.
      2.55102036e-03 0. 0. 0. 0. 0. 0. 0. 0. 0. 0. 1.27551015e-02
      2.55102036e-03 0. 0. 0. 0. 2.55102036e-03 2.55102036e-03 0. 0.
      5.10204071e-03 0. 5.10204071e-03 0. 0. 0. 0. 0. 5.10204071e-03 0.
      2.55102036e-03 0. 0. 0. 0. 0. 0. 0. 0. 0. 0. 0. 0. 0. 0. 0.
      2.55102036e-03 0. 0. 0. 0. 0. 0. 0. 0. 1.02040814e-02
      1.27551015e-02 0. 0. 0. 0. 2.55102036e-03 0. 0. 0. 0.
      5.10204071e-03 0. 0. 0. 5.10204071e-03 0. 0. 0. 0. 0.
      2.55102036e-03 0. 0. 0. 0. 0. 0. 0. 0. 0. 0. 2.55102036e-03 0. 0.
      5.10204071e-03 0. 0. 0. 0. 0. 0. 0. 0. 0. 0. 0. 0. 0.
      5.10204071e-03 0. 0. 7.65306130e-03 2.55102036e-03 0.
      7.65306130e-03 0. 0. 0. 0. 2.80612241e-02 0. 0. 0. 0.
      2.55102036e-03 0. 0. 2.55102036e-03 0. 0. 0. 0. 0. 0. 0. 0. 0.
      2.55102036e-03 0. 2.55102036e-03 2.55102036e-03 0. 0. 0. 0.
      2.55102036e-03 2.55102036e-03 0. 0. 0. 2.55102036e-03 0. 0. 0. 0.
      0. 0. 0. 0. 0. 0. 0. 0. 0. 0. 0. 2.55102036e-03 0. 0. 0.
      2.55102036e-03 0. 0. 0. 5.10204071e-03 0. 0. 2.55102036e-03 0. 0.
      2.55102036e-03 0. 0. 0. 0. 0. 0. 0. 0. 0. 0. 0. 0. 0. 0. 0.
      2.55102036e-03 0. 0. 0. 0. 0. 0. 0. 0. 5.10204071e-03 0. 0.
      2.55102036e-03 0. 5.10204071e-03 2.55102036e-03 0. 0. 0. 0. 0. 0.
      0. 0. 0. 0. 0. 0. 0. 0. 2.55102036e-03 0. 0. 0. 0. 0. 0.
      2.55102036e-03 0. 2.55102036e-03 0. 0. 0. 0. 0. 0. 0. 0. 0.
      5.10204071e-03 0. 0. 0. 0. 0. 0. 0. 0. 0. 2.55102036e-03 0. 0.
      2.55102036e-03 0. 0. 0. 0. 0. 0. 0. 0. 0. 0. 0. 0. 0. 0. 0. 0.
      2.55102036e-03 0. 0. 2.55102036e-03 0. 0. 0. 0. 0. 2.55102036e-03
      0. 1.78571418e-02 0. 0. 0. 0. 0. 0. 0. 2.55102036e-03 0. 0. 0. 0.
      0. 0. 0. 0. 0. 0. 0. 0. 0. 0. 0. 0. 0. 0. 0. 2.55102036e-03 0. 0.
      0. 0. 2.55102036e-03 0. 0. 0. 0. 0. 0. 0. 0. 0. 0. 0.
      2.55102036e-03 0. 0. 0. 0. 0. 0. 0. 2.55102036e-03 2.55102036e-03
      0. 2.55102036e-03 0. 0. 0. 0. 0. 0. 0. 0. 0. 0. 0. 7.65306130e-03
      0. 0. 0. 0. 0. 0. 2.55102036e-03 2.55102036e-03 2.55102036e-03 0.
      2.55102036e-03 0. 0. 0. 0. 2.55102036e-03 0. 0. 0. 0. 0.
      2.55102036e-03 0. 0. 0. 0. 5.10204071e-03 0. 0. 0. 0. 0.
      1.02040814e-02 0. 0. 2.55102036e-03 0. 0. 0. 2.55102036e-03 0. 0.
      0. 2.55102036e-03 0. 0. 0. 0. 0. 0. 0. 0. 0. 5.10204071e-03 0. 0.
      0. 2.55102036e-03 0. 2.55102036e-03 0. 0. 0. 2.55102036e-03 0. 0.
      0. 0. 0. 0. 0. 0. 0. 0. 0. 0. 0. 0. 7.65306130e-03 0.
      7.65306130e-03 0. 0. 2.55102036e-03 0. 0. 2.55102036e-03 0.
      3.82653065e-02 0. 2.55102036e-03 0. 0. 0. 0. 0. 0. 0. 0. 0.
      7.65306130e-03 0. 0. 0. 0. 0. 0. 0. 0. 0. 0. 0. 0. 0. 0. 0. 0. 0.
      0. 0. 0. 0. 0. 0. 0. 0. 5.10204071e-03 0. 0. 0. 0. 0. 0.
      1.27551015e-02 0. 2.55102036e-03 2.55102036e-03 2.55102036e-03 0.
      0. 2.55102036e-03 0. 0. 0. 0. 0. 0. 0. 0. 2.55102036e-03 0. 0.
      1.27551015e-02 0. 0. 0. 0. 0. 0. 0. 0. 0. 0. 0. 0. 0. 0. 0.
      2.55102036e-03 0. 0. 0. 0. 0. 0. 0. 0. 2.55102036e-03 0.</_>
    <_>
      0. 7.35294167e-03 0. 0. 0. 0. 1.22549022e-02 0. 0. 0. 0. 0. 0. 0.
      0. 0. 4.90196096e-03 2.45098048e-03 0. 4.90196096e-03 0. 0.
      9.80392192e-03 0. 0. 0. 0. 2.45098048e-03 0. 0. 2.45098048e-03 0.
      0. 0. 2.45098048e-03 0. 0. 0. 4.90196096e-03 2.45098048e-03 0. 0.
      0. 0. 2.45098048e-03 0. 0. 0. 0. 0. 0. 0. 2.45098048e-03 0. 0. 0.
      0. 0. 0. 7.35294167e-03 0. 0. 0. 0. 0. 0. 0. 0. 0. 0. 0.
      7.35294167e-03 0. 0. 0. 0. 0. 2.45098048e-03 0. 0. 0. 0. 0.
      2.45098048e-03 0. 0. 4.90196096e-03 0. 0. 0. 4.90196096e-03 0. 0.
      4.90196096e-03 0. 0. 0. 2.45098048e-03 0. 2.45098048e-03 0.
      4.90196096e-03 0. 2.45098048e-03 2.45098048e-03 2.45098048e-03 0.
      4.90196096e-03 2.45098048e-03 0. 2.94117667e-02 0. 2.45098048e-03
      0. 4.90196096e-03 0. 0. 0. 0. 2.45098048e-03 2.45098048e-03
      2.45098048e-03 0. 0. 0. 2.45098048e-03 0. 0. 0. 2.45098048e-03 0.
      2.45098048e-03 2.45098048e-03 2.45098048e-03 2.45098048e-03 0. 0.
      0. 0. 2.45098048e-03 0. 2.45098048e-03 0. 9.80392192e-03 0. 0. 0.
      2.45098048e-03 0. 0. 0. 0. 2.45098048e-03 2.45098048e-03 0. 0. 0.
      2.45098048e-03 0. 2.45098048e-03 0. 0. 2.45098048e-03
      2.45098048e-03 0. 0. 0. 0. 0. 0. 0. 0. 0. 0. 0. 2.45098048e-03 0.
      0. 2.45098048e-03 0. 4.90196096e-03 2.45098048e-03 0.
      2.45098048e-03 0. 0. 0. 4.90196096e-03 0. 0. 2.45098048e-03
      4.90196096e-03 0. 0. 0. 0. 4.90196096e-03 0. 2.45098048e-03 0.
      2.45098048e-03 2.45098048e-03 0. 2.45098048e-03 2.45098048e-03 0.
      2.45098048e-03 2.45098048e-03 0. 7.35294167e-03 0. 0. 0. 0.
      2.45098048e-03 0. 0. 0. 4.90196096e-03 0. 2.45098048e-03 0. 0.
      7.35294167e-03 0. 0. 2.45098043e-02 2.45098048e-03 0.
      2.45098048e-03 0. 0. 0. 0. 2.45098048e-03 0. 0. 4.90196096e-03
      2.45098048e-03 2.45098048e-03 0. 0. 0. 0. 2.45098048e-03 0. 0. 0.
      2.45098048e-03 0. 2.45098048e-03 0. 7.35294167e-03 0. 0. 0. 0. 0.
      0. 0. 0. 0. 0. 0. 0. 0. 0. 0. 0. 0. 0. 0. 0. 2.45098048e-03 0. 0.
      0. 0. 2.45098048e-03 0. 4.90196096e-03 2.45098048e-03 0. 0. 0.
      2.45098048e-03 0. 0. 0. 0. 0. 0. 2.45098048e-03 0. 0. 0. 0. 0.
      2.45098048e-03 0. 0. 0. 0. 2.45098048e-03 0. 0. 0. 0.
      2.45098048e-03 0. 2.45098048e-03 2.45098048e-03 0. 0. 0.
      2.45098048e-03 0. 0. 0. 0. 0. 0. 0. 0. 0. 2.45098048e-03 0.
      7.35294167e-03 2.45098048e-03 0. 0. 0. 9.80392192e-03 0. 0. 0. 0.
      0. 0. 0. 0. 0. 2.45098048e-03 0. 2.45098048e-03 0. 0. 0. 0. 0.
      2.45098048e-03 2.45098048e-03 0. 0. 0. 0. 2.45098048e-03 0. 0. 0.
      0. 0. 0. 0. 4.90196096e-03 2.45098048e-03 0. 4.90196096e-03 0. 0.
      0. 0. 0. 0. 0. 0. 0. 2.45098048e-03 2.45098048e-03 2.45098048e-03
      0. 0. 0. 0. 0. 0. 0. 0. 0. 0. 2.45098048e-03 0. 0. 0.
      2.45098048e-03 0. 0. 0. 0. 0. 0. 2.45098048e-03 4.90196096e-03 0.
      0. 0. 2.45098048e-03 0. 0. 0. 0. 0. 9.80392192e-03 2.45098048e-03
      0. 0. 2.45098048e-03 0. 0. 0. 0. 0. 0. 4.90196096e-03 0.
      2.45098048e-03 0. 0. 0. 0. 0. 0. 7.35294167e-03 0. 4.90196096e-03
      0. 4.90196096e-03 0. 2.45098048e-03 0. 0. 0. 0. 4.90196096e-03 0.
      0. 0. 4.90196096e-03 0. 2.45098048e-03 2.45098048e-03
      2.45098048e-03 0. 0. 4.90196096e-03 0. 0. 2.45098048e-03 0. 0. 0.
      0. 0. 0. 0. 0. 2.45098048e-03 7.35294167e-03 2.45098048e-03 0. 0.
      0. 0. 0. 0. 4.90196096e-03 0. 0. 2.45098048e-03 0. 0. 0. 0. 0. 0.
      0. 0. 0. 0. 0. 0. 0. 0. 2.45098048e-03 0. 0. 0. 2.45098048e-03
      4.90196096e-03 2.45098048e-03 0. 0. 2.45098048e-03 0. 0. 0. 0. 0.
      0. 0. 4.90196096e-03 0. 0. 0. 0. 0. 7.35294167e-03 0.
      2.45098048e-03 0. 2.45098048e-03 0. 0. 0. 0. 1.22549022e-02
      2.45098048e-03 0. 4.90196096e-03 0. 0. 0. 0. 0. 4.90196096e-03 0.
      0. 2.45098048e-03 2.45098048e-03 0. 0. 0. 0. 0. 0. 0. 0. 0. 0.
      2.45098048e-03 0. 0. 0. 0. 2.45098048e-03 0. 0. 2.45098048e-03 0.
      0. 0. 0. 0. 0. 2.45098048e-03 0. 0. 0. 0. 0. 0. 0. 2.45098048e-03
      0. 0. 0. 0. 2.45098048e-03 0. 0. 0. 0. 0. 0. 0. 7.35294167e-03 0.
      0. 0. 0. 7.35294167e-03 2.45098048e-03 0. 0. 0. 0. 0. 0. 0. 0.
      2.45098048e-03 0. 0. 0. 2.45098048e-03 0. 0. 2.45098048e-03
      2.45098048e-03 0. 0. 0. 4.90196096e-03 0. 0. 0. 2.45098048e-03 0.
      2.45098048e-03 0. 0. 0. 0. 0. 0. 0. 0. 0. 0. 0. 2.45098048e-03 0.
      0. 0. 0. 0. 7.35294167e-03 0. 0. 0. 0. 0. 0. 0. 2.45098048e-03
      2.45098048e-03 0. 0. 2.45098048e-03 0. 0. 0. 0. 0. 0. 0. 0. 0. 0.
      0. 2.45098048e-03 2.45098048e-03 2.45098048e-03 0. 2.45098048e-03
      0. 0. 2.45098048e-03 0. 2.45098048e-03 0. 0. 0. 0. 0. 0.
      4.90196096e-03 0. 0. 0. 0. 0. 2.45098048e-03 2.45098048e-03
      2.45098048e-03 0. 9.80392192e-03 0. 0. 9.80392192e-03
      2.45098048e-03 0. 0. 0. 0. 2.45098048e-03 0. 0. 0. 0. 0. 0. 0.
      2.45098048e-03 0. 0. 0. 0. 0. 0. 2.45098048e-03 0. 0. 0. 0.
      2.45098048e-03 0. 0. 2.45098048e-03 0. 2.45098048e-03 0. 0. 0. 0.
      2.45098048e-03 0. 0. 7.35294167e-03 4.90196096e-03 2.45098048e-03
      0. 0. 0. 0. 0. 0. 4.90196096e-03 0. 0. 1.22549022e-02 0. 0. 0. 0.
      0. 0. 2.45098048e-03 0. 0. 2.45098048e-03 0. 7.35294167e-03 0. 0.
      7.35294167e-03 0. 2.45098048e-03 0. 0. 4.90196096e-03 0. 0. 0. 0.
      0. 0. 0. 0. 2.45098048e-03 0. 0. 0. 0. 2.45098048e-03 0. 0. 0. 0.
      0. 2.45098048e-03 0. 0. 0. 0. 4.90196096e-03 0. 0. 0. 0. 0. 0. 0.
      2.45098048e-03 0. 0. 0. 0. 2.45098048e-03 0. 0. 0. 0. 0. 0. 0.
      2.45098048e-03 0. 2.45098048e-03 0. 4.90196096e-03 0. 0. 0. 0. 0.
      0. 0. 0. 0. 2.45098048e-03 0. 2.45098048e-03 0. 0. 0. 0. 0.
      2.45098048e-03 0. 2.45098048e-03 7.35294167e-03 2.45098048e-03 0.
      2.45098048e-03 0. 2.45098048e-03 0. 0. 2.45098048e-03 0. 0. 0.
      1.71568636e-02 0. 0. 2.45098048e-03 2.45098048e-03 0.
      2.45098048e-03 0. 0. 0. 2.45098048e-03 0. 0. 2.45098048e-03 0. 0.
      0. 0. 0. 2.45098048e-03 0. 0. 2.45098048e-03 0. 0. 0. 0. 0. 0. 0.
      2.45098048e-03 4.90196096e-03 0. 0. 0. 0. 2.45098048e-03
      2.45098048e-03 0. 0. 0. 0. 0. 0. 0. 0. 2.45098048e-03
      7.35294167e-03 0. 4.90196096e-03 0. 0. 0. 0. 0. 0. 0. 0.
      4.90196096e-03 0. 0. 2.45098048e-03 0. 0. 2.45098048e-03 0. 0.
      4.90196096e-03 0. 2.45098048e-03 0. 0. 2.45098048e-03 0. 0. 0.
      2.45098048e-03 0. 7.35294167e-03 0. 0. 0. 0. 0. 0. 0. 0. 0. 0.
      2.45098048e-03 0. 0. 0. 2.45098048e-03 9.80392192e-03 0. 0. 0. 0.
      2.45098048e-03 0. 0. 0. 0. 0. 0. 0. 0. 0. 0. 0. 7.35294167e-03 0.
      0. 0. 0. 0. 9.80392192e-03 0. 4.90196096e-03 0. 0. 0.
      2.45098048e-03 0. 0. 0. 0. 0. 2.45098048e-03 9.80392192e-03 0.
      2.45098048e-03 0. 2.45098048e-03 2.45098048e-03 0. 0. 0. 0. 0. 0.
      0. 0. 0. 7.35294167e-03 0. 0. 0. 0. 2.45098048e-03 0. 0. 0. 0.
      2.45098048e-03 0.</_>
    <_>
      2.68817204e-03 0. 0. 0. 0. 0. 4.56989259e-02 2.68817204e-03 0. 0.
      0. 0. 0. 0. 2.68817204e-03 1.07526882e-02 0. 5.37634408e-03 0. 0.
      0. 0. 0. 0. 0. 0. 2.68817204e-03 0. 5.37634408e-03 0. 0. 0. 0. 0.
      0. 0. 0. 0. 2.15053763e-02 1.34408604e-02 0. 0. 0. 0. 0. 0. 0. 0.
      2.68817204e-03 0. 0. 0. 0. 0. 0. 2.68817204e-03 0. 0. 0.
      5.37634408e-03 2.68817204e-03 0. 0. 0. 0. 0. 0. 0. 0.
      2.68817204e-03 0. 0. 2.68817204e-03 0. 0. 0. 0. 0. 0. 0. 0. 0. 0.
      2.68817204e-03 0. 0. 0. 0. 0. 0. 1.07526882e-02 0. 0.
      2.68817204e-03 0. 0. 0. 0. 0. 2.68817204e-03 0. 5.37634408e-03 0.
      0. 0. 0. 0. 5.37634408e-03 0. 0. 3.22580636e-02 0. 2.68817204e-03
      0. 2.68817204e-03 0. 0. 0. 0. 5.37634408e-03 0. 5.37634408e-03 0.
      0. 0. 0. 0. 0. 0. 0. 0. 0. 0. 0. 0. 8.06451589e-03 0. 0. 0. 0. 0.
      2.68817204e-03 0. 0. 0. 0. 0. 0. 0. 0. 0. 0. 8.06451589e-03 0. 0.
      0. 0. 0. 2.68817204e-03 0. 0. 0. 2.68817204e-03 0. 2.68817204e-03
      0. 2.68817204e-03 0. 0. 0. 0. 0. 0. 0. 0. 0. 0. 0. 0. 0.
      2.68817204e-03 0. 0. 0. 0. 0. 0. 0. 0. 0. 0. 2.68817204e-03 0. 0.
      0. 0. 2.68817204e-03 0. 0. 0. 0. 0. 0. 0. 0. 0. 0. 0. 0.
      2.68817204e-03 0. 0. 0. 0. 0. 2.68817204e-03 0. 0. 2.68817204e-03
      0. 2.68817204e-03 0. 0. 2.68817204e-03 0. 0. 8.06451589e-03
      2.68817204e-03 0. 0. 2.68817204e-03 0. 2.68817204e-03
      2.68817204e-03 0. 2.68817204e-03 0. 2.68817204e-03 0.
      2.95698922e-02 0. 0. 0. 0. 0. 2.68817204e-03 0. 0. 0.
      5.37634408e-03 0. 0. 0. 0. 0. 0. 0. 0. 0. 0. 0. 0. 0. 0. 0. 0. 0.
      0. 2.68817204e-03 2.68817204e-03 2.68817204e-03 0. 0.
      5.37634408e-03 0. 0. 0. 0. 0. 2.68817204e-03 2.68817204e-03 0. 0.
      0. 0. 0. 0. 0. 0. 0. 0. 0. 0. 0. 0. 0. 0. 0. 2.68817204e-03 0. 0.
      0. 0. 2.68817204e-03 0. 0. 0. 2.68817204e-03 0. 0. 0. 0. 0. 0. 0.
      0. 0. 0. 0. 2.68817204e-03 0. 0. 0. 0. 0. 0. 0. 0. 0.
      2.68817204e-03 2.68817204e-03 0. 5.37634408e-03 0. 0. 0. 0. 0. 0.
      8.06451589e-03 0. 0. 5.37634408e-03 0. 0. 0. 0. 0. 0. 0. 0. 0. 0.
      0. 0. 0. 0. 0. 0. 0. 2.68817204e-03 0. 0. 5.37634408e-03 0. 0.
      5.37634408e-03 1.07526882e-02 0. 0. 0. 0. 0. 0. 0. 0. 0. 0. 0. 0.
      8.06451589e-03 0. 0. 2.68817204e-03 0. 0. 2.68817204e-03 0. 0. 0.
      2.68817204e-03 0. 2.68817204e-03 0. 0. 0. 0. 0. 0. 0. 0.
      2.68817204e-03 2.95698922e-02 0. 0. 2.68817204e-03 0. 0. 0. 0. 0.
      0. 0. 0. 0. 0. 0. 0. 0. 0. 5.37634408e-03 0. 0. 2.68817204e-03 0.
      2.68817204e-03 0. 0. 2.68817204e-03 0. 0. 0. 5.37634408e-03 0. 0.
      0. 0. 0. 0. 0. 0. 0. 0. 0. 0. 0. 0. 0. 0. 0. 8.06451589e-03 0. 0.
      0. 3.76344100e-02 2.68817204e-03 2.68817204e-03 2.68817204e-03 0.
      0. 0. 0. 2.68817204e-03 0. 0. 0. 0. 2.68817204e-03 0. 0. 0. 0. 0.
      0. 0. 2.68817204e-03 0. 0. 0. 0. 1.61290318e-02 0. 0. 0. 0. 0. 0.
      0. 2.68817204e-03 0. 0. 0. 0. 2.68817204e-03 0. 0. 0. 0. 0. 0. 0.
      0. 2.68817204e-03 0. 0. 0. 0. 0. 0. 0. 2.68817204e-03 0. 0. 0. 0.
      0. 8.06451589e-03 0. 0. 0. 0. 0. 0. 0. 0. 0. 0. 0. 0. 0.
      2.68817204e-03 0. 0. 0. 2.68817204e-03 0. 0. 2.68817204e-03 0. 0.
      5.37634408e-03 0. 0. 0. 0. 0. 0. 0. 0. 0. 0. 0. 0. 0. 0.
      2.68817204e-03 2.68817204e-03 0. 0. 2.68817204e-03 0. 0. 0. 0. 0.
      0. 2.68817204e-03 0. 0. 0. 0. 0. 0. 0. 5.37634408e-03 0. 0. 0.
      2.68817204e-03 0. 0. 0. 0. 0. 0. 2.95698922e-02 0. 2.68817204e-03
      0. 0. 2.68817204e-03 0. 2.68817204e-03 0. 0. 0. 0. 0. 0. 0. 0. 0.
      0. 2.68817204e-03 0. 2.68817204e-03 2.68817204e-03 2.68817204e-03
      0. 0. 2.68817204e-03 0. 8.06451589e-03 0. 0. 0. 5.37634408e-03 0.
      1.61290318e-02 0. 0. 0. 0. 0. 0. 0. 0. 0. 8.06451589e-03 0. 0. 0.
      0. 0. 0. 0. 0. 0. 5.37634408e-03 0. 1.34408604e-02 0. 0. 0. 0. 0.
      1.34408604e-02 0. 0. 0. 0. 0. 0. 0. 0. 0. 0. 0. 0. 0. 0. 0.
      2.68817204e-03 0. 0. 0. 0. 0. 2.68817204e-03 0. 0. 5.37634408e-03
      0. 0. 0. 0. 2.68817204e-03 0. 0. 0. 0. 0. 0. 2.68817204e-03 0. 0.
      2.68817204e-03 0. 0. 0. 2.68817204e-03 0. 0. 2.68817204e-03 0. 0.
      0. 0. 0. 0. 0. 0. 0. 0. 0. 0. 0. 0. 0. 0. 0. 0. 0. 0. 0. 0. 0.
      2.68817204e-03 0. 0. 0. 0. 0. 0. 0. 0. 0. 0. 0. 0. 0. 0. 0. 0. 0.
      0. 0. 0. 0. 0. 5.37634408e-03 0. 2.68817204e-03 0. 0. 0. 0. 0. 0.
      0. 0. 0. 5.37634408e-03 0. 0. 2.68817204e-03 0. 0. 0. 0.
      8.06451589e-03 0. 0. 0. 0. 0. 0. 0. 0. 0. 0. 0. 0. 0. 0. 0. 0. 0.
      0. 0. 2.68817204e-03 0. 0. 0. 0. 5.37634408e-03 5.37634408e-03
      2.68817204e-03 0. 0. 0. 0. 0. 0. 0. 0. 0. 0. 0. 0. 0. 0. 0. 0. 0.
      0. 0. 0. 2.68817204e-03 0. 2.68817204e-03 0. 0. 0. 0. 0. 0. 0. 0.
      0. 0. 0. 0. 0. 0. 0. 0. 0. 0. 0. 0. 2.68817204e-03 2.68817204e-03
      0. 0. 0. 0. 0. 0. 0. 0. 0. 2.68817204e-03 2.68817204e-03 0. 0.
      8.06451589e-03 1.34408604e-02 0. 0. 0. 0. 0. 1.61290318e-02 0. 0.
      0. 0. 0. 0. 0. 1.34408604e-02 0. 0. 0. 0. 0. 0. 0. 0. 0. 0. 0.
      5.37634408e-03 2.68817204e-03 0. 0. 0. 0. 0. 8.06451589e-03 0. 0.
      0. 0. 0. 0. 0. 0. 0. 5.37634408e-03 2.68817204e-03 0. 0. 0. 0. 0.
      0. 0. 0. 0. 5.37634408e-03 0. 0. 0. 0. 0. 8.06451589e-03 0.
      1.61290318e-02 0. 0. 0. 0. 2.68817204e-03 2.68817204e-03 0. 0. 0.
      0. 0. 5.37634408e-03 0. 0. 0. 5.37634408e-03 0. 0. 0. 0. 0. 0. 0.
      0. 0. 0. 0. 5.37634408e-03 2.68817204e-03 0. 0. 0. 0. 0. 0. 0.
      8.06451589e-03 0. 0. 0. 0. 0. 0. 0. 8.06451589e-03 0. 0.
      2.68817204e-03 0. 0. 2.68817204e-03 0. 0. 0. 0. 0. 0. 0. 0. 0. 0.
      0. 0. 1.07526882e-02 8.06451589e-03 1.61290318e-02 0. 0. 0. 0. 0.
      0. 0. 2.68817204e-03 0. 0. 0. 5.37634408e-03 0. 0. 0. 0. 0. 0. 0.
      0. 0. 0. 0. 0.</_>
    <_>
      0. 0. 4.83091781e-03 0. 0. 0. 2.41545890e-03 0. 0. 0.
      4.83091781e-03 2.41545890e-03 0. 0. 0. 0. 9.66183562e-03
      7.24637695e-03 0. 2.41545890e-03 0. 0. 0. 0. 0. 0. 0. 0.
      1.44927539e-02 0. 2.41545890e-03 0. 0. 0. 0. 0. 2.41545890e-03 0.
      2.41545890e-03 0. 2.41545890e-03 0. 0. 0. 0. 2.41545890e-03 0. 0.
      2.41545890e-03 2.41545890e-03 2.41545890e-03 0. 0. 0.
      2.41545890e-03 2.41545890e-03 0. 0. 0. 2.41545890e-03
      2.41545890e-03 2.41545890e-03 0. 0. 0. 0. 2.41545890e-03 0.
      4.83091781e-03 0. 0. 0. 2.41545890e-03 0. 0. 0. 4.83091781e-03 0.
      0. 2.41545890e-03 0. 2.41545890e-03 0. 2.41545890e-03
      2.41545890e-03 0. 4.83091781e-03 0. 0. 0. 4.83091781e-03 0. 0. 0.
      2.41545890e-03 2.41545890e-03 0. 0. 0. 2.41545890e-03 0.
      2.41545890e-03 0. 2.41545890e-03 0. 2.41545890e-03 4.83091781e-03
      0. 0. 0. 9.66183562e-03 0. 0. 0. 0. 0. 0. 0. 0. 2.41545890e-03 0.
      2.41545890e-03 0. 0. 2.41545890e-03 2.41545890e-03 0. 0. 0.
      2.41545890e-03 0. 0. 0. 2.41545890e-03 2.41545890e-03
      7.24637695e-03 0. 0. 4.83091781e-03 2.41545890e-03 2.41545890e-03
      0. 0. 0. 7.24637695e-03 0. 0. 4.83091781e-03 0. 0. 0. 0. 0.
      2.41545890e-03 0. 0. 2.41545890e-03 0. 0. 0. 0. 0. 2.41545890e-03
      2.41545890e-03 4.83091781e-03 0. 2.41545890e-03 2.41545890e-03 0.
      0. 0. 2.41545890e-03 0. 0. 0. 0. 4.83091781e-03 0. 0. 0. 0.
      4.83091781e-03 0. 0. 0. 0. 0. 0. 0. 2.41545890e-03 0. 0. 0. 0. 0.
      0. 0. 0. 0. 0. 0. 0. 0. 0. 0. 0. 0. 0. 0. 2.41545890e-03 0. 0.
      2.41545890e-03 0. 0. 0. 0. 0. 2.41545890e-03 0. 2.41545890e-03 0.
      0. 0. 0. 2.41545890e-03 4.83091781e-03 0. 0. 2.41545890e-03 0. 0.
      0. 2.41545890e-03 0. 0. 0. 0. 7.24637695e-03 2.41545890e-03 0.
      4.83091781e-03 0. 0. 0. 0. 0. 0. 0. 2.41545890e-03 0. 0.
      2.41545890e-03 0. 0. 0. 0. 0. 4.83091781e-03 0. 0. 2.41545890e-03
      0. 0. 0. 0. 0. 0. 0. 0. 2.41545890e-03 2.41545890e-03 0. 0. 0.
      2.41545890e-03 0. 0. 1.20772943e-02 0. 4.83091781e-03 0. 0. 0.
      2.41545890e-03 0. 0. 0. 0. 0. 0. 0. 0. 0. 0. 0. 0. 2.41545890e-03
      0. 0. 0. 0. 0. 0. 0. 0. 0. 0. 2.41545890e-03 2.41545890e-03 0. 0.
      0. 0. 0. 2.41545890e-03 0. 0. 2.41545890e-03 2.41545890e-03 0.
      2.41545890e-03 0. 0. 0. 0. 0. 0. 4.83091781e-03 0. 4.83091781e-03
      0. 1.69082116e-02 0. 0. 0. 0. 2.41545890e-03 0. 0. 0. 0. 0. 0. 0.
      0. 0. 0. 0. 0. 0. 0. 0. 0. 0. 2.41545890e-03 0. 0. 0. 0. 0. 0. 0.
      0. 4.83091781e-03 0. 2.41545890e-03 9.66183562e-03 0. 0. 0. 0. 0.
      0. 0. 0. 0. 0. 0. 2.41545890e-03 0. 0. 0. 2.41545890e-03
      4.83091781e-03 0. 0. 0. 0. 0. 4.83091781e-03 0. 0. 0. 0. 0.
      2.41545890e-03 4.83091781e-03 2.41545890e-03 0. 0. 0. 0.
      2.41545890e-03 0. 2.41545890e-03 4.83091781e-03 0. 0. 0. 0. 0.
      4.83091781e-03 0. 0. 0. 2.41545890e-03 0. 2.41545890e-03 0.
      4.83091781e-03 0. 0. 4.83091781e-03 0. 2.41545890e-03 0. 0. 0. 0.
      0. 0. 0. 0. 0. 0. 0. 0. 0. 0. 0. 2.41545890e-03 0. 0. 0.
      4.83091781e-03 2.41545890e-03 0. 0. 0. 2.41545890e-03
      2.41545890e-03 2.41545890e-03 0. 3.62318829e-02 0. 2.41545890e-03
      0. 0. 4.83091781e-03 0. 2.41545890e-03 4.83091781e-03
      2.41545890e-03 0. 0. 9.66183562e-03 2.41545890e-03 0. 0. 0. 0. 0.
      0. 0. 0. 0. 0. 2.41545890e-03 2.41545890e-03 1.44927539e-02 0. 0.
      0. 0. 0. 0. 0. 0. 7.24637695e-03 2.41545890e-03 0. 0. 0.
      4.83091781e-03 0. 0. 2.41545890e-03 0. 2.41545890e-03 0. 0.
      2.41545890e-03 0. 0. 0. 0. 0. 0. 0. 0. 2.41545890e-03 0.
      2.41545890e-03 0. 4.83091781e-03 4.83091781e-03 0. 0. 0. 0. 0. 0.
      0. 0. 0. 0. 2.41545890e-03 2.41545890e-03 0. 2.41545890e-03 0. 0.
      0. 0. 0. 7.24637695e-03 0. 0. 0. 0. 0. 0. 2.41545890e-03 0. 0.
      2.41545890e-03 0. 2.41545890e-03 2.41545890e-03 0. 0. 0. 0. 0.
      2.41545890e-03 0. 0. 0. 0. 2.41545890e-03 0. 0. 0. 0. 0. 0. 0. 0.
      0. 0. 0. 0. 0. 0. 0. 0. 2.41545890e-03 0. 0. 4.83091781e-03 0. 0.
      0. 0. 4.83091781e-03 4.83091781e-03 0. 0. 2.41545890e-03 0.
      2.41545890e-03 0. 0. 2.41545890e-03 2.41545890e-03 0. 0.
      2.41545890e-03 0. 0. 0. 0. 0. 0. 2.41545890e-03 0. 2.41545890e-03
      0. 0. 0. 9.66183562e-03 0. 0. 0. 0. 2.41545890e-03 0.
      2.41545890e-03 0. 0. 0. 0. 0. 0. 0. 2.41545890e-03 0.
      2.41545890e-03 2.41545890e-03 0. 2.41545890e-03 2.41545890e-03 0.
      0. 0. 0. 0. 4.83091781e-03 0. 1.44927539e-02 0. 0. 0. 0.
      2.41545890e-03 4.83091781e-03 0. 2.41545890e-03 0. 0. 0. 0. 0. 0.
      0. 0. 0. 0. 0. 0. 0. 2.41545890e-03 0. 7.24637695e-03
      4.83091781e-03 0. 0. 2.41545890e-03 0. 2.41545890e-03 0.
      2.41545890e-03 0. 0. 0. 0. 0. 2.41545890e-03 0. 0. 0. 0.
      2.41545890e-03 0. 0. 4.83091781e-03 0. 0. 4.83091781e-03 0. 0.
      2.41545890e-03 0. 0. 2.41545890e-03 0. 0. 0. 2.41545890e-03 0. 0.
      0. 0. 0. 0. 0. 0. 0. 0. 0. 4.83091781e-03 4.83091781e-03 0. 0. 0.
      0. 0. 7.24637695e-03 0. 0. 0. 0. 0. 0. 0. 0. 0. 2.41545890e-03 0.
      0. 0. 0. 0. 0. 0. 0. 0. 0. 4.83091781e-03 0. 7.24637695e-03 0. 0.
      0. 0. 0. 0. 0. 0. 0. 0. 0. 0. 0. 2.41545890e-03 0. 4.83091781e-03
      0. 0. 1.20772943e-02 0. 2.41545890e-03 0. 0. 0. 2.41545890e-03
      2.41545890e-03 0. 0. 0. 0. 0. 0. 0. 0. 0. 0. 0. 0. 0. 0. 0. 0. 0.
      0. 0. 0. 0. 0. 0. 0. 2.41545890e-03 2.41545890e-03 0. 0. 0. 0. 0.
      0. 0. 0. 2.41545890e-03 4.83091781e-03 0. 4.83091781e-03
      2.41545890e-03 0. 4.83091781e-03 0. 4.83091781e-03 0. 0. 0. 0. 0.
      0. 0. 0. 0. 2.41545890e-03 9.66183562e-03 0. 0. 0. 2.41545890e-03
      7.24637695e-03 0. 0. 4.83091781e-03 0. 0. 0. 0. 0. 0.
      2.41545890e-03 0. 0. 0. 0. 0. 7.24637695e-03 2.41545890e-03 0. 0.
      0. 1.20772943e-02 0. 0. 0. 0. 0. 0. 0. 0. 9.66183562e-03 0. 0. 0.
      2.41545890e-03 0. 0. 0. 2.41545890e-03 2.41545890e-03
      2.41545890e-03 0. 0. 0. 0. 0. 0. 2.41545890e-03 0. 0. 0. 0. 0.
      2.41545890e-03 4.83091781e-03 2.41545890e-03 0. 0. 0. 0. 0. 0. 0.
      0. 0. 2.41545890e-03 0. 0. 0. 0. 0. 4.83091781e-03 0. 0. 0. 0. 0.
      0. 7.24637695e-03 0. 0. 0. 0. 1.69082116e-02 0. 0. 0. 0. 0.
      4.83091781e-03 0. 0. 0. 0. 0. 2.41545890e-03 0. 0. 0. 0. 0. 0.
      2.41545890e-03 0. 0. 0. 0. 0. 2.41545890e-03 4.83091781e-03 0. 0.
      2.41545890e-03 0. 0. 0. 4.83091781e-03 0. 0. 0. 0. 2.41545890e-03
      2.41545890e-03 0. 0. 0. 0. 0. 2.41545890e-03 0. 0. 0. 0.
      9.66183562e-03 0. 0. 9.66183562e-03 0. 0. 0. 0. 0. 0. 0. 0. 0.
      2.41545890e-03 2.41545890e-03 2.41545890e-03 7.24637695e-03 0. 0.
      0. 0. 0. 2.41545890e-03 0. 0. 0. 4.83091781e-03 0. 2.41545890e-03
      0. 2.41545890e-03 0. 0. 0. 2.41545890e-03 0. 2.41545890e-03 0. 0.
      0. 0.</_>
    <_>
      0. 0. 0. 0. 0. 2.00000009e-03 1.20000001e-02 0. 2.00000009e-03 0.
      0. 0. 0. 0. 0. 2.00000009e-03 4.00000019e-03 2.00000009e-03 0. 0.
      2.00000009e-03 0. 6.00000005e-03 0. 0. 0. 0. 2.00000009e-03 0. 0.
      0. 0. 0. 2.00000009e-03 0. 0. 4.00000019e-03 0. 1.40000004e-02
      1.00000007e-02 0. 0. 0. 0. 0. 0. 0. 0. 0. 0. 0. 0. 0. 0. 0. 0. 0.
      0. 0. 1.20000001e-02 0. 0. 0. 0. 0. 2.00000009e-03 0. 0.
      2.00000009e-03 0. 0. 0. 2.00000009e-03 0. 0. 0. 4.00000019e-03 0.
      0. 0. 0. 2.00000009e-03 0. 8.00000038e-03 0. 0. 6.00000005e-03 0.
      2.00000009e-03 0. 6.00000005e-03 0. 0. 0. 8.00000038e-03 0. 0. 0.
      0. 2.00000009e-03 2.00000009e-03 6.00000005e-03 0. 0. 0. 0. 0.
      8.00000038e-03 0. 0. 2.40000002e-02 0. 4.00000019e-03 0.
      1.00000007e-02 2.00000009e-03 0. 0. 0. 6.00000005e-03 0.
      1.00000007e-02 0. 0. 6.00000005e-03 4.00000019e-03 0. 0.
      2.00000009e-03 0. 0. 0. 0. 2.00000009e-03 0. 0. 0. 0. 0. 0. 0. 0.
      0. 2.00000009e-03 4.00000019e-03 0. 0. 0. 0. 2.00000009e-03 0. 0.
      1.40000004e-02 4.00000019e-03 0. 0. 0. 0. 0. 0. 0. 0.
      2.00000009e-03 2.00000009e-03 0. 0. 0. 0. 0. 0. 0. 0. 0. 0. 0. 0.
      0. 0. 0. 2.00000009e-03 0. 0. 2.00000009e-03 2.00000009e-03 0. 0.
      0. 0. 0. 0. 0. 4.00000019e-03 0. 0. 0. 2.00000009e-03
      1.20000001e-02 0. 0. 0. 0. 0. 0. 0. 2.00000009e-03 0. 0.
      2.00000009e-03 0. 0. 0. 0. 0. 0. 0. 2.00000009e-03 0. 0.
      4.00000019e-03 0. 0. 0. 0. 8.00000038e-03 0. 2.00000009e-03
      1.00000007e-02 0. 0. 0. 0. 0. 0. 1.00000007e-02 0. 0. 0.
      2.00000009e-03 4.00000019e-03 8.00000038e-03 2.00000009e-03 0. 0.
      0. 0. 0. 0. 0. 0. 0. 4.00000019e-03 0. 0. 0. 0. 0. 0. 0.
      2.00000009e-03 0. 0. 0. 0. 0. 0. 0. 0. 0. 0. 0. 0. 0. 0.
      6.00000005e-03 0. 2.00000009e-03 4.00000019e-03 0. 2.00000009e-03
      2.00000009e-03 2.00000009e-03 0. 0. 0. 0. 0. 0. 0. 0.
      2.00000009e-03 0. 0. 0. 0. 0. 0. 0. 0. 2.00000009e-03 0. 0. 0. 0.
      0. 0. 0. 0. 0. 0. 0. 0. 6.00000005e-03 0. 0. 2.00000009e-03
      2.00000009e-03 0. 0. 0. 0. 0. 0. 0. 0. 2.00000009e-03 0.
      2.00000009e-03 0. 0. 0. 2.00000009e-03 0. 2.60000005e-02 0.
      2.00000009e-03 0. 0. 2.00000009e-03 0. 4.00000019e-03 0. 0.
      4.00000019e-03 0. 0. 2.00000009e-03 0. 0. 2.00000009e-03 0.
      2.20000017e-02 0. 0. 4.00000019e-03 0. 0. 0. 2.00000009e-03 0. 0.
      0. 0. 0. 0. 0. 0. 1.00000007e-02 0. 0. 0. 0. 0. 0. 0. 0. 0. 0.
      2.00000009e-03 0. 2.00000009e-03 0. 0. 0. 2.00000009e-03
      2.00000009e-03 0. 4.00000019e-03 0. 0. 0. 8.00000038e-03 0.
      6.00000005e-03 0. 4.00000019e-03 0. 0. 0. 4.00000019e-03 0. 0.
      2.00000009e-03 1.80000011e-02 0. 2.00000009e-03 0. 0. 0. 0. 0. 0.
      4.00000019e-03 2.00000009e-03 0. 0. 2.00000009e-03 2.00000009e-03
      4.00000019e-03 0. 0. 8.00000038e-03 0. 0. 0. 0. 4.00000019e-03 0.
      0. 0. 0. 0. 0. 0. 0. 0. 0. 4.00000019e-03 0. 0. 2.00000009e-03 0.
      0. 0. 0. 0. 6.00000005e-03 0. 0. 0. 0. 2.00000009e-03 0. 0. 0.
      6.00000005e-03 0. 0. 2.00000009e-03 0. 4.00000019e-03 0. 0.
      2.00000009e-03 0. 0. 0. 0. 4.00000019e-03 0. 0. 0. 0. 0.
      2.00000009e-03 0. 2.00000009e-03 0. 0. 2.00000009e-03 0.
      2.00000009e-03 0. 0. 2.00000009e-03 0. 0. 0. 2.00000009e-03 0.
      2.00000009e-03 0. 2.00000009e-03 2.00000009e-03 1.60000008e-02 0.
      0. 6.00000005e-03 0. 4.00000019e-03 0. 0. 0. 2.00000009e-03 0. 0.
      0. 0. 0. 0. 0. 2.00000009e-03 0. 0. 2.00000009e-03 0. 0.
      8.00000038e-03 0. 0. 0. 0. 0. 0. 0. 0. 2.00000009e-03
      6.00000005e-03 2.00000009e-03 2.00000009e-03 0. 2.00000009e-03 0.
      0. 0. 4.00000019e-03 0. 0. 2.00000009e-03 4.00000019e-03
      6.00000005e-03 8.00000038e-03 0. 0. 0. 0. 0. 0. 0. 0. 0. 0.
      2.00000009e-03 0. 0. 0. 0. 0. 4.00000019e-03 0. 0. 0. 0. 0. 0. 0.
      0. 0. 2.00000009e-03 2.00000009e-03 0. 0. 0. 0. 0. 8.00000038e-03
      0. 0. 0. 0. 0. 2.80000009e-02 0. 0. 4.00000019e-03 0.
      1.20000001e-02 0. 2.00000009e-03 0. 2.00000009e-03 0. 0.
      2.00000009e-03 2.00000009e-03 2.00000009e-03 0. 0. 0. 0. 0. 0. 0.
      0. 0. 0. 2.00000009e-03 0. 4.00000019e-03 2.00000009e-03
      2.00000009e-03 2.00000009e-03 0. 4.00000019e-03 0. 0. 0.
      2.00000009e-03 0. 4.00000019e-03 0. 0. 0. 4.00000019e-03 0. 0. 0.
      0. 0. 0. 2.00000009e-03 0. 0. 0. 0. 0. 0. 0. 0. 4.00000019e-03 0.
      2.00000009e-03 0. 2.00000009e-03 2.00000009e-03 0. 0. 0. 0. 0. 0.
      0. 0. 0. 0. 0. 0. 0. 0. 0. 0. 2.00000009e-03 0. 0. 0. 0.
      2.00000009e-03 4.00000019e-03 0. 0. 2.00000009e-03 0.
      2.00000009e-03 0. 0. 6.00000005e-03 0. 4.00000019e-03 0. 0.
      2.00000009e-03 0. 1.00000007e-02 0. 0. 0. 2.00000009e-03
      2.00000009e-03 0. 0. 0. 0. 0. 6.00000005e-03 0. 0. 0. 0. 0. 0. 0.
      0. 0. 2.00000009e-03 0. 0. 0. 0. 0. 0. 0. 0. 2.00000009e-03
      2.00000009e-03 0. 0. 0. 0. 0. 0. 0. 0. 0. 0. 0. 0. 0. 0. 0.
      4.00000019e-03 0. 0. 0. 0. 0. 0. 0. 0. 0. 0. 2.00000009e-03
      1.40000004e-02 2.00000009e-03 2.00000009e-03 0. 0. 2.00000009e-03
      0. 0. 0. 0. 4.00000019e-03 0. 4.00000019e-03 0. 0. 0. 0. 0. 0. 0.
      2.00000009e-03 0. 0. 0. 0. 0. 0. 0. 0. 2.00000009e-03 0. 0. 0.
      2.00000009e-03 2.00000009e-03 2.00000009e-03 0. 0. 0. 0. 0. 0.
      4.00000019e-03 2.00000009e-03 0. 0. 0. 6.00000005e-03 0. 0. 0. 0.
      0. 0. 0. 0. 0. 0. 2.00000009e-03 0. 0. 0. 0. 0. 0. 0. 0. 0. 0. 0.
      4.00000019e-03 0. 0. 0. 2.00000009e-03 0. 0. 2.00000009e-03 0. 0.
      0. 0. 0. 0. 0. 4.00000019e-03 2.00000009e-03 0. 2.00000009e-03
      4.00000019e-03 4.00000019e-03 4.00000019e-03 0. 0. 0. 0.
      4.00000019e-03 0. 2.00000009e-03 0. 0. 0. 0. 2.00000009e-03 0. 0.
      0. 4.00000019e-03 0. 0. 0. 0. 0. 8.00000038e-03 2.00000009e-03 0.
      0. 0. 0. 0. 0. 0. 4.00000019e-03 0. 0. 0. 0. 0. 0. 0.
      4.00000019e-03 0. 0. 0. 0. 0. 0. 0. 0. 2.00000009e-03
      8.00000038e-03 2.00000009e-03 0. 0. 0. 0. 0. 0. 0. 0. 0. 0.
      2.00000009e-03 0. 0. 0. 2.00000009e-03 0. 0. 0. 0. 4.00000019e-03
      0. 0. 2.00000009e-03 0. 0. 0. 6.00000005e-03 2.00000009e-03 0. 0.
      0. 0. 4.00000019e-03 0. 0. 2.00000009e-03 0. 0. 0. 6.00000005e-03
      0. 0. 0. 0. 2.00000009e-03 0. 0. 0. 0. 0. 0. 0. 0. 0. 0.
      2.00000009e-03 0. 2.00000009e-03 0. 0. 0. 0. 0. 0. 2.00000009e-03
      0. 0. 0. 0. 0. 0. 0. 4.00000019e-03 0. 0. 0. 0. 2.00000009e-03 0.
      0. 2.00000009e-03 0. 0. 0. 0. 0. 0. 0. 0. 0. 0. 8.00000038e-03
      2.00000009e-03 0. 0. 4.00000019e-03 0. 0. 0. 0. 0. 0. 0. 0. 0.
      2.00000009e-03 0. 0. 0. 0. 0. 0. 0. 0. 0. 0. 0. 0.</_>
    <_>
      0. 0. 2.00803205e-03 0. 0. 0. 6.02409616e-03 0. 2.00803205e-03 0.
      0. 0. 0. 0. 0. 2.00803205e-03 2.00803205e-03 8.03212821e-03 0. 0.
      0. 0. 0. 0. 0. 6.02409616e-03 6.02409616e-03 0. 0. 0.
      6.02409616e-03 0. 2.00803205e-03 4.01606411e-03 0. 0. 0. 0.
      6.02409616e-03 1.20481923e-02 0. 0. 0. 0. 0. 0. 0. 0.
      2.00803205e-03 0. 2.00803205e-03 0. 0. 0. 4.01606411e-03
      6.02409616e-03 0. 0. 0. 2.00803205e-03 0. 0. 0. 0. 0. 0.
      4.01606411e-03 2.00803205e-03 0. 0. 0. 2.00803205e-03
      4.01606411e-03 0. 2.00803205e-02 0. 0. 0. 0. 2.00803205e-03 0.
      2.00803205e-03 0. 4.01606411e-03 0. 0. 0. 0. 0. 0. 1.20481923e-02
      0. 0. 2.00803205e-03 2.00803205e-03 0. 0. 0. 0. 0. 0. 0.
      2.00803205e-03 0. 0. 0. 0. 4.01606411e-03 0. 0. 8.03212821e-03 0.
      0. 0. 4.01606411e-03 4.01606411e-03 2.00803205e-03 0. 0. 0.
      2.00803205e-03 2.00803205e-03 0. 0. 2.00803205e-03 4.01606411e-03
      0. 2.00803205e-03 2.00803205e-03 0. 0. 0. 0. 0. 0. 4.01606411e-03
      0. 0. 2.00803205e-03 2.00803205e-03 0. 0. 0. 4.01606411e-03
      2.00803205e-03 0. 0. 4.01606411e-03 0. 0. 0. 2.00803205e-03 0.
      2.00803205e-03 0. 0. 0. 0. 0. 0. 0. 0. 2.00803205e-03
      8.03212821e-03 0. 0. 2.00803205e-03 0. 0. 0. 0. 2.00803205e-03 0.
      2.00803205e-03 0. 0. 0. 0. 0. 2.00803205e-03 0. 4.01606411e-03 0.
      0. 0. 0. 0. 0. 0. 0. 0. 0. 0. 0. 6.02409616e-03 0. 0. 0. 0. 0. 0.
      2.00803205e-03 0. 0. 0. 0. 0. 0. 0. 2.00803205e-03 0. 0.
      2.00803205e-03 0. 0. 2.00803205e-03 0. 0. 0. 2.00803205e-03 0. 0.
      0. 2.00803205e-03 0. 0. 0. 0. 0. 2.00803205e-03 2.00803205e-03 0.
      0. 2.00803205e-03 0. 2.00803205e-03 0. 2.00803205e-03
      2.00803205e-03 1.00401603e-02 2.00803205e-03 0. 0. 0. 0. 0. 0.
      2.00803205e-03 2.00803205e-03 0. 0. 0. 0. 0. 0. 0. 0. 0. 0. 0. 0.
      0. 0. 0. 2.00803205e-03 0. 0. 0. 0. 0. 0. 0. 0. 0. 0.
      4.01606411e-03 0. 0. 0. 0. 0. 0. 0. 2.00803205e-03 2.00803205e-03
      0. 0. 2.00803205e-03 4.01606411e-03 2.00803205e-03 0.
      2.00803205e-03 2.00803205e-03 0. 0. 0. 0. 0. 0. 0. 2.00803205e-03
      0. 2.00803205e-03 0. 0. 0. 0. 0. 0. 0. 0. 2.00803205e-03 0. 0. 0.
      0. 0. 2.00803205e-03 4.01606411e-03 2.00803205e-03 0.
      2.00803205e-03 0. 2.00803205e-03 0. 0. 0. 2.00803205e-03 0. 0.
      4.01606411e-03 0. 4.01606411e-03 0. 0. 2.00803205e-03 0. 0. 0.
      2.00803205e-03 0. 0. 4.01606411e-03 0. 0. 0. 0. 0. 2.00803205e-03
      2.00803205e-03 6.02409616e-03 0. 0. 0. 4.01606411e-03
      4.01606411e-03 6.02409616e-03 0. 0. 0. 0. 0. 2.00803205e-03
      2.00803205e-03 2.00803205e-03 0. 4.01606411e-03 4.01606411e-03 0.
      0. 2.00803205e-03 0. 0. 0. 0. 0. 2.00803205e-03 4.01606411e-03 0.
      0. 0. 2.00803205e-03 0. 2.00803205e-03 4.01606411e-03 0.
      2.00803205e-03 0. 0. 0. 0. 0. 0. 2.00803205e-03 2.00803205e-03 0.
      0. 0. 0. 0. 0. 2.00803205e-03 0. 0. 0. 0. 4.01606411e-03 0. 0. 0.
      6.02409616e-03 2.00803205e-03 1.60642564e-02 0. 0. 0.
      2.00803205e-03 0. 0. 0. 2.00803205e-03 0. 0. 2.00803205e-03 0. 0.
      0. 0. 0. 0. 0. 0. 1.60642564e-02 0. 2.00803205e-03 2.00803205e-03
      8.03212821e-03 0. 4.01606411e-03 0. 0. 0. 0. 2.00803205e-03
      2.00803205e-03 0. 0. 0. 0. 0. 0. 0. 2.00803205e-03 0.
      1.20481923e-02 0. 2.00803205e-03 2.00803205e-03 0. 0. 0. 0.
      8.03212821e-03 0. 0. 0. 0. 6.02409616e-03 0. 2.00803205e-03 0. 0.
      0. 2.00803205e-03 2.00803205e-03 4.01606411e-03 0. 0. 0. 0.
      4.01606411e-03 0. 0. 0. 2.00803205e-03 0. 2.00803205e-03
      2.00803205e-03 0. 4.01606411e-03 0. 0. 0. 0. 0. 0. 2.00803205e-03
      0. 4.01606411e-03 2.00803205e-03 0. 0. 8.03212821e-03 0. 0. 0. 0.
      0. 4.01606411e-03 2.00803205e-03 0. 0. 0. 8.03212821e-03 0.
      4.01606411e-03 2.00803205e-03 0. 2.00803205e-03 0. 0. 0. 0. 0. 0.
      4.01606411e-03 0. 0. 2.00803205e-03 0. 0. 0. 0. 0. 0. 0.
      6.02409616e-03 0. 0. 0. 4.01606411e-03 0. 0. 0. 0. 2.00803205e-03
      0. 0. 0. 2.00803205e-03 0. 0. 0. 0. 0. 2.00803205e-03 0. 0.
      6.02409616e-03 0. 0. 2.00803205e-03 2.00803205e-03 2.00803205e-03
      2.00803205e-03 0. 0. 0. 0. 0. 0. 2.00803205e-03 0. 0.
      2.00803205e-03 0. 0. 0. 0. 0. 0. 0. 2.00803205e-03 2.00803205e-03
      0. 6.02409616e-03 0. 0. 0. 2.00803205e-03 0. 0. 2.00803205e-03
      2.00803205e-03 2.00803205e-03 0. 0. 2.00803205e-03 0. 0.
      4.01606411e-03 0. 0. 0. 0. 2.00803205e-03 0. 2.00803205e-03
      2.00803205e-03 0. 0. 6.02409616e-03 4.01606411e-03 0. 0. 0.
      2.00803205e-03 2.00803205e-03 0. 0. 0. 0. 0. 6.02409616e-03 0. 0.
      0. 0. 0. 2.00803205e-03 0. 2.00803205e-03 2.00803205e-03 0. 0. 0.
      0. 0. 2.00803205e-03 0. 2.00803205e-03 0. 0. 0. 2.00803205e-03
      4.01606411e-03 4.01606411e-03 0. 0. 0. 0. 2.00803205e-03 0. 0. 0.
      0. 0. 0. 0. 0. 0. 2.00803205e-03 4.01606411e-03 0. 0.
      6.02409616e-03 2.00803205e-03 4.01606411e-03 0. 0. 0. 0. 0. 0. 0.
      0. 0. 0. 0. 0. 2.00803205e-03 0. 0. 4.01606411e-03 0. 0.
      6.02409616e-03 0. 0. 0. 2.00803205e-03 0. 0. 2.00803205e-03 0.
      6.02409616e-03 0. 0. 0. 2.00803205e-03 0. 0. 0. 0. 0. 0. 0. 0. 0.
      0. 0. 2.00803205e-03 0. 2.00803205e-03 0. 0. 0. 0. 2.00803205e-03
      0. 0. 0. 0. 0. 2.00803205e-03 0. 0. 0. 1.00401603e-02
      4.01606411e-03 2.00803205e-03 4.01606411e-03 0. 0. 0.
      2.00803205e-03 2.00803205e-03 4.01606411e-03 0. 0. 2.20883526e-02
      0. 0. 0. 2.00803205e-03 0. 0. 0. 0. 0. 2.00803205e-03 0. 0. 0. 0.
      1.00401603e-02 2.00803205e-03 2.00803205e-03 2.00803205e-03
      2.00803205e-03 2.00803205e-03 0. 0. 0. 0. 0. 0. 0. 0. 0. 0. 0.
      2.00803205e-03 0. 0. 0. 0. 0. 0. 0. 4.01606411e-03 0. 0. 0. 0. 0.
      4.01606411e-03 6.02409616e-03 0. 0. 0. 0. 0. 0. 0. 0. 0. 0. 0. 0.
      0. 4.01606411e-03 0. 2.00803205e-03 0. 2.00803205e-03 0. 0.
      4.01606411e-03 0. 2.00803205e-03 0. 0. 0. 0. 0. 0. 0. 0. 0.
      2.00803205e-03 0. 0. 0. 0. 0. 0. 0. 0. 0. 0. 2.00803205e-03
      1.00401603e-02 0. 0. 0. 4.01606411e-03 0. 4.01606411e-03 0. 0. 0.
      0. 2.00803205e-03 0. 0. 0. 6.02409616e-03 0. 2.00803205e-03 0.
      4.01606411e-03 0. 4.01606411e-03 0. 0. 4.01606411e-03 0. 0. 0. 0.
      0. 0. 0. 0. 0. 4.01606411e-03 2.00803205e-03 0. 0. 0. 0. 0. 0. 0.
      0. 0. 0. 0. 4.01606411e-03 0. 0. 2.00803205e-03 2.00803205e-03 0.
      0. 0. 2.00803205e-03 0. 2.00803205e-03 2.00803205e-03
      2.00803205e-03 0. 0. 2.00803205e-03 2.00803205e-03 0. 0. 0. 0. 0.
      0. 2.00803205e-03 6.02409616e-03 2.00803205e-03 0. 0. 0.
      4.01606411e-03 1.40562244e-02 0. 0. 2.00803205e-03 4.01606411e-03
      0. 0. 0. 0. 0. 0. 2.00803205e-03 2.00803205e-03 0. 0. 0.
      4.01606411e-03 0. 0. 0. 0. 0. 0. 0. 0. 0. 0. 0. 1.00401603e-02
      1.00401603e-02 0. 0. 0. 0. 2.00803205e-03 0. 0. 0. 0. 0. 0. 0. 0.
      0. 0. 0. 0. 0. 2.00803205e-03 0. 0. 0. 0. 2.00803205e-03 0.
      2.00803205e-03 2.00803205e-03 0. 4.01606411e-03 0. 0. 0. 0.
      2.00803205e-03 1.20481923e-02 0. 6.02409616e-03 2.00803205e-03 0.
      4.01606411e-03 0. 2.00803205e-03 0. 4.01606411e-03 0. 0. 0. 0. 0.
      0. 2.00803205e-03 2.00803205e-03 0. 0. 0. 0. 0. 0. 0. 0. 0.</_>
    <_>
      0. 0. 0. 4.91400482e-03 0. 2.45700241e-03 1.22850118e-02 0. 0. 0.
      0. 0. 0. 0. 0. 1.22850118e-02 0. 2.45700241e-03 0. 0. 0. 0.
      2.45700241e-03 0. 0. 0. 0. 0. 0. 0. 0. 0. 0. 2.45700241e-03 0.
      2.45700241e-03 0. 2.45700241e-03 1.96560193e-02 4.91400482e-03 0.
      0. 2.45700241e-03 0. 0. 0. 0. 0. 2.45700241e-03 0. 0. 0.
      2.45700241e-03 0. 4.91400482e-03 2.45700241e-03 0. 0. 0. 0. 0. 0.
      0. 0. 0. 0. 0. 0. 4.91400482e-03 0. 0. 0. 0. 0. 4.91400482e-03 0.
      0. 0. 0. 2.45700241e-03 0. 4.91400482e-03 0. 2.45700241e-03 0. 0.
      2.45700241e-03 0. 0. 0. 4.91400482e-03 0. 0. 2.45700241e-03
      2.45700241e-03 0. 0. 0. 0. 2.45700241e-03 0. 7.37100746e-03 0.
      4.91400482e-03 0. 0. 0. 2.45700241e-03 0. 0. 3.19410302e-02
      2.45700241e-03 9.82800964e-03 0. 0. 2.45700241e-03 2.45700241e-03
      0. 0. 2.45700241e-03 0. 0. 2.45700241e-03 0. 0. 0. 2.45700241e-03
      0. 0. 0. 0. 0. 0. 0. 0. 0. 0. 0. 0. 7.37100746e-03 2.45700241e-03
      0. 0. 7.37100746e-03 0. 0. 0. 2.45700241e-03 0. 0. 0. 0.
      1.22850118e-02 0. 0. 2.45700241e-03 4.91400482e-03 2.45700241e-03
      2.45700241e-03 2.45700241e-03 0. 0. 0. 4.91400482e-03 0. 0.
      2.45700241e-03 0. 0. 0. 0. 0. 0. 0. 0. 0. 0. 0. 0. 0. 0.
      2.45700241e-03 0. 0. 0. 0. 0. 0. 0. 0. 0. 2.45700241e-03 0. 0. 0.
      0. 2.45700241e-03 0. 0. 2.45700241e-03 0. 0. 0. 0. 0. 0. 0. 0. 0.
      0. 0. 2.45700241e-03 0. 0. 0. 2.45700241e-03 2.45700241e-03 0. 0.
      2.45700241e-03 0. 0. 0. 7.37100746e-03 2.45700241e-03
      7.37100746e-03 0. 2.45700241e-03 0. 2.45700241e-03 4.91400482e-03
      0. 0. 0. 0. 7.37100746e-03 0. 0. 0. 0. 4.91400482e-03 0. 0. 0. 0.
      0. 2.45700241e-03 0. 0. 0. 0. 0. 0. 0. 0. 0. 0. 0. 0.
      2.45700241e-03 0. 0. 0. 0. 0. 0. 2.45700241e-03 2.45700241e-03 0.
      2.45700241e-03 7.37100746e-03 0. 0. 4.91400482e-03 0.
      1.22850118e-02 0. 0. 7.37100746e-03 0. 0. 0. 0. 0. 0.
      2.45700241e-03 4.91400482e-03 0. 0. 0. 0. 0. 0. 0. 0. 0. 0. 0.
      4.91400482e-03 0. 0. 0. 0. 0. 0. 0. 0. 7.37100746e-03 0. 0. 0. 0.
      0. 0. 0. 0. 0. 0. 0. 0. 2.45700241e-03 0. 0. 0. 0. 0. 0. 0.
      2.45700241e-03 0. 9.82800964e-03 0. 1.96560193e-02 0. 0. 0. 0. 0.
      4.91400482e-03 0. 0. 0. 0. 0. 0. 2.45700241e-03 0. 0. 0. 0.
      2.45700241e-03 2.45700241e-03 0. 2.45700241e-03 2.45700241e-03 0.
      0. 0. 0. 0. 2.45700241e-03 0. 0. 0. 2.45700241e-03 0. 0.
      2.45700241e-03 0. 0. 0. 0. 0. 0. 0. 0. 0. 2.45700241e-03 0. 0. 0.
      0. 0. 2.45700241e-03 2.45700241e-03 0. 4.91400482e-03 0.
      2.45700241e-03 0. 2.45700241e-03 0. 0. 0. 0. 0. 0. 2.45700241e-03
      0. 0. 0. 2.45700241e-03 0. 0. 0. 0. 4.91400482e-03 0.
      2.45700241e-03 0. 0. 0. 9.82800964e-03 0. 0. 0. 0. 0. 0. 0.
      4.91400482e-03 0. 0. 7.37100746e-03 0. 0. 0. 0. 0. 0. 0. 0. 0. 0.
      4.91400482e-03 0. 0. 0. 0. 0. 0. 0. 0. 0. 2.45700241e-03
      2.45700241e-03 0. 0. 0. 0. 4.91400482e-03 0. 0. 0. 2.21130215e-02
      0. 0. 0. 0. 0. 0. 0. 0. 4.91400482e-03 0. 0. 2.45700241e-03
      1.47420149e-02 2.45700241e-03 0. 0. 0. 0. 0. 0. 0. 0. 0. 0. 0.
      1.22850118e-02 0. 0. 0. 0. 0. 0. 0. 0. 0. 0. 0. 2.45700241e-03
      2.45700241e-03 0. 0. 2.45700241e-03 0. 2.45700241e-03 0. 0. 0. 0.
      0. 0. 0. 0. 0. 0. 2.45700241e-03 2.45700241e-03 0. 0. 0. 0. 0. 0.
      2.45700241e-03 0. 0. 2.45700241e-03 0. 0. 0. 0. 0. 2.45700241e-03
      0. 0. 0. 2.45700241e-03 0. 0. 0. 2.45700241e-03 0. 4.91400482e-03
      0. 0. 2.45700241e-03 2.45700241e-03 0. 0. 0. 0. 0. 0. 0. 0. 0. 0.
      2.45700241e-03 0. 2.45700241e-03 2.45700241e-03 0. 0.
      2.45700241e-03 0. 0. 0. 0. 2.45700241e-03 2.45700241e-03
      2.45700241e-03 0. 0. 0. 0. 0. 0. 0. 0. 0. 0. 2.45700241e-03
      4.91400482e-03 2.45700241e-03 0. 0. 4.91400482e-03 0. 0. 0. 0.
      2.45700241e-03 0. 0. 0. 0. 0. 0. 0. 0. 0. 0. 0. 0. 0. 0. 0. 0. 0.
      0. 0. 4.91400482e-03 0. 0. 2.45700241e-03 0. 2.45700241e-03
      2.45700241e-03 4.91400482e-03 0. 0. 0. 2.45700241e-03 0.
      4.91400482e-03 0. 0. 0. 0. 9.82800964e-03 0. 0. 2.45700241e-03 0.
      0. 0. 0. 0. 0. 0. 0. 0. 0. 0. 2.45700241e-03 0. 9.82800964e-03 0.
      0. 2.45700241e-03 0. 0. 4.91400482e-03 0. 0. 0. 0. 0. 0. 0. 0. 0.
      0. 0. 0. 0. 0. 0. 4.91400482e-03 0. 0. 0. 0. 0. 2.45700241e-03
      2.45700241e-03 0. 0. 2.45700241e-03 0. 0. 0. 0. 0. 0. 0.
      2.45700241e-03 0. 0. 4.91400482e-03 0. 0. 2.45700241e-03 0. 0.
      2.45700241e-03 0. 0. 4.91400482e-03 0. 0. 2.45700241e-03 0. 0. 0.
      0. 0. 0. 2.45700241e-03 0. 0. 0. 0. 2.45700241e-03 0. 0. 0. 0. 0.
      0. 0. 0. 2.45700241e-03 0. 0. 0. 0. 0. 0. 0. 0. 0. 0. 0.
      4.91400482e-03 2.45700241e-03 2.45700241e-03 0. 0. 0. 0. 0. 0.
      2.45700241e-03 0. 0. 4.91400482e-03 2.45700241e-03 2.45700241e-03
      0. 2.45700241e-03 0. 2.45700241e-03 0. 2.45700241e-03 0.
      4.91400482e-03 0. 0. 0. 0. 2.45700241e-03 0. 0. 2.45700241e-03 0.
      4.91400482e-03 0. 0. 0. 0. 0. 0. 0. 0. 0. 0. 0. 2.45700241e-03 0.
      0. 0. 0. 0. 0. 0. 0. 0. 0. 0. 0. 0. 0. 0. 0. 0. 0. 0.
      2.45700241e-03 0. 0. 0. 0. 2.45700241e-03 7.37100746e-03 0. 0. 0.
      0. 4.91400482e-03 0. 2.45700241e-03 0. 0. 0. 0. 0. 0. 0. 0. 0. 0.
      0. 0. 0. 0. 0. 0. 2.45700241e-03 0. 0. 0. 2.45700241e-03 0. 0. 0.
      0. 2.45700241e-03 2.45700241e-03 0. 0. 0. 0. 0. 0. 4.91400482e-03
      2.45700241e-03 4.91400482e-03 2.45700241e-03 1.71990171e-02 0. 0.
      2.45700241e-03 7.37100746e-03 0. 0. 0. 0. 0. 9.82800964e-03 0. 0.
      4.91400482e-03 0. 0. 0. 0. 2.45700241e-03 0. 0. 0. 9.82800964e-03
      4.91400482e-03 0. 0. 0. 0. 0. 0. 9.82800964e-03 0. 0. 0. 0. 0. 0.
      0. 0. 0. 2.45700241e-03 0. 0. 0. 2.45700241e-03 0. 0.
      2.45700241e-03 0. 0. 0. 0. 0. 0. 0. 0. 2.45700241e-03 0. 0. 0. 0.
      0. 0. 0. 2.45700241e-03 0. 1.96560193e-02 2.45700241e-03
      7.37100746e-03 0. 4.91400482e-03 0. 4.91400482e-03 2.45700241e-03
      0. 0. 0. 0. 2.45700241e-03 2.45700241e-03 0. 0. 2.45700241e-03 0.
      0. 0. 0. 0. 0. 0. 0. 0. 0. 0. 7.37100746e-03 2.45700241e-03 0. 0.
      0. 2.45700241e-03 0. 0. 0. 0. 0. 0. 0. 0. 0. 0. 0. 0.
      2.45700241e-03 0. 2.45700241e-03 0. 0. 0. 0. 0. 0. 0. 0. 0. 0. 0.
      0. 0. 0. 7.37100746e-03 9.82800964e-03 4.91400482e-03
      2.45700241e-03 0. 2.45700241e-03 4.91400482e-03 0. 0. 0. 0.
      2.45700241e-03 0. 2.45700241e-03 0. 4.91400482e-03 0. 0. 0. 0. 0.
      0. 0. 0. 0. 0. 2.45700241e-03 0.</_>
    <_>
      2.29885057e-03 6.89655170e-03 0. 0. 0. 0. 1.83908045e-02
      4.59770113e-03 0. 0. 4.59770113e-03 0. 0. 2.29885057e-03
      2.29885057e-03 0. 2.29885057e-03 0. 0. 0. 2.29885057e-03
      2.29885057e-03 2.29885057e-03 0. 4.59770113e-03 2.29885057e-03 0.
      0. 2.29885057e-03 2.29885057e-03 0. 0. 2.29885057e-03
      2.29885057e-03 2.29885057e-03 0. 2.29885057e-03 0. 0. 0.
      2.29885057e-03 0. 0. 0. 0. 2.29885057e-03 0. 0. 0. 0. 0. 0. 0. 0.
      0. 0. 0. 0. 0. 4.59770113e-03 2.29885057e-03 0. 0. 0. 0. 0. 0.
      2.29885057e-03 2.29885057e-03 0. 0. 0. 2.29885057e-03 0.
      2.29885057e-03 0. 0. 2.29885057e-03 2.29885057e-03 0.
      2.29885057e-03 2.29885057e-03 0. 0. 4.59770113e-03 0.
      2.29885057e-03 0. 0. 2.29885057e-03 4.59770113e-03 4.59770113e-03
      0. 2.29885057e-03 9.19540226e-03 0. 0. 0. 0. 2.29885057e-03 0.
      2.29885057e-03 2.29885057e-03 0. 0. 2.29885057e-03 4.59770113e-03
      6.89655170e-03 0. 2.29885057e-03 6.89655170e-03 0. 0. 0. 0. 0.
      2.29885057e-03 2.29885057e-03 2.29885057e-03 2.29885057e-03
      2.29885057e-03 4.59770113e-03 2.29885057e-03 0. 0. 2.29885057e-03
      0. 0. 0. 0. 0. 0. 0. 4.59770113e-03 0. 0. 0. 0. 0. 2.29885057e-03
      9.19540226e-03 0. 0. 0. 6.89655170e-03 0. 0. 2.29885057e-03 0.
      2.29885057e-03 0. 2.29885057e-03 0. 2.29885057e-03 0. 0. 0. 0.
      2.29885057e-03 0. 2.29885057e-03 0. 2.29885057e-03 0.
      4.59770113e-03 0. 0. 0. 2.29885057e-03 0. 0. 0. 0. 2.29885057e-03
      0. 0. 2.29885057e-03 2.29885057e-03 0. 2.29885057e-03
      4.59770113e-03 6.89655170e-03 0. 2.29885057e-03 0. 0. 0.
      4.59770113e-03 4.59770113e-03 0. 2.29885057e-03 0. 0. 0. 0. 0. 0.
      0. 0. 2.29885057e-03 0. 0. 0. 0. 0. 0. 0. 0. 0. 0. 0. 0. 0. 0. 0.
      0. 0. 0. 2.29885057e-03 2.29885057e-03 0. 0. 0. 9.19540226e-03 0.
      0. 0. 0. 0. 2.29885057e-03 4.59770113e-03 0. 0. 4.59770113e-03 0.
      0. 2.29885057e-03 0. 2.29885057e-03 6.89655170e-03 0. 0. 0. 0. 0.
      0. 0. 0. 0. 0. 0. 0. 4.59770113e-03 0. 0. 0. 0. 0. 2.29885057e-03
      0. 0. 2.29885057e-03 0. 0. 0. 0. 0. 0. 0. 0. 0. 2.29885057e-03 0.
      6.89655170e-03 0. 0. 6.89655170e-03 2.29885057e-03 0. 0. 0. 0. 0.
      0. 2.29885057e-03 0. 0. 0. 0. 0. 0. 0. 4.59770113e-03 0. 0. 0. 0.
      0. 0. 0. 0. 0. 0. 0. 0. 0. 0. 0. 0. 2.29885057e-03 0. 0. 0. 0. 0.
      2.29885057e-03 2.29885057e-03 0. 0. 0. 0. 0. 0. 0. 0.
      4.59770113e-03 2.29885057e-03 0. 2.29885057e-03 0. 2.29885057e-03
      0. 2.29885057e-03 0. 0. 0. 4.59770113e-03 2.29885057e-03 0.
      4.59770113e-03 0. 2.29885057e-03 2.29885057e-03 0. 0. 0.
      4.59770113e-03 0. 0. 2.29885057e-03 6.89655170e-03 0. 0.
      4.59770113e-03 0. 0. 0. 0. 0. 0. 0. 0. 4.59770113e-03 0.
      2.29885057e-03 0. 4.59770113e-03 4.59770113e-03 0. 4.59770113e-03
      2.29885057e-03 0. 0. 0. 0. 0. 2.29885057e-03 0. 2.29885057e-03 0.
      0. 0. 0. 0. 2.29885057e-03 0. 4.59770113e-03 0. 0. 0.
      2.29885057e-03 0. 4.59770113e-03 0. 0. 0. 0. 0. 0. 0. 0.
      4.59770113e-03 2.29885057e-03 2.29885057e-03 0. 0. 0. 0. 0. 0. 0.
      2.29885057e-03 1.14942528e-02 0. 0. 0. 0. 0. 0. 0. 0. 0.
      2.29885057e-03 2.29885057e-03 4.59770113e-03 0. 0. 0.
      2.29885057e-03 0. 0. 0. 0. 2.29885057e-03 2.29885057e-03
      2.29885057e-03 2.29885057e-03 0. 4.59770113e-03 0. 0. 0. 0.
      2.29885057e-03 0. 6.89655170e-03 4.59770113e-03 0. 0. 0. 0. 0. 0.
      0. 0. 0. 0. 4.59770113e-03 0. 2.29885057e-03 0. 0. 0. 0. 0. 0. 0.
      1.60919540e-02 0. 0. 0. 0. 0. 0. 0. 2.29885057e-03 0. 0. 0. 0. 0.
      0. 0. 0. 2.29885057e-03 0. 2.29885057e-03 2.29885057e-03 0.
      2.29885057e-03 2.29885057e-03 0. 0. 0. 0. 0. 0. 0. 4.59770113e-03
      0. 0. 0. 0. 0. 2.29885057e-03 0. 0. 0. 9.19540226e-03 0. 0.
      2.29885057e-03 0. 4.59770113e-03 0. 0. 4.59770113e-03 0. 0. 0. 0.
      2.29885057e-03 0. 0. 0. 0. 0. 0. 2.29885057e-03 0. 0. 0. 0.
      2.29885057e-03 0. 2.29885057e-03 2.29885057e-03 2.29885057e-03 0.
      4.59770113e-03 4.59770113e-03 2.29885057e-03 0. 2.29885057e-03 0.
      0. 0. 2.29885057e-03 0. 2.29885057e-03 0. 0. 0. 0. 0. 0. 0.
      2.29885057e-03 0. 0. 0. 0. 0. 0. 0. 2.29885057e-03 0. 0. 0. 0. 0.
      2.29885057e-03 0. 2.29885057e-03 2.29885057e-03 0. 0. 0. 0. 0.
      6.89655170e-03 0. 0. 2.29885057e-03 0. 4.59770113e-03 0. 0.
      2.29885057e-03 0. 2.29885057e-03 0. 2.29885057e-03 2.29885057e-03
      0. 4.59770113e-03 0. 2.29885057e-03 0. 0. 0. 0. 0. 0.
      2.29885057e-03 0. 0. 0. 0. 2.29885057e-03 0. 4.59770113e-03 0. 0.
      0. 0. 2.29885057e-03 0. 0. 2.29885057e-03 0. 2.29885057e-03 0.
      4.59770113e-03 2.29885057e-03 0. 0. 0. 2.29885057e-03 0. 0. 0.
      2.29885057e-03 0. 2.29885057e-03 2.29885057e-03 2.29885057e-03 0.
      2.29885057e-03 0. 2.29885057e-03 0. 0. 2.29885057e-03
      2.29885057e-03 4.59770113e-03 2.29885057e-03 2.29885057e-03
      2.29885057e-03 0. 0. 0. 0. 0. 2.29885057e-03 0. 0. 0. 0.
      2.29885057e-03 2.29885057e-03 2.29885057e-03 2.29885057e-03 0. 0.
      2.29885057e-03 0. 2.29885057e-03 0. 0. 0. 6.89655170e-03
      2.29885057e-03 0. 0. 0. 2.29885057e-03 0. 0. 0. 2.29885057e-03
      4.59770113e-03 0. 0. 2.29885057e-03 2.29885057e-03 2.29885057e-03
      0. 0. 4.59770113e-03 2.29885057e-03 0. 0. 0. 0. 2.29885057e-03
      2.29885057e-03 0. 0. 0. 0. 0. 0. 2.29885057e-03 0. 0. 0. 0. 0. 0.
      0. 0. 2.29885057e-03 0. 0. 0. 2.29885057e-03 0. 0. 0. 0. 0.
      2.29885057e-03 0. 0. 2.29885057e-03 0. 0. 9.19540226e-03 0. 0.
      2.29885057e-03 0. 0. 0. 2.29885057e-03 2.29885057e-03
      2.29885057e-03 0. 2.29885057e-03 6.89655170e-03 2.29885057e-03 0.
      0. 4.59770113e-03 0. 0. 2.29885057e-03 0. 2.29885057e-03
      9.19540226e-03 0. 4.59770113e-03 0. 0. 4.59770113e-03 0. 0. 0. 0.
      2.29885057e-03 4.59770113e-03 0. 0. 0. 2.29885057e-03 0. 0. 0. 0.
      0. 0. 2.29885057e-03 0. 4.59770113e-03 2.29885057e-03 0. 0. 0. 0.
      0. 0. 0. 0. 0. 2.29885057e-03 0. 0. 2.29885057e-03 0. 0. 0. 0. 0.
      0. 0. 2.29885057e-03 0. 0. 0. 0. 0. 0. 0. 4.59770113e-03 0. 0. 0.
      0. 0. 2.29885057e-03 0. 2.29885057e-03 0. 0. 2.29885057e-03 0. 0.
      0. 2.29885057e-03 4.59770113e-03 2.29885057e-03 0. 0. 0. 0. 0.
      2.29885057e-03 0. 0. 0. 2.29885057e-03 6.89655170e-03 0.
      2.29885057e-03 0. 2.29885057e-03 0. 0. 0. 0. 0. 0. 2.29885057e-03
      0. 0. 0. 2.29885057e-03 0. 2.29885057e-03 2.29885057e-03
      2.29885057e-03 0. 2.29885057e-03 0. 0. 6.89655170e-03 0. 0. 0. 0.
      0. 0. 0. 0. 0. 4.59770113e-03 0. 2.29885057e-03 0. 0. 0.
      2.29885057e-03 0. 0. 0. 0. 0. 0. 0. 4.59770113e-03 0.
      4.59770113e-03 2.29885057e-03 0. 0. 0. 0. 0. 0. 0. 0.
      2.29885057e-03 0. 0. 0. 0. 0. 0. 2.29885057e-03 0. 0. 0.
      2.29885057e-03 4.59770113e-03 0. 0. 0. 0. 0. 0. 0. 0.
      2.29885057e-03 0. 0. 4.59770113e-03 0. 0. 0. 0. 2.29885057e-03 0.
      0. 2.29885057e-03 0. 2.29885057e-03 0. 0. 2.29885057e-03 0. 0. 0.
      0. 0. 0. 0. 2.29885057e-03 4.59770113e-03 0. 2.29885057e-03 0.
      4.59770113e-03 0. 0. 0. 2.29885057e-03 2.29885057e-03
      1.14942528e-02 0. 0. 0. 0. 0. 6.89655170e-03 0. 0. 0. 0. 0.
      2.29885057e-03 0. 0. 0. 0. 2.29885057e-03 0. 0. 0. 2.29885057e-03
      4.59770113e-03 0. 4.59770113e-03 0. 0. 0. 0. 2.29885057e-03 0. 0.
      2.29885057e-03 0. 0. 0. 0. 0. 0. 2.29885057e-03 0. 0. 0. 0. 0. 0.
      0. 0. 0. 0. 0. 0.</_>
    <_>
      0. 0. 4.67289705e-03 0. 0. 0. 0. 0. 0. 0. 0. 0. 0. 0. 0. 0.
      4.67289705e-03 0. 0. 0. 0. 2.33644852e-03 0. 0. 0. 0.
      1.40186911e-02 0. 2.33644852e-03 0. 0. 0. 0. 0. 0. 0. 0. 0.
      7.00934557e-03 4.90654185e-02 0. 0. 0. 0. 0. 0. 0. 0. 0. 0. 0. 0.
      4.67289705e-03 0. 2.33644843e-02 4.67289705e-03 0. 0. 0. 0. 0.
      2.33644852e-03 0. 2.33644852e-03 0. 0. 0. 0. 0. 0. 0. 0. 0. 0. 0.
      0. 0. 0. 2.33644852e-03 0. 0. 9.34579410e-03 0. 0. 0. 0. 0.
      2.33644852e-03 2.33644852e-03 0. 2.33644852e-03 0. 0.
      4.67289705e-03 0. 0. 0. 0. 7.00934557e-03 0. 0. 0. 0. 0. 0. 0. 0.
      7.00934557e-03 0. 0. 1.16822422e-02 0. 0. 0. 0. 0. 1.63551401e-02
      0. 2.33644852e-03 0. 0. 7.00934557e-03 0. 0. 0. 2.33644852e-03
      2.33644852e-03 0. 0. 0. 0. 0. 0. 2.33644852e-03 0. 0. 0. 0.
      2.33644852e-03 0. 0. 0. 0. 4.67289705e-03 0. 0. 0. 0. 0. 0. 0. 0.
      2.33644852e-03 0. 0. 0. 0. 0. 0. 0. 0. 0. 0. 0. 0. 0. 0. 0. 0. 0.
      0. 0. 0. 0. 0. 0. 0. 0. 2.33644852e-03 2.33644852e-03 0.
      2.33644852e-03 0. 0. 0. 0. 0. 0. 0. 0. 0. 0. 0. 0. 2.33644852e-03
      0. 0. 0. 0. 0. 0. 0. 0. 0. 0. 0. 0. 0. 0. 4.67289705e-03 0. 0. 0.
      0. 0. 0. 0. 0. 0. 0. 4.67289705e-03 0. 0. 0. 0. 0. 2.33644852e-03
      0. 0. 0. 0. 0. 0. 0. 0. 0. 0. 0. 0. 2.33644852e-03 0. 0. 0. 0. 0.
      0. 0. 0. 0. 0. 0. 0. 0. 2.33644852e-03 0. 0. 0. 0. 1.40186911e-02
      0. 0. 0. 0. 0. 0. 0. 0. 0. 0. 0. 9.34579410e-03 9.34579410e-03 0.
      4.67289705e-03 0. 2.33644852e-03 0. 0. 9.34579410e-03 0.
      4.67289705e-03 0. 0. 0. 0. 0. 0. 0. 0. 0. 0. 0. 0. 0. 0. 0. 0. 0.
      0. 0. 0. 0. 0. 0. 0. 0. 0. 2.33644852e-03 0. 0. 0. 0. 0. 0.
      4.67289705e-03 0. 0. 4.67289705e-03 0. 0. 0. 0. 0. 0. 0. 0. 0. 0.
      0. 0. 0. 0. 4.67289705e-03 0. 0. 4.67289705e-03 0. 0. 0. 0. 0. 0.
      1.16822422e-02 0. 2.33644852e-03 0. 0. 0. 0. 0. 0. 0. 0.
      2.33644852e-03 0. 0. 0. 0. 0. 0. 0. 0. 0. 0. 4.67289705e-03 0. 0.
      2.33644852e-03 0. 0. 0. 0. 0. 0. 0. 0. 0. 0. 0. 0. 0. 0. 0. 0. 0.
      0. 0. 0. 0. 0. 0. 0. 0. 0. 0. 0. 0. 0. 0. 0. 0. 0. 0. 0. 0. 0.
      2.33644852e-03 0. 2.33644852e-03 0. 0. 0. 0. 0. 0. 0.
      2.33644852e-03 0. 0. 0. 4.67289705e-03 0. 0. 0. 0. 0. 0. 0. 0. 0.
      0. 0. 2.33644852e-03 0. 0. 0. 0. 0. 0. 0. 0. 0. 0. 0. 0. 0. 0. 0.
      0. 0. 2.33644852e-03 0. 0. 0. 2.10280363e-02 0. 4.67289705e-03 0.
      0. 0. 0. 0. 0. 0. 0. 0. 4.67289705e-03 9.34579410e-03 0. 0. 0. 0.
      4.67289705e-03 0. 0. 0. 0. 0. 0. 0. 0. 2.33644852e-03 0. 0. 0. 0.
      2.33644852e-03 0. 0. 0. 2.33644852e-03 0. 0. 2.33644852e-03 0. 0.
      2.33644852e-03 0. 1.02803737e-01 0. 0. 0. 0. 0. 0. 0. 0. 0. 0. 0.
      0. 0. 0. 0. 0. 0. 2.33644852e-03 0. 0. 0. 0. 0. 0. 0. 0. 0. 0. 0.
      7.00934557e-03 0. 0. 4.67289705e-03 0. 0. 0. 0. 7.00934557e-03 0.
      0. 0. 2.33644852e-03 0. 0. 0. 0. 0. 7.00934557e-03 0. 0. 0. 0.
      2.33644852e-03 0. 0. 0. 0. 0. 0. 0. 0. 0. 0. 2.33644852e-03 0. 0.
      0. 0. 0. 0. 0. 0. 0. 0. 0. 0. 0. 0. 0. 0. 0. 7.00934557e-03 0. 0.
      0. 0. 2.33644852e-03 0. 0. 0. 0. 0. 0. 0. 0. 0. 0. 0. 0. 0. 0. 0.
      0. 0. 0. 0. 0. 0. 0. 0. 0. 0. 2.33644852e-03 0. 0. 0. 0.
      9.34579410e-03 0. 0. 0. 0. 0. 0. 0. 0. 0. 0. 0. 0. 0. 0. 0. 0. 0.
      0. 0. 0. 0. 7.00934557e-03 0. 2.33644852e-03 0. 0. 0. 0. 0.
      7.00934557e-03 0. 0. 0. 0. 0. 0. 0. 0. 0. 0. 0. 0. 0. 0. 0. 0. 0.
      0. 0. 0. 0. 0. 0. 0. 0. 0. 0. 7.00934557e-03 0. 0. 0. 0. 0. 0. 0.
      0. 0. 0. 0. 0. 0. 0. 0. 0. 0. 0. 0. 0. 0. 0. 0. 0. 0.
      4.67289705e-03 0. 0. 0. 0. 0. 0. 0. 0. 0. 0. 0. 0. 0. 0. 0. 0. 0.
      0. 0. 0. 0. 0. 0. 0. 0. 2.33644852e-03 0. 0. 0. 0. 0. 0. 0. 0. 0.
      0. 2.33644852e-03 0. 0. 0. 4.67289705e-03 0. 0. 0. 0. 0. 0. 0. 0.
      2.33644852e-03 0. 2.33644852e-03 0. 0. 0. 0. 0. 0. 0.
      2.57009342e-02 0. 0. 0. 0. 0. 0. 0. 0. 0. 0. 0. 0. 0. 0. 0. 0. 0.
      0. 0. 0. 0. 0. 0. 0. 0. 0. 0. 0. 0. 0. 0. 0. 0. 0. 0. 0. 0. 0. 0.
      0. 0. 0. 4.67289705e-03 0. 9.34579410e-03 0. 0. 3.97196263e-02 0.
      0. 0. 0. 0. 0. 0. 0. 0. 0. 0. 0. 0. 0. 0. 0. 0. 0. 0. 0. 0.
      2.33644852e-03 4.67289705e-03 0. 0. 0. 0. 2.33644852e-03 0. 0. 0.
      9.34579410e-03 0. 0. 9.57943872e-02 0. 0. 0. 2.33644852e-03 0. 0.
      0. 0. 2.33644852e-03 0. 0. 0. 0. 0. 0. 0. 0. 4.67289705e-03 0. 0.
      0. 2.33644852e-03 0. 0. 0. 0. 0. 0. 0. 2.33644852e-03 0. 0. 0. 0.
      0. 0. 0. 0. 0. 0. 0. 0. 0. 0. 0. 0. 2.33644852e-03 0. 0. 0. 0. 0.
      0. 0. 0. 4.67289705e-03 0. 0. 0. 0. 0. 0. 0. 0. 0. 1.86915882e-02
      0. 0. 0. 2.33644852e-03 0. 0. 0. 0. 0. 0. 0. 2.33644852e-03 0.
      2.33644852e-03 0. 0. 0. 0. 0. 0. 0. 0. 0. 0. 0. 0. 0. 0. 0. 0. 0.
      0. 0. 0. 0. 0. 0. 0. 0. 0. 0. 0. 0. 0. 0. 0. 0. 0. 0. 0. 0. 0. 0.
      0. 0. 0. 0. 0. 0. 0. 0. 0. 0. 1.14485979e-01 4.67289705e-03 0. 0.
      2.33644852e-03 0. 0. 2.33644852e-03 2.33644852e-03 0. 0. 0.
      1.16822422e-02 0. 9.34579410e-03 0. 0. 0. 0. 0. 0. 0. 0. 0. 0.
      2.33644852e-03 0.</_>
    <_>
      0. 0. 0. 0. 0. 2.00000009e-03 4.00000019e-03 0. 0. 0.
      6.00000005e-03 0. 0. 0. 2.00000009e-03 2.00000009e-03
      8.00000038e-03 4.00000019e-03 0. 0. 0. 0. 2.00000009e-03
      2.00000009e-03 0. 0. 8.00000038e-03 2.00000009e-03 2.00000009e-03
      0. 0. 0. 0. 2.00000009e-03 0. 0. 0. 0. 8.00000038e-03
      4.00000019e-03 0. 0. 0. 0. 0. 0. 0. 0. 2.00000009e-03 0. 0. 0. 0.
      0. 2.00000009e-03 2.00000009e-03 0. 0. 2.00000009e-03 0. 0. 0. 0.
      2.00000009e-03 0. 0. 0. 0. 4.00000019e-03 0. 2.00000009e-03 0.
      2.00000009e-03 2.00000009e-03 2.00000009e-03 0. 0. 0. 0. 0. 0.
      8.00000038e-03 2.00000009e-03 0. 0. 0. 8.00000038e-03 0. 0. 0.
      6.00000005e-03 2.00000009e-03 0. 0. 0. 0. 0. 0. 0. 2.00000009e-03
      2.00000009e-03 0. 2.00000009e-03 4.00000019e-03 0. 0. 0.
      2.00000009e-03 0. 0. 1.00000007e-02 0. 0. 0. 4.00000019e-03 0.
      2.00000009e-03 0. 0. 4.00000019e-03 4.00000019e-03 1.00000007e-02
      0. 0. 1.00000007e-02 0. 0. 2.00000009e-03 2.00000009e-03 0. 0. 0.
      0. 0. 0. 6.00000005e-03 0. 0. 0. 0. 0. 2.00000009e-03 0. 0.
      6.00000005e-03 0. 0. 2.00000009e-03 0. 2.00000009e-03 0. 0. 0.
      4.00000019e-03 0. 0. 2.00000009e-03 0. 0. 4.00000019e-03 0. 0. 0.
      0. 0. 0. 4.00000019e-03 0. 0. 0. 0. 0. 0. 0. 2.00000009e-03 0. 0.
      0. 0. 2.00000009e-03 0. 0. 0. 0. 0. 0. 2.00000009e-03 0. 0. 0. 0.
      0. 0. 0. 0. 0. 2.00000009e-03 2.00000009e-03 0. 0. 0. 0. 0. 0.
      6.00000005e-03 0. 0. 0. 0. 0. 0. 0. 0. 0. 4.00000019e-03 0. 0. 0.
      2.00000009e-03 0. 4.00000019e-03 0. 0. 6.00000005e-03
      2.00000009e-03 8.00000038e-03 4.00000019e-03 4.00000019e-03 0. 0.
      2.00000009e-03 0. 0. 8.00000038e-03 2.00000009e-03 0. 0.
      2.00000009e-03 2.00000009e-03 2.00000014e-02 0. 0. 0. 0.
      2.00000009e-03 0. 0. 0. 0. 0. 0. 0. 2.00000009e-03 2.00000009e-03
      0. 0. 0. 4.00000019e-03 2.00000009e-03 0. 0. 0. 0. 0. 0. 0. 0. 0.
      6.00000005e-03 0. 0. 0. 0. 2.00000009e-03 0. 4.00000019e-03
      4.00000019e-03 0. 1.00000007e-02 2.00000009e-03 4.00000019e-03 0.
      2.00000009e-03 0. 0. 0. 0. 0. 0. 0. 0. 0. 0. 0. 0. 0. 0. 0.
      2.00000009e-03 0. 2.00000009e-03 0. 0. 0. 0. 0. 0. 0. 0. 0. 0.
      2.00000009e-03 0. 0. 0. 4.00000019e-03 0. 0. 2.00000009e-03 0. 0.
      0. 0. 0. 0. 4.00000019e-03 2.00000009e-03 0. 6.00000005e-03 0.
      4.00000019e-03 0. 4.00000019e-03 0. 2.00000009e-03 0. 0.
      2.00000009e-03 0. 0. 0. 0. 1.20000001e-02 0. 0. 0. 0. 0. 0.
      2.00000009e-03 0. 0. 0. 0. 0. 2.00000009e-03 4.00000019e-03
      2.00000009e-03 0. 0. 0. 0. 0. 2.00000009e-03 2.00000009e-03
      4.00000019e-03 4.00000019e-03 2.00000014e-02 0. 0. 0. 0. 0.
      2.00000009e-03 0. 0. 0. 0. 0. 2.00000009e-03 0. 0. 0.
      8.00000038e-03 0. 0. 0. 0. 0. 0. 4.00000019e-03 0. 2.00000009e-03
      0. 0. 0. 2.00000009e-03 0. 0. 0. 0. 2.00000009e-03 4.00000019e-03
      0. 0. 0. 2.00000009e-03 0. 0. 0. 2.00000009e-03 0. 1.20000001e-02
      0. 0. 0. 2.00000009e-03 0. 0. 0. 1.00000007e-02 2.00000009e-03 0.
      4.00000019e-03 0. 0. 0. 0. 0. 0. 0. 0. 0. 0. 6.00000005e-03 0.
      2.00000009e-03 0. 2.00000009e-03 0. 4.00000019e-03 0. 0. 0. 0.
      2.00000009e-03 0. 0. 0. 0. 0. 2.00000009e-03 0. 0. 2.20000017e-02
      0. 0. 0. 0. 0. 0. 0. 0. 4.00000019e-03 2.00000009e-03 0. 0.
      6.00000005e-03 0. 2.00000009e-03 0. 0. 0. 0. 0. 0. 0. 0. 0. 0.
      6.00000005e-03 0. 4.00000019e-03 6.00000005e-03 0. 0. 0. 0. 0. 0.
      0. 0. 2.00000009e-03 0. 0. 2.00000009e-03 0. 0. 0. 2.00000009e-03
      0. 0. 0. 0. 0. 0. 0. 0. 0. 0. 2.00000009e-03 0. 0. 0.
      2.00000009e-03 2.00000009e-03 0. 0. 2.00000009e-03 0. 0. 0.
      2.00000009e-03 0. 0. 2.00000009e-03 6.00000005e-03 0. 0. 0.
      2.00000009e-03 0. 0. 0. 0. 0. 0. 0. 2.00000009e-03 0. 0. 0. 0. 0.
      0. 0. 2.00000009e-03 0. 2.00000009e-03 4.00000019e-03 0.
      6.00000005e-03 0. 2.00000009e-03 0. 0. 0. 0. 2.00000009e-03 0. 0.
      0. 0. 4.00000019e-03 4.00000019e-03 0. 0. 0. 0. 0. 0.
      4.00000019e-03 2.00000009e-03 4.00000019e-03 2.00000009e-03 0. 0.
      0. 0. 0. 2.00000009e-03 0. 0. 2.00000009e-03 0. 3.40000018e-02 0.
      0. 0. 2.00000009e-03 0. 0. 0. 2.00000009e-03 2.00000009e-03 0. 0.
      0. 0. 0. 2.00000009e-03 0. 0. 0. 0. 0. 2.00000009e-03 0. 0.
      2.00000009e-03 0. 0. 2.00000009e-03 0. 0. 0. 0. 0. 0. 0. 0. 0.
      2.00000009e-03 0. 0. 4.00000019e-03 2.00000009e-03 0.
      2.00000009e-03 0. 0. 0. 0. 2.00000009e-03 0. 0. 0. 0.
      2.00000009e-03 0. 0. 0. 0. 4.00000019e-03 2.00000009e-03
      2.00000009e-03 8.00000038e-03 0. 0. 0. 0. 0. 0. 0. 0. 0.
      2.00000009e-03 0. 0. 0. 0. 2.00000009e-03 2.00000009e-03
      2.00000009e-03 8.00000038e-03 0. 0. 0. 0. 0. 0. 0. 0. 0. 0. 0.
      4.00000019e-03 0. 2.00000009e-03 2.00000009e-03 0. 4.00000019e-03
      0. 2.00000009e-03 2.00000009e-03 4.00000019e-03 8.00000038e-03 0.
      0. 4.00000019e-03 0. 0. 2.00000009e-03 0. 0. 2.00000009e-03
      2.00000009e-03 0. 0. 0. 0. 0. 0. 0. 0. 2.00000009e-03 0. 0. 0. 0.
      0. 2.00000009e-03 0. 0. 0. 2.00000009e-03 0. 0. 0. 0. 0. 0. 0. 0.
      0. 0. 0. 0. 2.00000009e-03 0. 0. 0. 0. 2.00000009e-03 0. 0.
      2.00000009e-03 0. 2.00000009e-03 0. 2.00000009e-03 4.00000019e-03
      0. 2.00000009e-03 0. 0. 0. 0. 2.00000009e-03 0. 2.00000009e-03 0.
      8.00000038e-03 0. 0. 0. 2.00000009e-03 0. 0. 0. 0. 0. 0. 0. 0. 0.
      0. 0. 0. 0. 0. 0. 0. 2.00000009e-03 0. 0. 0. 0. 0. 0. 0. 0.
      2.00000009e-03 0. 0. 2.00000009e-03 0. 0. 0. 0. 0. 0. 0. 0. 0. 0.
      0. 0. 0. 0. 0. 2.00000009e-03 2.00000009e-03 2.00000009e-03 0. 0.
      0. 0. 0. 0. 0. 0. 0. 0. 0. 0. 0. 2.00000009e-03 2.00000009e-03 0.
      6.00000005e-03 0. 0. 0. 0. 2.00000009e-03 2.00000009e-03 0. 0.
      4.00000019e-03 6.00000005e-03 0. 4.00000019e-03 2.00000009e-03
      2.00000009e-03 0. 2.00000009e-03 0. 2.00000009e-03 0. 0.
      2.00000009e-03 2.00000009e-03 2.00000009e-03 0. 0. 0.
      1.40000004e-02 0. 4.00000019e-03 0. 0. 0. 1.20000001e-02 0. 0.
      2.00000009e-03 0. 0. 0. 0. 2.00000009e-03 0. 0. 0. 0.
      2.00000009e-03 0. 0. 0. 0. 0. 0. 2.00000009e-03 0. 0. 0.
      2.00000009e-03 0. 0. 6.00000005e-03 0. 0. 0. 0. 0. 0. 0. 0. 0. 0.
      2.00000009e-03 4.00000019e-03 0. 0. 0. 0. 2.00000009e-03
      2.00000009e-03 8.00000038e-03 0. 2.00000009e-03 0. 0.
      6.00000005e-03 0. 0. 2.00000009e-03 2.00000009e-03 1.20000001e-02
      2.00000009e-03 2.00000009e-03 2.00000009e-03 0. 2.00000009e-03
      6.00000005e-03 0. 2.00000009e-03 0. 0. 0. 4.00000019e-03 0. 0. 0.
      0. 0. 0. 0. 0. 0. 0. 0. 0. 0. 0. 0. 2.00000009e-03 2.00000009e-03
      0. 0. 0. 6.00000005e-03 2.00000009e-03 0. 0. 0. 0. 0. 0. 0. 0. 0.
      0. 4.00000019e-03 0. 0. 0. 0. 0. 0. 8.00000038e-03 0. 0. 0. 0. 0.
      2.00000009e-03 0. 0. 0. 0. 2.00000009e-03 6.00000005e-03
      4.00000019e-03 0. 0. 4.00000019e-03 0. 0. 0. 0. 0. 0. 0. 0. 0. 0.
      0. 2.00000009e-03 0. 0. 0. 4.00000019e-03 0. 0. 0. 0.
      2.00000009e-03 0.</_>
    <_>
      0. 2.00000009e-03 0. 0. 0. 2.00000009e-03 6.00000005e-03 0. 0. 0.
      2.00000009e-03 0. 0. 2.00000009e-03 0. 2.00000009e-03
      2.00000009e-03 4.00000019e-03 0. 0. 0. 0. 0. 0. 0. 2.00000009e-03
      0. 0. 0. 2.00000009e-03 1.00000007e-02 0. 0. 2.00000009e-03 0. 0.
      2.00000009e-03 0. 1.00000007e-02 6.00000005e-03 0. 2.00000009e-03
      2.00000009e-03 0. 0. 2.00000009e-03 0. 0. 2.00000009e-03 0. 0. 0.
      0. 0. 0. 0. 0. 0. 0. 2.00000014e-02 0. 0. 0. 0. 0. 0. 0.
      6.00000005e-03 0. 0. 0. 4.00000019e-03 6.00000005e-03 0.
      1.00000007e-02 0. 0. 0. 2.00000009e-03 0. 0. 2.00000009e-03 0. 0.
      0. 0. 0. 0. 0. 0. 1.20000001e-02 0. 0. 2.00000009e-03
      2.00000009e-03 0. 0. 0. 0. 0. 0. 2.00000009e-03 0. 0. 0. 0. 0. 0.
      2.00000009e-03 0. 8.00000038e-03 0. 0. 0. 4.00000019e-03
      2.00000009e-03 0. 0. 0. 2.00000009e-03 0. 8.00000038e-03 0. 0.
      2.00000009e-03 8.00000038e-03 0. 0. 2.00000009e-03 0. 0. 0. 0. 0.
      1.00000007e-02 2.00000009e-03 0. 0. 0. 2.00000009e-03
      4.00000019e-03 0. 2.00000009e-03 4.00000019e-03 1.40000004e-02 0.
      0. 2.00000009e-03 0. 0. 0. 0. 2.00000009e-03 6.00000005e-03 0. 0.
      0. 0. 0. 0. 0. 0. 1.00000007e-02 0. 2.00000009e-03 0. 0. 0. 0. 0.
      0. 2.00000009e-03 0. 0. 0. 0. 0. 0. 6.00000005e-03 0. 0. 0. 0. 0.
      0. 0. 0. 0. 0. 0. 0. 2.00000009e-03 0. 0. 0. 0. 1.00000007e-02 0.
      6.00000005e-03 0. 0. 2.00000009e-03 0. 2.00000009e-03
      2.00000009e-03 0. 0. 0. 0. 2.00000009e-03 0. 0. 2.00000009e-03 0.
      0. 0. 0. 0. 0. 4.00000019e-03 4.00000019e-03 0. 0. 2.00000009e-03
      2.00000009e-03 4.00000019e-03 6.00000005e-03 2.00000009e-03 0.
      2.00000009e-03 0. 0. 0. 2.00000009e-03 0. 2.00000009e-03 0.
      2.00000009e-03 4.00000019e-03 1.40000004e-02 2.00000009e-03
      2.00000009e-03 0. 0. 0. 0. 4.00000019e-03 0. 2.00000009e-03 0. 0.
      0. 0. 0. 0. 0. 0. 0. 4.00000019e-03 2.00000009e-03 0. 0. 0. 0. 0.
      0. 0. 0. 1.40000004e-02 2.00000009e-03 4.00000019e-03 0. 0.
      6.00000005e-03 0. 0. 0. 0. 0. 0. 0. 0. 0. 2.00000009e-03 0. 0. 0.
      2.00000009e-03 8.00000038e-03 0. 0. 0. 0. 2.00000009e-03 0. 0. 0.
      0. 4.00000019e-03 0. 0. 0. 0. 0. 0. 0. 0. 0. 2.00000009e-03 0. 0.
      2.00000009e-03 0. 0. 0. 0. 0. 0. 4.00000019e-03 0. 0.
      4.00000019e-03 2.00000009e-03 0. 4.00000019e-03 0. 2.00000009e-03
      4.00000019e-03 0. 0. 2.00000009e-03 0. 6.00000005e-03 0. 0. 0. 0.
      2.00000009e-03 2.00000009e-03 0. 0. 0. 4.00000019e-03 0. 0. 0. 0.
      2.00000009e-03 0. 0. 2.00000009e-03 4.00000019e-03 0.
      2.00000009e-03 0. 0. 4.00000019e-03 0. 0. 2.00000009e-03
      4.00000019e-03 0. 0. 2.00000009e-03 0. 0. 1.00000007e-02
      1.00000007e-02 0. 0. 0. 0. 2.00000009e-03 2.00000009e-03 0. 0. 0.
      0. 0. 0. 0. 0. 4.00000019e-03 0. 0. 2.00000009e-03 0.
      2.00000009e-03 0. 0. 0. 0. 0. 0. 0. 0. 0. 2.00000009e-03 0. 0. 0.
      8.00000038e-03 0. 0. 0. 0. 2.00000009e-03 0. 0. 0. 0.
      2.00000009e-03 1.00000007e-02 0. 0. 0. 4.00000019e-03 0. 0. 0.
      4.00000019e-03 0. 0. 0. 0. 0. 0. 0. 4.00000019e-03 0. 0. 0.
      4.00000019e-03 0. 6.00000005e-03 0. 0. 0. 4.00000019e-03 0. 0. 0.
      0. 2.00000009e-03 0. 2.00000009e-03 2.00000009e-03 0. 0. 0. 0. 0.
      0. 0. 2.00000009e-03 0. 0. 2.00000009e-03 0. 6.00000005e-03 0. 0.
      8.00000038e-03 2.00000009e-03 0. 0. 0. 4.00000019e-03 0.
      4.00000019e-03 0. 0. 0. 0. 0. 2.00000009e-03 0. 0. 0. 0.
      6.00000005e-03 0. 4.00000019e-03 2.00000009e-03 0. 0. 0. 0. 0.
      6.00000005e-03 0. 0. 0. 0. 2.00000009e-03 0. 0. 2.00000009e-03 0.
      4.00000019e-03 0. 0. 0. 0. 0. 0. 0. 0. 2.00000009e-03 0. 0.
      2.00000009e-03 2.00000009e-03 0. 4.00000019e-03 2.00000009e-03
      4.00000019e-03 0. 0. 0. 0. 0. 0. 0. 0. 2.00000009e-03
      2.00000009e-03 2.00000009e-03 0. 0. 0. 0. 0. 0. 2.00000009e-03 0.
      0. 0. 2.00000009e-03 2.00000009e-03 2.00000009e-03 0. 0. 0. 0. 0.
      2.00000009e-03 0. 0. 0. 0. 2.00000009e-03 2.00000009e-03 0. 0. 0.
      2.00000009e-03 2.00000009e-03 8.00000038e-03 0. 0. 0.
      4.00000019e-03 0. 4.00000019e-03 0. 0. 0. 0. 0. 0. 0.
      2.00000009e-03 4.00000019e-03 0. 0. 0. 0. 0. 0. 2.00000009e-03 0.
      0. 0. 4.00000019e-03 1.00000007e-02 0. 4.00000019e-03 0. 0.
      4.00000019e-03 0. 2.00000009e-03 2.00000009e-03 0. 0. 0. 0. 0.
      2.00000009e-03 0. 0. 0. 0. 0. 2.00000009e-03 0. 0. 0. 0. 0.
      4.00000019e-03 2.00000009e-03 0. 0. 0. 0. 0. 0. 0. 0. 0. 0.
      4.00000019e-03 0. 0. 0. 0. 2.00000009e-03 2.00000009e-03 0. 0. 0.
      2.00000009e-03 0. 0. 0. 0. 0. 2.00000009e-03 1.00000007e-02 0. 0.
      0. 0. 4.00000019e-03 0. 0. 0. 0. 0. 2.00000009e-03 0. 0.
      2.00000009e-03 0. 0. 0. 0. 0. 4.00000019e-03 0. 0. 0. 0. 0. 0. 0.
      2.00000009e-03 0. 0. 0. 0. 0. 2.00000009e-03 0. 2.00000009e-03 0.
      2.00000009e-03 0. 2.00000009e-03 0. 0. 0. 0. 0. 2.00000009e-03 0.
      0. 0. 0. 0. 2.00000009e-03 4.00000019e-03 0. 6.00000005e-03
      2.00000009e-03 0. 0. 0. 0. 0. 0. 2.00000009e-03 0. 0. 0.
      2.00000009e-03 0. 0. 0. 0. 6.00000005e-03 0. 0. 2.00000009e-03 0.
      0. 2.00000009e-03 0. 0. 0. 0. 0. 0. 0. 0. 0. 2.00000009e-03
      2.00000009e-03 0. 4.00000019e-03 0. 0. 0. 6.00000005e-03 0.
      2.00000009e-03 0. 0. 8.00000038e-03 0. 0. 0. 0. 0. 0. 0. 0. 0.
      4.00000019e-03 0. 2.00000009e-03 0. 0. 8.00000038e-03 0.
      4.00000019e-03 0. 0. 0. 0. 0. 0. 0. 2.00000009e-03 2.00000009e-03
      0. 0. 2.00000009e-03 0. 0. 2.00000009e-03 0. 0. 0. 0. 0. 0. 0. 0.
      0. 2.00000009e-03 0. 0. 0. 0. 0. 2.00000009e-03 0. 2.00000009e-03
      0. 0. 0. 0. 0. 0. 0. 2.00000009e-03 0. 0. 2.00000009e-03
      2.00000009e-03 0. 0. 0. 0. 2.00000009e-03 0. 0. 4.00000019e-03 0.
      0. 0. 0. 0. 0. 0. 0. 0. 0. 0. 0. 0. 0. 0. 4.00000019e-03 0. 0. 0.
      4.00000019e-03 2.00000009e-03 4.00000019e-03 0. 0. 2.00000009e-03
      2.00000009e-03 0. 0. 0. 0. 0. 0. 0. 0. 0. 2.00000009e-03
      4.00000019e-03 0. 2.00000009e-03 0. 0. 0. 8.00000038e-03
      2.00000009e-03 0. 1.00000007e-02 0. 0. 0. 2.00000009e-03 0. 0. 0.
      0. 2.00000009e-03 2.00000009e-03 0. 0. 0. 0. 0. 0. 0. 0. 0.
      2.00000009e-03 0. 0. 0. 0. 0. 0. 0. 0. 0. 0. 0. 2.00000009e-03 0.
      2.00000009e-03 2.00000009e-03 0. 2.00000009e-03 0. 0. 0. 0. 0. 0.
      0. 0. 4.00000019e-03 0. 2.00000009e-03 0. 0. 2.00000009e-03
      4.00000019e-03 0. 4.00000019e-03 0. 0. 6.00000005e-03
      2.00000009e-03 2.00000009e-03 2.00000009e-03 0. 0. 0. 0.
      4.00000019e-03 0. 0. 0. 2.00000009e-03 0. 0. 0. 0. 0. 0. 0. 0. 0.
      0. 2.00000009e-03 1.40000004e-02 2.00000009e-03 0. 0. 0.
      2.00000009e-03 0. 2.00000009e-03 2.00000009e-03 0. 2.00000009e-03
      0. 0. 0. 0. 0. 0. 0. 0. 2.00000009e-03 0. 0. 2.00000009e-03
      2.00000009e-03 0. 1.20000001e-02 0. 0. 0. 2.00000009e-03 0. 0. 0.
      0. 2.00000009e-03 8.00000038e-03 0. 2.00000009e-03 2.00000009e-03
      0. 4.00000019e-03 2.00000009e-03 0. 2.00000009e-03 0. 0. 0. 0.
      2.00000009e-03 0. 4.00000019e-03 0. 4.00000019e-03 0. 0.
      2.00000009e-03 0. 0. 0. 0. 0. 0. 0.</_>
    <_>
      0. 0. 0. 4.00000019e-03 0. 0. 6.00000005e-03 4.00000019e-03 0. 0.
      2.00000009e-03 0. 4.00000019e-03 4.00000019e-03 2.00000009e-03
      2.00000009e-03 4.00000019e-03 6.00000005e-03 2.00000009e-03 0. 0.
      0. 0. 0. 0. 2.00000009e-03 4.00000019e-03 0. 0. 0. 8.00000038e-03
      0. 0. 0. 2.00000009e-03 0. 0. 0. 1.20000001e-02 2.00000009e-03 0.
      0. 0. 0. 0. 2.00000009e-03 0. 0. 0. 0. 0. 0. 2.00000009e-03
      2.00000009e-03 0. 2.00000009e-03 0. 0. 0. 2.00000009e-03
      4.00000019e-03 0. 0. 2.00000009e-03 0. 0. 0. 2.00000009e-03
      2.00000009e-03 0. 0. 0. 0. 0. 0. 0. 2.00000009e-03 2.00000009e-03
      0. 2.00000009e-03 0. 4.00000019e-03 0. 2.00000009e-03
      2.00000009e-03 0. 0. 2.00000009e-03 0. 0. 2.00000009e-03
      4.00000019e-03 0. 0. 1.40000004e-02 0. 0. 0. 2.00000009e-03 0.
      6.00000005e-03 0. 2.00000009e-03 4.00000019e-03 0. 0. 0. 0. 0. 0.
      1.40000004e-02 0. 6.00000005e-03 0. 6.00000005e-03 0. 0.
      2.00000009e-03 0. 0. 0. 4.00000019e-03 0. 0. 2.00000009e-03 0. 0.
      0. 0. 0. 0. 0. 0. 0. 0. 0. 0. 0. 0. 0. 4.00000019e-03 0.
      4.00000019e-03 2.00000009e-03 6.00000005e-03 0. 4.00000019e-03
      6.00000005e-03 0. 0. 0. 0. 2.00000009e-03 4.00000019e-03 0. 0. 0.
      0. 0. 0. 4.00000019e-03 0. 4.00000019e-03 0. 0. 0. 0. 0. 0. 0. 0.
      0. 2.00000009e-03 2.00000009e-03 0. 0. 0. 0. 2.00000009e-03 0. 0.
      4.00000019e-03 0. 0. 0. 0. 0. 0. 0. 0. 0. 0. 0. 0. 4.00000019e-03
      0. 4.00000019e-03 0. 0. 0. 0. 2.00000009e-03 0. 2.00000009e-03
      2.00000009e-03 0. 0. 2.00000009e-03 0. 0. 0. 2.00000009e-03
      2.00000009e-03 0. 0. 2.00000009e-03 2.00000009e-03 2.00000009e-03
      0. 2.00000009e-03 0. 0. 0. 2.00000009e-03 2.00000009e-03
      4.00000019e-03 4.00000019e-03 6.00000005e-03 0. 0. 2.00000009e-03
      0. 4.00000019e-03 6.00000005e-03 6.00000005e-03 2.00000009e-03 0.
      2.00000009e-03 0. 2.00000014e-02 0. 0. 2.00000009e-03 0. 0. 0. 0.
      0. 2.00000009e-03 0. 2.00000009e-03 4.00000019e-03 0. 0. 0.
      2.00000009e-03 0. 0. 8.00000038e-03 2.00000009e-03 2.00000009e-03
      2.00000009e-03 0. 0. 0. 2.00000009e-03 0. 0. 2.00000009e-03
      2.00000009e-03 0. 2.00000009e-03 0. 2.00000009e-03 0.
      2.00000009e-03 0. 0. 8.00000038e-03 2.00000009e-03 0. 0. 0. 0. 0.
      4.00000019e-03 0. 4.00000019e-03 0. 0. 0. 2.00000009e-03 0. 0. 0.
      0. 0. 0. 0. 0. 0. 0. 0. 0. 0. 0. 0. 0. 0. 0. 0. 0. 0. 0. 0. 0.
      2.00000009e-03 0. 0. 0. 2.00000009e-03 0. 0. 0. 0. 0.
      2.00000009e-03 2.00000009e-03 0. 2.00000009e-03 2.00000009e-03 0.
      1.80000011e-02 0. 0. 4.00000019e-03 0. 0. 0. 0. 0. 0.
      1.20000001e-02 2.00000009e-03 0. 0. 2.00000009e-03 0. 0.
      2.00000009e-03 6.00000005e-03 0. 2.00000009e-03 0. 0.
      2.00000009e-03 2.00000009e-03 0. 0. 0. 0. 0. 2.00000009e-03
      2.00000009e-03 2.00000009e-03 0. 6.00000005e-03 4.00000019e-03 0.
      2.00000009e-03 0. 0. 0. 0. 0. 0. 0. 6.00000005e-03 0. 0. 0. 0. 0.
      1.00000007e-02 2.00000009e-03 0. 4.00000019e-03 0. 2.00000009e-03
      0. 0. 0. 4.00000019e-03 0. 0. 2.00000009e-03 0. 0. 0. 0. 0. 0.
      4.00000019e-03 0. 8.00000038e-03 0. 6.00000005e-03 0. 0.
      2.00000009e-03 0. 4.00000019e-03 0. 0. 0. 0. 0. 0. 0. 0.
      1.60000008e-02 0. 0. 0. 0. 2.00000009e-03 0. 2.00000009e-03
      2.00000009e-03 0. 0. 0. 2.00000009e-03 0. 0. 0. 0. 0. 0.
      2.00000009e-03 0. 0. 4.00000019e-03 6.00000005e-03 0.
      2.00000009e-03 2.00000009e-03 2.00000009e-03 0. 2.00000009e-03
      8.00000038e-03 0. 8.00000038e-03 0. 8.00000038e-03 0. 0. 0. 0. 0.
      0. 0. 8.00000038e-03 2.00000009e-03 0. 0. 0. 2.60000005e-02 0. 0.
      0. 0. 0. 0. 0. 2.00000009e-03 0. 0. 0. 0. 2.00000009e-03
      2.00000009e-03 0. 0. 0. 0. 2.00000009e-03 2.00000009e-03 0.
      2.00000009e-03 0. 0. 0. 0. 0. 0. 0. 0. 0. 0. 0. 2.00000009e-03 0.
      0. 0. 6.00000005e-03 0. 0. 0. 0. 0. 0. 0. 0. 4.00000019e-03 0.
      4.00000019e-03 0. 0. 0. 0. 4.00000019e-03 0. 0. 0. 0.
      2.00000009e-03 0. 0. 0. 0. 0. 0. 0. 4.00000019e-03 0.
      6.00000005e-03 6.00000005e-03 0. 0. 0. 0. 0. 2.00000009e-03 0. 0.
      2.00000009e-03 2.00000009e-03 0. 0. 2.00000009e-03 0. 0.
      2.00000009e-03 0. 0. 2.00000009e-03 0. 2.00000009e-03 0. 0. 0. 0.
      2.00000009e-03 2.00000009e-03 2.00000009e-03 0. 0. 0.
      2.00000009e-03 0. 0. 2.00000009e-03 2.00000009e-03 4.00000019e-03
      0. 2.00000009e-03 0. 0. 2.00000009e-03 2.00000009e-03 0. 0. 0.
      2.00000009e-03 1.60000008e-02 0. 0. 0. 0. 0. 0. 0. 2.00000009e-03
      2.00000009e-03 2.00000009e-03 0. 0. 0. 2.00000009e-03 0. 0. 0. 0.
      0. 1.00000007e-02 0. 0. 0. 2.00000009e-03 0. 8.00000038e-03 0. 0.
      0. 0. 4.00000019e-03 0. 0. 0. 0. 0. 0. 2.00000009e-03 0. 0. 0. 0.
      0. 2.00000009e-03 0. 2.00000009e-03 0. 0. 0. 0. 0. 0. 0. 0.
      1.40000004e-02 0. 4.00000019e-03 0. 4.00000019e-03 0.
      4.00000019e-03 0. 0. 0. 0. 0. 0. 0. 0. 0. 0. 0. 0. 0. 0. 0. 0. 0.
      0. 0. 2.00000009e-03 0. 0. 2.00000009e-03 0. 0. 0. 0. 0. 0.
      2.00000009e-03 0. 0. 0. 0. 2.00000009e-03 0. 0. 0. 0.
      2.00000009e-03 0. 0. 2.00000009e-03 0. 0. 2.00000009e-03 0. 0. 0.
      0. 2.00000009e-03 2.00000009e-03 0. 0. 0. 0. 0. 0. 0. 0.
      2.00000009e-03 2.00000009e-03 0. 0. 2.00000009e-03 4.00000019e-03
      0. 0. 0. 0. 0. 2.00000009e-03 0. 0. 0. 0. 0. 0. 0. 0. 0. 0. 0. 0.
      2.00000009e-03 0. 0. 0. 0. 0. 0. 0. 2.00000009e-03 2.00000009e-03
      6.00000005e-03 0. 0. 0. 0. 0. 0. 2.00000009e-03 0. 0. 0.
      2.00000009e-03 0. 0. 0. 2.00000009e-03 0. 2.00000009e-03 0.
      6.00000005e-03 2.00000009e-03 0. 0. 2.00000009e-03 0. 0. 0. 0. 0.
      0. 0. 0. 0. 0. 0. 0. 2.00000009e-03 0. 0. 0. 0. 0. 0. 0. 0.
